tree
version=v4
num_class=1
num_tree_per_iteration=1
label_index=0
max_feature_idx=7
objective=regression_l1
feature_names=ride_id_cat hour_of_day day_of_week month is_holiday is_holiday_weekend days_until_next_holiday days_since_last_holiday
feature_infos=-1:28:58:55:8:47:27:54:56:38:65:61:12:22:41:63:64:48:6:16:33:18:2:40:10:42:59:44:14:24:50:49:36:43:13:62:9:34:23:51:26:46:11:57:30:21:17:52:39:29:4:25:1:7:53:60:35 [0:23] [0:6] [5:6] [0:1] [0:1] [0:24] [0:35]
tree_sizes=2444 2795 2948 2977 3009 2996 3003 2984 3026 3049 3047 3024 3021 3019 2997 3032 3014 3007 3022 3039 3038 3038 3030 3033 3041 3012 3057 3030 3044 3029 3058 3038 3058 3049 3048 3053 3077 3072 3050 3050 3080 3089 3064 3093 3075 3050 3040 3064 3053 3081 3079 3092 3077 3096 3060 3087 3086 3083 3094 3106 3087 3035 3080 3079 3074 3059 3053 3073 3065 3066 3019 3090 3116 3063 3075 3048 3043 3042 3017 3050 3036 3018 3026 3022 3023 3046 3068 3048 3109 3063 2965 2990 3040 2919 3038 2991 3000 2987 2992 2972 2973 2988 3001 3040 3083 3001 3079 3005 2971 2965 2999 2976 2944 2975 2998 3106 2940 2959 3027 3021 3013 3014 2951 2987 3028 3031 3023 2935 3024 3022 3008 3039 3047 3060 2993 2984 2984 3051 3000 3051 2998 2945 3005 2950 2967 2969 3023 2968 2999 3003 2987 2948 3012 2983 3025 2999 3008 3002 2926 3000 2961 2950 2937 2919 2932 2941 2938 2937 2936 2938 2948 2983 3037 2972 2969 3017 3006 2999 3026 3031 3014 3043 3019 3026 3023 3019 2992 2963 3020 2995 2995 2976 2974 2994 2975 2984 2971 2986 3040 3031 3005 2998 2978 3007 3002 2990 2999 2998 2981 3016 2950 2980 2986 2976 2974 2978 2987 2976 2988 2967 2980 2960 3031 2974 2988 3016 3013 3017 2957 2956 2947 2949 2940 2942 2977 2978 2976 2993 2973 3004 2981 2985 3011 2957 2989 2953 2992 2981 2973 2953 2977 2953 2973 2955 2992 2958 2961 2954 2946 2951 2943 2958 2964 2946 2971 2957 2930 2936 3003 3042 3024 3071 2989 2948 3011 3013 2986 2970 2965 3019 3014 3009 2979 2947 2962 2995 2933 2930 2936 2924 2939 2941 2939 2962 2974 2971 2951 2969 2986 2969

Tree=0
num_leaves=31
num_cat=14
split_feature=0 0 1 1 0 0 0 1 1 0 7 7 0 1 0 1 3 0 3 1 1 0 0 0 7 0 0 1 7 2
split_gain=66863.4 6251.9 5635.2 6858.35 4354.09 3556.98 2402.32 1770.79 2125.29 1339.66 676.568 577.333 565.607 604.977 507.949 505.65 491.046 375.567 356.522 293.089 273.563 256.859 250.613 237.21 234.123 219.796 202.659 164.087 163.93 160.866
threshold=0 1 9.5000000000000018 20.500000000000004 2 3 4 19.500000000000004 9.5000000000000018 5 10.500000000000002 10.500000000000002 6 8.5000000000000018 7 8.5000000000000018 5.5000000000000009 8 5.5000000000000009 18.500000000000004 22.500000000000004 9 10 11 10.500000000000002 12 13 10.500000000000002 16.500000000000004 4.5000000000000009
decision_type=9 9 2 2 9 9 9 2 2 9 2 2 9 2 9 2 2 9 2 2 2 9 9 9 2 9 9 2 2 2
left_child=1 7 5 6 25 12 14 8 -1 10 18 16 -2 -14 19 -7 29 -17 27 28 22 -9 -6 -8 -16 -5 -3 -10 -4 -11
right_child=2 26 3 4 20 15 23 21 9 11 -12 -13 13 -15 24 17 -18 -19 -20 -21 -22 -23 -24 -25 -26 -27 -28 -29 -30 -31
leaf_value=19.25 21.25 19.5 20.5 20.5 20 19.25 20.75 19.75 19.75 20 20 19.75 19.75 20.5 20.5 19.25 20.25 20 20.75 19.75 19.5 19.5 19.5 21.25 20.25 21.5 19.25 20.25 20 19.75
leaf_weight=4335 2482 15756 3374 1742 2406 2666 9843 878 491 3935 5809 5694 1274 1617 8117 1162 1192 2265 1194 953 2027 6602 2690 40296 7277 3048 26017 4748 1006 1164
leaf_count=4335 2482 15756 3374 1742 2406 2666 9843 878 491 3935 5809 5694 1274 1617 8117 1162 1192 2265 1194 953 2027 6602 2690 40296 7277 3048 26017 4748 1006 1164
internal_value=20.0016 19.9673 20.0299 20.0345 19.9994 19.9971 20.0404 19.9826 19.9883 19.994 20.0057 19.9822 20.0267 20.0116 20.026 19.971 19.9926 19.9836 20.0168 20.0127 19.9746 19.9609 19.9808 20.0463 20.0307 20.0362 19.9542 20.0112 20.0182 19.9858
internal_weight=172060 77815 94245 82779 11913 11466 70866 36042 28562 24227 12242 11985 5373 2891 20727 6093 6291 3427 6433 5333 7123 7480 5096 50139 15394 4790 41773 5239 4380 5099
internal_count=172060 77815 94245 82779 11913 11466 70866 36042 28562 24227 12242 11985 5373 2891 20727 6093 6291 3427 6433 5333 7123 7480 5096 50139 15394 4790 41773 5239 4380 5099
cat_boundaries=0 2 4 7 10 12 14 16 18 20 21 24 26 29 31
cat_threshold=717566354 3170371008 138744064 146801664 69340164 1074201088 1 67112452 17236498 1 285343808 16826380 134283520 142606336 3072 459264 268435456 16384 19005440 20480 256 1073742336 33589266 2 2113536 6144 131076 1073741824 1 16 537395520
is_linear=0
shrinkage=1


Tree=1
num_leaves=31
num_cat=12
split_feature=0 0 0 1 1 1 1 1 1 0 0 0 0 0 7 0 1 0 2 2 6 1 0 2 7 1 0 6 2 2
split_gain=59118 6537.93 5904.96 3776.28 4802.76 1614.17 1562.84 1475.36 1687.61 1329.83 891.963 830.59 632.392 592.495 471.119 469.628 444.889 443.041 355.605 433.527 403.271 343.451 360.201 276.746 267.786 229.2 227.554 218.348 217.424 287.965
threshold=0 1 2 9.5000000000000018 19.500000000000004 8.5000000000000018 20.500000000000004 20.500000000000004 9.5000000000000018 3 4 5 6 7 10.500000000000002 8 9.5000000000000018 9 4.5000000000000009 1.5000000000000002 8.5000000000000018 20.500000000000004 10 5.5000000000000009 30.500000000000004 21.500000000000004 11 8.5000000000000018 4.5000000000000009 1.5000000000000002
decision_type=9 9 9 2 2 2 2 2 2 9 9 9 9 9 2 9 2 9 2 2 2 2 9 2 2 2 9 2 2 2
left_child=2 5 7 13 11 10 16 8 -1 -8 -2 -5 27 -3 -13 -4 17 -7 19 -14 -21 -6 -23 -20 -22 -11 -9 -10 29 -29
right_child=1 3 15 4 21 6 9 26 12 25 -12 14 18 -15 -16 -17 -18 -19 23 20 24 22 -24 -25 -26 -27 -28 28 -30 -31
leaf_value=-0.71250000000000002 0.9375 0 -0.47500000000000003 0.73750000000000004 0.012500000000000001 1.1875 1.175 -0.23750000000000002 -0.47500000000000003 0.25 -0.48750000000000004 0.47500000000000003 -0.012500000000000001 -0.71250000000000002 0.23750000000000002 -0.71250000000000002 1.4375 0.22500000000000001 -0.25 -0.012500000000000001 0.25 1.2250000000000001 -0.47500000000000003 0 -0.22500000000000001 -0.25 -0.72500000000000009 -0.25 -0.23750000000000002 0
leaf_weight=4335 1275 1636 15756 14278 2238 1829 3506 645 2959 1065 1412 8749 4673 3778 7926 26017 37675 1536 2332 1556 4682 330 5344 1981 753 1668 4673 1826 2077 3550
leaf_count=4335 1275 1636 15756 14278 2238 1829 3506 645 2959 1065 1412 8749 4673 3778 7926 26017 37675 1536 2332 1556 4682 330 5344 1981 753 1668 4673 1826 2077 3550
internal_value=0.00120946 0.0278394 -0.0310427 0.013842 0.019295 0.0402383 0.0423888 -0.016203 -0.0119988 0.0190736 0.00254931 0.0281814 -0.00724923 -0.0252771 0.0205574 -0.0438396 0.0459332 0.0285141 -0.000994558 0.00354081 0.0114218 -0.0154702 -0.0220127 -0.0132622 0.0178473 -0.007109 -0.0405228 -0.0168298 -0.0122836 -0.00697545
internal_weight=172060 94245 77815 44279 38865 49966 47279 36042 30724 6239 2687 30953 26389 5414 16675 41773 41040 3365 15977 11664 6991 7912 5674 4313 5435 2733 5318 10412 7453 5376
internal_count=172060 94245 77815 44279 38865 49966 47279 36042 30724 6239 2687 30953 26389 5414 16675 41773 41040 3365 15977 11664 6991 7912 5674 4313 5435 2733 5318 10412 7453 5376
cat_boundaries=0 2 5 7 9 11 14 16 18 20 22 23 24
cat_threshold=717566354 3170371008 1140854276 1107755538 1 138744064 146801664 67111940 459264 67111936 459264 2113536 16814088 2 4460544 4194304 64 16779268 16 537395520 3584 459280 2228224 256
is_linear=0
shrinkage=0.05


Tree=2
num_leaves=31
num_cat=12
split_feature=0 0 0 1 1 1 1 1 1 0 0 0 0 7 0 0 1 1 0 2 2 7 3 6 1 1 0 1 0 1
split_gain=58124.4 8300 4625.38 4076.12 4791.23 2064.43 2540.9 1114.22 1000.94 974.611 932.97 795.545 673.272 479.408 476.386 459.558 404.783 375.104 349.888 347.255 347.978 331.1 431.412 296.493 251.834 243.685 284.088 219.365 213.342 210.806
threshold=0 1 2 9.5000000000000018 19.500000000000004 20.500000000000004 9.5000000000000018 8.5000000000000018 20.500000000000004 3 4 5 6 10.500000000000002 7 8 18.500000000000004 20.500000000000004 9 3.5000000000000004 1.0000000180025095e-35 11.500000000000002 5.5000000000000009 20.500000000000004 8.5000000000000018 9.5000000000000018 10 8.5000000000000018 11 10.500000000000002
decision_type=9 9 9 2 2 2 2 2 2 9 9 9 9 2 9 9 2 2 9 2 2 2 2 2 2 2 9 2 9 2
left_child=2 5 7 14 11 6 -2 12 25 -10 19 29 -1 -13 27 -3 21 -6 -19 20 -8 22 -12 -22 -16 26 -9 -4 -7 -5
right_child=1 15 3 4 17 28 10 8 9 -11 16 13 -14 -15 24 -17 -18 18 -20 -21 23 -23 -24 -25 -26 -27 -28 -29 -30 -31
leaf_value=1.140625 -0.67687500000000012 -0.45124999999999993 -0.46250000000000002 0.42562499999999998 0.22437500000000005 -0.45124999999999993 -0.24937500000000004 0.21374999999999994 -0.012500000000000001 1.11625 0.22500000000000001 0.45124999999999993 -0.28437499999999999 0.22562499999999996 -0.67687500000000012 -0.67687500000000012 -0.23750000000000002 -0.20124999999999993 -0.45124999999999993 -0.22624999999999995 0.00062499999999996456 0 0.70000000000000007 -0.25 -0.42687500000000012 1.3656250000000001 1.128125 0.22500000000000001 -0.68874999999999997 0.92562500000000003
leaf_weight=1105 5162 15756 712 1421 1926 1292 1872 1141 1964 3506 6952 8788 1271 7900 1592 26105 3334 2404 3262 5443 4732 6562 1895 932 2040 32998 1829 936 4785 12443
leaf_count=1105 5162 15756 712 1421 1926 1292 1872 1141 1964 3506 6952 8788 1271 7900 1592 26105 3334 2404 3262 5443 4732 6562 1895 932 2040 32998 1829 936 4785 12443
internal_value=0.00154452 -0.0279258 0.0301984 0.0186225 0.0243262 -0.0124793 -0.00803329 0.0416644 0.0435832 0.0236563 -0.00273942 0.0331599 0.00837542 0.0257456 -0.0225473 -0.0437713 0.00439663 -0.0112223 -0.0177021 -0.013038 -0.0060974 0.00781686 0.0141291 7.94492e-05 -0.0326194 0.0466137 0.0328956 -0.000150784 -0.0394849 0.0420355
internal_weight=172060 84822 87238 43424 38144 42961 36884 43814 41438 5470 31722 30552 2376 16688 5280 41861 18743 7592 5666 12979 7536 15409 8847 5664 3632 35968 2970 1648 6077 13864
internal_count=172060 84822 87238 43424 38144 42961 36884 43814 41438 5470 31722 30552 2376 16688 5280 41861 18743 7592 5666 12979 7536 15409 8847 5664 3632 35968 2970 1648 6077 13864
cat_boundaries=0 3 5 8 11 13 16 18 20 22 25 28 29
cat_threshold=1159876164 1124571678 3 407179520 146818048 67112452 1074201106 1 512 1073741842 1 4460544 4195328 1075855360 33558536 2 3072 459264 64 16779276 16 537395520 2228224 33589248 2 67108868 1073741826 1 268435712
is_linear=0
shrinkage=0.05


Tree=3
num_leaves=31
num_cat=12
split_feature=0 0 0 1 1 1 1 1 1 0 0 0 0 7 0 1 0 7 3 2 2 0 0 1 6 7 7 1 1 0
split_gain=58309.2 8168.28 4712.87 3381.98 3886.07 2026.52 2495.78 1656.23 1578.29 1345.58 913.803 836.3 511.054 479.408 459.558 437.949 435.06 404.096 409.535 341.343 366.784 327.183 309.973 275.049 250.657 279.491 248.497 241.382 217.385 213.342
threshold=0 1 2 9.5000000000000018 19.500000000000004 20.500000000000004 9.5000000000000018 8.5000000000000018 20.500000000000004 3 4 5 6 10.500000000000002 7 9.5000000000000018 8 10.500000000000002 5.5000000000000009 4.5000000000000009 1.0000000180025095e-35 9 10 20.500000000000004 5.5000000000000009 16.500000000000004 29.500000000000004 8.5000000000000018 10.500000000000002 11
decision_type=9 9 9 2 2 2 2 2 2 9 9 9 9 2 9 2 9 2 2 2 2 9 9 2 2 2 2 2 2 9
left_child=2 5 3 21 12 6 -2 10 15 -10 -4 17 28 -14 -3 16 -9 18 -8 20 -13 -1 -6 -24 -22 -26 -27 -23 -5 -7
right_child=1 14 7 4 22 29 11 8 9 -11 -12 19 13 -15 -16 -17 -18 -19 -20 -21 24 27 23 -25 25 26 -28 -29 -30 -31
leaf_value=-0.011250000000000072 -0.64303125000000017 -0.42868749999999989 1.0835937500000001 0.40434375 -0.024343749999999886 -0.42868749999999989 0.21374999999999994 1.0717187500000001 1.0604374999999999 -0.03687500000000004 -0.44890624999999995 -0.24812500000000012 0.42868749999999989 0.21434374999999994 -0.64303125000000017 1.29734375 0.2030624999999999 -0.011875000000000037 0.66500000000000004 -0.21431249999999996 -0.22628124999999991 -0.64303125000000017 0.20065625000000012 -0.42868749999999989 0.012468750000000028 -0.46250000000000002 -3.1249999999971581e-05 -0.29303125000000013 0.87934374999999998 -0.65431250000000007
leaf_weight=1251 5162 15756 1105 967 3133 1292 6899 1829 3506 2733 1582 2263 8788 7900 26105 37675 1536 7580 1578 4258 1139 1441 993 2533 6147 744 1114 1882 8384 4785
leaf_count=1251 5162 15756 1105 967 3133 1292 6899 1829 3506 2733 1582 2263 8788 7900 26105 37675 1536 7580 1578 4258 1139 1441 993 2533 6147 744 1114 1882 8384 4785
internal_value=0.00146519 -0.0280519 0.0301646 0.0166971 0.0223347 -0.0127284 -0.00832339 0.0402053 0.0423835 0.0189534 0.00202828 -0.00307673 0.0310515 0.0257456 -0.0437713 0.0459454 0.0286627 0.00494181 0.0124454 -0.0112919 -0.00678969 -0.023568 -0.011751 -0.0218891 -0.0023294 0.000793254 -0.0162002 -0.0317282 0.0404497 -0.0394849
internal_weight=172060 84822 87238 37272 32698 42961 36884 49966 47279 6239 2687 31722 26039 16688 41861 41040 3365 16057 8477 15665 11407 4574 6659 3526 9144 8005 1858 3323 9351 6077
internal_count=172060 84822 87238 37272 32698 42961 36884 49966 47279 6239 2687 31722 26039 16688 41861 41040 3365 16057 8477 15665 11407 4574 6659 3526 9144 8005 1858 3323 9351 6077
cat_boundaries=0 3 5 8 10 12 14 17 19 21 23 26 27
cat_threshold=1159876164 1124571678 3 407179520 146818048 19021888 16816140 2 67111940 459264 3072 459264 268501248 142622720 2113536 4104 2 16 537395520 3584 459280 0 16779276 2244608 34816 2 268435712
is_linear=0
shrinkage=0.05


Tree=4
num_leaves=31
num_cat=13
split_feature=0 0 1 1 0 0 1 1 0 0 1 7 0 0 0 1 1 0 7 1 1 0 2 2 2 6 0 1 1 0
split_gain=55969.4 8097.22 4118.61 4761.36 3003.02 2920.56 2007.17 2472.75 1890.23 959.222 622 483.878 458.57 410.311 386.306 363.328 379.151 348.69 299.75 287.62 233.599 230.69 218.267 349.184 273.564 274.178 213.342 209.312 204.073 201.354
threshold=0 1 9.5000000000000018 20.500000000000004 2 3 20.500000000000004 9.5000000000000018 4 5 8.5000000000000018 10.500000000000002 6 7 8 18.500000000000004 10.500000000000002 9 10.500000000000002 22.500000000000004 10.500000000000002 10 4.5000000000000009 5.5000000000000009 1.5000000000000002 8.5000000000000018 11 8.5000000000000018 19.500000000000004 12
decision_type=9 9 2 2 9 9 2 2 9 9 2 2 9 9 9 2 2 9 2 2 2 9 2 2 2 2 9 2 2 9
left_child=2 6 5 8 -5 21 7 -2 11 18 -7 -4 -3 19 -12 16 29 -10 -9 -6 -19 -1 24 -24 -18 -26 -8 -23 -22 -11
right_child=1 12 3 4 13 10 26 9 17 15 14 -13 -14 -15 -16 -17 22 20 -20 -21 28 27 23 -25 25 -27 -28 -29 -30 -31
leaf_value=1.2681328125000002 -0.61087968750000021 -0.40725312499999994 0.40725312499999994 1.0074156249999999 0.035029687500000149 -0.61087968750000021 -0.40725312499999994 -0.0018109374999999873 1.7324765624999998 0.013093749999999994 -0.39087968750000024 0.20362656249999989 -0.61087968750000021 -0.40725312499999994 0.19290937499999983 -0.22503124999999999 0.0012187499999999575 0.48247656249999998 -0.22618593750000004 -0.28997031249999988 0.98247656250000004 0.029414062500000074 -0.23690625000000001 0.21371874999999996 0.00068906249999987077 0.45306249999999992 -0.62159687500000005 0.5181328125000001 0.48247656249999998 -0.50881250000000022
leaf_weight=2065 5162 15756 9411 3836 2628 2859 1292 6862 17702 744 1797 8376 26105 3540 1858 3334 4000 2823 6117 1132 24963 901 1995 1716 1323 4646 4785 1146 2201 985
leaf_count=2065 5162 15756 9411 3836 2628 2859 1292 6862 17702 744 1797 8376 26105 3540 1858 3334 4000 2823 6117 1132 24963 901 1995 1716 1323 4646 4785 1146 2201 985
internal_value=0.000805533 -0.0281132 0.0289233 0.0329726 0.00274784 -0.000244683 -0.0128563 -0.00847251 0.0381132 -0.00325011 -0.0210607 0.0241529 -0.0437642 -0.0160739 -0.00742818 0.00398603 0.0072263 0.0433059 -0.0136924 -0.00453581 0.0399423 0.0327026 0.0100146 -0.000336836 0.013868 0.0206483 -0.0394849 0.0205396 0.0413783 -0.0148352
internal_weight=172060 84822 87238 76612 11136 10626 42961 36884 65476 31722 6514 17787 41861 7300 3655 18743 15409 47689 12979 3760 29987 4112 13680 3711 9969 5969 6077 2047 27164 1729
internal_count=172060 84822 87238 76612 11136 10626 42961 36884 65476 31722 6514 17787 41861 7300 3655 18743 15409 47689 12979 3760 29987 4112 13680 3711 9969 5969 6077 2047 27164 1729
cat_boundaries=0 3 5 7 9 11 13 15 18 20 22 24 25 26
cat_threshold=1159876164 1124571678 3 407179520 146818048 69340164 459264 67112448 17236496 16908352 16812036 4460544 4195328 16 537395520 1073741824 1107331074 3 1092747264 1107333120 3072 33882640 2048 459264 268435712 268501248
is_linear=0
shrinkage=0.05


Tree=5
num_leaves=31
num_cat=11
split_feature=0 0 0 1 1 1 1 1 1 0 0 1 0 7 2 0 7 6 0 0 2 1 2 0 7 2 6 0 7 6
split_gain=54820.4 6388.87 5313.76 2525.37 3493.81 2459.74 2103.12 1612.94 1842.82 1303.81 1218.88 765.755 634.336 624.622 616.225 469.628 452.15 443.06 414.92 342.589 339.92 282.82 282.327 292.102 267.43 337.275 241.28 238.403 237.137 265.814
threshold=0 1 2 19.500000000000004 9.5000000000000018 8.5000000000000018 20.500000000000004 20.500000000000004 9.5000000000000018 3 4 9.5000000000000018 5 11.500000000000002 4.5000000000000009 6 10.500000000000002 5.5000000000000009 7 8 1.0000000180025095e-35 22.500000000000004 5.5000000000000009 9 14.500000000000002 3.5000000000000004 12.500000000000002 10 11.500000000000002 8.5000000000000018
decision_type=9 9 9 2 2 2 2 2 2 9 9 2 9 2 2 9 2 2 9 9 2 2 2 9 2 2 2 9 2 2
left_child=1 7 3 4 18 10 11 8 -1 -8 -4 12 -7 -6 16 -3 17 -10 -2 -13 -19 -11 23 -16 -18 -26 -24 -22 -21 -30
right_child=2 15 5 -5 13 6 9 -9 14 21 -12 19 -14 -15 22 -17 24 20 -20 28 27 -23 26 -25 25 -27 -28 -29 29 -31
leaf_value=-0.58033570312500016 -0.020332968750000013 -0.38689046874999988 0.71600742187500011 -0.29455789062499987 0.41844523437499997 0.91700273437499991 1.2070448437500001 -0.59051703124999999 -0.21487664062499992 0.013217265624999898 -0.58033570312500016 1.895852734375 0.019484609374999809 0.20303281250000005 -0.010060937499999945 -0.58033570312500016 -0.24884218750000003 -0.21027812499999998 -0.58033570312500016 0.93335273437499999 6.0859374999999716e-05 -0.2754717968749999 0.046493671874999976 -0.44166257812500015 0.010654609374999957 -0.24943593750000004 -0.20127968749999994 0.23693585937500006 0.41785273437500003 0.68335273437499999
leaf_weight=4335 1648 15756 1448 6285 13693 2047 3249 5318 1736 2948 1804 15383 2017 10149 791 26017 2570 1274 2502 17095 3296 1210 1279 3088 3978 1294 1995 5088 3742 9025
leaf_count=4335 1648 15756 1448 6285 13693 2047 3249 5318 1736 2948 1804 15383 2017 10149 791 26017 2570 1274 2502 17095 3296 1210 1279 3088 3978 1294 1995 5088 3742 9025
internal_value=0.000528304 -0.0305294 0.0261721 0.0104602 0.0168941 0.0351496 0.0375802 -0.0150949 -0.0106985 0.012738 -0.00713407 0.0413119 0.0205217 0.0242639 -0.00573534 -0.0438396 -0.00107611 0.00528348 -0.0254458 0.0431794 0.00946366 -0.00583013 -0.0182651 -0.0273911 -0.0103162 -0.0038695 -0.00745266 0.0131202 0.0399705 0.0348281
internal_weight=172060 77815 94245 34277 27992 59968 56716 36042 30724 7407 3252 49309 4064 23842 26389 41773 19236 11394 4150 45245 9658 4158 7153 3879 7842 5272 3274 8384 29862 12767
internal_count=172060 77815 94245 34277 27992 59968 56716 36042 30724 7407 3252 49309 4064 23842 26389 41773 19236 11394 4150 45245 9658 4158 7153 3879 7842 5272 3274 8384 29862 12767
cat_boundaries=0 2 4 6 8 10 12 14 16 18 19 21
cat_threshold=717566354 3170371008 138744064 146801664 285343808 16832524 69209092 328192 67111936 459280 67112448 459280 16 537395520 64 16779276 3072 328208 134217984 4198400 4195328
is_linear=0
shrinkage=0.05


Tree=6
num_leaves=31
num_cat=14
split_feature=0 0 0 1 1 1 1 1 1 0 0 1 7 0 0 0 0 0 1 0 0 2 2 0 2 1 0 7 6 6
split_gain=53538.8 5964.89 5596.54 2727.32 3430.85 2570.41 2180.2 1777.31 1719.67 1247.53 1144.68 781.148 707.609 597.761 545.429 469.628 457.513 416.905 403.144 372.211 330.089 298.034 293.219 291.289 263.026 251.607 262.928 237.859 310.84 368.302
threshold=0 1 2 9.5000000000000018 19.500000000000004 8.5000000000000018 20.500000000000004 19.500000000000004 9.5000000000000018 3 4 9.5000000000000018 11.500000000000002 5 6 7 8 9 22.500000000000004 10 11 3.5000000000000004 1.5000000000000002 12 4.5000000000000009 20.500000000000004 13 11.500000000000002 8.5000000000000018 2.5000000000000004
decision_type=9 9 9 2 2 2 2 2 2 9 9 2 2 9 9 9 9 9 2 9 9 2 2 9 2 2 9 2 2 2
left_child=2 3 7 16 12 10 11 8 -1 -8 -3 13 20 -7 24 -4 -2 -13 -11 -14 -5 22 -16 -12 -10 -6 -27 -19 29 -29
right_child=1 5 15 4 25 6 9 -9 14 18 23 17 19 -15 21 -17 -18 27 -20 -21 -22 -23 -24 -25 -26 26 -28 28 -30 -31
leaf_value=-0.5513189179687501 -0.019316320312499968 0.93020705078125021 -0.3675459453124999 0.42252297265625 -0.029829996093749856 -0.23148962109375015 1.8966926015625001 -0.46306718359375004 0.025412421875000035 0.14669260156249991 -0.1169001679687499 1.8010600976562501 -0.012416871093750004 0.68228967578124999 -0.20202054687499996 -0.5513189179687501 -0.5513189179687501 0.88668509765625003 -0.26169820703124991 0.30110109375000005 0.36596820703124994 -0.23922343359375003 0.011964066406249963 -0.5513189179687501 -0.16957944921875009 -0.16074390234374986 -0.37216257421874988 0.66246009765625002 0.64918509765624999 0.16246009765624994
leaf_weight=3895 1648 920 15756 8223 2012 1308 2088 6602 8897 3788 1266 15383 3106 2756 2773 26017 2942 17095 1531 8085 6876 4018 2800 1066 3291 1859 3292 1445 9025 2297
leaf_count=3895 1648 920 15756 8223 2012 1308 2088 6602 8897 3788 1266 15383 3106 2756 2773 26017 2942 17095 1531 8085 6876 4018 2800 1066 3291 1859 3292 1445 9025 2297
internal_value=0.000331861 0.0245738 -0.0317537 0.00908076 0.0140421 0.0343993 0.0368838 -0.016103 -0.0101581 0.0115904 -0.00882534 0.0406832 0.0224002 0.019685 -0.00468571 -0.0438396 -0.0270588 0.0425693 -0.00130418 0.012872 0.0294622 -0.0135975 -0.00612776 -0.0274125 0.00233645 -0.0166341 -0.0224908 0.0390466 0.033896 0.0217798
internal_weight=172060 98011 74049 38043 33453 59968 56716 32276 25674 7407 3252 49309 26290 4064 21779 41773 4590 45245 5319 11191 15099 9591 5573 2332 12188 7163 5151 29862 12767 3742
internal_count=172060 98011 74049 38043 33453 59968 56716 32276 25674 7407 3252 49309 26290 4064 21779 41773 4590 45245 5319 11191 15099 9591 5573 2332 12188 7163 5151 29862 12767 3742
cat_boundaries=0 2 4 6 8 10 13 15 17 19 21 23 25 28 30
cat_threshold=717566098 3170371008 285344064 16832524 138743808 146801664 69208064 328192 2048 459264 1075855360 1107296256 2 134283264 142607360 16 537395520 64 16779276 3072 328208 268435712 16384 16777280 16816128 67110404 18 1 131328 34816
is_linear=0
shrinkage=0.05


Tree=7
num_leaves=31
num_cat=13
split_feature=0 0 0 1 1 1 1 1 1 0 0 0 0 7 0 1 0 0 0 1 1 7 3 1 7 3 0 0 7 6
split_gain=53003.1 6507.99 5067.4 4060.85 4554.2 1646.91 1881.14 1322.72 1377.5 935.753 769.012 746.601 617.13 509.374 469.628 386.105 367.677 357.374 315.803 391.35 292.37 275.812 318.577 270.949 248.261 394.851 228.2 227.554 209.411 206.46
threshold=0 1 2 9.5000000000000018 19.500000000000004 20.500000000000004 9.5000000000000018 8.5000000000000018 20.500000000000004 3 4 5 6 10.500000000000002 7 8.5000000000000018 8 9 10 10.500000000000002 20.500000000000004 10.500000000000002 5.5000000000000009 22.500000000000004 11.500000000000002 5.5000000000000009 11 12 16.500000000000004 8.5000000000000018
decision_type=9 9 9 2 2 2 2 2 2 9 9 9 9 2 9 2 9 9 9 2 2 2 2 2 2 2 9 9 2 2
left_child=1 5 7 15 11 6 -1 10 18 -10 -2 28 24 -13 -3 26 -6 -17 -9 -20 -18 22 -14 -11 25 -8 -4 -7 -5 -23
right_child=2 14 3 4 16 27 12 8 9 23 -12 13 21 -15 -16 17 20 -19 19 -21 -22 29 -24 -25 -26 -27 -28 -29 -30 -31
leaf_value=-0.52375297207031257 0.88369669824218777 -0.34916864804687492 -0.156286051171875 0.69525084277343741 -0.075586657226562437 -0.12370242207031268 0.015208769335937511 1.7110070927734373 1.801857971484375 0.20522177226562502 -0.27913700332031227 0.34766979667968734 -0.17017765253906242 0.16823853906250008 -0.52375297207031257 -0.52375297207031257 -0.0283384962890624 -0.0042614417968749761 0.36735084277343744 0.82685084277343757 -0.35355444550781245 -0.39636827753906251 0.23628719531249998 -0.16281009355468756 -0.037579914062500032 0.37860602343750005 -0.52375297207031257 -0.53783782050781248 0.39323853906250011 -0.18951921484375003
leaf_weight=4335 920 15756 392 12698 3592 645 6098 16752 1923 2816 1619 8749 5572 7926 26017 1162 1469 2088 3656 18080 3310 1902 1290 1126 5669 1643 2114 4673 3853 4215
leaf_count=4335 920 15756 392 12698 3592 645 6098 16752 1923 2816 1619 8749 5572 7926 26017 1162 1469 2088 3656 18080 3310 1902 1290 1126 5669 1643 2114 4673 3853 4215
internal_value=0.000132512 -0.030406 0.0253477 0.013803 0.0192526 -0.0148286 -0.010386 0.0370006 0.0390177 0.016445 0.0019102 0.0275567 -0.00537156 0.020045 -0.0438396 -0.0255559 -0.013708 -0.0141846 0.0424574 0.0383703 -0.0227709 -0.013138 -0.00626639 0.00242915 0.0021535 0.00797701 -0.0403033 -0.0405228 0.0350915 -0.0208681
internal_weight=172060 77815 94245 47353 41597 36042 30724 46892 44353 5865 2539 33226 26389 16675 41773 5756 8371 3250 38488 21736 4779 12979 6862 3942 13410 7741 2506 5318 16551 6117
internal_count=172060 77815 94245 47353 41597 36042 30724 46892 44353 5865 2539 33226 26389 16675 41773 5756 8371 3250 38488 21736 4779 12979 6862 3942 13410 7741 2506 5318 16551 6117
cat_boundaries=0 2 4 7 9 11 14 16 18 21 23 25 27 28
cat_threshold=717566354 3170371008 138744064 146801664 67112452 1107755538 1 67110912 328192 2048 459264 1075855360 16814088 2 134283520 142606336 16 537395520 1075986432 34816 2 19005440 20480 3072 328208 0 16779264 256
is_linear=0
shrinkage=0.05


Tree=8
num_leaves=31
num_cat=14
split_feature=0 0 1 1 0 1 0 0 1 0 0 1 0 7 7 3 0 7 0 1 0 1 7 3 0 7 0 6 6 0
split_gain=46862.8 7497.96 4086.27 5336.63 2600.51 2425.06 2202.69 1741.49 1704.04 800.316 752.957 586.382 553.886 535.342 463.633 408.041 386.75 371.946 338.935 332.936 321.885 316.772 313.212 462.622 289.343 286.177 265.157 256.626 285.551 248.921
threshold=0 1 20.500000000000004 9.5000000000000018 2 19.500000000000004 3 4 10.500000000000002 5 6 8.5000000000000018 7 10.500000000000002 11.500000000000002 5.5000000000000009 8 10.500000000000002 9 8.5000000000000018 10 22.500000000000004 10.500000000000002 5.5000000000000009 11 11.500000000000002 12 8.5000000000000018 2.5000000000000004 13
decision_type=9 9 2 2 9 2 9 9 2 9 9 2 9 2 2 2 9 2 9 2 9 2 2 2 9 2 9 2 2 9
left_child=2 5 3 4 26 8 24 13 10 17 19 -6 -3 -5 15 -11 -7 -10 -9 -2 -13 -8 23 -14 -4 -20 -1 28 -27 -25
right_child=1 12 6 7 11 16 21 18 9 14 -12 20 22 -15 -16 -17 -18 -19 25 -21 -22 -23 -24 29 -26 27 -28 -29 -30 -31
leaf_value=1.0895118633300784 -0.49756532346679699 -0.49756532346679699 1.9617650729101563 0.33028630684570293 -0.49756532346679699 -0.19676836834960929 -0.16132381674804661 1.3754567381347655 -0.0015766216796874845 0.122647400595703 -0.49756532346679699 -0.35203989998046892 -0.33171021564453124 0.1598266121093751 -0.011325918359374932 0.42095384726562524 -0.46437149696777341 -0.21850036367187509 0.80100830063476547 -0.0045992956933592847 0.072788166425781148 -0.3358767232324219 -0.49756532346679699 0.0024346765332030175 0.41791801659179684 0.58799455063476547 0.2945135638867189 0.5753833006347655 0.11299455063476548 -0.33171021564453124
leaf_weight=1657 1199 14085 1485 10656 2859 1759 4746 17892 4523 7984 3976 1182 11828 9491 7415 2130 6950 4085 15701 2940 2473 2022 13115 1242 2883 1309 2455 8389 2038 1591
leaf_count=1657 1199 14085 1485 10656 2859 1759 4746 17892 4523 7984 3976 1182 11828 9491 7415 2130 6950 4085 15701 2940 2473 2022 13115 1242 2883 1309 2455 8389 2038 1591
internal_value=0.0014524 -0.0250094 0.0271811 0.0313237 -0.00154338 -0.0103291 -0.00110453 0.0366577 -0.00434135 0.00187282 -0.0243561 -0.0211833 -0.0400695 0.0243811 0.00800217 0.0149693 -0.0338902 -0.0106057 0.0420995 -0.0093396 -0.00794802 -0.0189584 -0.0359174 -0.0309085 0.0265418 0.038527 0.0295488 0.0326346 0.0209292 -0.0127603
internal_weight=172060 84822 87238 76102 10626 42961 11136 65476 34252 26137 8115 6514 41861 20147 17529 10114 8709 8608 45329 4139 3655 6768 27776 14661 4368 27437 4112 11736 3347 2833
internal_count=172060 84822 87238 76102 10626 42961 11136 65476 34252 26137 8115 6514 41861 20147 17529 10114 8709 8608 45329 4139 3655 6768 27776 14661 4368 27437 4112 11736 3347 2833
cat_boundaries=0 3 5 7 10 12 14 16 18 19 22 24 26 28 30
cat_threshold=1159876164 1124571678 3 407179520 146818048 67112448 17236496 69340164 1074070016 1 19005504 16812036 4460544 4194304 268763392 4195328 536871042 2419064960 268435712 3072 328208 1 19005440 36864 2097152 328192 2048 458752 8208 67109120
is_linear=0
shrinkage=0.05


Tree=9
num_leaves=31
num_cat=14
split_feature=0 0 1 1 0 0 0 1 1 7 0 3 0 7 0 0 1 1 0 1 0 1 0 7 3 0 7 6 6 0
split_gain=45907.7 7961.67 4098.11 4996.05 2469.14 2161.11 1684.53 1552.83 1587.53 768.089 711.365 581.368 555.885 533.186 518.314 478.625 415.742 394.03 368.1 342.637 336.087 332.936 329.266 310.523 462.622 310.241 258.681 254.712 288.609 248.921
threshold=0 1 9.5000000000000018 20.500000000000004 2 3 4 19.500000000000004 10.500000000000002 10.500000000000002 5 5.5000000000000009 6 10.500000000000002 7 8 8.5000000000000018 8.5000000000000018 9 22.500000000000004 10 8.5000000000000018 11 10.500000000000002 5.5000000000000009 12 11.500000000000002 8.5000000000000018 2.5000000000000004 13
decision_type=9 9 2 2 9 9 9 2 2 2 9 2 9 2 9 9 2 2 9 2 9 2 9 2 2 9 2 2 2 9
left_child=2 7 4 6 14 25 13 8 10 11 21 22 -3 -4 -1 -11 -6 -16 -8 -7 -9 -2 -10 24 -14 -5 -20 28 -28 -26
right_child=1 12 3 5 16 19 18 20 9 15 -12 -13 23 -15 17 -17 -18 -19 26 -21 -22 -23 -24 -25 29 -27 27 -29 -30 -31
leaf_value=0.98473560356201184 -0.47268705729345717 -0.47268705729345717 0.31377199150341772 1.8636768192646487 -0.47268705729345717 -0.18211118352783179 1.5566839012280274 -0.20148841086962899 0.26357710537060547 -0.17557736462890627 -0.47268705729345717 0.45253451818359375 -0.31512470486230471 0.15183528150390641 -0.072220043230956862 0.0017997525585938591 -0.22334147627050793 0.34948551853417986 0.76095788560302724 -0.35967598703173814 -0.48772735463403322 -0.0043693309086912718 -0.0084292108403321471 -0.47268705729345717 0.0023129427065428309 0.19685445261474632 0.55859482310302722 0.5466141356030273 0.10734482310302713 -0.31512470486230471
leaf_weight=2065 1199 14085 10656 1811 2301 4493 15383 2597 3772 5097 3976 2540 11828 9565 1459 7265 2952 1849 17155 1853 6112 2940 7463 13115 1242 2979 1434 9053 2230 1591
leaf_count=2065 1199 14085 10656 1811 2301 4493 15383 2597 3772 5097 3976 2540 11828 9565 1459 7265 2952 1849 17155 1853 6112 2940 7463 13115 1242 2979 1434 9053 2230 1591
internal_value=0.00165407 -0.0245367 0.0271192 0.0311583 -0.00197628 0.000197557 0.036424 -0.00940983 -0.00461871 0.00137927 -0.0239372 0.00949909 -0.0400552 0.0243809 0.0218373 -0.00766866 -0.0263253 0.00949367 0.0417906 -0.018927 -0.0282639 -0.0093396 0.00461504 -0.0358958 -0.0309085 0.0255208 0.0384847 0.0330935 0.0219705 -0.0127603
internal_weight=172060 84822 87238 76612 10626 11136 65476 42961 34252 26137 8115 13775 41861 20221 5373 12362 5253 3308 45255 6346 8709 4139 11235 27776 14661 4790 29872 12717 3664 2833
internal_count=172060 84822 87238 76612 10626 11136 65476 42961 34252 26137 8115 13775 41861 20221 5373 12362 5253 3308 45255 6346 8709 4139 11235 27776 14661 4790 29872 12717 3664 2833
cat_boundaries=0 3 5 8 11 13 15 17 19 21 23 25 27 29 31
cat_threshold=1159876164 1124571678 3 407179520 146818048 67112452 17236498 1 69340164 1074201088 1 19005504 16812044 268763392 4195328 536871042 2419064960 2048 459264 4460544 4195328 3072 328208 268435712 4194304 268435456 142622720 69206016 328192 8208 67109120
is_linear=0
shrinkage=0.05


Tree=10
num_leaves=31
num_cat=13
split_feature=0 0 1 1 0 0 1 1 0 7 0 3 0 0 0 7 1 0 1 1 0 1 0 1 7 3 1 0 6 3
split_gain=43316.1 7945.94 3595.44 4674.15 2268.05 2113.62 1547.85 1571.21 1517.41 756.441 705.348 588.422 555.885 478.625 454.255 419.786 400.58 364.245 353.357 352.977 336.087 332.936 312.19 310.98 310.523 462.622 289.55 289.343 264.613 480.017
threshold=0 1 9.5000000000000018 20.500000000000004 2 3 19.500000000000004 10.500000000000002 4 10.500000000000002 5 5.5000000000000009 6 7 8 10.500000000000002 8.5000000000000018 9 22.500000000000004 8.5000000000000018 10 8.5000000000000018 11 19.500000000000004 10.500000000000002 5.5000000000000009 10.500000000000002 12 8.5000000000000018 5.5000000000000009
decision_type=9 9 2 2 9 9 2 2 9 2 9 2 9 9 9 2 2 9 2 2 9 2 9 2 2 2 2 9 2 2
left_child=2 6 4 8 14 27 7 10 15 11 21 22 -3 -11 -1 -4 -16 -10 -7 -6 -8 -2 -9 26 25 -14 -19 -5 29 -17
right_child=1 12 3 5 19 18 20 9 17 13 -12 -13 24 -15 16 28 -18 23 -20 -21 -22 -23 -24 -25 -26 -27 -28 -29 -30 -31
leaf_value=0.73579948998547406 -0.44905270442878431 -0.44905270442878431 0.29525565364699702 1.7704929783014163 -0.44905270442878431 -0.14415206673425268 -0.1914139903261475 0.25039825010207528 1.9788497061666259 -0.16679849639746092 -0.44905270442878431 0.42990779227441406 -0.29936846961918945 0.0017097649306641927 -0.21660111214606914 0.18189145595410158 0.15840144179692361 0.31725842882287608 -0.3010990877192139 -0.23075501668549805 -0.4633409869023315 -0.0041508643632567127 -0.0080077502983154861 0.3780360567135011 -0.44905270442878431 -0.081947596606518402 0.72884970616662592 0.37046470529943837 0.19610774189160179 -0.14802241805212421
leaf_weight=2886 1199 14085 11983 1485 2141 4746 2597 3772 10307 5097 3976 2540 11828 7265 1261 2192 1623 3023 2022 2715 6112 2940 7463 2642 13115 2833 26798 2883 7437 1094
leaf_count=2886 1199 14085 11983 1485 2141 4746 2597 3772 10307 5097 3976 2540 11828 7265 1261 2192 1623 3023 2022 2715 6112 2940 7463 2642 13115 2833 26798 2883 7437 1094
internal_value=0.000888643 -0.0245521 0.0256247 0.0294079 -0.00162808 -0.000538793 -0.00944009 -0.00465666 0.0345012 0.0013104 -0.0238755 0.00936842 -0.0400552 -0.00766866 0.0195502 0.0240139 0.00545957 0.0400538 -0.0180289 -0.0267776 -0.0282639 -0.0093396 0.00445483 0.0373988 -0.0358958 -0.0309085 0.0388669 0.0265418 0.0168376 0.0050213
internal_weight=172060 84822 87238 76612 10626 11136 42961 34252 65476 26137 8115 13775 41861 12362 5770 22706 2884 42770 6768 4856 8709 4139 11235 32463 27776 14661 29821 4368 10723 3286
internal_count=172060 84822 87238 76612 10626 11136 42961 34252 65476 26137 8115 13775 41861 12362 5770 22706 2884 42770 6768 4856 8709 4139 11235 32463 27776 14661 29821 4368 10723 3286
cat_boundaries=0 3 5 8 11 13 15 17 19 21 23 25 27 29
cat_threshold=1159876164 1124571678 3 407179520 146818048 67112516 17236498 1 69340164 1074070016 1 19005504 16943116 268763392 4195328 536871042 2419064960 4460544 4195328 3072 459280 2048 328192 268435712 4194304 268435456 142622720 2097152 328192
is_linear=0
shrinkage=0.05


Tree=11
num_leaves=31
num_cat=13
split_feature=0 0 0 1 1 1 0 0 1 1 1 0 7 0 0 0 1 2 6 1 2 6 7 3 0 1 0 0 7 0
split_gain=41516.5 5701 4622.48 3677.59 4215.19 1284.78 1004.04 973.624 892.781 871.807 960.613 743.251 599.221 569.392 545.094 542.621 523.125 439.661 430.941 386.956 331.368 329.029 325.558 462.622 316.64 297.94 295.659 279.487 276.714 248.921
threshold=0 1 2 9.5000000000000018 19.500000000000004 19.500000000000004 3 4 10.500000000000002 8.5000000000000018 21.500000000000004 5 10.500000000000002 6 7 8 8.5000000000000018 4.5000000000000009 5.5000000000000009 11.500000000000002 1.0000000180025095e-35 9.5000000000000018 10.500000000000002 5.5000000000000009 9 20.500000000000004 10 11 11.500000000000002 12
decision_type=9 9 9 2 2 2 9 9 2 2 2 9 2 9 9 9 2 2 2 2 2 2 2 2 9 2 9 9 2 9
left_child=1 5 6 11 7 8 -2 26 13 -8 -11 -4 17 -1 22 -6 -13 18 -10 -9 -20 -19 23 -3 -14 -17 -5 -12 -21 -25
right_child=2 14 3 4 15 -7 9 19 12 10 27 16 24 -15 -16 25 -18 21 20 28 -22 -23 -24 29 -26 -27 -28 -29 -30 -31
leaf_value=-0.17660006920734511 1.6990095154862006 -0.28440004613823 0.044228943461234321 0.17351372102006835 0.014049916539891072 -0.36147680924666831 -0.057778985462105581 0.24998881865995984 -0.18462221948212978 0.68646750601454443 0.17069882492704469 -0.42660006920734511 -0.019652305542431317 -0.42660006920734511 -0.42660006920734511 -0.052310053249853362 -0.24825850381997328 0.17843927509697136 -0.17125995776337977 0.68646750601454443 0.17128506299785029 -0.23560104657246211 -0.42660006920734511 0.0062946754015416502 -0.19045655243696286 -0.30639318475515265 0.25947804172829586 -0.45854582237214958 0.38443813033413099 -0.29527108978886352
leaf_weight=2750 13524 11828 1684 7311 5575 6602 1266 4689 1300 20665 1261 2511 5176 3354 14085 1554 3220 473 942 10714 6167 1427 13027 1242 4085 3684 11965 490 7898 1591
leaf_count=2750 13524 11828 1684 7311 5575 6602 1266 4689 1300 20665 1261 2511 5176 3354 14085 1554 3220 473 942 10714 6167 1427 13027 1242 4085 3684 11965 490 7898 1591
internal_value=0.000313844 -0.0279406 0.0216612 0.013162 0.0177468 -0.0121477 0.0355439 0.0248268 -0.00709278 0.0292968 0.031589 -0.0198314 -0.00188554 -0.0237877 -0.0401371 -0.0101313 -0.0283836 0.00640702 0.0113153 0.0317082 0.0161556 -0.0153158 -0.0360062 -0.0309085 -0.0111165 -0.0216654 0.0164835 -0.00396916 0.0349559 -0.0127603
internal_weight=172060 74049 98011 60805 53390 32276 37206 42577 25674 23682 22416 7415 19570 6104 41773 10813 5731 10309 8409 23301 7109 1900 27688 14661 9261 5238 19276 1751 18612 2833
internal_count=172060 74049 98011 60805 53390 32276 37206 42577 25674 23682 22416 7415 19570 6104 41773 10813 5731 10309 8409 23301 7109 1900 27688 14661 9261 5238 19276 1751 18612 2833
cat_boundaries=0 2 4 7 9 11 13 15 17 20 22 24 27 29
cat_threshold=717566098 3170371008 138743808 146801664 67112452 328210 1 2048 328192 285344000 16924676 0 16910340 327680 4195328 41951248 604504384 2244864 1107462144 2 134283264 142607360 268435712 16384 67109892 0 1 8208 67109120
is_linear=0
shrinkage=0.05


Tree=12
num_leaves=31
num_cat=13
split_feature=0 0 0 1 1 1 0 1 0 1 0 0 0 0 1 0 7 3 0 1 2 2 7 1 0 2 1 0 7 3
split_gain=38145.9 6633.81 3611.94 3304.52 3387.33 1331.62 1323.48 1065.31 1060.51 996.042 880.568 576.602 574.591 492.741 479.28 394.413 374.398 463.571 347.448 359.492 323.728 425.323 295.336 251.916 228.979 224.528 242.947 268.467 223.51 409.871
threshold=0 1 2 8.5000000000000018 20.500000000000004 10.500000000000002 3 19.500000000000004 4 9.5000000000000018 5 6 7 8 9.5000000000000018 9 10.500000000000002 5.5000000000000009 10 20.500000000000004 4.5000000000000009 1.5000000000000002 11.500000000000002 8.5000000000000018 11 2.5000000000000004 19.500000000000004 12 16.500000000000004 5.5000000000000009
decision_type=9 9 9 2 2 2 9 2 9 2 9 9 9 9 2 9 2 2 9 2 2 2 2 2 9 2 2 9 2 2
left_child=2 7 18 13 5 12 -3 9 28 15 -6 -11 -5 -4 -8 -2 17 -13 19 23 21 -16 -10 -1 -9 26 27 -23 -7 -30
right_child=1 6 3 4 10 8 14 24 22 11 -12 16 -14 -15 20 -17 -18 -19 -20 -21 -22 25 -24 -25 -26 -27 -28 -29 29 -31
leaf_value=-0.033070854413253414 -0.16777006574697789 -0.40527006574697788 -0.054890036189000214 -0.23584557862897457 0.15429613025381494 0.246504139641881 -0.43603515165358425 -0.18254578663683463 0.68072413071381743 -0.12145480665105222 -0.27072447409549555 0.12613613151739128 0.21368021421157588 -0.40527006574697788 -0.34763751367253648 -0.40527006574697788 -0.0058132298746848225 0.535941661229551 1.6140590397118904 0.0455116488450674 -0.37321982247136476 -0.23941495792471201 0.44851756821381739 0.65808384555756738 -0.31724828128433491 -0.23941495792471201 -0.27018004383131844 0.069066275184885312 0.12146422824771613 -0.15359519923593279
leaf_weight=358 1764 17390 1334 1919 3643 12531 3800 2597 16711 7312 5041 7315 7415 2274 8051 2560 8111 1679 13524 855 7735 1624 12354 5539 4472 8070 848 1494 2951 789
leaf_count=358 1764 17390 1334 1919 3643 12531 3800 2597 16711 7312 5041 7315 7415 2274 8051 2560 8111 1679 13524 855 7735 1624 12354 5539 4472 8070 848 1494 2951 789
internal_value=5.28885e-05 -0.0238212 0.0232659 0.0176611 0.0203144 0.0249223 -0.0357737 -0.00745673 0.028463 -0.00318187 -0.00869415 0.000735144 0.00772445 -0.0288803 -0.0296504 -0.0253006 0.00575811 0.0127863 0.0417579 0.0322981 -0.0273848 -0.0240379 0.0341892 0.036739 -0.0248479 -0.0180874 -0.00834594 -0.00189224 0.0182022 0.00748663
internal_weight=172060 84822 87238 66962 63354 54670 49012 35810 45336 28741 8684 24417 9334 3608 31622 4324 17105 8994 20276 6752 27822 20087 29065 5897 7069 12036 3966 3118 16271 3740
internal_count=172060 84822 87238 66962 63354 54670 49012 35810 45336 28741 8684 24417 9334 3608 31622 4324 17105 8994 20276 6752 27822 20087 29065 5897 7069 12036 3966 3118 16271 3740
cat_boundaries=0 3 5 7 9 11 14 16 18 20 22 24 26 28
cat_threshold=1159876164 1124571678 3 402981120 146818048 3072 328208 536879234 2419064960 16777280 16943116 69337092 1073872898 3 262144 4195328 19005440 4096 67109380 16910338 327680 4195328 1024 16 268435712 4194304 41943040 537395264
is_linear=0
shrinkage=0.05


Tree=13
num_leaves=31
num_cat=11
split_feature=0 0 0 1 1 1 1 0 1 1 0 0 0 0 0 0 2 2 0 1 1 1 1 7 3 7 2 2 2 6
split_gain=36966.4 5935.29 3895.85 2618.21 3100.16 1277.04 1143.57 1098.44 1024.72 1093.99 779.924 686.515 675.804 515.697 507.039 400.57 374.618 463.469 363.142 361.241 334.482 300.714 280.032 277.357 375.069 246.796 243.701 251.597 230.744 209.156
threshold=0 1 2 9.5000000000000018 19.500000000000004 19.500000000000004 9.5000000000000018 3 20.500000000000004 9.5000000000000018 4 5 6 7 8 9 3.5000000000000004 1.5000000000000002 10 8.5000000000000018 11.500000000000002 22.500000000000004 22.500000000000004 10.500000000000002 5.5000000000000009 11.500000000000002 4.5000000000000009 5.5000000000000009 1.0000000180025095e-35 8.5000000000000018
decision_type=9 9 9 2 2 2 2 9 2 2 9 9 9 9 9 9 2 2 9 2 2 2 2 2 2 2 2 2 2 2
left_child=1 5 7 14 12 6 13 -2 9 -9 -3 23 20 -1 -4 -6 17 -13 -7 -16 -5 -10 -17 24 -8 -11 28 -28 -14 -30
right_child=2 10 3 4 15 18 11 8 21 25 -12 16 26 -15 19 22 -18 -19 -20 -21 -22 -23 -24 -25 -26 -27 27 -29 29 -31
leaf_value=-0.15938156245962898 1.5333560877262959 -0.38346830816429867 0.13758591182343702 0.22680536701638304 0.1858020309810362 -0.17341849730499295 0.11982932494152171 0.014993437540370991 0.20230185518943244 0.66064860665078273 -0.38500656245962905 -0.15572618067547062 0.084613482419038821 -0.38500656245962905 -0.38500656245962905 -0.12411073551975989 -0.15390745983558959 0.019976607944670911 -0.40343910597131338 -0.25271186182422112 0.64668792417812648 -0.20341867625887586 -0.31426892847665866 -0.016836470724700625 0.4765180156680735 0.42609168980312656 -0.023669094137033754 0.25519376189613824 0.18851630945666181 0.3291410168353302
leaf_weight=1764 13524 20930 1323 2829 840 2597 6298 3700 3041 13023 17390 4181 2786 3467 1878 5332 6017 4196 6364 2493 11152 1040 1454 6971 1437 9747 2835 2371 2751 8329
leaf_count=1764 13524 20930 1323 2829 840 2597 6298 3700 3041 13023 17390 4181 2786 3467 1878 5332 6017 4196 6364 2493 11152 1040 1454 6971 1437 9747 2835 2371 2751 8329
internal_value=-0.000281878 -0.0246784 0.0217316 0.0116088 0.0160562 -0.0119856 -0.007601 0.0323772 0.0270983 0.0307027 -0.0390112 -0.00373196 0.0226863 -0.0291245 -0.020144 -0.0126803 -0.0114899 -0.00466157 -0.028797 -0.0283155 0.031045 0.00378584 -0.016701 0.00386654 0.0103878 0.0348002 0.0165339 0.00731848 0.0200058 0.0232401
internal_weight=172060 81612 90448 46373 40679 43292 34331 44075 30551 26470 38320 29100 33053 5231 5694 7626 14394 8377 8961 4371 13981 4081 6786 14706 7735 22770 19072 5206 13866 11080
internal_count=172060 81612 90448 46373 40679 43292 34331 44075 30551 26470 38320 29100 33053 5231 5694 7626 14394 8377 8961 4371 13981 4081 6786 14706 7735 22770 19072 5206 13866 11080
cat_boundaries=0 2 4 7 9 11 13 15 17 19 21 23
cat_threshold=986001810 3170371008 407179520 146801920 67112452 1074070034 3 2048 328192 41943056 604504128 402718976 142606336 1075855360 33591304 327680 4195328 0 16910336 2228224 131072 268435712 4194304
is_linear=0
shrinkage=0.05


Tree=14
num_leaves=31
num_cat=12
split_feature=0 0 0 1 1 1 1 0 0 1 1 0 0 7 0 0 7 3 3 1 1 1 1 0 7 1 0 0 6 6
split_gain=33113 6077.1 3372.89 2043.15 2526.43 1368.16 1763.38 1311.53 1093.51 962.411 1152.72 641.007 636.474 629.643 540.591 474.048 426.588 454.786 406.892 332.099 396.486 300.714 292.67 288.721 278.256 270.56 271.872 257.329 234.805 249.909
threshold=0 1 2 20.500000000000004 9.5000000000000018 9.5000000000000018 20.500000000000004 3 4 20.500000000000004 10.500000000000002 5 6 10.500000000000002 7 8 10.500000000000002 5.5000000000000009 5.5000000000000009 18.500000000000004 11.500000000000002 22.500000000000004 8.5000000000000018 9 11.500000000000002 8.5000000000000018 10 11 8.5000000000000018 2.5000000000000004
decision_type=9 9 9 2 2 2 2 9 9 2 2 9 9 2 9 9 2 2 2 2 2 2 2 9 2 2 9 9 2 2
left_child=2 15 8 4 14 11 7 13 -1 10 25 -3 -6 18 -4 -2 17 -9 -7 20 -14 -11 -16 -5 -12 26 -10 -8 29 -26
right_child=1 5 3 23 12 6 27 16 9 21 24 -13 19 -15 22 -17 -18 -19 -20 -21 -22 -23 -24 -25 28 -27 -28 -29 -30 -31
leaf_value=1.456688283339981 -0.36743565921519478 -0.15141248433664753 0.0099237312669899335 1.0842340661457295 0.21191847320899271 -0.23362475273947672 -0.18221017991481958 0.0054413316392341931 0.01424376566335246 0.19218676242996083 0.66955549384558766 -0.36575623433664756 0.21546509866556393 -0.32521511148101701 -0.36575623433664756 -0.36575623433664756 -0.075215111481016991 0.36484332707829509 0.0060477557924214055 0.17100584016823214 0.67100584016823217 -0.19324774244593199 -0.25740018707506479 -0.24147480396688784 0.51911146001384523 0.23508353688027006 -0.23804198356960937 -0.38454626611268905 0.5043685740969911 0.002582727221990844
leaf_weight=13524 8627 1764 2081 330 17575 7196 1484 11397 192 3041 11840 5510 2829 7954 1405 17390 12568 2610 1719 2164 9831 1040 1820 5128 1016 4145 1456 6603 6267 1554
leaf_count=13524 8627 1764 2081 330 17575 7196 1484 11397 192 3041 11840 5510 2829 7954 1405 17390 12568 2610 1719 2164 9831 1040 1820 5128 1016 4145 1456 6603 6267 1554
internal_value=0.000285947 -0.0219575 0.0219134 0.0119716 0.0161132 -0.0130502 -0.0101871 -0.00619648 0.0316446 0.0263784 0.0298716 -0.0333517 0.021351 -0.0170952 -0.0158688 -0.0420775 0.000727854 0.00672878 -0.00798093 0.0289875 0.0321011 0.00378584 -0.0286399 -0.0166178 0.0353944 0.0101588 -0.00697816 -0.0316248 0.0286805 0.0159533
internal_weight=172060 84822 87238 43163 37705 58805 51531 43444 44075 30551 26470 7274 32399 16869 5306 26017 26575 14007 8915 14824 12660 4081 3225 5458 20677 5793 1648 8087 8837 2570
internal_count=172060 84822 87238 43163 37705 58805 51531 43444 44075 30551 26470 7274 32399 16869 5306 26017 26575 14007 8915 14824 12660 4081 3225 5458 20677 5793 1648 8087 8837 2570
cat_boundaries=0 3 5 8 10 12 14 16 18 20 21 24 26
cat_threshold=1159876164 1124571678 3 578822274 2486173824 67112452 1074070034 3 4198416 541589568 2048 328192 327680 4195328 16908352 16910340 64 16910340 41943040 67108864 2228224 0 0 2 272 4194304
is_linear=0
shrinkage=0.05


Tree=15
num_leaves=31
num_cat=12
split_feature=0 0 0 1 1 1 1 0 0 0 0 1 1 7 0 0 0 1 3 7 7 3 2 2 1 6 2 0 0 1
split_gain=32293.2 5255.33 4461.12 2199.87 3037.96 1001.69 1331.52 979.659 922.976 889.215 767.608 745.62 883.825 645.919 638.441 501.376 474.048 435.317 394.458 331.211 301.807 389.646 296.496 374.634 289.509 283.996 278.686 266.31 265.223 248.497
threshold=0 1 2 9.5000000000000018 19.500000000000004 20.500000000000004 9.5000000000000018 3 4 5 6 8.5000000000000018 20.500000000000004 10.500000000000002 7 8 9 8.5000000000000018 5.5000000000000009 11.500000000000002 9.5000000000000018 5.5000000000000009 4.5000000000000009 1.0000000180025095e-35 20.500000000000004 8.5000000000000018 5.5000000000000009 10 11 10.500000000000002
decision_type=9 9 9 2 2 2 2 9 9 9 9 2 2 2 9 9 9 2 2 2 2 2 2 2 2 2 2 9 9 2
left_child=1 16 9 10 7 6 14 29 20 -2 -4 -11 19 18 -3 -6 -1 -12 -10 -13 21 -8 23 -9 -17 -25 -24 -14 -7 -5
right_child=2 5 3 4 15 28 8 22 13 11 17 12 27 -15 -16 24 -18 -19 -20 -21 -22 -23 26 25 -26 -27 -28 -29 -30 -31
leaf_value=-0.34906387625443502 1.383853869172982 -0.14384186011981512 0.013531577380184867 0.20469184373228569 0.11727803109969699 -0.17309967091907855 0.0047160743041201776 0.064314419053928693 -0.22194351510250288 -0.04099310707808837 -0.3474684226198152 0.59413840162596443 0.31807241145140691 -0.30895435590696607 -0.3474684226198152 -0.043556519107908011 -0.3474684226198152 -0.2445301777213115 0.005745368002800344 0.37956867660812077 -0.093671809041731724 0.25279369853075517 -0.026948173110065456 0.16282636043873425 -0.25404799801466904 0.30709003790282241 0.21295488886853475 -0.23517190927220266 -0.36531895280705462 0.58080323596080852
leaf_weight=8627 13524 1764 2500 1635 2268 1484 8599 3541 7196 1266 1960 11010 2096 7954 4670 2184 17390 2515 1719 8300 11018 1568 3536 3459 5483 10440 2988 1010 5826 14530
leaf_count=8627 13524 1764 2500 1635 2268 1484 8599 3541 7196 1266 1960 11010 2096 7954 4670 2184 17390 2515 1719 8300 11018 1568 3536 3459 5483 10440 2988 1010 5826 14530
internal_value=9.47344e-05 -0.0237424 0.0197767 0.0109862 0.0146532 -0.0145267 -0.011711 0.0207817 -0.0081542 0.0332465 -0.015319 0.0273679 0.0294879 -0.016876 -0.0327479 -0.0101007 -0.0420775 -0.0276812 -0.00764442 0.0334697 -0.00120075 0.00501131 0.0143447 0.0177523 -0.0161977 0.0214512 0.00525751 0.00473278 -0.0316826 0.0302968
internal_weight=172060 77815 94245 57039 50064 51798 44488 40129 38054 37206 6975 23682 22416 16869 6434 9935 26017 4475 8915 19310 21185 10167 23964 17440 7667 13899 6524 3106 7310 16165
internal_count=172060 77815 94245 57039 50064 51798 44488 40129 38054 37206 6975 23682 22416 16869 6434 9935 26017 4475 8915 19310 21185 10167 23964 17440 7667 13899 6524 3106 7310 16165
cat_boundaries=0 2 4 7 10 12 14 17 19 22 24 27 29
cat_threshold=717566354 3170371008 578822274 2486173824 67112452 328210 1 1073758208 1107333120 2 134545664 142607616 2048 328192 64 16910340 2 327680 4195328 2228224 1073872896 2 41943040 67108864 67109892 0 1 272 4194304
is_linear=0
shrinkage=0.05


Tree=16
num_leaves=31
num_cat=13
split_feature=0 0 0 1 1 1 1 1 0 1 1 0 0 0 0 7 1 0 0 7 3 6 0 1 0 6 0 1 2 2
split_gain=30989 4862.13 4499.14 2060.67 1979.9 1040.9 1229.15 1033.87 977.083 1148.71 1008.66 851.661 691.078 680.656 665.416 642.609 515.93 474.048 438.29 417.702 394.458 354.968 346.333 340.715 365.172 326.556 306.533 298.839 283.98 500.539
threshold=0 1 2 8.5000000000000018 19.500000000000004 20.500000000000004 9.5000000000000018 10.500000000000002 3 21.500000000000004 10.500000000000002 4 5 6 7 10.500000000000002 19.500000000000004 8 9 11.500000000000002 5.5000000000000009 8.5000000000000018 10 8.5000000000000018 11 2.5000000000000004 12 22.500000000000004 4.5000000000000009 5.5000000000000009
decision_type=9 9 9 2 2 2 2 2 9 2 2 9 9 9 9 2 2 9 9 2 2 2 9 2 9 2 9 2 2 2
left_child=1 17 8 18 7 6 13 14 -2 10 23 28 -9 -3 -5 20 19 -1 -4 -12 -13 25 -6 24 -10 -21 -11 -24 -8 -30
right_child=2 5 3 4 22 -7 11 12 9 26 16 15 -14 -15 -16 -17 -18 -19 -20 21 -22 -23 27 -25 -26 -27 -28 -29 29 -31
leaf_value=-0.33161068244171327 1.4955588810864271 -0.13664976711382434 0.036709937074092029 -0.23293686931381874 0.18272176807534388 -0.34705300516670184 0.0049334613420665367 0.60841538636178027 0.01285499851117562 0.15633611047012491 0.74555888108642709 -0.21084633934737776 0.18267029080876931 -0.33009500148882442 0.18392342946560911 -0.29350663811161776 0.27815487441298964 -0.33009500148882442 -0.33009500148882442 0.46075449242325828 0.0054580996026603046 0.55967820625427656 -0.093129058644693966 0.26355573870203503 -0.26821522903722456 -0.0044411189135729499 -0.1958599491131551 -0.29577147006537458 -0.20461424778322687 0.02128003141579704
leaf_weight=8627 10409 1764 598 3365 840 6665 13513 10471 340 1480 12943 7196 21588 4230 3804 7954 4401 17390 2121 1113 1719 6925 6440 4987 1619 1721 1215 1631 2699 2292
leaf_count=8627 10409 1764 598 3365 840 6665 13513 10471 340 1480 12943 7196 21588 4230 3804 7954 4401 17390 2121 1113 1719 6925 6440 4987 1619 1721 1215 1631 2699 2292
internal_value=-0.000256887 -0.0246675 0.0181864 0.00786742 0.0102609 -0.0152304 -0.0122791 0.0150938 0.0293122 0.0254612 0.0279553 -0.00873124 0.0189323 -0.0332165 -0.00207142 -0.0168523 0.0323119 -0.0420775 -0.0344796 0.0353493 -0.00764442 0.0275387 -0.0110145 0.0109559 -0.00671261 0.0126323 -0.00595547 -0.0141876 -0.00131792 -0.0115107
internal_weight=172060 74049 98011 50858 48139 48032 41367 39228 47153 36744 34049 35373 32059 5994 7169 16869 27103 26017 2719 22702 8915 9759 8911 6946 1959 2834 2695 8071 18504 4991
internal_count=172060 74049 98011 50858 48139 48032 41367 39228 47153 36744 34049 35373 32059 5994 7169 16869 27103 26017 2719 22702 8915 9759 8911 6946 1959 2834 2695 8071 18504 4991
cat_boundaries=0 2 4 7 9 11 13 15 17 19 21 23 26 29
cat_threshold=717566098 3170371008 578822274 2486173824 67112452 1107624466 3 0 328192 134545408 142607616 1073889280 36864 327680 4195328 19005696 22528 41943040 67108864 0 16910336 2228224 131072 2048 0 2 67111940 1073741824 1
is_linear=0
shrinkage=0.05


Tree=17
num_leaves=31
num_cat=12
split_feature=0 0 0 1 1 1 1 1 0 0 0 0 0 1 0 7 1 1 1 0 1 0 0 2 3 2 2 7 7 2
split_gain=29979.2 4755.48 3799.57 2610.07 1757.61 1007.6 1173.82 996.376 934.898 783.985 701.154 673.736 578.838 605.807 530.304 520.743 504.835 490.117 537.29 474.048 368.844 266.955 264.119 260.084 253.474 249.892 468.388 294.82 247.17 295.117
threshold=0 1 2 9.5000000000000018 19.500000000000004 20.500000000000004 9.5000000000000018 22.500000000000004 3 4 5 6 7 8.5000000000000018 8 9.5000000000000018 22.500000000000004 8.5000000000000018 19.500000000000004 9 11.500000000000002 10 11 1.5000000000000002 5.5000000000000009 4.5000000000000009 5.5000000000000009 5.5000000000000009 9.5000000000000018 1.0000000180025095e-35
decision_type=9 9 9 2 2 2 2 2 9 9 9 9 9 2 9 2 2 2 2 9 2 9 9 2 2 2 2 2 2 2
left_child=1 19 7 12 9 6 11 10 25 -5 -2 -3 -4 -14 -6 24 23 22 -19 -1 -11 -9 -12 -16 -10 28 -27 -28 29 -8
right_child=2 5 3 4 14 -7 8 21 15 20 17 -13 13 -15 16 -17 -18 18 -20 -21 -22 -23 -24 -25 -26 26 27 -29 -30 -31
leaf_value=-0.31503014831962761 1.9207809370321058 -0.12981727875813309 0.12033767932662603 0.15567226629748065 0.55052373782401676 -0.3297003549083668 -0.14869441500596797 2.9728420455601565 -0.20030402238000891 0.18526108007239106 0.012212248585616869 -0.31359025141438313 -0.31359025141438313 -0.17467434490080508 -0.24700335713208235 -0.26410733316688856 -0.25852534539023075 0.53590333733727114 0.26424713069234013 -0.31359025141438313 0.47040513010844692 -0.17965625942296237 -0.025532690272322703 0.0029966428679176539 0.17612406449692913 -0.19438353539406555 -0.24539555158392831 0.044321750645983295 -0.059827496320399833 0.13960393116074118
leaf_weight=8627 6684 1764 1711 19196 1459 6665 1203 179 6772 4684 340 4230 2474 3199 1981 8808 1960 22860 5270 17390 18576 1043 1281 5114 1289 2699 435 1857 6408 5902
leaf_count=8627 6684 1764 1711 19196 1459 6665 1203 179 6772 4684 340 4230 2474 3199 1981 8808 1960 22860 5270 17390 18576 1043 1281 5114 1289 2699 435 1857 6408 5902
internal_value=-0.000849704 -0.0248592 0.0172907 0.00951064 0.0133944 -0.015526 -0.0126224 0.0297542 -0.00915529 0.0179268 0.0312515 -0.0330831 -0.0183369 -0.0259986 -0.00490774 -0.017664 -0.00941533 0.0279275 0.0294774 -0.0420775 0.0240997 -0.0146481 0.00120296 -0.00322058 -0.0084915 -0.00138814 -0.0109497 0.0056719 0.00214238 0.00856439
internal_weight=172060 74049 98011 60354 52970 48032 41367 37657 35373 42456 36435 5994 7384 5673 10514 16869 9055 29751 28130 26017 23260 1222 1621 7095 8061 18504 4991 2292 13513 7105
internal_count=172060 74049 98011 60354 52970 48032 41367 37657 35373 42456 36435 5994 7384 5673 10514 16869 9055 29751 28130 26017 23260 1222 1621 7095 8061 18504 4991 2292 13513 7105
cat_boundaries=0 2 4 7 9 11 13 15 17 19 21 23 26
cat_threshold=717566098 3170371008 578822274 2486173824 3588 328210 3 134545408 142607616 287310080 149508 0 327680 327680 4195328 67108864 16910336 69337088 1073741824 41943040 67108864 0 327680 2048 0 2
is_linear=0
shrinkage=0.05


Tree=18
num_leaves=31
num_cat=11
split_feature=0 0 0 1 1 1 1 0 0 1 0 0 1 0 1 0 7 1 1 0 1 6 6 2 2 6 1 1 2 0
split_gain=29852.2 4635.24 3683.51 2223.94 1731.41 970.283 1129.31 882.595 830.039 837.208 827.034 821.599 724.769 673.736 530.173 527.708 526.174 508.746 492.204 474.048 431.364 413.332 408.406 294.666 384.199 404.362 281.888 266.783 260.405 215.712
threshold=0 1 2 9.5000000000000018 19.500000000000004 20.500000000000004 9.5000000000000018 3 4 22.500000000000004 5 6 9.5000000000000018 7 19.500000000000004 8 10.500000000000002 22.500000000000004 8.5000000000000018 9 11.500000000000002 18.500000000000004 6.5000000000000009 4.5000000000000009 1.5000000000000002 8.5000000000000018 18.500000000000004 19.500000000000004 1.5000000000000002 10
decision_type=9 9 9 2 2 2 2 9 9 2 9 9 2 9 2 9 2 2 2 9 2 2 2 2 2 2 2 2 2 9
left_child=1 19 8 10 11 6 13 27 -2 12 -4 23 -10 -3 -14 -6 21 28 -12 -1 -13 22 -9 24 -5 -26 -22 -8 -17 -16
right_child=2 5 3 4 15 -7 7 16 9 -11 18 20 14 -15 29 17 -18 -19 -20 -21 26 -23 -24 -25 25 -27 -28 -29 -30 -31
leaf_value=-0.29927864090364625 1.8247418901805006 -0.12332641482022649 0.011601636156336071 0.051198180654488473 0.25634253016025782 -0.31321533716294847 0.018061961367349968 -0.19028882126100852 0.20253731316375331 -0.13705865801179584 -0.29791073884366404 0.19486417810813991 0.56682578093560998 -0.29791073884366404 0.34779186365633841 -0.23465318927547829 -0.14868162268693705 -0.24559907812071924 -0.22840530245621676 -0.29791073884366404 0.50268984761615687 -0.19569994904839971 0.017772670105939171 0.031380365037633771 0.047927935512902489 0.30606641258266071 0.19312545733787037 -0.15535069161620765 0.0028468107245217312 0.037311381289399752
leaf_weight=8627 6863 1764 2900 6994 1969 6665 9794 2223 3245 879 2154 4202 18471 4230 2607 2090 11622 1955 2749 17390 14681 3491 7308 6496 2312 8083 2034 935 5348 1979
leaf_count=8627 6863 1764 2900 6994 1969 6665 9794 2223 3245 879 2154 4202 18471 4230 2607 2090 11622 1955 2749 17390 14681 3491 7308 6496 2312 8083 2034 935 5348 1979
internal_value=-0.00111938 -0.025078 0.0169826 0.00990747 0.013384 -0.0158632 -0.013014 -0.00961326 0.0302696 0.0263194 -0.0151032 0.017805 0.0279332 -0.0330831 0.031047 -0.00404858 -0.0148211 -0.00898118 -0.0275901 -0.0420775 0.0250418 -0.00792505 -0.00253384 0.0114522 0.0148513 0.0209476 0.0286539 0.00236055 -0.00302501 0.0158308
internal_weight=172060 74049 98011 63967 56164 48032 41367 35373 34044 27181 7803 44802 26302 5994 23057 11362 24644 9393 4903 26017 20917 13022 9531 23885 17389 10395 16715 10729 7438 4586
internal_count=172060 74049 98011 63967 56164 48032 41367 35373 34044 27181 7803 44802 26302 5994 23057 11362 24644 9393 4903 26017 20917 13022 9531 23885 17389 10395 16715 10729 7438 4586
cat_boundaries=0 2 4 7 9 11 14 16 18 20 22 25
cat_threshold=717566098 3170371008 578822274 2486173824 3588 328210 1 134283264 142606336 0 327680 67108928 16910348 2 354418944 16926724 327680 4195328 69337088 1073872896 41943040 67108864 1028 512 1
is_linear=0
shrinkage=0.05


Tree=19
num_leaves=31
num_cat=13
split_feature=0 0 0 1 1 0 1 1 1 1 1 0 0 0 0 7 0 0 7 0 0 0 7 3 1 6 4 2 6 3
split_gain=28317.6 4351.22 3927.9 1656.77 1447.73 1279.18 1262.82 1445.85 851.175 742.235 986.526 711.74 641.13 615.572 594.812 502.569 495.225 474.048 415.128 413.952 407.319 334.501 307.803 289.547 276.281 269.659 334.767 241.673 219.663 415.578
threshold=0 1 2 8.5000000000000018 19.500000000000004 3 20.500000000000004 9.5000000000000018 10.500000000000002 20.500000000000004 9.5000000000000018 4 5 6 7 10.500000000000002 8 9 10.500000000000002 10 11 12 11.500000000000002 5.5000000000000009 8.5000000000000018 18.500000000000004 1.0000000180025095e-35 1.5000000000000002 8.5000000000000018 5.5000000000000009
decision_type=9 9 9 2 2 9 2 2 2 2 2 9 9 9 9 2 9 9 2 9 9 9 2 2 2 2 2 2 2 2
left_child=2 5 9 20 8 -2 7 16 11 10 14 -5 -12 22 -1 -14 -7 -4 25 -6 -3 -8 23 -10 -18 26 -9 -21 29 -20
right_child=1 3 17 4 19 6 21 18 13 -11 12 -13 15 -15 -16 -17 24 -19 28 27 -22 -23 -24 -25 -26 -27 -28 -29 -30 -31
leaf_value=-0.11716009407921515 1.3656444811184618 0.028277474446239383 -0.28431470885846394 0.11374071355247804 -0.24729552981170438 0.14399844671542983 0.23590330472460652 0.67947639910404445 0.11388938242639952 -0.29755457030480104 -0.0091372963709083887 -0.24307641750216646 -0.15956450029252489 0.26946801052076647 -0.28301520190148083 -0.25819185841334563 -0.28438292141689425 -0.28301520190148083 0.3221168614475623 -0.21260631786132286 -0.28301520190148083 -0.15839349254577828 -0.021691860802091512 0.35822017469021433 -0.02581559450722555 0.40314448111846168 0.18654812820560701 0.002704470188295627 0.37019641403371611 -0.075019263877700665
leaf_weight=1332 10409 598 8627 3382 3085 2383 2718 11027 6024 5662 13108 3866 8915 19125 3782 7954 1246 17390 3205 1714 2177 2764 5578 1608 1554 4671 1315 4539 10667 1635
leaf_count=1332 10409 598 8627 3382 3085 2383 2718 11027 6024 5662 13108 3866 8915 19125 3782 7954 1246 17390 3205 1714 2177 2764 5578 1608 1554 4671 1315 4539 10667 1635
internal_value=-0.00142625 0.0147265 -0.0268958 0.00437473 0.00650743 0.024709 0.020904 0.0241692 0.0106851 -0.0171957 -0.0144895 -0.00480132 -0.0110268 0.0141565 -0.0347869 -0.0174685 -0.000356936 -0.0420775 0.0280781 -0.0112015 -0.0332072 -0.00151405 0.00583964 0.012369 -0.0145907 0.0334715 0.037344 -0.00377615 0.022161 0.0133264
internal_weight=172060 105290 66770 51696 48921 53594 43185 37703 39583 40753 35091 7248 29977 32335 5114 16869 5183 26017 32520 9338 2775 5482 13210 7632 2800 17013 12342 6253 15507 4840
internal_count=172060 105290 66770 51696 48921 53594 43185 37703 39583 40753 35091 7248 29977 32335 5114 16869 5183 26017 32520 9338 2775 5482 13210 7632 2800 17013 12342 6253 15507 4840
cat_boundaries=0 2 5 7 9 11 13 15 17 20 22 24 26 29
cat_threshold=717500562 3161982400 1140870660 1107624466 3 138678288 675808576 0 328192 268501056 16941068 134479872 134219008 268501248 25296896 262144 4195328 67112448 16 2 41943040 67108864 16842752 8409096 0 16910336 67111940 1073741824 1
is_linear=0
shrinkage=0.05


Tree=20
num_leaves=31
num_cat=13
split_feature=0 0 0 1 1 0 1 1 1 1 1 0 0 0 0 1 7 0 0 0 0 2 2 0 3 7 3 1 2 2
split_gain=27056.7 4150.98 4094.99 1623.68 1248.13 1238.57 1148.08 1285.95 789.14 1046.41 758.97 687.865 605.505 594.812 571.922 539.764 488.156 474.048 463.646 420.913 407.319 388.788 299.082 296.189 280.995 278.967 379.721 276.281 222.801 308.821
threshold=0 1 2 8.5000000000000018 19.500000000000004 3 21.500000000000004 9.5000000000000018 20.500000000000004 9.5000000000000018 10.500000000000002 4 5 6 7 18.500000000000004 10.500000000000002 8 9 10 11 4.5000000000000009 5.5000000000000009 12 5.5000000000000009 10.500000000000002 5.5000000000000009 8.5000000000000018 4.5000000000000009 1.5000000000000002
decision_type=9 9 9 2 2 9 2 2 2 2 2 9 9 9 9 2 2 9 9 9 9 2 2 9 2 2 2 2 2 2
left_child=2 5 8 20 10 -2 7 18 9 13 11 -5 28 -1 25 21 24 -4 -7 -6 -3 -9 -23 -8 -14 26 -12 -20 29 -11
right_child=1 3 17 4 19 6 23 15 -10 12 14 -13 16 -15 -16 -17 -18 -19 27 -21 -22 22 -24 -25 -26 -27 -28 -29 -30 -31
leaf_value=-0.11130208937525438 1.2973622570625389 0.026863600723927485 -0.27009897341554073 0.10805367787485416 -0.23493075332111912 0.13679852437965839 0.15255988558212633 0.4856198286711596 -0.28267684178956104 -0.08629092371302978 0.1260261674130165 -0.23092259662705816 -0.17501711743137902 -0.26886444180640678 0.2900331030238979 0.23183629315222234 -0.25432484752392837 -0.26886444180640678 -0.27016377534604957 -0.024151908055966943 -0.26886444180640678 0.15931917504812143 0.46719903211169334 -0.22539944958739433 0.02006902500280976 -0.0039583130028024273 0.38324296327398494 -0.024524814781864281 -0.1138888193180943 0.025212891646756577
leaf_weight=1332 10409 598 8627 3382 3085 2383 1425 19630 5662 4556 6616 3866 6124 3782 16985 7954 6744 17390 1246 6253 2177 3914 3328 1751 1471 7244 1490 1554 4248 6834
leaf_count=1332 10409 598 8627 3382 3085 2383 1425 19630 5662 4556 6616 3866 6124 3782 16985 7954 6744 17390 1246 6253 2177 3914 3328 1751 1471 7244 1490 1554 4248 6834
internal_value=-0.00168081 0.0141083 -0.0265768 0.0039976 0.00610883 0.0238583 0.0201146 0.0224162 -0.0166732 -0.0138825 0.00998787 -0.00463576 -0.0103162 -0.0347869 0.0132658 0.0258743 -0.0177329 -0.0420775 -0.000819988 -0.0103341 -0.0332072 0.0292609 0.0193593 -0.00881612 -0.00905201 0.00625651 0.0126326 -0.0145907 -0.00350204 0.000140474
internal_weight=172060 105290 66770 51696 48921 53594 43185 40009 40753 35091 39583 7248 29977 5114 32335 34826 14339 26017 5183 9338 2775 26872 7242 3176 7595 15350 8106 2800 15638 11390
internal_count=172060 105290 66770 51696 48921 53594 43185 40009 40753 35091 39583 7248 29977 5114 32335 34826 14339 26017 5183 9338 2775 26872 7242 3176 7595 15350 8106 2800 15638 11390
cat_boundaries=0 2 5 7 9 11 13 15 17 19 22 24 26 29
cat_threshold=717500562 3161982400 1140870660 1107624466 3 138678288 675808576 0 328192 268501056 16941068 138674176 134219008 262144 4195328 268501248 25298944 41943040 67108864 67112448 16 2 16842752 8409096 0 16910336 67109892 1073741824 1
is_linear=0
shrinkage=0.05


Tree=21
num_leaves=31
num_cat=12
split_feature=0 0 0 1 1 0 1 1 1 0 1 1 0 7 0 0 0 7 0 1 0 3 0 7 6 6 6 2 2 2
split_gain=25637.6 4653.35 3422.83 2163.61 1343.62 1115.02 980.833 1306.61 817.663 791.254 753.27 720.892 811.341 611.606 580.833 549.342 474.048 460.702 427.514 335.496 279.682 279.112 271.271 264.08 417.625 312.657 257.355 250.592 344.56 290.984
threshold=0 1 2 8.5000000000000018 19.500000000000004 3 20.500000000000004 9.5000000000000018 8.5000000000000018 4 19.500000000000004 10.500000000000002 5 11.500000000000002 6 7 8 10.500000000000002 9 11.500000000000002 10 5.5000000000000009 11 11.500000000000002 18.500000000000004 5.5000000000000009 22.500000000000004 4.5000000000000009 5.5000000000000009 1.0000000180025095e-35
decision_type=9 9 9 2 2 9 2 2 2 9 2 2 9 2 9 9 9 2 9 2 9 2 9 2 2 2 2 2 2 2
left_child=1 6 5 18 11 -2 7 14 -7 27 13 15 -13 19 -1 -5 -3 21 -4 -10 -6 -11 -12 24 25 -14 -26 29 -29 -9
right_child=2 16 3 4 20 8 -8 9 10 17 22 12 23 -15 -16 -17 -18 -19 -20 -21 -22 -23 -24 -25 26 -27 -28 28 -30 -31
leaf_value=-0.10573698490649167 1.6003544587624259 -0.25659402474476373 0.025520420687731082 -0.31376053137882975 -0.22318421565506316 -0.23356954728468918 -0.26854299970008294 -0.12412196057522973 0.33414326371235359 -0.16626626155981006 0.28405515313770008 0.37079560094100383 0.020384221341273979 0.24736824119205991 -0.25542121971608645 0.051440906638231802 -0.25542121971608645 -0.24160860514773194 -0.25542121971608645 0.63753662039643622 -0.047735899431739975 0.019065573752669263 -0.010119822387883559 0.0089830142437461909 -0.096271673075596101 0.23094574836080481 0.14876558927106329 -0.17107897170556532 0.0076510331629257248 0.02283188726035501
leaf_weight=1332 6863 8627 598 1899 2218 1952 6301 2671 4194 6124 3546 14842 1971 11949 4230 6223 17390 6744 2501 11514 8150 1471 3522 9135 2095 7299 1045 2689 2276 10689
leaf_count=1332 6863 8627 598 1899 2218 1952 6301 2671 4194 6124 3546 14842 1971 11949 4230 6223 17390 6744 2501 11514 8150 1471 3522 9135 2095 7299 1045 2689 2276 10689
internal_value=-0.00212484 -0.0252757 0.0139639 0.0060049 0.00830129 0.024558 -0.0154512 -0.0124418 0.0210824 -0.00862723 0.0228582 0.0120773 0.0150837 0.026581 -0.0348436 -0.00139128 -0.0420775 -0.0174193 -0.0346402 0.033066 -0.00790895 -0.00898618 0.00829089 0.00887265 0.0136261 0.0189644 -0.00213376 -0.00173711 -0.0113293 0.00182635
internal_weight=172060 70544 101516 57976 54877 43540 44527 38226 36677 32664 34725 44509 36387 27657 5562 8122 26017 14339 3099 15708 10368 7595 7068 21545 12410 9270 3140 18325 4965 13360
internal_count=172060 70544 101516 57976 54877 43540 44527 38226 36677 32664 34725 44509 36387 27657 5562 8122 26017 14339 3099 15708 10368 7595 7068 21545 12410 9270 3140 18325 4965 13360
cat_boundaries=0 2 4 7 9 11 14 16 18 20 22 24 26
cat_threshold=717500562 3170371008 138678288 684197184 67112452 1107624466 1 0 327680 138674176 142607616 1090666496 36872 2 262144 4195328 2228224 20480 41943040 67108864 0 16910336 16842752 20488 67109892 1073742336
is_linear=0
shrinkage=0.05


Tree=22
num_leaves=31
num_cat=10
split_feature=0 0 0 1 1 1 1 0 0 0 0 0 7 0 0 1 1 1 7 3 1 6 7 6 7 6 6 6 1 6
split_gain=21420.2 4017.09 3156.21 1792.08 1684.87 1891.04 1522.21 1005.9 892.115 698.661 675.082 652.871 520.747 502.8 463.494 417.509 414.181 390.255 357.086 580.062 345.18 320.709 390.745 350.091 432.593 301.714 430.01 305.164 300.55 267.465
threshold=0 1 2 20.500000000000004 9.5000000000000018 20.500000000000004 10.500000000000002 3 4 5 6 7 11.500000000000002 8 9 12.500000000000002 18.500000000000004 8.5000000000000018 10.500000000000002 5.5000000000000009 22.500000000000004 8.5000000000000018 13.500000000000002 18.500000000000004 10.500000000000002 18.500000000000004 21.500000000000004 5.5000000000000009 8.5000000000000018 10.500000000000002
decision_type=9 9 9 2 2 2 2 9 9 9 9 9 2 9 9 2 2 2 2 2 2 2 2 2 2 2 2 2 2 2
left_child=2 13 10 6 8 7 11 12 -3 16 -1 28 -6 -2 -7 -12 -8 -10 19 25 -16 22 -11 24 -23 27 -27 -9 -4 -26
right_child=1 4 3 -5 5 14 9 18 17 21 15 -13 -14 -15 20 -17 -18 -19 -20 -21 -22 23 -24 -25 29 26 -28 -29 -30 -31
leaf_value=-0.24265015873028206 0.67151356827327158 0.0097527667795692888 -0.24265015873028206 -0.25383673427513742 0.49060956042191822 0.17550858396046395 0.10817757162432536 0.033862490936605386 -0.24265015873028206 -0.083639292635992568 -0.27452940941413184 -0.24265015873028206 0.24954281337072326 0.3223978443523553 -0.10890375937408354 -0.24265015873028206 -0.14730539084228705 -0.1151323852575513 0.043195459254066648 0.48282503243317748 -0.21174268213643765 0.04990963218652187 -0.2437643235075255 -0.13089070239021813 0.058746587519006077 -0.093810576134022661 0.14890110170983703 0.22483316941635537 -0.066264702952845145 -0.108647659390396
leaf_weight=5826 6661 5065 1391 7558 15737 3193 11712 1994 1917 4576 6115 5352 11714 11602 4984 10618 2854 2489 14443 3017 2027 5252 1558 5150 1046 2199 2203 6617 3426 3764
leaf_count=5826 6661 5065 1391 7558 15737 3193 11712 1994 1917 4576 6115 5352 11714 11602 4984 10618 2854 2489 14443 3017 2027 5252 1558 5150 1046 2199 2203 6617 3426 3764
internal_value=0.00150878 0.0172365 -0.0182776 -0.0116731 0.0122673 0.0150159 -0.007974 0.0185122 -0.00749129 -0.00313823 -0.0339692 -0.0250516 0.0254561 0.0383325 -0.00483144 -0.028815 0.00530324 -0.023913 0.0122445 0.0173862 -0.012014 -0.0088968 -0.0185523 -0.0050092 0.000417412 0.0128064 0.00215811 0.0182499 -0.0116118 -0.0104158
internal_weight=172060 95862 76198 53639 77599 68128 46081 57924 9471 35912 22559 10169 27451 18263 10204 16733 14566 4406 30473 16030 7011 21346 6134 15212 10062 13013 4402 8611 4817 4810
internal_count=172060 95862 76198 53639 77599 68128 46081 57924 9471 35912 22559 10169 27451 18263 10204 16733 14566 4406 30473 16030 7011 21346 6134 15212 10062 13013 4402 8611 4817 4810
cat_boundaries=0 2 4 6 9 12 14 16 18 20 23
cat_threshold=180695442 3168290112 536872960 2425472 41951378 806879232 1073759748 1107300370 1 335545860 16910354 3 134283520 142622720 130 269484032 327936 12584000 2048 512 69338116 1073872896 1
is_linear=0
shrinkage=0.05


Tree=23
num_leaves=31
num_cat=11
split_feature=0 0 0 1 0 1 0 0 1 1 7 0 1 0 1 1 7 3 0 6 1 7 3 2 6 0 7 1 0 4
split_gain=20878.6 4448.32 2808.54 2006.76 1136.99 1106.97 1022.3 748.815 740.945 740.461 715.511 518.951 477.636 616.844 465.299 605.292 438.876 602.653 433.458 315.393 297.084 295.076 299.356 265.497 250.309 243.163 242.862 223.098 314.281 219.168
threshold=0 1 2 8.5000000000000018 3 19.500000000000004 4 5 9.5000000000000018 10.500000000000002 11.500000000000002 6 20.500000000000004 7 19.500000000000004 10.500000000000002 10.500000000000002 5.5000000000000009 8 8.5000000000000018 18.500000000000004 10.500000000000002 5.5000000000000009 1.5000000000000002 2.5000000000000004 9 14.500000000000002 11.500000000000002 10 1.0000000180025095e-35
decision_type=9 9 9 2 9 2 9 9 2 2 2 9 2 9 2 2 2 2 9 2 2 2 2 2 2 9 2 2 9 2
left_child=2 4 -1 7 -2 6 9 -3 18 -5 14 -7 13 -10 15 -6 17 27 -4 24 -15 22 -11 -13 -12 -16 -21 28 -8 -27
right_child=1 3 8 5 10 11 16 -9 12 21 19 23 -14 20 25 -17 -18 -19 -20 26 -22 -23 -24 -25 -26 29 -28 -29 -30 -31
leaf_value=-0.23051765079376799 1.5042168436066872 0.0092651284405908651 0.082553819775288695 -0.00019671584182621161 0.20280863519263478 -0.24394347462073196 -0.23051765079376799 -0.23051765079376799 -0.060979615485687512 0.31086761521233958 0.2278281838379897 -0.20325063557554879 -0.23776273002110121 -0.23131696847676031 -0.05481724579445011 0.58112931135551837 -0.027449342462181649 0.32839227607058652 -0.25766217248431422 0.12195370444811182 -0.085941932035572419 0.22135495953177442 0.62136248650154302 0.0060565253792680632 -0.11560126000816098 0.43151124281663056 0.34001864493271089 0.087890827950314693 0.012090750162046859 -0.49276060545799355
leaf_weight=13870 6863 790 443 5152 3518 2795 1196 3483 15719 9935 1603 3198 5272 11043 1104 11741 15219 3143 4226 2452 2097 10974 2295 8470 2597 2599 7605 10057 2399 202
leaf_count=13870 6863 790 443 5152 3518 2795 1196 3483 15719 9935 1603 3198 5272 11043 1104 11741 15219 3143 4226 2452 2097 10974 2295 8470 2597 2599 7605 10057 2399 202
internal_value=-0.000571894 0.0109966 -0.026792 0.00410789 0.0245198 0.00601139 0.00898791 -0.0292183 -0.0198763 0.0158993 0.0206979 -0.00641292 -0.0173259 -0.0147978 0.0270142 0.0309555 0.00286035 0.00843406 -0.0385629 0.0122221 -0.0227909 0.0197121 0.0250531 -0.001764 0.000714286 0.0116133 0.0170279 0.00388954 -0.00680111 0.0194059
internal_weight=172060 119390 52670 79106 40284 74833 60370 4273 38800 28356 33421 14463 34131 28859 19164 15259 32014 16795 4669 14257 13140 23204 12230 11668 4200 3905 10057 13652 3595 2801
internal_count=172060 119390 52670 79106 40284 74833 60370 4273 38800 28356 33421 14463 34131 28859 19164 15259 32014 16795 4669 14257 13140 23204 12230 11668 4200 3905 10057 13652 3595 2801
cat_boundaries=0 2 5 7 9 12 15 17 19 21 23 25
cat_threshold=583020690 3027763648 67112452 33882642 1 536879234 271581312 0 327680 1090666560 1090555916 2 0 16910336 2 16842752 134238216 4198400 2218787072 0 4194304 512 18 136314880 134234112
is_linear=0
shrinkage=0.05


Tree=24
num_leaves=31
num_cat=11
split_feature=0 0 0 1 1 1 1 0 0 0 0 0 0 0 7 2 7 6 6 1 6 1 2 0 1 7 1 1 6 6
split_gain=17866.3 3771.9 3558.63 1659.1 1546.27 1374.57 954.843 947.21 937.522 875.038 758.726 661.243 613.373 513.378 487.339 428.101 414.065 550.543 436.239 396.84 382.388 380.727 375.104 369.827 354.964 351.311 336.047 264.249 253.974 246.864
threshold=0 1 2 9.5000000000000018 19.500000000000004 10.500000000000002 18.500000000000004 3 4 5 6 7 8 9 11.500000000000002 3.5000000000000004 10.500000000000002 18.500000000000004 5.5000000000000009 8.5000000000000018 21.500000000000004 13.500000000000002 1.5000000000000002 10 22.500000000000004 10.500000000000002 19.500000000000004 10.500000000000002 9.5000000000000018 2.5000000000000004
decision_type=9 9 9 2 2 2 2 9 9 9 9 9 9 9 2 2 2 2 2 2 2 2 2 9 2 2 2 2 2 2
left_child=2 10 8 11 7 12 13 16 -1 -8 -2 -3 -4 -7 -9 22 17 18 -5 -13 -19 -10 -15 -6 -25 -23 27 -12 -24 -17
right_child=1 3 5 4 23 6 9 14 21 -11 26 19 -14 15 -16 29 -18 20 -20 -21 -22 25 28 24 -26 -27 -28 -29 -30 -31
leaf_value=-0.21899176825407959 0.23106710995440347 0.0088018720185613301 -0.10170692599053642 -0.053496357548152677 0.16972189910017868 0.17253299189915358 -0.03476884513448919 0.43671910574092615 -0.24816289162649341 -0.23053587650026686 0.22335585998093493 -0.21899176825407959 -0.21899176825407959 -0.040617143065365728 0.22599792472559843 0.014580786675801871 0.017141568671481089 -0.11155746247912326 0.3024599182851162 -0.10936593020258245 0.1110625654439435 -0.13775270986616867 -0.017566915567779961 -0.045539785238522867 -0.18760732873229033 -0.21899176825407959 0.1911849382005647 0.63798516920815063 0.1024831596000805 -0.11983733936274117
leaf_weight=5826 11602 3808 4129 1541 4213 7786 6969 14553 8808 6346 2510 2109 5352 5607 11005 470 11239 1717 7450 2733 1724 6303 1414 6888 1867 5340 2633 8270 4239 7609
leaf_count=5826 11602 3808 4129 1541 4213 7786 6969 14553 8808 6346 2510 2109 5352 5607 11005 470 11239 1717 7450 2733 1724 6303 1414 6888 1867 5340 2633 8270 4239 7609
internal_value=0.00200279 0.0163666 -0.0160679 0.0104697 0.0133246 -0.00822435 -0.0042087 0.0173709 -0.0309602 -0.0151746 0.0330569 -0.0100462 -0.0253612 0.00117419 0.0240457 -0.00319138 0.0101495 0.0164414 0.0229507 -0.0222795 -0.000566696 -0.0258858 0.00310835 -0.00203578 -0.00788933 -0.0199648 0.0249013 0.0288312 0.0121971 -0.0119755
internal_weight=172060 95862 76198 70847 62197 49921 40440 49229 26277 13315 25015 8650 9481 27125 25558 19339 23671 12432 8991 4842 3441 20451 11260 12968 8755 11643 13413 10780 5653 8079
internal_count=172060 95862 76198 70847 62197 49921 40440 49229 26277 13315 25015 8650 9481 27125 25558 19339 23671 12432 8991 4842 3441 20451 11260 12968 8755 11643 13413 10780 5653 8079
cat_boundaries=0 2 4 6 8 10 12 14 17 19 21 24
cat_threshold=180695442 3168290112 536873984 2425488 41951378 806879296 354549824 16910340 130 269484032 134545664 12583936 536870912 2424960 335544836 16910336 3 327936 12583936 134217728 142622720 69337092 1073743874 1
is_linear=0
shrinkage=0.05


Tree=25
num_leaves=31
num_cat=11
split_feature=0 0 0 1 0 1 1 1 0 7 0 1 1 0 1 0 7 6 0 7 3 0 2 1 6 6 6 0 3 7
split_gain=18554.7 4003.44 3033.67 2053.72 1007.21 931.438 851.817 852.56 1039.66 795.669 746.217 543.57 684.025 513.12 565.975 444.09 430.029 420.923 413.23 379.459 556.29 363.401 325.629 357.363 323.98 273.641 306.729 265.723 259.865 256.233
threshold=0 1 2 8.5000000000000018 3 9.5000000000000018 18.500000000000004 10.500000000000002 4 11.500000000000002 5 19.500000000000004 11.500000000000002 6 20.500000000000004 7 10.500000000000002 8.5000000000000018 8 10.500000000000002 5.5000000000000009 9 1.5000000000000002 22.500000000000004 2.5000000000000004 8.5000000000000018 18.500000000000004 10 5.5000000000000009 14.500000000000002
decision_type=9 9 9 2 9 2 2 2 9 2 9 2 2 9 2 9 2 2 9 2 2 9 2 2 2 2 2 9 2 2
left_child=2 4 -1 21 -2 15 7 10 -9 11 -5 12 -6 14 25 -4 -15 24 -8 20 -10 -3 -20 -24 -11 28 -27 -25 -7 -19
right_child=1 3 5 6 9 13 18 8 19 17 -12 -13 -14 16 -16 -17 -18 29 22 -21 -22 -23 23 27 -26 26 -28 -29 -30 -31
leaf_value=-0.2080421798413756 1.4174526459286327 0.022853411291408322 0.083511475086051057 -0.23750891372395305 0.18819761282118055 -0.15383812461067575 -0.24254941600839583 0.34910578246942042 0.079269379988388178 0.20194700659421222 0.022003221459724467 0.18123227359616295 0.52361946052369246 -0.14349961225317376 -0.21772996723531204 -0.23237091927877379 -0.2080421798413756 0.044869854626547225 -0.18108179078979916 -0.0062690722621452366 0.32770570251556053 -0.2080421798413756 0.013582988014933052 0.0074921413670290711 -0.13743612592518453 0.0027791824546722133 -0.17302176221788887 -0.23717605428329877 -0.22253525958972784 0.28749259832046264
leaf_weight=10565 6863 598 443 2874 5760 4061 1396 15067 10864 1944 7198 4758 12610 8715 3330 4656 7728 2961 4536 11974 2429 3288 9853 515 3119 8253 4173 1546 845 9138
leaf_count=10565 6863 598 443 2874 5760 4061 1396 15067 10864 1944 7198 4758 12610 8715 3330 4656 7728 2961 4536 11974 2429 3288 9853 515 3119 8253 4173 1546 845 9138
internal_value=-0.0006335 0.010287 -0.0253178 0.00288019 0.0216155 -0.0193088 0.00489363 0.00821728 0.0114668 0.0185881 -0.00479547 0.0246455 0.0285465 -0.0165598 -0.0112955 -0.0393509 -0.0231538 0.0104358 -0.004494 0.00525972 0.0110773 -0.0324756 -0.0022661 0.00207319 -0.00166897 -0.00767367 -0.00372606 -0.0168607 -0.0176722 0.0155013
internal_weight=172060 119291 52769 72138 47153 42204 68252 50406 40334 40290 10072 23128 18370 37105 20662 5099 16443 17162 17846 25267 13293 3886 16450 11914 5063 17332 12426 2061 4906 12099
internal_count=172060 119291 52769 72138 47153 42204 68252 50406 40334 40290 10072 23128 18370 37105 20662 5099 16443 17162 17846 25267 13293 3886 16450 11914 5063 17332 12426 2061 4906 12099
cat_boundaries=0 2 5 7 9 11 13 15 17 19 21 23
cat_threshold=583020690 3027763656 67112452 1107624466 3 536871042 271581312 0 327680 1090666560 53248 134348800 142626816 37752832 2218787072 0 4194304 0 134234112 0 16910336 2490368 33792
is_linear=0
shrinkage=0.05


Tree=26
num_leaves=31
num_cat=11
split_feature=0 0 0 1 1 1 0 7 0 6 6 1 6 0 0 0 0 1 7 0 1 1 1 0 7 6 6 2 7 7
split_gain=16128.7 3797.05 3744.74 1945.66 1373.15 1316.96 940.646 870.119 712.571 708.494 660.438 642.91 594.334 587.244 532.284 518.308 477.374 432.766 411.123 347.071 326.887 324.978 323.971 281.468 275.991 406.474 314.211 265.605 341.854 335.589
threshold=0 1 2 8.5000000000000018 20.500000000000004 9.5000000000000018 3 10.500000000000002 4 18.500000000000004 5.5000000000000009 22.500000000000004 21.500000000000004 5 6 7 8 10.500000000000002 10.500000000000002 9 18.500000000000004 8.5000000000000018 13.500000000000002 10 10.500000000000002 18.500000000000004 6.5000000000000009 1.0000000180025095e-35 16.500000000000004 29.500000000000004
decision_type=9 9 9 2 2 2 9 2 9 2 2 2 2 9 9 9 9 2 2 9 2 2 2 9 2 2 2 2 2 2
left_child=1 6 -2 13 7 8 -1 9 21 10 -5 16 19 -4 -9 -6 24 -16 22 -11 -19 -3 -8 -13 25 26 -7 -18 -29 -30
right_child=2 5 3 4 15 11 18 14 -10 12 -12 23 -14 -15 17 -17 27 20 -20 -21 -22 -23 -24 -25 -26 -27 -28 28 29 -31
leaf_value=-0.19764007084930679 0.14864112216025163 -0.20350431296248397 -0.012654859695264165 0.12578192899678661 -0.18175702499535529 -0.16958883666823149 -0.22857976643251005 0.023915379457791631 -0.1950664077929096 -0.10157069740371068 0.41674874879122542 0.0071175342986776087 0.27221903081046966 -0.19764007084930679 -0.018483725536637508 0.016972558684533734 -0.10876670168746383 0.33437869211291976 -0.19764007084930679 0.080344457229687916 0.063231786235235177 0.018697771873532255 -0.12837408833580052 -0.20812258431348785 -0.19238319067322385 -0.20300170633760617 0.013756248280079665 0.023218050564567872 -0.22216321410086995 0.0034791436396178991
leaf_weight=5826 11602 1402 2197 4221 3721 1798 4100 14272 3382 1777 20752 330 4801 2109 2897 6717 3989 11518 8846 2914 2567 1702 5892 1853 9038 2734 5793 18084 2042 3184
leaf_count=5826 11602 1402 2197 4221 3721 1798 4100 14272 3382 1777 20752 330 4801 2109 2897 6717 3989 11518 8846 2914 2567 1702 5892 1853 9038 2734 5793 18084 2042 3184
internal_value=0.00163838 -0.0147835 0.0159071 0.0120742 0.0139245 -0.00750709 -0.0310975 0.0166002 -0.0286772 0.0220789 0.0264986 -0.00469751 0.0104509 -0.0206224 0.0105586 -0.00292202 -0.00345677 0.0165372 -0.0256314 -0.00220635 0.0201668 -0.0112396 -0.018695 -0.0312185 -0.00945904 -0.00387893 0.00207483 0.000803764 0.00284427 -0.00841944
internal_weight=172060 79995 92065 80463 76157 55331 24664 65719 6486 34465 24973 48845 9492 4306 31254 10438 46662 16982 18838 4691 14085 3104 9992 2183 19363 10325 7591 27299 23310 5226
internal_count=172060 79995 92065 80463 76157 55331 24664 65719 6486 34465 24973 48845 9492 4306 31254 10438 46662 16982 18838 4691 14085 3104 9992 2183 19363 10325 7591 27299 23310 5226
cat_boundaries=0 2 4 6 8 10 13 15 18 20 23 25
cat_threshold=449130898 3168290112 8396946 806879296 536870912 2424960 130 269484032 268763392 12583936 67112452 16910866 1 86114368 1090684932 1090535936 33558556 2 38014976 2151678208 85999616 16910340 2 262144 1024
is_linear=0
shrinkage=0.05


Tree=27
num_leaves=31
num_cat=9
split_feature=0 0 0 1 0 1 0 0 1 1 0 1 1 7 0 7 7 2 1 2 6 6 4 0 6 3 7 6 6 7
split_gain=17068.5 3468.22 3118.44 2147.35 1085.24 970.387 762.809 753.725 667.659 716.662 564.937 534.352 518.828 455.36 444.09 418.489 414.052 494.206 409.504 395.819 378.483 308.722 405.089 303.658 289.436 295.256 248.461 240.773 240.163 250.902
threshold=0 1 2 8.5000000000000018 3 9.5000000000000018 4 5 20.500000000000004 11.500000000000002 6 20.500000000000004 19.500000000000004 11.500000000000002 7 10.500000000000002 16.500000000000004 1.0000000180025095e-35 10.500000000000002 4.5000000000000009 5.5000000000000009 18.500000000000004 1.0000000180025095e-35 8 8.5000000000000018 5.5000000000000009 29.500000000000004 21.500000000000004 18.500000000000004 11.500000000000002
decision_type=9 9 9 2 9 2 9 9 2 2 9 2 2 2 9 2 2 2 2 2 2 2 2 9 2 2 2 2 2 2
left_child=2 6 -1 7 16 14 -2 -3 9 23 15 24 18 21 -4 -7 17 -5 -8 20 -19 22 -11 -6 25 -12 -18 -23 29 -26
right_child=1 3 5 4 8 10 12 -9 -10 13 11 -13 -14 -15 -16 -17 26 19 -20 -21 -22 27 -24 -25 28 -27 -28 -29 -30 -31
leaf_value=-0.18775806730684144 1.3391479575241885 0.0081464316303880412 0.078401012738071874 -0.1169467164154776 -0.12516208863781966 -0.13530425802490936 0.16615224538529816 -0.1878867504596613 -0.052928459127145902 0.37566220960057817 -0.14831522459335461 -0.19669338355666613 0.12494971775552699 0.15571751059178496 -0.2093233849932096 -0.18775806730684144 -0.21188025034069657 -0.09047116571220766 0.48589835299873912 -0.033061703687610057 0.10006403657511119 -0.001538702340872078 0.0060982018884420345 0.08976302206199574 0.013068435866075668 -0.20067517229933679 -0.018752000809152847 0.25860807926994628 -0.16209920696511235 -0.15638255012230148
leaf_weight=10565 6863 1326 443 4155 3468 8009 3823 3641 7166 12599 4310 3565 3801 13677 4656 7102 3601 2722 12543 7218 14384 2324 1402 7623 5037 909 4586 2369 4384 3789
leaf_count=10565 6863 1326 443 4155 3468 8009 3823 3641 7166 12599 4310 3565 3801 13677 4656 7102 3601 2722 12543 7218 14384 2324 1402 7623 5037 909 4586 2369 4384 3789
internal_value=-0.00131117 0.00916296 -0.0249863 0.00454693 0.00636699 -0.0188942 0.0249112 -0.027431 0.0111102 0.0134439 -0.0160881 -0.0109571 0.0199856 0.0172021 -0.0393509 -0.0235335 -0.000185407 0.00266337 0.0238604 0.00538563 0.00952882 0.0222745 0.0259946 0.00247498 -0.00753432 -0.0175034 -0.0100953 0.0111762 -0.00359576 0.00115568
internal_weight=172060 119291 52769 92261 87294 42204 27030 4967 50628 43462 37105 21994 20167 32371 5099 15111 36666 28479 16366 24324 17106 18694 14001 11091 18429 5219 8187 4693 13210 8826
internal_count=172060 119291 52769 92261 87294 42204 27030 4967 50628 43462 37105 21994 20167 32371 5099 15111 36666 28479 16366 24324 17106 18694 14001 11091 18429 5219 8187 4693 13210 8826
cat_boundaries=0 2 4 6 8 10 13 15 17 19
cat_threshold=583020690 3027763656 3584 328210 536871042 271581312 419758336 142754816 0 327680 67108868 16910336 3 8396800 537395272 0 4194304 69337088 1073745920
is_linear=0
shrinkage=0.05


Tree=28
num_leaves=31
num_cat=10
split_feature=0 0 0 1 1 1 0 0 0 1 0 0 0 2 2 7 1 1 2 7 7 7 1 1 7 7 6 6 0 6
split_gain=14407.8 4099.38 3964.19 1495.44 1404.42 1213.16 1032.54 951.635 849.318 743.025 808.3 705.613 540.631 471.754 611.651 425.141 385.852 362.583 357.931 401.228 351.132 339.781 319.131 302.745 301.481 284.069 408.457 327.288 261.137 260.561
threshold=0 1 2 9.5000000000000018 9.5000000000000018 19.500000000000004 3 4 5 18.500000000000004 6 7 8 3.5000000000000004 1.5000000000000002 10.500000000000002 8.5000000000000018 22.500000000000004 5.5000000000000009 11.500000000000002 10.500000000000002 6.5000000000000009 8.5000000000000018 13.500000000000002 12.500000000000002 10.500000000000002 18.500000000000004 21.500000000000004 9 5.5000000000000009
decision_type=9 9 9 2 2 2 9 9 9 2 9 9 9 2 2 2 2 2 2 2 2 2 2 2 2 2 2 2 9 2
left_child=2 -2 7 8 11 6 25 -1 -3 13 -11 22 -7 14 28 23 -10 -14 19 -15 21 -8 -4 -9 -20 26 29 -28 -6 -5
right_child=1 3 4 5 9 12 20 15 16 10 -12 -13 17 18 -16 -17 -18 -19 24 -21 -22 -23 -24 -25 -26 -27 27 -29 -30 -31
leaf_value=-0.17837016394149938 0.074251668176029642 0.044585307079194086 -0.18393475979137675 -0.02225915188787795 0.019542519109064928 0.18340255112028567 0.34359583933624233 -0.21038556520963905 -0.17836372978385839 -0.19254162909405423 -0.027762606260056888 -0.17484691815360362 -0.023087689899518617 -0.01565414303825783 0.10510599735263711 -0.17837016394149938 -0.094448927417647432 -0.16848493094167455 -0.066028071576382893 -0.19300521992803096 0.23762011431176797 0.6471681081523496 0.018700483320313311 -0.11519017101776506 0.059641505351194016 0.010526917276989067 -0.10480160758531572 0.071380878657835642 -0.097425939754577418 0.24084383330743311
leaf_weight=5826 11602 4939 1402 1381 5124 4295 11345 4100 2109 5219 9223 3382 8495 5851 10024 8846 2733 1930 2488 4178 16643 6767 1702 5892 1773 10077 1537 1545 4965 6667
leaf_count=5826 11602 4939 1402 1381 5124 4295 11345 4100 2109 5219 9223 3382 8495 5851 10024 8846 2733 1930 2488 4178 16643 6767 1702 5892 1773 10077 1537 1545 4965 6667
internal_value=0.00119377 0.0146799 -0.0143272 0.01067 -0.00689272 0.013207 0.0165666 -0.0309962 -0.00765259 -0.0039912 -0.0135092 -0.0287542 0.000434783 4.36008e-06 0.00493959 -0.0254987 -0.0225062 -0.00571634 -0.00694192 -0.0120999 0.0218711 0.026695 -0.0114001 -0.0184448 0.00519831 0.00785926 0.0133693 -0.00210902 -0.00375161 0.0192967
internal_weight=172060 92065 79995 80463 55331 70682 55962 24664 9781 48845 14442 6486 14720 34403 20113 18838 4842 10425 14290 10029 34755 18112 3104 9992 4261 21207 11130 3082 10089 8048
internal_count=172060 92065 79995 80463 55331 70682 55962 24664 9781 48845 14442 6486 14720 34403 20113 18838 4842 10425 14290 10029 34755 18112 3104 9992 4261 21207 11130 3082 10089 8048
cat_boundaries=0 2 4 6 8 10 13 15 17 19 21
cat_threshold=449130898 3168290112 536870912 2424960 8396946 806879296 86114368 16910340 130 269484032 67112452 16910864 3 4198400 2281718016 268763392 12583936 69338116 133632 4260096 209731840
is_linear=0
shrinkage=0.05


Tree=29
num_leaves=31
num_cat=10
split_feature=0 0 0 0 1 1 1 1 1 0 1 0 7 3 0 0 7 3 0 6 2 2 3 4 6 6 0 6 7 1
split_gain=15983.7 3970.95 2437.55 1634.39 1492.9 1053.25 1351.11 794.645 513.628 483.008 478.836 587.499 506.868 668.053 458.256 437.62 398.93 340.524 334.182 313.673 512.228 654.489 471.708 298.918 429.46 662.138 336.988 287.942 275.268 272.289
threshold=0 1 2 3 8.5000000000000018 9.5000000000000018 18.500000000000004 9.5000000000000018 11.500000000000002 4 22.500000000000004 5 10.500000000000002 5.5000000000000009 6 7 10.500000000000002 5.5000000000000009 8 8.5000000000000018 1.5000000000000002 2.5000000000000004 5.5000000000000009 1.0000000180025095e-35 18.500000000000004 21.500000000000004 9 21.500000000000004 11.500000000000002 22.500000000000004
decision_type=9 9 9 9 2 2 2 2 2 9 2 9 2 2 9 9 2 2 9 2 2 2 2 2 2 2 9 2 2 2
left_child=2 3 -1 -2 15 9 8 -4 -7 -5 12 -12 13 23 -8 -3 17 -9 -19 22 27 -22 -14 24 26 -26 -6 -21 -10 -16
right_child=1 4 7 5 10 6 14 16 28 -11 11 -13 19 -15 29 -17 -18 18 -20 20 21 -23 -24 -25 25 -27 -28 -29 -30 -31
leaf_value=-0.16945165574442439 1.2684779762391774 0.019706896776122029 -0.16610457224592345 -0.16944554329466543 0.001643239636590188 0.13406996186470119 0.3900252266200912 -0.16604505737927486 0.45580328339754428 0.022077628812094921 0.0098028730811270393 -0.21259142526668096 -0.014867344732168598 0.2153538887000849 0.031233369471766182 -0.16975006702899809 -0.17052585463751824 -0.22943161798693215 0.052805123517087799 -0.15811110481397997 0.26844207652058677 -0.0013540570660776298 -0.20793024963809864 -0.12570822158071504 -0.14572872642002893 0.048550282020527205 0.084763952996399369 0.037798191687666627 0.26889065548558744 -0.16006068439459079
leaf_weight=10565 6863 796 3771 2824 7067 7374 2789 11720 14776 3616 845 1926 6206 6171 9953 2987 12900 305 2525 5032 2989 10731 3109 2506 4561 4546 8567 1483 11034 1523
leaf_count=10565 6863 796 3771 2824 7067 7374 2789 11720 14776 3616 845 1926 6206 6171 9953 2987 12900 305 2525 5032 2989 10731 3109 2506 4561 4546 8567 1483 11034 1523
internal_value=-0.00160816 0.00702312 -0.0285123 0.0163606 -0.00113761 0.0134279 0.0160056 -0.0214707 0.0215375 -0.00554348 0.000619876 -0.0197221 0.00151506 0.00573344 0.00313705 -0.0316812 -0.0185209 -0.0128454 0.00272085 -0.0032555 0.000239684 0.00572157 -0.0108481 0.00236907 0.00403581 -0.00459537 0.00906358 -0.0113047 0.0248625 -0.00128853
internal_weight=172060 130274 41786 60752 69522 53889 47449 31221 33184 6440 65739 2771 62968 33418 14265 3783 27450 14550 2830 29550 20235 13720 9315 27247 24741 9107 15634 6515 25810 11476
internal_count=172060 130274 41786 60752 69522 53889 47449 31221 33184 6440 65739 2771 62968 33418 14265 3783 27450 14550 2830 29550 20235 13720 9315 27247 24741 9107 15634 6515 25810 11476
cat_boundaries=0 2 5 7 9 11 13 15 17 18 20
cat_threshold=583020690 2956460232 1140870660 1107661330 3 536871042 271581312 0 327680 1073758208 1107333122 2490368 134144 67109888 512 0 21104640 8388608 134414592 71320832
is_linear=0
shrinkage=0.05


Tree=30
num_leaves=31
num_cat=14
split_feature=0 0 0 1 1 0 1 0 0 1 0 0 1 0 0 1 1 0 1 0 7 0 1 6 0 7 6 7 4 7
split_gain=13233 3651.32 3552.57 1334.87 1266.8 902.603 901.132 666.862 652.519 624.496 678.837 530.886 490.68 404.967 396.745 365.655 600.054 390.503 361.067 370.255 322.675 319.078 303.77 283.962 282.351 230.082 221.167 216.87 214.709 213.777
threshold=0 1 2 8.5000000000000018 8.5000000000000018 3 20.500000000000004 4 5 11.500000000000002 6 7 11.500000000000002 8 9 10.500000000000002 18.500000000000004 10 18.500000000000004 11 11.500000000000002 12 21.500000000000004 8.5000000000000018 13 13.500000000000002 1.5000000000000002 10.500000000000002 1.0000000180025095e-35 9.5000000000000018
decision_type=9 9 9 2 2 9 2 9 9 2 9 9 2 9 9 2 2 9 2 9 2 9 2 2 9 2 2 2 2 2
left_child=1 5 11 -3 7 12 9 -4 22 13 -11 -2 -1 -6 -8 17 21 -10 19 -12 -13 -17 23 25 -18 -5 -16 -14 -20 -23
right_child=2 3 4 8 6 -7 14 -9 15 10 18 20 27 -15 26 16 24 -19 28 -21 -22 29 -24 -25 -26 -27 -28 -29 -30 -31
leaf_value=-0.23712553008576959 0.0083204317218863906 -0.16126256367754818 0.0050934329429557224 -0.1562610893382968 0.13232065083819186 -0.16097907295720315 -0.19502707135221781 -0.16095803994321553 0.0056094550040531217 0.031148057805122243 0.38745996012636646 0.97561777661831928 -0.10112840959791303 -0.027215723817474037 -0.29177173216206426 0.060049515420781144 -0.20456135631323955 -0.18681918038067008 0.1643704409625947 0.22013342613472453 0.35096327382695486 0.039133318730162084 -0.16923626597547337 -0.058028568178436407 -0.04291709142722118 -0.18143940036315984 0.015923720984596823 -0.16092536301254851 -0.29079881808404195 -0.045063350373751289
leaf_weight=4395 8093 3111 1884 3533 6228 5826 2309 2084 2446 10288 14670 5841 5751 9158 433 9753 2242 2905 6447 13080 4329 5591 1924 12182 8139 1228 6802 4974 320 6094
leaf_count=4395 8093 3111 1884 3533 6228 5826 2309 2084 2446 10288 14670 5841 5751 9158 433 9753 2242 2905 6447 13080 4329 5591 1924 12182 8139 1228 6802 4974 320 6094
internal_value=0.000860746 -0.0139968 0.0138003 -0.00764056 0.00890548 -0.0319336 0.0104704 -0.0185736 -0.00587201 0.0127336 0.0157181 0.0335386 -0.0254461 0.00404264 -0.00380344 -0.00202528 7.85694e-06 -0.0141189 0.0190764 0.0216072 0.0258546 0.00478589 -0.0134423 -0.0113115 -0.00985936 -0.0216656 0.00196687 -0.019697 0.00872617 -0.000790936
internal_weight=172060 80094 91966 59148 73703 20946 69735 3968 56037 60191 44805 18263 15120 15386 9544 37170 31819 5351 34517 27750 10170 21438 18867 16943 10381 4761 7235 10725 6767 11685
internal_count=172060 80094 91966 59148 73703 20946 69735 3968 56037 60191 44805 18263 15120 15386 9544 37170 31819 5351 34517 27750 10170 21438 18867 16943 10381 4761 7235 10725 6767 11685
cat_boundaries=0 2 4 6 8 11 13 15 17 20 22 24 27 29 31
cat_threshold=449130898 3168290120 8396946 806879232 536872960 2425472 8396816 537395200 67110404 16910354 2 37752832 2151678024 64 16910340 536870912 2359424 1073743424 16908308 1 16794112 4116 268763392 1024 17920 33591314 1 134217728 209731584 0 134234368
is_linear=0
shrinkage=0.05


Tree=31
num_leaves=31
num_cat=12
split_feature=0 0 0 1 0 1 1 0 0 0 1 0 1 0 1 2 2 1 0 1 1 7 3 0 7 6 3 6 0 3
split_gain=12790.9 3845.57 3519.28 1299.89 1204.1 1100.09 860.33 864.912 620.383 614.023 601.46 625.225 456.32 445.488 426.699 410.702 438.894 409.355 336.103 326.542 322.984 300.421 309.245 355.111 251.101 240.149 332.784 314.996 229.404 219.034
threshold=0 1 2 9.5000000000000018 3 8.5000000000000018 20.500000000000004 4 5 6 19.500000000000004 7 10.500000000000002 8 9.5000000000000018 3.5000000000000004 1.5000000000000002 18.500000000000004 9 10.500000000000002 8.5000000000000018 10.500000000000002 5.5000000000000009 10 16.500000000000004 8.5000000000000018 5.5000000000000009 16.500000000000004 11 5.5000000000000009
decision_type=9 9 9 2 9 2 2 9 9 9 2 9 2 9 2 2 2 2 9 2 2 2 2 9 2 2 2 2 9 2
left_child=2 4 -1 9 -2 8 7 12 -4 20 13 -12 28 -5 -6 16 -9 -14 -8 -15 -3 22 -16 -24 -21 26 -17 -27 -7 -26
right_child=1 3 5 10 14 6 18 15 -10 -11 11 -13 17 19 21 25 -18 -19 -20 24 -22 -23 23 -25 29 27 -28 -29 -30 -31
leaf_value=0.0079044101357920848 -0.15293011930934297 -0.1581873902664806 -0.15292536413277136 -0.050777493598165795 -0.1785039238345843 0.25436261364175794 -0.15331925928433945 0.054235120433627416 0.0048387612958078925 -0.153359660929375 -0.16882845346719419 -0.013455818972587609 0.3832655755608535 -0.15301536713051409 -0.17379295250285481 0.03642336369301926 0.23161498904407474 0.15740655706206327 0.015803199318671534 0.069519084039843193 0.011985269266986443 -0.15287909486192108 -0.21290361660768992 0.059139996694151979 0.01193565366397431 0.16141934382855966 -0.25648180446591767 -0.028474228361661781 -0.058131793974765068 -0.20135478196330292
leaf_weight=11602 5826 1581 1726 13696 2933 1804 2905 10281 2389 2956 4541 6168 18442 2476 8346 2598 10338 4390 7094 16857 1943 9167 305 1706 3943 6005 1748 4407 2785 1102
leaf_count=11602 5826 1581 1726 13696 2933 1804 2905 10281 2389 2956 4541 6168 18442 2476 8346 2598 10338 4390 7094 16857 1943 9167 305 1706 3943 6005 1748 4407 2785 1102
internal_value=0.000605603 -0.0134257 0.0138494 -0.00574874 -0.0284187 0.00997374 0.0113968 0.0135657 -0.0151762 -0.0267901 -0.00295492 -0.0134233 0.0202308 -1.05059e-05 -0.0231384 0.0083915 0.0129516 0.0231298 -0.00222522 0.00404297 -0.0125637 -0.0204774 -0.0146423 0.00295873 0.00599032 0.00202602 -0.0078463 0.00614675 0.00585095 -0.00379584
internal_weight=172060 83546 88514 55263 28283 76912 72797 62798 4115 6480 48783 10709 27421 38074 22457 35377 20619 22832 9999 24378 3524 19524 10357 2011 21902 14758 4346 10412 4589 5045
internal_count=172060 83546 88514 55263 28283 76912 72797 62798 4115 6480 48783 10709 27421 38074 22457 35377 20619 22832 9999 24378 3524 19524 10357 2011 21902 14758 4346 10412 4589 5045
cat_boundaries=0 3 5 7 9 12 14 16 18 20 23 24 26
cat_threshold=1679969860 1126668950 3 8396946 2954362952 536870912 2424960 130 269484032 19968 33559058 1 1075986496 1107333124 285540608 12583936 20975616 201343232 33820672 4195584 1073758720 4116 2 8388608 3584 16
is_linear=0
shrinkage=0.05


Tree=32
num_leaves=31
num_cat=10
split_feature=0 0 0 1 1 0 1 0 0 0 1 0 1 1 0 1 2 2 2 7 0 3 1 6 2 2 2 2 7 4
split_gain=11811 3938.04 3657.64 1805.63 1048.07 869.534 792.383 800.385 766.524 600.965 451.325 414.399 396.933 520.674 374.404 371.907 341.304 377.136 325.099 310.563 255.689 249.923 232.51 229.826 288.497 395.903 224.995 267.626 317.848 248.888
threshold=0 1 2 9.5000000000000018 8.5000000000000018 3 21.500000000000004 4 5 6 18.500000000000004 7 10.500000000000002 18.500000000000004 8 8.5000000000000018 3.5000000000000004 1.5000000000000002 1.0000000180025095e-35 16.500000000000004 9 5.5000000000000009 22.500000000000004 5.5000000000000009 4.5000000000000009 1.0000000180025095e-35 2.5000000000000004 1.5000000000000002 13.500000000000002 1.0000000180025095e-35
decision_type=9 9 9 2 2 9 2 9 9 9 2 9 2 2 9 2 2 2 2 2 9 2 2 2 2 2 2 2 2 2
left_child=1 11 -2 8 9 18 7 12 15 -4 19 -1 -6 -14 -8 -3 17 -9 -5 23 -12 -21 -22 -7 25 -25 27 28 29 -20
right_child=2 3 4 5 6 10 14 16 -10 -11 20 -13 13 -15 -16 -17 -18 -19 26 21 22 -23 -24 24 -26 -27 -28 -29 -30 -31
leaf_value=-0.14630933901191884 0.0075091896290024884 -0.15027802075315658 -0.14527909592613275 -0.1742582734489333 0.088787077046941942 -0.030775069197130203 0.11840123434909487 0.041849045576927327 -0.14982501620998959 0.0045968232310174889 -0.20052943550993751 -0.14528361334387579 0.35853431745129538 0.14820560588824927 -0.16404049655204914 0.0047297187905011029 0.010031474466309566 0.2128166365557938 0.033218630148660201 -0.0087220576304118513 -0.014324369499331269 -0.20976354918461182 -0.19842169007275168 -0.058027130999381532 -0.017853433427788092 0.15039412319797468 -0.13427207689884071 0.053363361994935944 -0.193772569675108 -0.14765560134702185
leaf_weight=6535 11602 1777 1726 3601 5056 4260 3207 10033 4599 2401 1396 5826 20218 6922 3059 2185 14403 10074 1817 4823 8135 1265 1588 1926 3836 10250 14169 3569 1188 614
leaf_count=6535 11602 1777 1726 3601 5056 4260 3207 10033 4599 2401 1396 5826 20218 6922 3059 2185 14403 10074 1817 4823 8135 1265 1588 1926 3836 10250 14169 3569 1188 614
