tree
version=v4
num_class=1
num_tree_per_iteration=1
label_index=0
max_feature_idx=14
objective=regression_l1
feature_names=wait_minutes wait_lag_1 wait_lag_2 wait_lag_3 hour_of_day day_of_week month is_holiday is_holiday_weekend days_until_next_holiday days_since_last_holiday minutes_since_last_status_change closure_duration_minutes ride_id_cat status_cat
feature_infos=[0:300] [0:300] [0:300] [0:300] [8:21] [0:6] [5:6] [0:1] [0:1] [0:24] [0:35] [19.970549999999999:3669.9063333333334] [0:500] -1:28:58:55:47:8:27:54:56:38:33:61:48:16:59:65:63:41:12:18:64:51:2:22:40:13:36:14:50:24:42:6:44:46:10:26:49:62:23:9:11:43:34:17:21:57:30:52:39:29:7:1:25:4:60:53:35 none
tree_sizes=2434 2840 2923 2956 2935 2974 2970 2997 3004 2989 3011 3024 3012 3016 3021 3038 3015 3016 3018 3041 3014 3030 3040 3036 3028 3046 3030 3055 3022 3045 3042 3044 3036 3011 3034 3026 3039 3050 3041 3044 3039 3051 3020 3082 3034 3070 3033 3034 3029 3053 3033 3041 3068 3073 3036 3064 3052 3041 3045 3056 3057 3031 3040 3047 3048 3074 3044 3038 3049 3086 3075 3090 3094 3093 3097 3065 3059 3081 3047 3061 3078 3100 3059 3060 3066 2978 3093 3018 3097 3090 3041 3065 3003 3065 2953 2973 2979 2965 2933 2991 2992 2966 2959 2977 2962 2969 2954 3121 3073 3092 2978 3115 3126 2986 2964 3054 3049 3057 3006 3082 3070 2982 3053 3043 3079 3074 3102 3049 3070 3068 3078 3073 3062 3059 3062 3051 3045 2965 3005 2987 2993 3020 2960 2975 3025 2993 3011 2995 2993 3008 3061 3035 3020 3069 3030 3017 3088 3077 3055 3000 3030 3063 2992 3053 3034 2982 2941 2947 2918 2985 3018 3027 3042 3066 3042 3039 3044 3066 3051 3075 3085 3057 3031 3004 3018 3000 3036 3000 2981 3033 3050 2911 2965 2943 2982 3022 3066 2998 3023 3086

Tree=0
num_leaves=31
num_cat=10
split_feature=13 4 0 13 13 4 13 0 3 4 0 0 0 10 13 10 4 11 6 4 13 13 3 13 13 13 0 5 11 0
split_gain=52128.3 5049 3994.62 3631.01 3277.02 1042.17 982.497 794.062 566.334 501.791 414.061 397.306 340.592 299.551 230.164 225.14 207.885 200.334 176.628 164.331 143.341 129.478 125.533 124.089 124.006 117.478 111.264 106.114 104.73 101.862
threshold=0 17.500000000000004 22.500000000000004 1 2 16.500000000000004 3 27.500000000000004 27.500000000000004 13.500000000000002 42.500000000000007 37.500000000000007 27.500000000000004 10.500000000000002 4 11.500000000000002 16.500000000000004 670.08759166666675 5.5000000000000009 18.500000000000004 5 6 32.500000000000007 7 8 9 14.000000000000002 5.5000000000000009 630.06042500000001 37.500000000000007
decision_type=9 2 2 9 9 2 9 2 2 2 2 2 2 2 9 2 2 2 2 2 9 9 2 9 9 9 2 2 2 2
left_child=1 4 6 10 7 8 9 15 14 13 -3 -5 23 18 -4 -1 29 -15 25 20 -13 -18 -11 -6 -12 -2 -8 28 -17 -9
right_child=2 3 5 11 12 -7 26 16 -10 22 24 19 -14 17 -16 27 21 -19 -20 -21 -22 -23 -24 -25 -26 -27 -28 -29 -30 -31
leaf_value=25.25 25 25 24.75 24.399999999999999 25.25 24.5 24 25.25 25.25 24.25 25.25 25.25 26.25 24.5 25 25 24.25 25.25 25.5 24.5 24.75 25.25 24.75 25.75 26.75 24.75 24.5 25.25 25.5 25.75
leaf_weight=3505 1143 1299 1268 3835 1696 2953 25905 4055 2890 5674 552 774 30493 2727 2837 3075 172 154 211 956 461 738 428 2555 2668 1098 9507 456 135 3277
leaf_count=3505 1143 1299 1268 3835 1696 2953 25905 4055 2890 5674 552 774 30493 2727 2837 3075 172 154 211 956 461 738 428 2555 2668 1098 9507 456 135 3277
internal_value=24.9976 25.0298 24.9632 24.9984 25.0364 24.992 24.9571 25.0172 25.0025 24.9699 25.0322 24.973 25.045 24.9811 24.9905 25.0051 25.0278 24.9702 24.9939 24.9899 25.002 25.0053 24.9601 25.0317 25.0419 24.9898 24.9529 24.9964 24.9932 25.0306
internal_weight=117497 60702 56795 10545 50157 9948 46847 15413 6995 11435 4519 6026 34744 5333 4105 7171 8242 2881 2452 2191 1235 910 6102 4251 3220 2241 35412 3666 3210 7332
internal_count=117497 60702 56795 10545 50157 9948 46847 15413 6995 11435 4519 6026 34744 5333 4105 7171 8242 2881 2452 2191 1235 910 6102 4251 3220 2241 35412 3666 3210 7332
cat_boundaries=0 3 6 8 10 12 15 17 19 22 24
cat_threshold=1159876164 1124588054 3 67111940 1074201088 1 16908352 16828420 402723072 142606344 38010880 71828800 16896 33556498 2 0 16384 69222400 196608 0 1073741824 1 268435712 142606336
is_linear=0
shrinkage=1


Tree=1
num_leaves=31
num_cat=12
split_feature=13 0 0 4 4 13 13 4 13 4 13 10 2 11 13 6 3 13 10 13 4 13 13 9 9 6 13 13 4 4
split_gain=45941.8 4696.24 4590.82 2245.93 1586.21 1496.14 1454.22 958.676 949.428 689.913 632.921 457.74 375.806 306.705 298.935 221.434 217.491 207.642 206.283 185.309 183.58 168.498 149.206 138.135 147.015 131.334 128.065 112.575 104.933 99.3313
threshold=0 22.500000000000004 32.500000000000007 16.500000000000004 17.500000000000004 1 2 17.500000000000004 3 16.500000000000004 4 10.500000000000002 27.500000000000004 619.99461666666673 5 5.5000000000000009 27.500000000000004 6 11.500000000000002 7 15.500000000000002 8 9 8.5000000000000018 2.5000000000000004 5.5000000000000009 10 11 9.5000000000000018 18.500000000000004
decision_type=9 2 2 2 2 9 9 2 9 2 9 2 2 2 9 2 2 9 2 9 2 9 9 2 2 2 9 9 2 2
left_child=2 6 3 8 10 -6 9 12 16 11 20 15 26 22 -5 17 -1 -2 -10 23 -4 -7 -13 24 -20 -14 -3 -9 -28 -16
right_child=1 7 4 14 5 21 -8 27 18 -11 -12 13 25 -15 29 -17 -18 -19 19 -21 -22 -23 -24 -25 -26 -27 28 -29 -30 -31
leaf_value=0 0 -0.23750000000000002 0.48750000000000004 0.23750000000000002 1.25 0.23750000000000002 -0.72500000000000009 -0.47500000000000003 0.6875 -0.72500000000000009 1.1875 -0.47500000000000003 0.21250000000000002 0.025000000000000001 -0.25 0.22500000000000001 0.23750000000000002 -0.22500000000000001 0.48750000000000004 0.6875 0.21250000000000002 -0.26250000000000001 -0.46250000000000002 0.25 -0.012500000000000001 0.23750000000000002 0.25 -0.72500000000000009 0 -0.71999999999999997
leaf_weight=4872 2044 1074 3019 465 3198 1530 29657 691 3579 5490 28077 3470 2806 299 1478 438 2109 3038 242 1558 1153 1990 3105 1649 815 1928 235 1614 3742 2132
leaf_count=4872 2044 1074 3019 465 3198 1530 29657 691 3579 5490 28077 3470 2806 299 1478 438 2109 3038 242 1558 1153 1990 3105 1649 815 1928 235 1614 3742 2132
internal_value=-0.00265581 -0.0334518 0.0290803 0.0088629 0.0388932 0.0167907 -0.0405334 -0.00563275 0.0179 -0.0292081 0.0434975 -0.0226884 0.00120082 -0.0312991 -0.0240123 -0.0119656 0.00445573 -0.0149055 0.029823 0.022432 0.0251076 -0.00573654 -0.0335513 0.0143409 0.000283822 0.0113223 -0.00828549 -0.0346421 -0.00410083 -0.028826
internal_weight=117497 59631 57866 18899 38967 6718 47541 12090 14824 17884 32249 12394 9785 6874 4075 5520 6981 5082 7843 4264 4172 3520 6575 2706 1057 4734 5051 2305 3977 3610
internal_count=117497 59631 57866 18899 38967 6718 47541 12090 14824 17884 32249 12394 9785 6874 4075 5520 6981 5082 7843 4264 4172 3520 6575 2706 1057 4734 5051 2305 3977 3610
cat_boundaries=0 3 5 7 9 11 13 15 18 21 23 25 26
cat_threshold=1159876164 1107810838 3 67111940 459264 407179520 159384584 16908352 18436 16777280 51204 69337092 1073872896 268501248 142606336 69222912 167936 2 512 1107296258 1 4526080 1024 4456448 608698688 268435728
is_linear=0
shrinkage=0.05


Tree=2
num_leaves=31
num_cat=10
split_feature=13 0 0 4 4 13 4 13 13 13 13 4 3 4 10 9 0 4 10 13 4 3 9 0 6 4 13 9 13 13
split_gain=45926.9 4603.38 4572.72 2230.89 1621.77 1341.87 1195.06 1045.42 900.154 866.866 632.921 487.382 385.262 243.143 187.82 197.979 184.904 183.58 178.4 170.167 164.593 185.677 157.624 156.756 150.393 148.556 140.2 144.633 138.688 129.357
threshold=0 17.500000000000004 32.500000000000007 17.500000000000004 17.500000000000004 1 17.500000000000004 2 3 4 5 10.500000000000002 27.500000000000004 10.500000000000002 11.500000000000002 8.5000000000000018 42.500000000000007 15.500000000000002 10.500000000000002 6 17.500000000000004 22.500000000000004 18.500000000000004 7.5000000000000009 5.5000000000000009 18.500000000000004 7 2.5000000000000004 8 9
decision_type=9 2 2 2 2 9 2 9 9 9 9 2 2 2 2 2 2 2 2 9 2 2 2 2 2 2 9 2 9 9
left_child=2 9 3 7 10 16 8 18 12 11 17 23 13 -3 -9 26 -6 -4 22 -8 21 -13 -1 -2 -14 28 27 -16 -7 -5
right_child=1 6 4 29 5 25 19 14 -10 -11 -12 20 24 -15 15 -17 -18 -19 -20 -21 -22 -23 -24 -25 -26 -27 -28 -29 -30 -31
leaf_value=0.23750000000000002 -0.42624999999999996 0.22687500000000008 0.46312500000000001 0.23812499999999998 0.1875 -0.22437500000000005 -0.45124999999999993 0.65312500000000007 -0.23625000000000007 -0.67625000000000002 1.128125 -0.47624999999999995 0.20187500000000008 -0.18937500000000007 0.41312499999999996 0.42812500000000003 1.6000000000000001 0.20187500000000008 0 -0.68874999999999997 -0.92625000000000002 -0.20187500000000008 -0.012500000000000001 0 0.22562499999999996 -0.26187500000000002 0.42812500000000003 -0.03687500000000004 0.25062499999999999 -0.53400000000000003
leaf_weight=2543 1842 1088 3019 228 530 716 931 3291 4532 30248 28077 3608 2855 4990 188 2371 2668 1153 4536 2967 2753 888 1330 1136 1793 1734 755 720 1070 2937
leaf_count=2543 1842 1088 3019 228 530 716 931 3291 4532 30248 28077 3608 2855 4990 188 2371 2668 1153 4536 2967 2753 888 1330 1136 1793 1734 755 720 1070 2937
internal_value=-0.00268262 -0.0334736 0.0290483 0.00887084 0.0388418 0.016493 -0.0132857 0.0165756 -0.00697339 -0.0430364 0.0434975 -0.0303312 0.000931446 -0.00735439 0.0303681 0.023178 0.0398691 0.0251076 0.00451954 -0.0379938 -0.0373569 -0.0314613 0.0124064 -0.0133311 0.0117685 -0.00484419 0.00995189 -0.00337691 0.00526316 -0.0294313
internal_weight=117497 59631 57866 18899 38967 6718 19156 15734 15258 40475 32249 10227 10726 6078 7325 4034 3198 4172 8409 3898 7249 4496 3873 2978 4648 3520 1663 908 1786 3165
internal_count=117497 59631 57866 18899 38967 6718 19156 15734 15258 40475 32249 10227 10726 6078 7325 4034 3198 4172 8409 3898 7249 4496 3873 2978 4648 3520 1663 908 1786 3165
cat_boundaries=0 3 5 7 9 11 13 14 17 19 21
cat_threshold=1159876164 1107810838 3 67111940 459264 16908352 51204 444666128 159383560 406917376 159383552 16777280 51204 268435728 69222912 131072 2 1090535488 53252 67109888 1073872896
is_linear=0
shrinkage=0.05


Tree=3
num_leaves=31
num_cat=10
split_feature=13 0 13 4 4 13 4 13 0 13 0 10 0 13 11 10 9 6 10 4 9 6 4 13 9 13 13 9 13 9
split_gain=45334.7 5373.17 4046.58 2551.79 1676.71 1403.25 1365.19 1157.7 918.548 718.011 619.887 413.817 232.339 226.314 217.131 187.82 197.979 184.327 183.999 157.711 150.75 142.151 140.989 140.2 144.633 136.475 124.878 123.881 122.632 115.678
threshold=0 32.500000000000007 1 17.500000000000004 17.500000000000004 2 17.500000000000004 3 22.500000000000004 4 17.500000000000004 10.500000000000002 42.500000000000007 5 670.08759166666675 11.500000000000002 8.5000000000000018 5.5000000000000009 10.500000000000002 15.500000000000002 18.500000000000004 5.5000000000000009 17.500000000000004 6 2.5000000000000004 7 8 15.500000000000002 9 5.5000000000000009
decision_type=9 2 9 2 2 9 2 9 2 9 2 2 2 9 2 2 2 2 2 2 2 2 2 9 2 9 9 2 9 2
left_child=1 3 6 7 9 12 8 18 11 19 28 21 -6 -5 -13 -9 23 -10 20 -3 29 26 -12 24 -17 -8 -2 -19 -4 -1
right_child=2 4 10 13 5 -7 25 15 17 -11 22 14 -14 -15 -16 16 -18 27 -20 -21 -22 -23 -24 -25 -26 -27 -28 -29 -30 -31
leaf_value=-0.0030312500000000855 -0.40929687499999989 0.43996874999999991 -0.62993750000000004 0.014824999999999911 0.17812500000000001 -0.19878125000000005 -0.42868749999999989 0.62046875000000012 -0.0011562500000000143 1.0717187500000001 -0.22443750000000018 -0.42928125000000006 1.27 -0.53080000000000005 0.25756250000000008 0.39246874999999992 0.40671874999999996 0.0094687499999999147 0 0.21678125000000004 -0.011343749999999986 0.46374999999999994 -0.65431250000000007 0.40671874999999996 -0.035031250000000118 -0.87993750000000004 -0.16615624999999989 0.46434374999999994 -0.87993750000000004 0.22562499999999996
leaf_weight=647 1232 3534 8682 349 704 3159 1441 3291 4228 28077 4604 4650 2951 3382 178 188 2371 1200 5333 1250 1573 238 1248 755 720 2854 2241 866 23133 2418
leaf_count=647 1232 3534 8682 349 704 3159 1441 3291 4228 28077 4604 4650 2951 3382 178 188 2371 1200 5333 1250 1573 238 1248 755 720 2854 2241 866 23133 2418
internal_value=-0.00240772 0.0276321 -0.0345128 0.00720264 0.0384663 0.0158937 -0.0157618 0.0152926 -0.00858222 0.0431469 -0.0440282 -0.0192646 0.0369304 -0.0303002 -0.0289147 0.0303681 0.023178 0.00591039 0.00418295 0.0250521 0.0114705 -0.00670978 -0.0290841 0.00995189 -0.00337691 -0.0405937 -0.00927152 0.018151 -0.0467908 0.0179282
internal_weight=117497 60702 56795 21027 39675 6814 19128 17296 14833 32861 37667 8539 3655 3731 4828 7325 4034 6294 9971 4784 4638 3711 5852 1663 908 4295 3473 2066 31815 3065
internal_count=117497 60702 56795 21027 39675 6814 19128 17296 14833 32861 37667 8539 3655 3731 4828 7325 4034 6294 9971 4784 4638 3711 5852 1663 908 4295 3473 2066 31815 3065
cat_boundaries=0 3 5 8 10 12 14 17 19 20 22
cat_threshold=1159876164 1124588054 3 402723072 142606344 67111940 459264 1 16908352 16828420 16777280 16828420 67109892 1073872896 69222912 131072 2 268435712 8 134221824 4456464 4195392
is_linear=0
shrinkage=0.05


Tree=4
num_leaves=31
num_cat=13
split_feature=13 0 13 4 4 4 13 13 0 13 0 10 13 0 10 9 2 11 13 4 6 13 4 13 9 13 13 5 13 13
split_gain=44975 5249.51 4015.03 2548.56 1964.38 1355.72 1213.88 1162.15 874.777 718.011 630.702 446.534 226.314 197.629 187.82 197.979 183.042 172.058 163.837 157.711 157.023 153.708 143.913 140.2 144.633 136.475 122.632 116.389 113.2 103.76
threshold=0 32.500000000000007 1 17.500000000000004 17.500000000000004 17.500000000000004 2 3 22.500000000000004 4 17.500000000000004 10.500000000000002 5 52.500000000000007 11.500000000000002 8.5000000000000018 27.500000000000004 670.08759166666675 6 15.500000000000002 5.5000000000000009 7 17.500000000000004 8 2.5000000000000004 9 10 4.5000000000000009 11 12
decision_type=9 2 9 2 2 2 9 9 2 9 2 2 9 2 2 2 2 2 9 2 2 9 2 9 2 9 9 2 9 9
left_child=1 3 5 7 9 8 13 16 11 19 26 21 -5 -6 -9 23 -1 -13 -8 -3 -10 -2 28 24 -16 -7 -4 -23 -12 -21
right_child=2 4 10 12 6 25 18 14 20 -11 22 17 -14 -15 15 -17 -18 -19 -20 29 -22 27 -24 -25 -26 -27 -28 -29 -30 -31
leaf_value=0 -0.20578515624999999 0.4179703125 -0.59844062499999995 0.014083749999999996 0.41921874999999997 -0.40725312499999994 0.14959375000000003 0.58944531249999998 -0.0010984374999999603 1.0181328125 -0.190715625 -0.40781718750000007 -0.50426000000000004 1.9564999999999999 0.37284531249999997 0.38638281249999995 0.21693281249999999 0.24468437500000012 -0.25196718750000002 -0.49405781250000003 0.21387031249999994 0.029620312499999992 -0.62159687500000005 0.38638281249999995 -0.033279687500000148 -0.83594062499999999 -0.83594062499999999 -0.2411140625 -0.41571562500000003 0.20594218750000001
leaf_weight=6600 1310 3534 8682 349 1066 1441 1646 3291 4228 28077 2656 4650 3382 2016 188 2371 3371 178 2086 316 2066 1747 1248 755 720 2854 23133 654 1948 934
leaf_count=6600 1310 3534 8682 349 1066 1441 1646 3291 4228 28077 2656 4650 3382 2016 188 2371 3371 178 2086 316 2066 1747 1248 755 720 2854 23133 654 1948 934
internal_value=-0.00254858 0.0273719 -0.034526 0.00717887 0.0380807 -0.0158481 0.0136484 0.0152636 -0.00869345 0.0431469 -0.0440043 -0.0191182 -0.0303002 0.0368047 0.0303681 0.023178 0.00413285 -0.0291425 -0.00555852 0.0250521 0.00544963 -0.00607653 -0.0289303 0.00995189 -0.00337691 -0.0405937 -0.0467908 0.00147242 -0.024848 0.00984
internal_weight=117497 60702 56795 21027 39675 19128 6814 17296 14833 32861 37667 8539 3731 3082 7325 4034 9971 4828 3732 4784 6294 3711 5852 1663 908 4295 31815 2401 4604 1250
internal_count=117497 60702 56795 21027 39675 19128 6814 17296 14833 32861 37667 8539 3731 3082 7325 4034 9971 4828 3732 4784 6294 3711 5852 1663 908 4295 31815 2401 4604 1250
cat_boundaries=0 3 5 7 9 11 13 16 17 20 22 24 26 28
cat_threshold=1159876164 1124588054 3 402723072 142606344 67111940 328192 16908352 16828420 16777280 16828420 67109892 1073872896 512 1107427330 1 134221824 69222912 131072 2 268435712 8 4456464 4195392 46399504 1024 0 16384
is_linear=0
shrinkage=0.05


Tree=5
num_leaves=31
num_cat=11
split_feature=13 0 13 4 0 4 13 13 4 4 10 13 2 13 13 11 4 0 4 13 6 3 10 10 9 13 13 0 5 13
split_gain=41193.7 4583.32 3904.56 2979.33 1446.42 1117.31 1110.5 1071.94 662.142 646.16 556.363 442.706 441.805 331.813 324.525 296.708 264.182 226.627 224.282 223.172 174.679 169.155 140.97 139.632 159.536 130.261 124.545 122.428 117.854 117.466
threshold=0 37.500000000000007 1 16.500000000000004 22.500000000000004 16.500000000000004 2 3 16.500000000000004 16.500000000000004 10.500000000000002 4 27.500000000000004 5 6 619.99461666666673 18.500000000000004 52.500000000000007 18.500000000000004 7 5.5000000000000009 22.500000000000004 10.500000000000002 11.500000000000002 8.5000000000000018 8 9 17.500000000000004 4.5000000000000009 10
decision_type=9 2 9 2 2 2 9 9 2 2 2 9 2 9 9 2 2 2 2 9 2 2 2 2 2 9 9 2 2 9
left_child=2 3 4 6 9 13 12 17 21 10 14 -5 22 -3 28 25 19 -7 26 -9 -16 -6 -2 -8 29 -12 -13 -4 -1 -25
right_child=1 5 27 11 8 7 23 16 -10 -11 15 18 -14 -15 20 -17 -18 -19 -20 -21 -22 -23 -24 24 -26 -27 -28 -29 -30 -31
leaf_value=0.029420546875000043 0.21434374999999994 1.2172261718750002 -0.56914359375000001 0.14445299999999986 -0.1930548437499999 0.43553906250000002 0.71722617187500015 -0.19061882812500014 -0.38689046874999988 -0.61189046874999997 -0.37370757812500011 -0.71935492187500005 0.21477835937499989 0.62207179687500003 -0.18117984375000004 0.11898140625 -0.24632187500000013 1.7172261718750002 -0.59755950000000002 0.28438117187499989 0.12148140624999987 0.18043304687499992 0 -0.0066157031250002165 0.59206367187499997 -0.40939507812499998 -0.097559500000000021 -0.39492984374999995 -0.22016773437500012 0.367063671875
leaf_weight=1595 3163 17445 27331 1016 2107 1644 3287 757 2571 5186 2882 555 5897 7029 3054 311 1145 3138 2856 2523 330 4319 4336 580 2465 3659 1904 2764 603 1045
leaf_count=1595 3163 17445 27331 1016 2107 1644 3287 757 2571 5186 2882 555 5897 7029 3054 311 1145 3138 2856 2523 330 4319 4336 580 2465 3659 1904 2764 603 1045
internal_value=-0.00406819 0.0245267 -0.0347149 0.00922558 -0.020744 0.0368472 0.0183772 0.0219996 -0.00444037 -0.0290806 -0.0228969 -0.0208024 0.00977174 0.0424328 -0.0111788 -0.0324431 0.00420519 0.0383765 -0.026554 0.0114329 -0.0208603 0.00413943 0.0017269 0.0339448 0.027824 -0.0347118 -0.0155348 -0.0470603 0.00380435 0.0156615
internal_weight=117497 60785 56712 27104 26617 33681 20773 9207 8997 17620 12434 6331 13396 24474 5582 6852 4425 4782 5315 3280 3384 6426 7499 7377 4090 6541 2459 30095 2198 1625
internal_count=117497 60785 56712 27104 26617 33681 20773 9207 8997 17620 12434 6331 13396 24474 5582 6852 4425 4782 5315 3280 3384 6426 7499 7377 4090 6541 2459 30095 2198 1625
cat_boundaries=0 2 4 6 9 11 14 16 18 20 22 25
cat_threshold=986001810 3170371008 407179536 142607360 19005504 16959500 69340164 328192 1 1143081988 1073872896 67112452 1107628562 1 268501248 142606336 1090519040 20484 402653440 142606336 0 53248 67125760 0 2
is_linear=0
shrinkage=0.05


Tree=6
num_leaves=31
num_cat=9
split_feature=13 13 13 4 0 4 0 13 4 4 10 4 13 13 13 3 11 4 13 0 0 6 10 10 10 9 9 13 0 5
split_gain=40987.7 4614.97 3993.39 3147.77 1551.34 1050.78 981.686 690.29 679.128 646.16 556.363 393.933 390.27 324.525 314.653 303.577 296.708 290.639 227.333 189.038 184.31 174.679 146.627 143.127 141.539 134.136 130.822 130.261 122.428 117.854
threshold=0 1 2 17.500000000000004 22.500000000000004 18.500000000000004 27.500000000000004 3 17.500000000000004 16.500000000000004 10.500000000000002 16.500000000000004 4 5 6 37.500000000000007 619.99461666666673 16.500000000000004 7 37.500000000000007 27.500000000000004 5.5000000000000009 11.500000000000002 11.500000000000002 11.500000000000002 8.5000000000000018 2.5000000000000004 8 17.500000000000004 4.5000000000000009
decision_type=9 9 9 2 2 2 2 9 2 2 2 2 9 9 9 2 2 2 9 2 2 2 2 2 2 2 2 9 2 2
left_child=2 5 4 6 9 12 14 -7 19 10 13 15 -2 29 22 24 27 23 -9 -6 -5 -15 -3 -14 -8 26 -25 -12 -4 -1
right_child=1 3 28 20 8 7 11 18 -10 -11 16 -13 17 21 -16 -17 -18 -19 -20 -21 -22 -23 -24 25 -26 -27 -28 -29 -30 -31
leaf_value=0.027949519531250112 1.6563648632812502 0.4192515624999999 -0.54068641406250006 -0.57566902500000017 -0.010065167968749834 1.52281369140625 0.34096820703124991 0.022813691406249961 -0.54917407031249998 -0.58129594531249984 -0.35502219921875011 0.075250396875000014 0.79911173828124993 -0.17212085156249995 0 0.68612258203124998 0.11303233593749998 0.44544921875000015 -0.43644390000000011 0.20787233203125022 -0.2535878867187501 0.11540733593749995 0.163938671875 0.65636486328124999 0.1876229882812501 0.65636486328124999 0.15636486328124999 -0.38892532421874987 -0.37518335156250004 -0.20915934765625011
leaf_weight=1595 12391 1149 27331 2012 5819 1232 4657 1482 1616 5186 2882 1619 7169 3054 6804 5944 311 2772 763 1562 2696 330 1349 605 3238 3801 1102 3659 2764 603
leaf_count=1595 12391 1149 27331 2012 5819 1232 4657 1482 1616 5186 2882 1619 7169 3054 6804 5944 311 2772 763 1562 2696 330 1349 605 3238 3801 1102 3659 2764 603
internal_value=-0.00400563 0.0245176 -0.0345756 0.010306 -0.0204473 0.0378827 0.0174354 0.0119787 -0.0035623 -0.0290806 -0.0228969 0.0251585 0.0411315 -0.0111788 0.00460116 0.0278886 -0.0324431 0.0357106 -0.0045898 0.00286547 -0.0271665 -0.0208603 0.0197368 0.0389406 0.021463 0.0328794 0.0212361 -0.0347118 -0.0470603 0.00380435
internal_weight=117497 60785 56712 29468 26617 31317 24760 3477 8997 17620 12434 15458 27840 5582 9302 13839 6852 15449 2245 7381 4708 3384 2498 12677 7895 5508 1707 6541 30095 2198
internal_count=117497 60785 56712 29468 26617 31317 24760 3477 8997 17620 12434 15458 27840 5582 9302 13839 6852 15449 2245 7381 4708 3384 2498 12677 7895 5508 1707 6541 30095 2198
cat_boundaries=0 2 5 7 9 11 13 16 19 21
cat_threshold=986001810 3170371008 1140854276 1107624466 1 407179536 142607360 67110912 328192 3072 328208 268501248 142606336 2113536 36872 2 1028 1107296256 1 402653440 142606336
is_linear=0
shrinkage=0.05


Tree=7
num_leaves=31
num_cat=12
split_feature=13 0 13 4 4 4 13 13 10 0 2 11 13 6 13 1 13 1 13 13 4 4 4 13 10 13 10 9 13 9
split_gain=39467.3 4692.31 3650.12 2865.88 1235.83 1141.4 1073.55 997.852 777.447 544.025 438.046 412.107 408.198 389.78 331.523 229.762 220.321 211.258 207.184 184.839 177.749 154.436 148.521 138.359 130.231 117.139 114.229 110.897 110.081 107.369
threshold=0 37.500000000000007 1 16.500000000000004 16.500000000000004 16.500000000000004 2 3 10.500000000000002 17.500000000000004 27.500000000000004 670.08759166666675 4 5.5000000000000009 5 22.500000000000004 6 52.500000000000007 7 8 18.500000000000004 18.500000000000004 17.500000000000004 9 10.500000000000002 10 11.500000000000002 18.500000000000004 11 8.5000000000000018
decision_type=9 2 9 2 2 2 9 9 2 2 2 2 9 2 9 2 9 2 9 9 2 2 2 9 2 9 2 2 9 2
left_child=1 3 4 6 8 14 10 17 13 23 24 15 -5 18 -3 -10 21 -7 -2 -6 28 -9 25 -4 27 -11 -12 -1 -14 -8
right_child=2 5 9 12 19 7 29 16 11 22 26 -13 20 -15 -16 -17 -18 -19 -20 -21 -22 -23 -24 -25 -26 -27 -28 -29 -30 -31
leaf_value=0.20362656249999989 0.025270793554687466 1.1393164529296875 -0.48865209335937509 0.017377974999999959 -0.34008724179687494 0.41262142480468766 0.39140927636718748 0.43073465234375008 -0.34977108925781253 -0.16351480898437495 0.20523162890624996 0.22084946914062514 -0.68714969562500006 0.42191465292968755 0.57391979667968751 -0.041624409570312264 -0.07233650031250001 1.5485466201171878 -0.16292461367187505 -0.576367827734375 -0.5388980737500001 -0.18718358625000012 -0.55201137148437496 -0.73865209335937509 0 -0.35642418398437492 0.16973331230468747 -0.022025000000000183 -0.095385573750000147 0.55464224511718752
leaf_weight=1950 3340 17445 15063 1307 1892 1628 2452 1626 4223 2656 3523 545 555 1232 7024 1490 2196 3154 2405 4001 2741 603 1248 16752 4326 1948 2364 1213 1695 4900
leaf_count=1950 3340 17445 15063 1307 1892 1628 2452 1626 4223 2656 3523 545 555 1232 7024 1490 2196 3154 2405 4001 2741 603 1248 16752 4326 1948 2364 1213 1695 4900
internal_value=-0.00369754 0.0243313 -0.0336528 0.00881744 -0.0158428 0.0367888 0.0177924 0.0217823 -0.00737061 -0.0426905 0.00933064 -0.0201662 -0.0207209 0.00410635 0.0424353 -0.0241292 0.00461105 0.0375835 -0.00136641 -0.0348973 -0.0272046 0.0156543 -0.028691 -0.045279 0.00131526 -0.0245439 0.0195431 0.00902624 -0.0168444 0.0331296
internal_weight=117497 60702 56795 27026 19128 33676 20728 9207 13235 37667 13376 6258 6298 6977 24469 5713 4425 4782 5745 5893 4991 2229 5852 31815 7489 4604 5887 3163 2250 7352
internal_count=117497 60702 56795 27026 19128 33676 20728 9207 13235 37667 13376 6258 6298 6977 24469 5713 4425 4782 5745 5893 4991 2229 5852 31815 7489 4604 5887 3163 2250 7352
cat_boundaries=0 3 5 7 10 12 15 17 19 20 22 24 26
cat_threshold=1159876164 1124588054 3 402723072 142606344 19005504 16959492 69340164 328192 1 1143081988 1073874944 67112452 1107628562 1 512 1107429394 268435712 142606336 268435712 4456464 541590848 46399504 1024 0 53248
is_linear=0
shrinkage=0.05


Tree=8
num_leaves=31
num_cat=10
split_feature=13 0 0 4 4 13 13 13 4 4 13 10 13 13 13 3 0 10 6 4 13 4 10 9 6 13 4 11 10 11
split_gain=37830.1 4736.58 3383.19 2835.65 1208.17 1081.6 1024.58 999.24 613.544 539.929 423.281 400.905 354.561 338.283 331.813 250.989 245.505 214.474 225.922 164.255 154.703 182.881 142.71 139.19 138.111 125.01 120.713 119.768 117.687 111.618
threshold=0 37.500000000000007 22.500000000000004 17.500000000000004 16.500000000000004 1 2 3 17.500000000000004 15.500000000000002 4 10.500000000000002 5 6 7 27.500000000000004 22.500000000000004 10.500000000000002 5.5000000000000009 17.500000000000004 8 15.500000000000002 11.500000000000002 8.5000000000000018 5.5000000000000009 9 17.500000000000004 670.08759166666675 11.500000000000002 630.06042500000001
decision_type=9 2 2 2 2 9 9 9 2 2 9 2 9 9 9 2 2 2 2 2 9 2 2 2 2 9 2 2 2 2
left_child=2 3 5 6 14 9 16 -6 15 11 17 -1 19 -5 -3 25 -2 18 -7 -9 22 -22 -8 -24 -17 -4 -20 -13 -18 -30
right_child=1 4 8 13 7 10 20 12 -10 -11 -12 27 -14 -15 -16 24 28 -19 26 -21 21 -23 23 -25 -26 -27 -28 -29 29 -31
leaf_value=0.0026947538769531935 -0.00083000000000001963 1.0823506302832031 -0.17472310271484359 0.004147329179687631 1.6192456758300784 -0.45566588166015604 0.25642403911132805 0.59199990434570327 -0.4928969754101562 -0.51147678595703105 -0.70171948869140643 -0.32817800354492166 -0.047138581546875002 -0.39167220725000007 0.54522380684570315 0.041246128300781497 0.18782963652343751 -0.48859448869140643 -0.088602974785156274 0.1419903535644533 0.52691013286132815 0.12707263286132822 -0.026889094281249904 0.15574173828124993 0.19673962340820311 -0.0023385547167965371 -0.52441080291015607 0.24796324568359385 0 0.41703834512695315
leaf_weight=2545 4750 17445 1126 938 3093 8855 2282 1439 1901 3758 16987 3113 2214 3791 7029 1860 4032 9997 1105 2461 5448 683 816 1389 1445 3561 308 151 2730 245
leaf_count=2545 4750 17445 1126 938 3093 8855 2282 1439 1901 3758 16987 3113 2214 3791 7029 1860 4032 9997 1105 2461 5448 683 816 1389 1445 3561 308 151 2730 245
internal_value=-0.00330264 0.0240998 -0.0326716 0.00854486 0.0366245 -0.0382911 0.0159799 0.021185 -0.00611038 -0.0232066 -0.0421475 -0.0136771 0.00940562 -0.0266335 0.0424328 -3.75375e-05 0.00579162 -0.0371763 -0.0321192 0.0184655 0.02723 0.0324621 0.0200245 0.0109977 0.0105144 -0.00747813 -0.0135527 -0.0252757 0.0117454 0.00420168
internal_weight=117497 60785 56712 27104 33681 46819 22375 9207 9893 9567 37252 5809 6114 4729 24474 7992 11757 20265 10268 3900 10618 6131 4487 2205 3305 4687 1413 3264 7007 2975
internal_count=117497 60785 56712 27104 33681 46819 22375 9207 9893 9567 37252 5809 6114 4729 24474 7992 11757 20265 10268 3900 10618 6131 4487 2205 3305 4687 1413 3264 7007 2975
cat_boundaries=0 2 4 6 8 10 13 16 19 22 24
cat_threshold=986001810 3170371008 402718976 142606336 16908352 16828428 67110912 328192 4460560 541590848 2229764 1107427346 1 1140853764 1073872896 1 67112452 1107628562 1 69206016 131072 2 4456448 608698688
is_linear=0
shrinkage=0.05


Tree=9
num_leaves=31
num_cat=11
split_feature=13 0 13 4 0 4 13 13 4 4 10 13 13 13 11 13 2 13 3 6 4 4 6 13 0 5 4 10 13 11
split_gain=36261.1 4599.58 3260.7 2725.99 1422.89 1199.09 954.648 796.169 470.441 425.778 534.225 346.647 337.068 326.585 305.657 294.043 252.426 197.052 189.183 186.275 171.233 144.795 124.811 121.414 120.14 111.582 111.181 100.307 95.978 87.3051
threshold=0 37.500000000000007 1 17.500000000000004 22.500000000000004 16.500000000000004 2 3 17.500000000000004 17.500000000000004 10.500000000000002 4 5 6 619.99461666666673 7 27.500000000000004 8 27.500000000000004 5.5000000000000009 17.500000000000004 15.500000000000002 5.5000000000000009 9 17.500000000000004 4.5000000000000009 16.500000000000004 11.500000000000002 10 629.92705833333332
decision_type=9 2 9 2 2 2 9 9 2 2 2 9 9 9 2 9 2 9 2 2 2 2 2 9 2 2 2 2 9 2
left_child=1 3 4 7 9 15 -7 16 18 10 12 20 25 -5 28 -3 29 -4 -6 -14 -8 23 -20 24 -9 -2 27 -18 -12 -1
right_child=2 5 17 13 8 6 11 21 -10 -11 14 -13 19 -15 -16 -17 26 -19 22 -21 -22 -23 -24 -25 -26 -27 -28 -29 -30 -31
leaf_value=0 0.024469786544433703 1.0282330987690429 -0.44143619460839861 0.0039399627207032497 -0.022273741824706941 1.5382833920385743 0.56239990912841797 0.065998045947265646 -0.46825212663964849 -0.68009204236230447 -0.3033736346176758 -0.044781652469531252 -0.23872728445214852 -0.36809319095000004 0.1538255029404299 0.51796261650341791 0.18040515528320286 -0.66663351425683615 0.04010097618261739 0.12599972254785144 0.13489083588623069 0.14013064965576164 0.18690264223779299 0.51997627465576157 0.35085596215576165 -0.20483403264501945 -0.013161201107422117 0.14211336543945327 -0.34615835874902356 0.44348673437499997
leaf_weight=7026 1747 17445 10136 938 4357 3093 1439 775 1722 4502 3197 2214 4236 3770 396 7024 3144 17160 1857 479 2461 1058 1425 4747 2601 654 629 2119 4927 219
leaf_count=7026 1747 17445 10136 938 4357 3093 1439 775 1722 4502 3197 2214 4236 3770 396 7024 3144 17160 1857 479 2461 1058 1425 4747 2601 654 629 2119 4927 219
internal_value=-0.00307923 0.0237869 -0.0317921 0.00842707 -0.0202498 0.0361207 0.0207397 0.0157205 -0.0041502 -0.0277436 -0.0238424 0.009226 -0.0137296 -0.026147 -0.0322887 0.0419081 0.00780406 -0.044254 0.00117162 -0.0214709 0.0181841 0.0270101 0.0102377 0.0293057 0.0217956 0.00155537 0.0154956 0.01787 -0.0343796 0.0015597
internal_weight=117497 60702 56795 27026 29499 33676 9207 22318 9361 20138 15636 6114 7116 4708 8520 24469 13137 27296 7639 4715 3900 9181 3282 8123 3376 2401 5892 5263 8124 7245
internal_count=117497 60702 56795 27026 29499 33676 9207 22318 9361 20138 15636 6114 7116 4708 8520 24469 13137 27296 7639 4715 3900 9181 3282 8123 3376 2401 5892 5263 8124 7245
cat_boundaries=0 3 5 7 9 12 14 17 20 22 25 27
cat_threshold=1159876164 1124588054 3 407179536 146801672 67110912 328192 16908352 16959492 2229764 1107427346 1 268501248 142606336 1140853764 1073872896 1 67112452 1107628562 1 0 537395520 69222400 0 2 402653440 142606336
is_linear=0
shrinkage=0.05


Tree=10
num_leaves=31
num_cat=11
split_feature=13 2 13 4 0 4 13 13 4 4 10 13 13 0 11 4 13 4 13 6 0 0 13 10 10 7 5 13 13 10
split_gain=33372.2 4050.61 3535.34 2167.83 1332.45 1175.63 1007.96 650.504 509.117 460.107 395.459 377.513 333.363 310.757 268.744 254.457 247.793 237.796 220.277 184.674 174.713 166.287 157.859 137.604 122.635 115.853 111.582 95.3963 94.2267 91.3894
threshold=0 37.500000000000007 1 17.500000000000004 22.500000000000004 16.500000000000004 2 3 16.500000000000004 17.500000000000004 10.500000000000002 4 5 27.500000000000004 619.99461666666673 14.500000000000002 6 18.500000000000004 7 5.5000000000000009 27.500000000000004 37.500000000000007 8 11.500000000000002 11.500000000000002 1.0000000180025095e-35 4.5000000000000009 9 10 10.500000000000002
decision_type=9 2 9 2 2 2 9 9 2 2 2 9 9 2 2 2 9 2 9 2 2 2 9 2 2 2 2 9 9 2
left_child=2 3 4 7 9 11 22 13 21 10 12 -3 26 -2 -12 -9 17 -8 29 -14 -5 -6 -7 25 -15 -13 -1 -11 -22 -4
right_child=1 5 18 20 8 6 16 15 -10 27 14 23 19 24 -16 -17 -18 -19 -20 -21 28 -23 -24 -25 -26 -27 -28 -29 -30 -31
leaf_value=0.023246297217212053 4.1500000000027626e-05 1.6610516110180908 -0.41936438487797861 -0.48195240015250018 -0.00018506405964320295 1.9613692224366457 0.35147792905285657 0.46105161101809067 -0.27502542460454082 -0.45189834454106442 -0.30070495288679205 0.65407971873547366 -0.22679092022954103 0.19320896138105503 0.14613422779340848 0.10089746451916515 -0.14303550332261725 -0.13965370590808099 -0.63330183854399424 0.11969973642045879 -0.030469079574096725 0.21907466929973154 0.41845064824963407 0.46105161101809067 0.11135939560498045 0.20391426726809067 -0.1945923310127684 -0.64608744024418918 -0.31375328519156248 -0.44209295452641623
leaf_weight=1747 8010 10135 5448 2148 5239 2115 2220 6498 2687 1364 8120 8416 4236 4561 396 1222 1940 1048 17122 479 927 1402 2162 4448 3095 474 654 3130 1366 4688
leaf_count=1747 8010 10135 5448 2148 5239 2115 2220 6498 2687 1364 8120 8416 4236 4561 396 1222 1940 1048 17122 479 927 1402 2162 4448 3095 474 654 3130 1366 4688
internal_value=-0.00359413 0.0221433 -0.0311784 0.00810005 -0.0191522 0.0340069 0.0191513 0.0141816 -0.00353774 -0.0263987 -0.0223452 0.0400098 -0.0136453 0.00830888 -0.0296148 0.0260543 0.00433116 0.0127212 -0.0441617 -0.0213439 -0.0239248 0.00389249 0.0371005 0.0343572 0.0155172 0.0379753 0.00155537 -0.0404984 -0.0143262 -0.0381037
internal_weight=117497 60785 56712 27827 29454 32958 9485 23386 9328 20126 15632 23473 7116 15666 8516 7720 5208 3268 27258 4715 4441 6641 4277 13338 7656 8890 2401 4494 2293 10136
internal_count=117497 60785 56712 27827 29454 32958 9485 23386 9328 20126 15632 23473 7116 15666 8516 7720 5208 3268 27258 4715 4441 6641 4277 13338 7656 8890 2401 4494 2293 10136
cat_boundaries=0 2 4 6 8 10 12 15 17 19 21 24
cat_threshold=986001810 3170371008 407179536 146801664 69340164 328192 86114368 16959500 3072 332304 268501248 142606336 512 1107427346 3 0 537395520 0 328192 268435728 4194304 67111940 1073872898 3
is_linear=0
shrinkage=0.05


Tree=11
num_leaves=31
num_cat=12
split_feature=13 1 13 4 0 4 13 13 4 13 4 13 10 13 3 13 11 0 4 6 6 9 13 13 13 4 10 10 13 4
split_gain=32730.9 4148.17 3534.47 1953.17 1311.77 1022.11 895.705 623.92 485.118 476.485 462.267 395.386 388.955 331.486 331.08 275.69 232.833 222.867 203.6 182.815 171.993 208.472 164.701 164.255 138.251 141.108 130.589 122.053 119.511 113.024
threshold=0 37.500000000000007 1 16.500000000000004 22.500000000000004 16.500000000000004 2 3 17.500000000000004 4 17.500000000000004 5 10.500000000000002 6 27.500000000000004 7 619.99461666666673 14.000000000000002 18.500000000000004 5.5000000000000009 5.5000000000000009 15.500000000000002 8 9 10 19.500000000000004 11.500000000000002 11.500000000000002 11 11.500000000000002
decision_type=9 2 9 2 2 2 9 9 2 9 2 9 2 9 2 9 2 2 2 2 2 2 9 9 9 2 2 2 9 2
left_child=2 3 4 7 10 9 -7 27 20 -3 12 -8 13 -1 29 -5 -14 28 -13 -15 22 -22 -6 -11 -17 -26 -25 -2 -4 -9
right_child=1 5 17 15 8 6 11 14 -10 23 -12 18 16 19 -16 24 -18 -19 -20 -21 21 -23 -24 26 25 -27 -28 -29 -30 -31
leaf_value=0.00017421199502329899 0.55364022634345567 1.5779990304671863 -0.39839616563407959 0.016527751249999945 0.038465907453885784 1.6133007613148136 -0.060116466298697449 0.1304097782593992 -0.43108824907743915 0.35439621888736061 -0.61378306823197981 0.3631093712720887 -0.28566970524245239 -0.21545137421806404 0.17349798832473129 -0.70785478014487513 0.13882751640373811 -0.29113279707157941 0.042351339315057329 0.11371474959943591 -0.0023539912717001955 0.29596737078396362 -0.16486400728488385 0.67121028133131699 -0.20785478014487513 -0.44986728014487504 0.43799903046718608 0.30167573193456931 -0.60163674661679467 -0.012502075000000092
leaf_weight=2401 2874 10271 6636 1190 2238 2591 2276 4993 1715 3716 4494 3007 8120 4236 6518 521 396 4919 1495 479 1418 1152 2805 6515 2998 1460 3516 3378 15703 3466
leaf_count=2401 2874 10271 6636 1190 2238 2591 2276 4993 1715 3716 4494 3007 8120 4236 6518 521 396 4919 1495 479 1418 1152 2805 6515 2998 1460 3516 3378 15703 3466
internal_value=-0.00372648 0.0217625 -0.0310444 0.00734725 -0.0190198 0.0335984 0.0195912 0.0145438 -0.00352702 0.0390624 -0.0262099 0.00997348 -0.0221469 -0.0135188 0.00898445 -0.0174177 -0.0293565 -0.044026 0.0185505 -0.0211958 0.00188493 0.0124125 -0.00348007 0.0328669 -0.0225596 -0.0196061 0.0362563 0.0278026 -0.0461637 0.00246483
internal_weight=117497 60785 56712 27398 29454 33387 9369 21229 9328 24018 20126 6778 15632 7116 14977 6169 8516 27258 4502 4715 7613 2570 5043 13747 4979 4458 10031 6252 22339 8459
internal_count=117497 60785 56712 27398 29454 33387 9369 21229 9328 24018 20126 6778 15632 7116 14977 6169 8516 27258 4502 4715 7613 2570 5043 13747 4979 4458 10031 6252 22339 8459
cat_boundaries=0 2 4 6 9 11 14 16 18 20 22 24 26
cat_threshold=986001810 3170371008 407179536 146801664 67108864 328192 1073761796 33624594 3 3072 332304 1090535488 16830468 2 268501248 142606336 1143080964 1073874944 268435456 142606336 16908352 16959492 0 20480 0 537395520
is_linear=0
shrinkage=0.05


Tree=12
num_leaves=31
num_cat=12
split_feature=13 2 13 4 0 0 4 13 4 0 13 10 4 13 10 11 6 0 10 13 9 9 13 4 13 13 13 11 13 13
split_gain=31556.2 4979.89 2562.2 1949.74 1038.24 1011.41 1048.68 986.559 596.825 399.317 340.886 335.055 324.346 295.288 293.731 277.442 247.394 222.867 203.605 198.835 181.883 175.99 174.5 171.135 144.749 137.743 119.511 111.94 118.511 106.427
threshold=0 37.500000000000007 1 17.500000000000004 27.500000000000004 57.500000000000007 17.500000000000004 2 17.500000000000004 22.500000000000004 3 10.500000000000002 15.500000000000002 4 11.500000000000002 619.99461666666673 5.5000000000000009 14.000000000000002 16.500000000000004 5 8.5000000000000018 2.5000000000000004 6 15.500000000000002 7 8 9 630.06042500000001 10 11
decision_type=9 2 9 2 2 2 2 9 2 2 9 2 2 9 2 2 2 2 2 9 2 2 9 2 9 9 9 2 9 9
left_child=2 3 4 7 8 6 13 9 11 18 -8 16 -6 23 -9 -13 22 26 -2 -5 21 -16 -1 -3 -25 -23 -4 28 -11 -7
right_child=1 5 17 19 12 29 10 14 -10 27 -12 15 -14 -15 20 -17 -18 -19 -20 -21 -22 25 -24 24 -26 -27 -28 -29 -30 -31
leaf_value=-0.14263705006188127 -0.0064810639129699865 0.42438297004710535 -0.37847635735237567 -0.42737391613763126 0.19385767748855223 1.9990990789438272 -0.37461304666336581 0.42218678730094938 -0.58309391482038075 0.00072099732056498669 0.11521141242157018 -0.27388621998032986 -0.18275009693606689 0.5250086098539829 0.40584109377534061 0.055385571667535244 0.12052901211946417 -0.27657615721800044 -0.24933547125000005 -0.18536141613763135 0.29993358954148269 -0.058900921056173422 -0.19578942885179221 -0.6952160651149889 0.21978393488501116 0.2058410937753406 -0.57155490928595487 0.32227580003375372 0.13900045490435922 0.7509164256465658
leaf_weight=1867 4245 4139 6636 3004 2266 7790 1244 5274 4326 3958 2764 7593 1320 12136 551 545 844 4919 1995 2720 3719 1189 4942 299 1116 538 15703 642 4967 4246
leaf_count=1867 4245 4139 6636 3004 2266 7790 1244 5274 4326 3958 2764 7593 1320 12136 551 545 844 4919 1995 2720 3719 1189 4942 299 1116 538 15703 642 4967 4246
internal_value=-0.00395712 0.0187194 -0.0335612 0.00485031 -0.0215135 0.0322108 0.0257627 0.010455 -0.0259407 0.00238667 0.00266966 -0.0214331 0.00326269 0.0309949 0.021749 -0.0284959 -0.0139226 -0.044026 -0.00745192 -0.0216632 0.0141988 0.00307287 -0.0170877 0.0212976 0.00632509 -0.00477707 -0.0461637 0.00880631 0.00735574 0.0438352
internal_weight=117497 66536 50961 32802 23703 33734 21698 27078 20117 15807 4008 15791 3586 17690 11271 8138 7653 27258 6240 5724 5997 2278 6809 5554 1415 1727 22339 9567 8925 12036
internal_count=117497 66536 50961 32802 23703 33734 21698 27078 20117 15807 4008 15791 3586 17690 11271 8138 7653 27258 6240 5724 5997 2278 6809 5554 1415 1727 22339 9567 8925 12036
cat_boundaries=0 2 4 6 8 10 12 14 16 19 21 23 25
cat_threshold=717566098 3170371008 138743824 146801664 285344064 16926724 1358970944 16830484 1359085888 16963588 285229632 16797724 65536 142606336 0 20480 69222404 1107329026 2 0 537395520 268435712 16779264 3072 328192
is_linear=0
shrinkage=0.05


Tree=13
num_leaves=31
num_cat=11
split_feature=13 0 13 4 13 4 2 13 4 13 3 0 10 10 11 6 13 13 9 9 10 13 4 4 13 3 13 5 10 13
split_gain=30172.5 4645.38 2653.06 2081.4 1104.44 1009.58 844.547 704.158 744.348 351.778 346.823 328.69 273.259 266.792 243.569 203.148 200.493 196.772 176.033 170.315 165.005 158.177 150.925 144.667 139.027 133.974 127.343 125.131 119.864 119.511
threshold=0 42.500000000000007 1 17.500000000000004 2 17.500000000000004 22.500000000000004 3 17.500000000000004 4 27.500000000000004 14.000000000000002 10.500000000000002 11.500000000000002 619.99461666666673 5.5000000000000009 5 6 8.5000000000000018 2.5000000000000004 11.500000000000002 7 15.500000000000002 14.500000000000002 8 42.500000000000007 9 4.5000000000000009 11.500000000000002 10
decision_type=9 2 9 2 9 2 2 9 2 9 2 2 2 2 2 2 9 9 2 2 2 9 2 2 9 2 9 2 2 9
left_child=2 3 5 4 10 6 12 -3 16 -5 20 29 15 -6 -14 21 28 -10 19 -15 -2 27 26 -20 -21 -11 -8 -1 -9 -4
right_child=1 7 11 9 13 -7 22 8 17 25 -12 -13 14 18 -16 -17 -18 -19 23 24 -22 -23 -24 -25 -26 -27 -28 -29 -30 -31
leaf_value=0.0027002901541788304 0.073927601171932714 1.6491441249966359 -0.35955253948475685 -0.40600522033074959 0.45557372843292632 -0.55393921907936172 -0.13644369850036783 0.65497751259746595 0.25163016390100418 -0.17937484452349059 0.13205043215914111 -0.26274734935710048 -0.27203565898131343 0.38788617159797489 0.082484413695324402 0.11721936804511301 0.4204215402947501 -0.13130740485213313 0.38339413190885452 -0.077225501643989433 -0.032731946417829859 -0.19697324422082138 -0.14656189921464158 0.11781312584569879 0.17959066328264139 0.11046613428698145 0.14613171735007402 -0.26979970984582113 0.43158386024395734 -0.54297716382165717
leaf_weight=1406 4918 9002 6636 3460 6780 4783 687 7267 1681 2751 7640 4919 6965 761 381 630 4603 1438 3609 993 4909 3736 1484 1148 982 906 3024 607 3688 15703
leaf_count=1406 4918 9002 6636 3460 6780 4783 687 7267 1681 2751 7640 4919 6965 761 381 630 4603 1438 3609 993 4909 3736 1484 1148 982 906 3024 607 3688 15703
internal_value=-0.00397585 0.0181979 -0.0329236 0.00705021 0.0125299 -0.0206659 -0.0154863 0.0338542 0.0282576 -0.0173879 0.00408823 -0.0435712 -0.0219854 0.0228418 -0.0285598 -0.0144145 0.032742 0.00597948 0.0163553 0.00625 -0.00212171 -0.0173682 0.00168431 0.0221673 -0.00149367 -0.00650395 0.00707357 -0.0059565 0.0364569 -0.0461637
internal_weight=117497 66536 50961 38857 31740 23703 18920 27679 18677 7117 17467 27258 13725 14273 7346 6379 15558 3119 7493 2736 9827 5749 5195 4757 1975 3657 3711 2013 10955 22339
internal_count=117497 66536 50961 38857 31740 23703 18920 27679 18677 7117 17467 27258 13725 14273 7346 6379 15558 3119 7493 2736 9827 5749 5195 4757 1975 3657 3711 2013 10955 22339
cat_boundaries=0 2 4 6 8 10 13 16 18 21 23 25
cat_threshold=717566098 3170371008 138743824 146801664 285344064 16926732 2048 328192 285229632 16797724 67126788 1107300370 1 335546116 33554434 1 4259840 142606336 69222404 1073774592 2 4456448 4194304 0 537395520
is_linear=0
shrinkage=0.05


Tree=14
num_leaves=31
num_cat=10
split_feature=13 1 13 4 13 4 13 4 3 13 3 0 4 4 13 10 11 10 13 10 6 5 13 5 0 6 9 13 9 13
split_gain=28598.4 4996.59 2484.15 2255.53 1104.77 899.697 727.639 545.432 534.278 484.742 465.241 385.223 379.773 368.071 297.58 258.171 213.348 215.497 204.388 177.31 177.424 160.97 149.19 148.089 140.562 136.461 133.816 123.682 134.789 119.511
threshold=0 42.500000000000007 1 16.500000000000004 2 17.500000000000004 3 16.500000000000004 22.500000000000004 4 27.500000000000004 14.000000000000002 17.500000000000004 19.500000000000004 5 11.500000000000002 649.94330833333345 11.500000000000002 6 10.500000000000002 5.5000000000000009 1.5000000000000002 7 4.5000000000000009 57.500000000000007 5.5000000000000009 8.5000000000000018 8 2.5000000000000004 9
decision_type=9 2 9 2 9 2 9 2 2 9 2 2 2 2 9 2 2 2 9 2 2 2 9 2 2 2 2 9 2 9
left_child=2 3 5 4 10 8 12 -8 16 -5 19 29 24 18 -14 -6 17 23 -11 20 -2 -20 -15 25 -3 -1 27 28 -17 -4
right_child=1 6 11 9 15 -7 7 -9 -10 13 -12 -13 14 22 -16 26 -18 -19 21 -21 -22 -23 -24 -25 -26 -27 -28 -29 -30 -31
leaf_value=-0.14024201946484069 0.018105674532323947 0.57865046114217833 -0.34157491251051902 -0.55124225812539362 0.47144667586788458 -0.37269937082279569 0.47368285316747072 0.0021148170194152274 0.0016929197656518015 0.17134367652572174 0.14668740936823213 -0.24960998188924555 1.3502235630520496 -0.38570495931421223 0.10685220799673055 0.28202201135470889 0.048492072399392155 -0.27223561395702806 -0.22989617503598866 -0.023581630227467443 0.50158025917240678 -0.027541998429907368 -0.20474898993715077 -0.24995104763478013 1.5666869187468038 0.26722347889248521 0.33633937138118564 0.3008049121088533 -0.046578979355935073 -0.51582830563057436
leaf_weight=4306 4527 7010 6636 1369 5767 4345 6440 2269 4144 1029 8043 4919 1745 1080 1998 450 664 5644 1600 6230 381 3743 1319 1779 8162 307 4041 717 1130 15703
leaf_count=4306 4527 7010 6636 1369 5767 4345 6440 2269 4144 1029 8043 4919 1745 1080 1998 450 664 5644 1600 6230 381 3743 1319 1779 8162 307 4041 717 1130 15703
internal_value=-0.00392138 0.0167405 -0.0333667 0.00575967 0.0124017 -0.0204986 0.0332139 0.0211664 -0.0152755 -0.0147337 0.00492679 -0.0433585 0.0387292 -0.010369 0.0244857 0.024222 -0.0203622 -0.0218843 -0.00409605 -0.00168792 0.00541972 -0.00802354 -0.0270738 -0.0155976 0.0422687 -0.0108715 0.0172767 0.0076404 -0.000251572 -0.0461637
internal_weight=117497 69050 48447 41426 31286 21189 27624 8709 16844 10140 19181 27258 18915 8771 3743 12105 12700 12036 6372 11138 4908 5343 2399 6392 15172 4613 6338 2297 1580 22339
internal_count=117497 69050 48447 41426 31286 21189 27624 8709 16844 10140 19181 27258 18915 8771 3743 12105 12700 12036 6372 11138 4908 5343 2399 6392 15172 4613 6338 2297 1580 22339
cat_boundaries=0 2 4 6 9 11 13 15 18 21 23
cat_threshold=717566098 3036153280 138743824 12583936 287441216 151144452 67112452 33882642 1 0 134238232 67108864 328192 69340164 1073873408 268452352 16777222 2 67125764 1073774594 3 0 537395520
is_linear=0
shrinkage=0.05


Tree=15
num_leaves=31
num_cat=11
split_feature=13 0 13 4 4 13 1 3 13 13 4 13 4 10 13 13 10 10 6 13 13 11 13 9 9 4 2 7 11 10
split_gain=26039.9 3956.81 2919.06 1969.25 1363.65 1178.94 708.138 520.367 513.854 379.865 454.699 352.486 308.295 307.151 285.53 267.664 187.779 187.177 181.719 178.868 157.04 156.405 143.092 125.665 144.545 125.396 149.838 124.689 114.287 118.539
threshold=0 47.500000000000007 1 16.500000000000004 17.500000000000004 2 27.500000000000004 27.500000000000004 3 4 15.500000000000002 5 18.500000000000004 11.500000000000002 6 7 10.500000000000002 10.500000000000002 5.5000000000000009 8 9 619.99461666666673 10 18.500000000000004 10.500000000000002 10.500000000000002 17.500000000000004 1.0000000180025095e-35 629.92705833333332 11.500000000000002
decision_type=9 2 9 2 2 9 2 2 9 9 2 9 2 2 9 9 2 2 2 9 9 2 9 2 2 2 2 2 2 2
left_child=2 3 4 5 6 7 14 28 27 -3 -11 16 15 -7 25 -10 18 23 -4 -14 -12 -19 -15 24 -16 -1 -27 -5 29 -2
right_child=1 9 11 8 -6 13 -8 -9 12 10 20 -13 19 22 17 -17 -18 21 -20 -21 -22 -23 -24 -25 -26 26 -28 -29 -30 -31
leaf_value=0.0045889554791257231 0.057200390805707893 1.7760348263056973 -0.32449616688499305 0.088076961129450571 -0.36203506911328243 0.46429941469151148 0.099763575934473547 0.15085014696609794 -0.63774263188255187 0.73835257280946365 0.40727008351622945 -0.49003689034904563 -0.24783935513886474 0.17183864785170383 -0.18011248103653835 -0.017716325233336772 -0.39098499252329921 -0.26522351298378605 -0.18451691843374826 -0.41978719639076395 0.16479160472037152 0.04606746877942261 0.35386197328662522 -0.24293894666153815 0.0095773766197117648 -0.24482209533439631 -0.026483198600538316 -0.35311404498516485 0.36046766889820336 -0.029916267585564961
leaf_weight=2270 4532 6765 7208 2825 5432 7308 3886 8854 433 7765 3759 11279 2286 3138 1708 3632 7640 4227 1615 1446 1556 338 4410 1406 1471 2372 3011 151 308 4466
leaf_count=2270 4532 6765 7208 2825 5432 7308 3886 8854 433 7765 3759 11279 2286 3138 1708 3632 7640 4227 1615 1446 1556 338 4410 1406 1471 2372 3011 151 308 4466
internal_value=-0.00356222 0.0180928 -0.0291435 0.00970221 -0.017131 0.015759 -0.0112838 0.00719868 -0.00886011 0.0366163 0.0315355 -0.0404439 -0.015595 0.0262007 -0.0157323 -0.00608856 -0.0356796 -0.0216921 -0.0307322 -0.0259914 0.0202916 -0.0288828 0.0191441 -0.0145802 -0.00907518 -0.00856714 -0.0127345 0.00880777 -0.00105308 -0.00207824
internal_weight=117497 63634 53863 43789 26121 33016 20689 18160 10773 19845 13080 27742 7797 14856 16803 4065 16463 9150 8823 3732 5315 4565 7548 4585 3179 7653 5383 2976 9306 8998
internal_count=117497 63634 53863 43789 26121 33016 20689 18160 10773 19845 13080 27742 7797 14856 16803 4065 16463 9150 8823 3732 5315 4565 7548 4585 3179 7653 5383 2976 9306 8998
cat_boundaries=0 2 4 6 9 11 13 15 17 20 23 26
cat_threshold=986001554 3170371008 407179264 146801664 86114624 16926724 69340164 1073875456 1 0 328192 41943056 604504384 402718720 142606336 0 20488 1090519360 33587202 2 69209860 1073741842 1 16388 1073774592 2
is_linear=0
shrinkage=0.05


Tree=16
num_leaves=31
num_cat=11
split_feature=13 1 13 4 4 4 13 3 13 0 13 13 13 4 10 1 4 13 0 3 13 10 4 3 3 13 13 9 11 10
split_gain=24835.9 3821.99 3174.56 1639.84 1277.28 812.158 799.406 600.044 587.22 451.279 360.172 357.465 324.933 298.331 270.944 264.454 222.581 237.412 189.654 181.088 180.933 137.696 128.9 126.995 123.903 123.366 116.086 111.212 106.045 135.113
threshold=0 42.500000000000007 1 16.500000000000004 17.500000000000004 16.500000000000004 2 22.500000000000004 3 22.500000000000004 4 5 6 10.500000000000002 11.500000000000002 14.000000000000002 19.500000000000004 7 17.500000000000004 27.500000000000004 8 10.500000000000002 18.500000000000004 37.500000000000007 57.500000000000007 9 10 8.5000000000000018 649.94330833333345 9.5000000000000018
decision_type=9 2 9 2 2 2 9 2 9 2 9 9 9 2 2 2 2 9 2 2 9 2 2 2 2 9 9 2 2 2
left_child=2 3 4 6 7 12 9 13 -7 -2 18 -5 24 28 -8 -15 17 -13 21 -11 -10 -4 -22 -9 -3 27 -24 -16 29 -1
right_child=1 5 10 11 -6 8 14 23 20 19 -12 16 -14 15 25 -17 -18 -19 -20 -21 22 -23 26 -25 -26 -27 -28 -29 -30 -31
leaf_value=0.0090985077887260953 -0.024034328804829919 0.55241930374134751 -0.30827135854074328 0.053695754895393223 -0.34393331565761831 1.2849610890806749 0.43060812182476732 -0.0041974303118976763 -0.090604202076865203 0.054538180001279996 -0.46553504583159333 -0.58224161158840448 0.40776841161761301 -0.39062140557621439 -0.018615568514439573 -0.16693903667221122 -0.3534178515289636 -0.12884702569276563 -0.22790363687309584 0.13970261383147786 0.28984797947620716 -0.37143574289713421 0.1090428283552205 0.1586447536783446 1.445392773199734 0.31775299203193302 -0.18443477639012587 0.2224902623610035 0.13526466953225089 -0.16644454339123699
leaf_weight=2003 5785 7278 7444 1671 5432 2494 5254 4989 1332 4299 11279 450 5076 3090 916 6853 2002 4494 1794 6679 2780 7225 612 1241 6976 3218 642 1676 345 2168
leaf_count=2003 5785 7278 7444 1671 5432 2494 5254 4989 1332 4299 11279 450 5076 3090 916 6853 2002 4494 1794 6679 2780 7225 612 1241 6976 3218 642 1676 345 2168
internal_value=-0.00360562 0.0175429 -0.0285885 0.00696137 -0.0160633 0.0317323 0.0128634 -0.0104041 0.0181807 0.00596494 -0.0403719 -0.0120982 0.0372426 -0.0159935 0.0232888 -0.0208338 -0.0170788 -0.0114078 -0.0355582 0.0119238 0.00879836 -0.0374565 0.0140702 0.00256822 0.0411385 0.0158692 0.000797448 0.00764796 -0.00533658 -0.00754016
internal_weight=117497 63634 53863 36444 26121 27190 27827 20689 7860 16763 27742 8617 19330 14459 11064 9943 6946 4944 16463 10978 5366 14669 4034 6230 14254 5810 1254 2592 4516 4171
internal_count=117497 63634 53863 36444 26121 27190 27827 20689 7860 16763 27742 8617 19330 14459 11064 9943 6946 4944 16463 10978 5366 14669 4034 6230 14254 5810 1254 2592 4516 4171
cat_boundaries=0 2 4 6 8 10 12 15 17 19 22 25
cat_threshold=986001554 3170371008 407179264 146801664 86114624 16926724 67108864 328192 41943056 604504384 69340164 1073875456 3588 1107628562 1 0 20480 1090535488 53252 16388 1073774592 2 1284 33554432 1
is_linear=0
shrinkage=0.05


Tree=17
num_leaves=31
num_cat=10
split_feature=13 0 0 4 13 4 13 13 4 13 4 3 0 4 10 13 3 4 13 3 13 11 3 0 13 11 4 10 4 13
split_gain=23714.8 3886.59 2846.84 1978.66 1175.93 931.07 622.717 575.497 481.613 443.847 417.604 395.694 378.246 336.439 253.833 199.999 190.596 183 164.214 161.734 160.988 139.224 138.555 132.197 128.634 131.883 126.807 120.929 116.766 107.789
threshold=0 47.500000000000007 14.000000000000002 17.500000000000004 1 16.500000000000004 2 3 10.500000000000002 4 16.500000000000004 27.500000000000004 77.500000000000014 15.500000000000002 11.500000000000002 5 57.500000000000007 18.500000000000004 6 37.500000000000007 7 629.92705833333332 27.500000000000004 37.500000000000007 8 619.99461666666673 14.500000000000002 11.500000000000002 17.500000000000004 9
decision_type=9 2 2 2 9 2 9 9 2 9 2 2 2 2 2 9 2 2 9 2 9 2 2 2 9 2 2 2 2 9
left_child=2 3 7 4 11 6 23 8 -1 17 16 21 20 14 -6 -8 -3 -5 -16 -15 -12 27 -11 26 -13 -26 -4 -2 -10 -9
right_child=1 10 5 9 13 -7 15 29 28 22 12 24 -14 19 18 -17 -18 -19 -20 -21 -22 -23 -24 -25 25 -27 -28 -29 -30 -31
leaf_value=-0.201915853578024 0.026604545799596126 0.53004671895301603 0.027349016429241146 -0.16818174909498718 0.44170931037282274 -0.2987487921488951 -0.11310658285230879 -0.44225829354001367 -0.34383799283898908 -0.20388224479487285 0.38226361803744563 0.19879911308106984 1.8796625891301286 -0.10955315265664289 0.1750726067147074 -0.22712070996723421 1.3731231345397472 -0.35339214948396336 0.32958865596419573 0.20226825467234841 0.029749529275736999 0.36951682691704307 0.018922123193529219 0.2515037611875573 0.039970608139903878 0.24954858354743001 -0.12154966179718851 -0.032189454978050418 -0.46338172598057881 -0.44225829354001367
leaf_weight=3099 5377 7152 4027 1393 7308 6202 6086 13274 5087 1208 2656 4241 1637 894 3314 1992 7048 2465 3947 2172 1421 359 3375 788 4830 537 1617 5202 2343 6446
leaf_count=3099 5377 7152 4027 1393 7308 6202 6086 13274 5087 1208 2656 4241 1637 894 3314 1992 7048 2465 3947 2172 1421 359 3375 788 4830 537 1617 5202 2343 6446
internal_value=-0.00375797 0.0159003 -0.0294216 0.0080048 0.012848 -0.0151458 -0.00821502 -0.0392063 -0.029647 -0.0139024 0.0343929 0.00470909 0.0229786 0.0223151 0.0254959 -0.0174456 0.0389859 -0.0263702 0.0188748 0.00727332 0.0148271 -0.00179192 -0.00334204 0.00339957 0.0121149 0.00692765 0.000726435 -0.00283108 -0.0365814 -0.0442727
internal_weight=117497 66536 50961 46622 38181 20712 14510 30249 10529 8441 19914 20546 5714 17635 14569 8078 14200 3858 7261 3066 4077 10938 4583 6432 9608 5367 5644 10579 7430 19720
internal_count=117497 66536 50961 46622 38181 20712 14510 30249 10529 8441 19914 20546 5714 17635 14569 8078 14200 3858 7261 3066 4077 10938 4583 6432 9608 5367 5644 10579 7430 19720
cat_boundaries=0 2 4 6 8 10 12 15 18 20 22
cat_threshold=717566098 3170371008 287441216 16926732 134287376 142606336 172298240 213910528 285229632 16797724 4456448 541066496 67125252 1073774592 2 67110660 328210 1 19005504 4 8396816 2684879168
is_linear=0
shrinkage=0.05


Tree=18
num_leaves=31
num_cat=8
split_feature=13 1 13 4 4 13 0 13 4 13 0 2 5 5 5 10 13 9 13 4 4 13 9 9 10 9 5 7 10 10
split_gain=22911.5 3695.02 2916.49 1924.49 1066.97 965.693 519.712 481.541 500.411 408.222 388.809 267.551 257.644 290.31 271.009 247.779 242.828 216.634 197.39 159.884 149.929 147.315 140.133 155.005 138.461 136.128 131.442 143.672 128.62 160.316
threshold=0 47.500000000000007 1 17.500000000000004 16.500000000000004 2 27.500000000000004 3 15.500000000000002 4 17.500000000000004 27.500000000000004 4.5000000000000009 1.5000000000000002 5.5000000000000009 11.500000000000002 5 8.5000000000000018 6 18.500000000000004 19.500000000000004 7 8.5000000000000018 2.5000000000000004 10.500000000000002 19.500000000000004 4.5000000000000009 1.0000000180025095e-35 16.500000000000004 29.500000000000004
decision_type=9 2 9 2 2 9 2 9 2 9 2 2 2 2 2 2 9 2 9 2 2 9 2 2 2 2 2 2 2 2
left_child=2 3 4 5 6 11 12 -3 -9 19 16 28 13 -1 -14 26 24 -15 22 -5 -11 -10 23 -17 -4 -16 27 -7 -2 -30
right_child=1 7 10 9 -6 15 -8 8 21 20 -12 -13 14 17 25 18 -18 -19 -20 -21 -22 -23 -24 -25 -26 -27 -28 -29 29 -31
leaf_value=-0.19939999289937235 0.0081112633463357401 1.6038718496345064 -0.27074487593670543 -0.16599185439166231 -0.32664609319703963 0.46905392494285325 0.12944134693974069 0.62082270334130607 0.054466977812759866 0.046203277865211771 -0.21018017683861245 0.099596437507959393 -0.35472157347047678 -0.19939999289937235 -0.032142475021677976 0.2384656706833658 -0.42014537886301295 0.022688636740372737 0.2775434357322123 -0.33572254200976526 -0.19140606400179172 0.32382906562369923 0.19791406170125089 -0.10505276888093924 -0.34150792025391574 -0.35075711237420415 0.22679653664478572 0.10966678589163266 -0.23929676501714267 0.0033330669269748371
leaf_weight=3976 6993 6739 7444 1587 6691 6682 2740 7547 1305 2486 1871 8964 2512 1479 1388 547 11202 4053 4878 2874 1373 4166 3364 1045 7225 380 2472 775 1320 1419
leaf_count=3976 6993 6739 7444 1587 6691 6682 2740 7547 1305 2486 1871 8964 2512 1479 1388 547 11202 4053 4878 2874 1373 4166 3364 1045 7225 380 2472 775 1320 1419
internal_value=-0.0040218 0.0153007 -0.029247 0.00764552 -0.0161544 0.0123625 -0.00934172 0.0334337 0.0277326 -0.0141587 -0.0401953 0.00420721 -0.0132942 -0.00870846 -0.0234813 0.0200652 -0.0418016 -0.00130152 0.0144499 -0.0244352 -0.00220987 0.0162402 0.00737012 -0.00483668 -0.0374174 -0.00848416 0.0256471 0.0289594 -0.00153103 -0.0107156
internal_weight=117497 66536 50961 46779 23219 38459 16528 19757 13018 8320 27742 18696 13788 9508 4280 19763 25871 5532 9834 4461 3859 5471 4956 1592 14669 1768 9929 7457 9732 2739
internal_count=117497 66536 50961 46779 23219 38459 16528 19757 13018 8320 27742 18696 13788 9508 4280 19763 25871 5532 9834 4461 3859 5471 4956 1592 14669 1768 9929 7457 9732 2739
cat_boundaries=0 2 4 6 8 10 12 15 17
cat_threshold=717566098 3170371008 138743808 146801664 287310144 16926724 0 328192 285229632 16830492 41943056 604504384 67256324 1073774592 2 285229120 33607680
is_linear=0
shrinkage=0.05


Tree=19
num_leaves=31
num_cat=15
split_feature=13 3 0 4 13 4 4 13 13 13 4 13 4 0 0 5 13 5 13 13 0 13 13 13 4 13 4 13 13 4
split_gain=20988 3539.09 2894.48 1700.77 806.504 775.791 744.276 673.68 617.426 584.049 465.642 274.92 272.931 259.58 225.042 188.216 172.234 157.517 207.553 152.535 144.87 139.7 135.55 125.863 123.205 119.32 110.484 140.224 110.345 109.068
threshold=0 42.500000000000007 14.000000000000002 17.500000000000004 1 16.500000000000004 16.500000000000004 2 3 4 10.500000000000002 5 14.500000000000002 22.500000000000004 22.500000000000004 4.5000000000000009 6 5.5000000000000009 7 8 57.500000000000007 9 10 11 14.500000000000002 12 18.500000000000004 13 14 18.500000000000004
decision_type=9 2 2 2 9 2 2 9 9 9 2 9 2 2 2 2 9 2 9 9 2 9 9 9 2 9 2 9 9 2
left_child=2 3 7 9 -3 8 20 10 24 14 25 -8 15 -5 -2 -11 -10 18 -17 -15 23 -14 -7 -6 -4 -1 -13 -28 -9 -12
right_child=1 4 5 13 6 22 11 28 16 12 29 26 21 19 -16 17 -18 -19 -20 -21 -22 -23 -24 -25 -26 -27 27 -29 -30 -31
leaf_value=-0.10306705715051417 -0.024568402821885018 1.4554858671918969 0.046151149661687901 -0.30129122437782901 0.10289352696081835 -0.17461688923925467 -0.13276797094709725 -0.39913810991986226 -0.099976425205564295 0.34912935881272134 -0.25720763213987013 0.30614528606437263 0.22244389135592579 0.045289254474826103 0.080984833379346644 -0.14435639055140967 -0.24249153108945398 0.31146108257148486 0.17167123784551636 -0.16956726167207903 0.77946801361495133 -0.034288386139013131 -0.32085112013213685 0.39213400378598462 -0.051550087812132266 -0.1919241554459104 -0.22449476218430356 0.18218226296006199 -0.39913810991986226 -0.43280747938682779
leaf_weight=1622 6095 6988 4620 2256 809 2201 1410 8224 6086 8381 7611 3084 1250 1066 11487 807 1857 1450 1572 3381 3924 2079 4001 8931 1947 2224 607 959 8605 1963
leaf_count=1622 6095 6988 4620 2256 809 2201 1410 8224 6086 8381 7611 3084 1250 1066 11487 807 1857 1450 1572 3381 3924 2079 4001 8931 1947 2224 607 959 8605 1963
internal_value=-0.00382861 0.014665 -0.0279718 0.00522298 0.0287474 -0.0135767 0.023533 -0.0378376 -0.00725017 0.00987138 -0.0293894 0.0089604 0.0169303 -0.0177458 0.00362096 0.0204013 -0.0166164 0.011217 0.00329971 -0.0107376 0.0300132 0.00425053 -0.0283779 0.0267454 0.00409761 -0.0147166 0.0148069 0.00402299 -0.0445306 -0.0353144
internal_weight=117497 66536 50961 39824 26712 20712 19724 30249 14510 33121 13420 6060 15539 6703 17582 12210 7943 3829 2379 4447 13664 3329 6202 9740 6567 3846 4650 1566 16829 9574
internal_count=117497 66536 50961 39824 26712 20712 19724 30249 14510 33121 13420 6060 15539 6703 17582 12210 7943 3829 2379 4447 13664 3329 6202 9740 6567 3846 4650 1566 16829 9574
cat_boundaries=0 2 4 6 8 10 12 14 16 18 20 22 24 26 28 30
cat_threshold=717566098 3170371008 0 328192 172298240 214435072 134295568 142606336 287310144 16926724 1090535488 53248 4456448 541066496 67256832 1073741824 67110148 1073873408 67243520 1073742352 8724496 4195328 268435712 147456 138412032 142607360 268438016 1073741842 8388624 2684354624
is_linear=0
shrinkage=0.05


Tree=20
num_leaves=31
num_cat=8
split_feature=13 0 0 4 13 4 13 13 13 4 13 4 3 13 4 4 4 3 13 3 11 5 9 1 10 4 10 6 11 11
split_gain=19322.2 3389.55 2674.06 1722.1 891.248 775.696 768.821 555.037 550.651 442.174 430.594 360.964 322.79 242.945 189.454 185.528 158.5 155.082 142.588 140.691 138.462 132.662 132.446 130.776 128.357 119.543 118.177 128.963 114.275 109.579
threshold=0 47.500000000000007 14.000000000000002 17.500000000000004 1 16.500000000000004 2 3 4 17.500000000000004 5 10.500000000000002 27.500000000000004 6 15.500000000000002 18.500000000000004 18.500000000000004 42.500000000000007 7 17.500000000000004 629.92705833333332 4.5000000000000009 3.5000000000000004 27.500000000000004 11.500000000000002 14.500000000000002 11.500000000000002 5.5000000000000009 249.97402500000001 630.06042500000001
decision_type=9 2 2 2 9 2 9 9 9 2 9 2 2 9 2 2 2 2 9 2 2 2 2 2 2 2 2 2 2 2
left_child=2 3 4 6 -1 7 12 25 -3 22 15 13 20 -6 17 -5 24 21 -7 -9 28 -8 -10 -12 -13 -4 27 -14 -2 -28
right_child=1 8 5 10 11 18 14 19 9 -11 23 16 26 -15 -16 -17 -18 -19 -20 -21 -22 -23 -24 -25 -26 -27 29 -29 -30 -31
leaf_value=-0.37918120442386916 0.011947339359650578 1.8556571502658845 0.043843592178603431 -0.14438499162288371 -0.10297217016560545 -0.16588604477729199 0.30092726990488006 -0.13749816617381275 0.1924596445181404 0.13517196230460726 -0.1819826452146428 -0.23725072664387703 0.11367169747714173 -0.26162572664387707 0.1050333048142786 -0.30933937395633415 -0.41116710541748641 0.39147021702372914 -0.30480856412553003 -0.062307947686747238 0.35186384254496839 0.13978512609916277 0.57796525879220517 0.02187105893422743 -0.3038157119450775 -0.048972583421525689 0.0097541676816065969 0.28288814441883137 -0.055134837556001064 0.27717866352902593
leaf_weight=13084 6816 4656 4620 1393 2218 2201 5947 4723 988 2670 1366 4770 5135 2329 2741 2465 2423 4327 4001 3220 386 3030 11600 3217 5425 1947 3432 1592 4379 396
leaf_count=13084 6816 4656 4620 1393 2218 2201 5947 4723 988 2670 1366 4770 5135 2329 2741 2465 2423 4327 4001 3220 386 3030 11600 3217 5425 1947 3432 1592 4379 396
internal_value=-0.00376478 0.0139798 -0.02693 0.00660632 -0.0364128 -0.0130939 0.0111246 -0.00676775 0.0312494 0.0265916 -0.0138313 -0.028853 0.00507541 -0.0167913 0.019455 -0.0261117 -0.0332224 0.0219333 -0.0278942 -0.0156482 -0.000686469 0.0181854 0.0305291 -0.00342913 -0.0304904 0.00399118 0.0114022 0.0153932 -0.00170165 0.00438871
internal_weight=117497 66536 50961 46622 30249 20712 38181 14510 19914 15258 8441 17165 22136 4547 16045 3858 12618 13304 6202 7943 11581 8977 12588 4583 10195 6567 10555 6727 11195 3828
internal_count=117497 66536 50961 46622 30249 20712 38181 14510 19914 15258 8441 17165 22136 4547 16045 3858 12618 13304 6202 7943 11581 8977 12588 4583 10195 6567 10555 6727 11195 3828
cat_boundaries=0 2 4 6 8 10 12 14 16
cat_threshold=717566098 3170371008 545267858 2419064960 287441216 16959492 134295568 142606336 0 327680 285229632 16797724 138674176 142607616 8724496 4195328
is_linear=0
shrinkage=0.05


Tree=21
num_leaves=31
num_cat=13
split_feature=0 13 2 4 4 13 13 13 13 13 4 13 13 0 5 5 9 5 4 10 13 13 10 10 13 11 13 3 4 13
split_gain=18368 3223.88 2826.86 1521.89 1237.78 793.761 651.879 626.592 582.454 552.598 499.992 328.863 270.933 270.426 215.921 298.162 277.191 227.282 215.221 209.903 181.416 166.311 157.418 156.29 149.23 145.197 169.998 131.352 119.158 119.016
threshold=22.500000000000004 0 47.500000000000007 15.500000000000002 16.500000000000004 1 2 3 4 5 15.500000000000002 6 7 14.000000000000002 4.5000000000000009 1.5000000000000002 8.5000000000000018 5.5000000000000009 18.500000000000004 10.500000000000002 8 9 11.500000000000002 12.500000000000002 10 460.04098333333337 11 27.500000000000004 18.500000000000004 12
decision_type=2 9 2 2 2 9 9 9 9 9 2 9 9 2 2 2 2 2 2 2 9 9 2 2 9 2 9 2 2 9
left_child=1 6 3 5 7 27 19 14 -5 -4 -11 -6 -10 -8 15 -3 -17 -16 -14 -1 -12 -20 -7 -19 -15 26 -24 -2 -22 -9
right_child=2 4 9 8 11 22 13 29 12 10 20 -13 18 24 17 16 -18 23 21 -21 28 -23 25 -25 -26 -27 -28 -29 -30 -31
leaf_value=-0.23457747246898714 -0.032437020278236695 -0.15592580298417824 1.7628742927525902 -0.25621325456293065 -0.39060875014661206 0.31662652737684138 -0.36022214420267568 0.013572790876980179 0.2135412524920941 0.61862124071776925 0.0041352107629180068 -0.19853848886226838 0.032725970503821603 0.012534602472228863 -0.23835438610183354 -0.16311827970961393 0.031945057082419841 -0.158383008731213 -0.085984910784333665 -0.37381157717114094 0.39229001940689301 -0.30185990525851758 0.27703511267599445 0.032108114354267414 -0.2234920462262906 0.47336738598300854 0.064285810441405827 0.07464560372626057 0.13372414436153976 0.24331462217181787
leaf_weight=8081 4117 4610 4617 3330 3715 10825 10880 4368 1503 8397 1460 4096 6505 182 3224 1811 3883 1197 1968 7414 3793 1277 3463 766 214 666 4330 4077 1243 1485
leaf_count=8081 4117 4610 4617 3330 3715 10825 10880 4368 1503 8397 1460 4096 6505 182 3224 1811 3883 1197 1968 7414 3793 1277 3463 766 214 666 4330 4077 1243 1485
internal_value=-0.0036286 -0.0243715 0.0152125 0.00791588 -0.0128527 0.0148446 -0.0368974 -0.00662481 -0.00513955 0.0309431 0.0261927 -0.0298873 0.000306313 -0.0461014 -0.0118863 -0.00770575 -5.2687e-05 -0.020214 -0.0027459 -0.0301741 0.0157943 -0.0132666 0.0203794 -0.00680082 -0.00555556 0.0152796 0.0133646 0.00179181 0.0202735 0.00730855
internal_weight=117497 55926 61571 42061 29155 27478 26771 21344 14583 19510 14893 7811 11253 11276 15491 10304 5694 5187 9750 15495 6496 3245 19284 1963 396 8459 7793 8194 5036 5853
internal_count=117497 55926 61571 42061 29155 27478 26771 21344 14583 19510 14893 7811 11253 11276 15491 10304 5694 5187 9750 15495 6496 3245 19284 1963 396 8459 7793 8194 5036 5853
cat_boundaries=0 2 4 6 8 10 12 14 16 18 21 22 24 26
cat_threshold=578826386 3023569088 440733952 88738880 41947152 604504128 207945984 163712260 147132416 751326536 0 327680 138428928 159404308 69337104 393728 1358970880 41996288 1348 1107331072 3 8192 1073892864 348698 285344320 1073790978
is_linear=0
shrinkage=0.05


Tree=22
num_leaves=31
num_cat=14
split_feature=0 3 13 4 4 0 4 13 13 13 13 4 11 4 13 4 13 13 0 13 3 13 13 4 5 13 13 5 10 13
split_gain=17471.1 3713.2 2097.44 1226.35 1113.79 1002.1 892.533 808.913 639.437 410.106 315.297 307.609 289.446 288.219 233.188 200.721 197.458 194.643 189.533 169.36 166.873 164.431 145.255 148.528 143.182 141.023 137.174 129.769 127.736 125.298
threshold=17.500000000000004 37.500000000000007 0 16.500000000000004 10.500000000000002 67.500000000000014 15.500000000000002 1 2 3 4 16.500000000000004 759.90066666666678 13.500000000000002 5 17.500000000000004 6 7 7.5000000000000009 8 17.500000000000004 9 10 18.500000000000004 3.5000000000000004 11 12 3.5000000000000004 11.500000000000002 13
decision_type=2 2 9 2 2 2 2 9 9 9 9 2 2 2 9 2 9 9 2 9 2 9 9 2 2 9 9 2 2 9
left_child=2 3 8 7 17 6 19 14 12 -8 -5 20 -1 16 -2 -11 -9 -4 -10 -3 29 -13 -12 -24 -18 -20 -17 -19 -21 -6
right_child=1 5 4 10 11 -7 9 13 18 15 22 21 -14 -15 -16 26 24 27 25 28 -22 -23 23 -25 -26 -27 -28 -29 -30 -31
leaf_value=-0.34221103699254196 0.0040238634251899439 0.20664835894662625 0.20891743723566716 -0.37268923920292835 -0.025536967619940933 1.2958278252903856 -0.45435948805156523 0.56130213194114342 -0.37090681186057434 0.20248554195310381 0.054036839420658823 -0.37107831263928148 -0.09221103699254192 0.040927629231170395 -0.12439378179912614 0.22445088498973398 0.24609654661030689 0.01569309812618638 0.014626581713098209 0.49377081968502773 -0.062044936356051045 -0.21899195651650274 -0.076721033794436455 -0.22170057331168655 0.10673751794246017 -0.19766221452748597 -0.030416918819999861 -0.12246734387964137 0.31712908918822791 -0.20855650323683408
leaf_weight=10819 9326 3186 1715 1716 635 7309 726 1427 7861 5258 815 2765 383 4886 3467 1397 5210 2807 236 7695 2213 2266 3856 3154 4132 7004 3188 2461 5090 4494
leaf_count=10819 9326 3186 1715 1716 635 7309 726 1427 7861 5258 815 2765 383 4886 3467 1397 5210 2807 236 7695 2213 2266 3856 3154 4132 7004 3188 2461 5090 4494
internal_value=-0.00371286 0.0116582 -0.027897 0.0009279 -0.0153775 0.0237008 0.0191861 0.00613048 -0.03709 0.00791466 -0.0145844 -0.0243959 -0.0462005 0.0137472 -0.00319847 0.0105907 0.0183257 0.00057998 -0.0303057 0.0266452 -0.0178698 -0.0339197 -0.0102808 -0.0126068 0.0156223 -0.024489 0.00295529 -0.00418719 0.0292263 -0.0228212
internal_weight=117497 71838 45659 37989 19356 33849 26540 28448 26303 10569 9541 12373 11202 15655 12793 9843 10769 6983 15101 15971 7342 5031 7825 7010 9342 7240 4585 5268 12785 5129
internal_count=117497 71838 45659 37989 19356 33849 26540 28448 26303 10569 9541 12373 11202 15655 12793 9843 10769 6983 15101 15971 7342 5031 7825 7010 9342 7240 4585 5268 12785 5129
cat_boundaries=0 2 4 6 8 10 12 15 18 20 23 25 26 29 31
cat_threshold=645935250 3040346308 449130752 2236222784 536879234 2419064960 0 20480 4198912 2886226264 402731264 16910592 3072 86528 1 1358971908 1107333120 1 471929152 16941060 138478080 142627072 2 69337104 1073875456 8388608 201326852 34013184 1 153092096 20480
is_linear=0
shrinkage=0.05


Tree=23
num_leaves=31
num_cat=11
split_feature=0 3 13 4 4 13 13 13 4 13 4 11 13 13 4 13 3 13 10 13 4 11 4 5 5 5 5 13 5 9
split_gain=16758 3452.48 2124.23 1342.3 1020.42 888.85 806.591 653.727 570.905 376.087 292.669 289.446 260.987 254.326 248.079 220.884 204.035 188.264 183.571 168.958 167.018 132.41 132.317 125.877 131.583 123.601 126.831 119.242 118.225 119.652
threshold=17.500000000000004 42.500000000000007 0 16.500000000000004 10.500000000000002 1 2 3 15.500000000000002 4 18.500000000000004 759.90066666666678 5 6 13.500000000000002 7 17.500000000000004 8 10.500000000000002 9 18.500000000000004 619.99461666666673 17.500000000000004 3.5000000000000004 1.5000000000000002 4.5000000000000009 1.5000000000000002 10 5.5000000000000009 19.500000000000004
decision_type=2 2 9 2 2 9 9 9 2 9 2 2 9 9 2 9 2 9 2 9 2 2 2 2 2 2 2 9 2 2
left_child=2 3 7 5 19 12 -3 18 -8 -5 16 -9 21 -10 15 -7 -6 -11 25 -4 -19 -2 -15 24 -21 26 -1 -17 -25 -30
right_child=1 6 4 9 10 14 8 11 13 17 -12 -13 -14 22 -16 27 -18 20 -20 23 -22 -23 -24 28 -26 -27 -28 -29 29 -31
leaf_value=-0.27224972657781249 0.0023949082807192216 1.2517377900645428 0.23297426895249806 -0.37453909803292196 -0.20109730350378063 0.11060004985085872 0.38884039937258419 -0.3251004851429149 -0.052794392878321439 0.032677030500192931 -0.34359725264218749 -0.087600485142914852 -0.11797160796907456 0.29399344404418992 0.080924986529748472 0.69653640057432131 -0.095384026884977935 -0.060145022479939136 -0.33657565771955511 -0.071539774961921418 -0.21392121796692917 0.13487841240195086 0.11439212279609556 -0.18023853106965185 0.1299316951967244 -0.35355817567025821 -0.19389522609520507 0.25772650929050872 0.11553182771726185 -0.22842029822875159
leaf_weight=2287 10182 6986 1316 1649 6629 4203 11415 10819 2431 2192 3072 383 3476 3254 6279 1388 2973 4251 7338 1665 3176 1014 2907 2040 1391 1627 3465 7035 487 167
leaf_count=2287 10182 6986 1316 1649 6629 4203 11415 10819 2431 2192 3072 383 3476 3254 6279 1388 2973 4251 7338 1665 3176 1014 2907 2040 1391 1627 3465 7035 487 167
internal_value=-0.00394436 0.0111097 -0.0276298 0.00260564 -0.0152456 0.00761682 0.025238 -0.0370415 0.0200954 -0.0123269 -0.0237415 -0.0462005 -0.00162103 0.0103701 0.0147793 0.0188262 -0.0194439 -0.00851075 -0.0300435 -2.83046e-05 -0.0123101 0.00209709 0.0157592 -0.00373264 0.00320681 -0.0244952 -0.0210535 0.023497 -0.0116184 0.00688073
internal_weight=117497 71838 45659 44845 19740 33577 26993 25919 20007 11268 12674 11202 14672 8592 18905 12626 9602 9619 14717 7066 7427 11196 6161 5750 3056 7379 5752 8423 2694 654
internal_count=117497 71838 45659 44845 19740 33577 26993 25919 20007 11268 12674 11202 14672 8592 18905 12626 9602 9619 14717 7066 7427 11196 6161 5750 3056 7379 5752 8423 2694 654
cat_boundaries=0 2 4 6 8 10 12 14 16 18 21 23
cat_threshold=645935250 3040346304 449130752 2244611392 0 328192 109056016 621281344 4198400 2885701960 402731264 25299200 1090535488 167825408 85983296 1610612740 77726996 1073875456 1342194692 33591296 1 1024 86528
is_linear=0
shrinkage=0.05


Tree=24
num_leaves=31
num_cat=12
split_feature=0 3 13 4 13 4 13 0 13 13 2 4 4 13 4 13 4 13 4 10 13 11 10 6 5 13 13 13 5 10
split_gain=15997.9 3242.15 2148.01 1401.04 1027.73 938.65 601.889 601.462 581.136 471.906 448.885 438.508 361.739 333.273 259.929 198.128 224.632 181.237 167.062 162.283 154.749 140.14 142.724 265.588 138.059 133.752 131.549 123.294 113.774 113.62
threshold=17.500000000000004 47.500000000000007 0 16.500000000000004 1 10.500000000000002 2 14.000000000000002 3 4 14.000000000000002 16.500000000000004 13.500000000000002 5 18.500000000000004 6 18.500000000000004 7 18.500000000000004 11.500000000000002 8 619.99461666666673 9.5000000000000018 5.5000000000000009 3.5000000000000004 9 10 11 1.0000000180025095e-35 11.500000000000002
decision_type=2 2 9 2 9 2 9 2 9 9 2 2 2 9 2 9 2 9 2 2 9 2 2 2 2 9 9 9 2 2
left_child=2 3 7 4 12 6 -4 -1 -3 -5 18 29 17 -6 -12 -11 28 -2 19 -7 -14 22 23 -15 -19 -9 -13 -8 -17 -10
right_child=1 8 5 9 13 10 27 25 11 15 14 26 20 21 -16 16 -18 24 -20 -21 -22 -23 -24 -25 -26 -27 -28 -29 -30 -31
leaf_value=-0.30884546088576914 0.78787447463337734 1.5610851722578167 -0.2172376946570993 -0.36068873188194051 -0.11135949754749053 -0.18859801365531415 0.25474558999163682 0.023590013932203481 0.58151356744846583 0.026449113379459366 -0.11161692355104487 -0.1181917135915974 -0.0091643424825079475 0.032013483069808224 -0.30969578259029085 -0.2310225357584309 -0.20160431137663767 0.29538025789800137 -0.335344534375208 -0.26964897258796178 0.18671834972319845 0.15317352451322003 -0.017322308677746711 0.3149470066560392 0.15808675218288962 -0.19539441607880181 0.23920027977904834 -0.010966557458704784 -0.00081712653312120413 0.33406604049865973
leaf_weight=12700 1519 4604 3299 1860 3481 4764 1142 381 6887 3201 7512 797 3123 6861 2221 640 3438 6535 2439 5762 3844 1437 6471 982 4895 168 3970 5271 4222 3071
leaf_count=12700 1519 4604 3299 1860 3481 4764 1142 381 6887 3201 7512 797 3123 6861 2221 640 3438 6535 2439 5762 3844 1437 6471 982 4895 168 3970 5271 4222 3071
internal_value=-0.00408479 0.0106239 -0.0272268 0.00417928 0.00895065 -0.0202714 -0.00726936 -0.0441926 0.0281313 -0.00980091 -0.0258437 0.023227 0.0169076 0.00070159 -0.0177283 -0.00599861 -0.0100722 0.0218588 -0.031936 -0.0292039 0.0077293 0.00379735 0.00230544 0.00684049 0.0196416 0.00701275 0.010772 0.00167367 -0.00316742 0.0292127
internal_weight=117497 71838 45659 52509 39148 32410 9712 13249 19329 13361 22698 14725 19916 19232 9733 11501 8300 12949 12965 10526 6967 15751 14314 7843 11430 549 4767 6413 4862 9958
internal_count=117497 71838 45659 52509 39148 32410 9712 13249 19329 13361 22698 14725 19916 19232 9733 11501 8300 12949 12965 10526 6967 15751 14314 7843 11430 549 4767 6413 4862 9958
cat_boundaries=0 2 5 7 9 11 13 15 17 20 21 23 26
cat_threshold=545267842 2419064960 1143098900 1778766354 3 100732944 608698436 0 327680 4198400 2886226248 46399488 2219312192 77726996 1078069760 2048 86528 3076 167825408 3 8396800 16793856 8441856 1342178308 33591296 1
is_linear=0
shrinkage=0.05


Tree=25
num_leaves=31
num_cat=14
split_feature=0 2 13 4 13 4 0 13 3 1 13 4 4 13 13 4 13 13 4 10 13 4 13 13 13 10 13 7 9 13
split_gain=15392.3 3073.3 2210.21 1218.52 931.923 886.983 601.462 571.443 528.382 473.614 468.86 424.485 290.249 241.672 231.249 207.194 186.955 180.136 179.58 167.629 150.246 148.345 163.336 136.843 133.752 126.057 125.411 114.785 112.541 105.058
threshold=17.500000000000004 47.500000000000007 0 16.500000000000004 1 10.500000000000002 14.000000000000002 2 67.500000000000014 14.000000000000002 3 15.500000000000002 13.500000000000002 4 5 18.500000000000004 6 7 18.500000000000004 11.500000000000002 8 18.500000000000004 9 10 11 10.500000000000002 12 1.0000000180025095e-35 1.5000000000000002 13
decision_type=2 2 9 2 9 2 2 9 2 2 9 2 2 9 9 2 9 9 2 2 9 2 9 9 9 2 9 2 2 9
left_child=2 3 6 4 13 7 -1 -4 11 15 -5 -3 14 -2 -6 19 -13 -12 28 26 -14 27 -23 -16 -8 -25 -7 -19 -11 -9
right_child=1 8 5 10 12 9 24 29 -10 18 17 16 20 -15 23 -17 -18 21 -20 -21 -22 22 -24 25 -26 -27 -28 -29 -30 -31
leaf_value=-0.29340318784148067 0.0089182725605096991 0.44687596440173571 -0.20637580992424437 -0.29004173092680857 0.10651365665425204 -0.16315188035199768 0.022410513235593312 0.24200831049205507 1.1794736616379546 -0.26407941209945723 0.19576900228981142 -0.40810412494254111 -0.0087061253583826225 -0.10670753743334167 0.76201058865705962 -0.31857730765644759 0.17889364382702588 0.0018485852845005369 -0.26705322682917848 -0.25476509968403172 0.14016998195391003 -0.27162890653674493 -0.078012256032315014 0.33943272914053468 -0.1856246952748617 0.19632544474901686 -0.18073381895020324 -0.36633103238516629 -0.089161200749161659 -0.010418229585769545
leaf_weight=12700 10377 7543 3299 2391 5261 2693 381 1142 7063 558 796 247 3556 3834 1416 2705 4745 5501 1955 5950 5487 1347 3163 4342 168 4489 2246 280 6591 5271
leaf_count=12700 10377 7543 3299 2391 5261 2693 381 1142 7063 558 796 247 3556 3834 1416 2705 4745 5501 1955 5950 5487 1347 3163 4342 168 4489 2246 280 6591 5271
internal_value=-0.00428394 0.0101437 -0.0269837 0.00380934 0.00831226 -0.0199291 -0.0441926 -0.00728995 0.0270283 -0.0253458 -0.00914082 0.0208656 0.0142075 -0.00188102 0.0183647 -0.0312564 0.00955529 -0.00478958 -0.0165202 -0.0281798 0.00709388 -0.00656732 -0.0133703 0.0227406 0.00701275 0.0203653 -0.0213707 -0.00127141 -0.012848 0.00142457
internal_weight=117497 71838 45659 52240 38762 32410 13249 9712 19598 22698 13478 12535 24551 14211 15508 13594 4992 11087 9104 10889 9043 10291 4510 10247 549 8831 4939 5781 7149 6413
internal_count=117497 71838 45659 52240 38762 32410 13249 9712 19598 22698 13478 12535 24551 14211 15508 13594 4992 11087 9104 10889 9043 10291 4510 10247 549 8831 4939 5781 7149 6413
cat_boundaries=0 2 4 6 8 10 13 15 17 20 22 24 25 27 30
cat_threshold=545267842 2419064960 449130752 2236222784 100732944 608698436 138416128 2886226248 402731264 16910336 85983296 545259532 2 0 4096 69337104 131584 3076 176209928 3 285559296 8389652 2048 348672 8396800 33820688 206045184 1342178308 33591296 1
is_linear=0
shrinkage=0.05


Tree=26
num_leaves=31
num_cat=12
split_feature=0 13 13 1 2 4 4 4 10 4 13 4 3 13 7 4 13 13 13 11 9 13 13 13 9 9 13 4 10 13
split_gain=15004.1 4094.47 1678.13 1124.27 920.655 765.21 676.359 455.964 389.751 365.179 320.451 289.588 251.891 248.857 228.623 227.431 206.811 198.831 196.586 164.137 151.415 145.699 142.169 140.235 127.625 185.548 127.168 121.436 119.507 111.54
threshold=11.500000000000002 0 1 67.500000000000014 27.500000000000004 17.500000000000004 10.500000000000002 10.500000000000002 11.500000000000002 15.500000000000002 2 18.500000000000004 17.500000000000004 3 1.0000000180025095e-35 18.500000000000004 4 5 6 590.0384416666667 18.500000000000004 7 8 9 8.5000000000000018 2.5000000000000004 10 18.500000000000004 11.500000000000002 11
decision_type=2 9 9 2 2 2 2 2 2 2 9 2 2 9 2 2 9 9 9 2 2 9 9 9 2 2 9 2 2 9
left_child=2 3 10 5 7 8 16 13 14 21 -1 12 -9 -3 20 28 -4 27 -11 23 -2 -6 -13 -10 25 -25 -19 -7 -8 -5
right_child=1 4 6 29 9 17 15 11 19 18 -12 22 -14 -15 -16 -17 -18 26 -20 -21 -22 -23 -24 24 -26 -27 -28 -29 -30 -31
leaf_value=-0.28963444239721492 0.3845710195418075 -0.13181542495667839 -0.19605701942803214 1.6603243556524252 0.19711082596324411 -0.023353432558793231 -0.18161771292828446 -0.15617141527233969 0.30782670078942331 -0.34896524489231506 -0.27873302844940667 -0.17754875103681381 -0.028210667225094355 0.091285362434661732 0.017497431821964327 -0.30264844227362525 -0.0032076433800392935 0.57609789358558783 0.0012124415565182289 0.46130345810711193 0.19723271369813597 0.03964789098348618 -0.27453030481413426 0.18641538913601582 0.15139469076706646 -0.078659807389015415 0.0060080965052819128 -0.33740797362885772 -0.24236525785451715 0.65134893831438034
leaf_weight=8793 9547 764 1488 3622 6213 696 3047 7647 2404 1021 10880 1610 10941 3887 1050 1916 4233 425 5845 707 3841 4525 1961 1072 5920 1706 3237 902 3995 3602
leaf_count=8793 9547 764 1488 3622 6213 696 3047 7647 2404 1021 10880 1610 10941 3887 1050 1916 4233 425 5845 707 3841 4525 1961 1072 5920 1706 3237 902 3995 3602
internal_value=-0.00439288 0.00709183 -0.0321903 0.0189709 -0.00327075 0.0148967 -0.0193512 -0.00910481 0.018385 0.00561236 -0.0417391 -0.0120922 -0.00958683 0.00512793 0.0238953 -0.0279415 -0.00593428 -0.00250951 -0.00339353 0.0116479 0.0256573 0.0113708 -0.025133 0.0101603 0.00717731 -0.00165587 0.00392157 -0.0171642 -0.0237859 0.0367663
internal_weight=117497 83145 34352 38731 44414 31507 14679 26810 26247 17604 19673 22159 18588 4651 14438 8958 5721 5260 6866 11809 13388 10738 3571 11102 8698 2778 3662 1598 7042 7224
internal_count=117497 83145 34352 38731 44414 31507 14679 26810 26247 17604 19673 22159 18588 4651 14438 8958 5721 5260 6866 11809 13388 10738 3571 11102 8698 2778 3662 1598 7042 7224
cat_boundaries=0 3 5 7 9 11 13 15 18 20 22 24 26
cat_threshold=1185050132 1107628562 1 578826386 3039821956 41947152 620756996 0 4718912 67567616 4718656 1073758720 4112 4096 671105096 155193408 142655492 2 17039680 558008576 8388608 332304 67117072 65536 0 327680
is_linear=0
shrinkage=0.05


Tree=27
num_leaves=31
num_cat=12
split_feature=0 13 13 3 1 4 4 10 4 13 4 4 3 4 7 13 13 13 9 13 9 9 13 13 10 4 13 13 9 13
split_gain=14535.6 3759.15 1784.27 1099.44 841.939 783.202 611.893 390.792 390.437 322.203 312.902 285.054 244.864 236.222 212.076 208.172 191.077 186.909 180.801 159.414 168.96 171.653 153.864 143.958 127.75 126.617 124.972 112.233 114.669 111.76
threshold=11.500000000000002 0 1 72.500000000000014 27.500000000000004 17.500000000000004 10.500000000000002 11.500000000000002 17.500000000000004 2 15.500000000000002 9.5000000000000018 17.500000000000004 18.500000000000004 1.0000000180025095e-35 3 4 5 18.500000000000004 6 8.5000000000000018 2.5000000000000004 7 8 14.500000000000002 18.500000000000004 9 10 21.500000000000004 11
decision_type=2 9 9 2 2 2 2 2 2 9 2 2 2 2 2 9 9 9 2 9 2 2 9 9 2 2 9 9 2 9
left_child=2 3 9 5 8 7 15 14 11 -1 23 -3 29 -8 18 -4 25 -10 26 -9 21 -21 -12 -6 -22 -7 -2 -20 -29 -13
right_child=1 4 6 -5 10 16 13 19 17 -11 22 12 -14 -15 -16 -17 -18 -19 27 20 24 -23 -24 -25 -26 -27 -28 28 -30 -31
leaf_value=-0.27515272027735416 0.88135982325115847 0.11582134460438738 -0.18625416845663054 1.194891418798639 0.18915309009735123 0.0073964821342972446 -0.18605179944108291 0.33555672517237839 -0.16134687367656009 -0.26479637702693631 -0.37077019196113775 -0.13367405727276696 -0.015703166773254829 -0.28751602015994399 0.023357710807421841 -0.0030472612110373555 0.04774142733313802 -0.2342032371388971 0.37995525090467269 0.17078202963670286 0.0024767533859758831 -0.075635223799384477 0.00069306921684670903 0.027795409623417113 0.2115049745865612 -0.25524673518574231 0.31655485104196934 -0.007211825252282012 0.24278817474771799 -0.083698795867881162
leaf_weight=8793 1994 2057 1488 5790 6371 985 7042 2862 3012 10880 1047 4108 10895 1916 1080 4233 3076 2626 1365 1083 1620 1707 5783 4710 4891 1383 8045 1271 1397 3987
leaf_count=8793 1994 2057 1488 5790 6371 985 7042 2862 3012 10880 1047 4108 10895 1916 1080 4233 3076 2626 1365 1083 1620 1707 5783 4710 4891 1383 8045 1271 1397 3987
internal_value=-0.00451884 0.00678513 -0.0318788 0.0182175 -0.00310048 0.0146723 -0.0186432 0.0181237 -0.00872962 -0.0417238 0.00528446 -0.00559937 -0.00751448 -0.026814 0.023482 -0.00588184 -0.00264511 -0.020415 0.0251208 0.0114487 0.00824294 -0.00204301 -0.00313324 0.0104729 0.0126632 -0.0132885 0.028713 0.016179 0.0100822 -0.0141013
internal_weight=117497 83145 34352 38549 44596 32759 14679 27315 26685 19673 17911 21047 18990 8958 15152 5721 5444 5638 14072 12163 9301 2790 6830 11081 6511 2368 10039 4033 2668 8095
internal_count=117497 83145 34352 38549 44596 32759 14679 27315 26685 19673 17911 21047 18990 8958 15152 5721 5444 5638 14072 12163 9301 2790 6830 11081 6511 2368 10039 4033 2668 8095
cat_boundaries=0 3 5 7 9 11 13 15 17 20 22 24 26
cat_threshold=1185041940 1107628562 1 578826386 3039821956 41947152 620756996 67567616 4718656 1073758720 4626 17113408 558009600 8388608 332304 4198400 134234184 150999104 142655492 2 3072 332288 8391680 1074074112 268705792 2168980804
is_linear=0
shrinkage=0.05


Tree=28
num_leaves=31
num_cat=10
split_feature=0 13 13 13 2 4 4 10 4 13 4 13 4 13 13 4 7 9 13 13 0 4 4 13 11 5 5 9 10 4
split_gain=14150.3 3510.31 1845.67 1118.05 756.82 593.092 558.365 407.131 374.577 312.503 289.795 271.873 257.311 246.701 243.814 221.98 209.737 205.09 162.777 159.692 155.489 176.558 139.285 136.874 125.605 109.624 146.824 109.233 109.231 99.1059
threshold=11.500000000000002 0 1 2 27.500000000000004 17.500000000000004 10.500000000000002 11.500000000000002 16.500000000000004 3 15.500000000000002 4 18.500000000000004 5 6 10.500000000000002 1.0000000180025095e-35 18.500000000000004 7 8 82.500000000000014 17.500000000000004 18.500000000000004 9 590.0384416666667 4.5000000000000009 1.5000000000000002 21.500000000000004 33.500000000000007 14.500000000000002
decision_type=2 9 9 9 2 2 2 2 2 9 2 9 2 9 9 2 2 2 9 9 2 2 2 9 2 2 2 2 2 2
left_child=2 3 9 20 8 7 13 16 11 25 23 -3 -8 -4 -10 -13 17 -5 22 -12 21 -2 -7 29 28 26 -1 -19 -9 -6
right_child=1 4 6 5 10 18 12 24 14 -11 19 15 -14 -15 -16 -17 -18 27 -20 -21 -22 -23 -24 -25 -26 -27 -28 -29 -30 -31
leaf_value=-0.27467130396099898 0.65934104874012722 -0.086509891493198057 -0.23718822281546681 0.35530984880710542 0.37863122037387131 0.0064529606690552303 -0.17768865238422471 0.079127104716479837 -0.21317125200253884 -0.25155655817558947 -0.38079069522877529 0.13785438664516933 -0.27314021915194681 -0.002894898150485492 -0.14286805307287906 -0.020640779691580315 -0.014625371581162484 0.061545404609072034 0.032454013255277657 -0.00096397500935845319 1.6019754900695653 0.15351272135938104 -0.33862616635041309 0.062142382142791067 0.36016723048104321 -0.2613950842634864 -0.14737549489309495 0.26842730318869901 0.27888686948370189 0.047308088467223543
leaf_weight=2623 3732 6742 1763 10309 2040 736 7128 9271 3337 10880 805 3238 1939 4233 4678 9075 939 1741 3613 6089 3009 727 829 8095 666 2825 2961 1920 942 612
leaf_count=2623 3732 6742 1763 10309 2040 736 7128 9271 3337 10880 805 3238 1939 4233 4678 9075 939 1741 3613 6089 3009 727 829 8095 666 2825 2961 1920 942 612
internal_value=-0.00464225 0.00651091 -0.0316372 0.0175892 -0.00301536 0.013391 -0.0184801 0.016496 -0.00826745 -0.0418804 0.00504223 -0.0044529 -0.0263207 -0.00665444 -0.0173362 -2.84022e-05 0.0218626 0.0234001 -0.00204712 -0.00295909 0.0349559 0.029076 -0.0154603 0.0101749 0.00914147 -0.0344637 -0.0304441 0.0132341 0.00776951 0.0200225
internal_weight=117497 83145 34352 38434 44711 30966 15063 25788 27070 19289 17641 19055 9067 5996 8015 12313 14909 13970 5178 6894 7468 4459 1565 10747 10879 8409 5584 3661 10213 2652
internal_count=117497 83145 34352 38434 44711 30966 15063 25788 27070 19289 17641 19055 9067 5996 8015 12313 14909 13970 5178 6894 7468 4459 1565 10747 10879 8409 5584 3661 10213 2652
cat_boundaries=0 3 5 7 9 11 13 16 18 20 22
cat_threshold=1176661524 1107628562 1 578826370 3039821956 16 328192 41947136 620756996 12845056 2152203584 67567632 4718656 138416128 2357216324 2 16896 4112 12587008 536887368 0 142655488
is_linear=0
shrinkage=0.05


Tree=29
num_leaves=31
num_cat=10
split_feature=13 13 0 4 3 4 13 3 13 4 10 11 9 13 13 9 0 10 4 13 7 9 5 5 13 4 0 4 13 13
split_gain=11470.4 3185.31 2519.11 1051.94 813.416 656.616 426.263 381.528 343.725 272.242 271.131 263.462 246.171 237.927 212.159 212.158 209.106 205.299 196.15 196.108 194.882 169.682 160.237 241.264 153.24 143.022 133.888 130.187 128.552 126.337
threshold=0 1 7.5000000000000009 17.500000000000004 37.500000000000007 18.500000000000004 2 17.500000000000004 3 10.500000000000002 11.500000000000002 590.0384416666667 18.500000000000004 4 5 5.5000000000000009 7.5000000000000009 11.500000000000002 17.500000000000004 6 1.0000000180025095e-35 21.500000000000004 4.5000000000000009 1.5000000000000002 7 18.500000000000004 27.500000000000004 14.500000000000002 8 9
decision_type=9 9 2 2 2 2 9 2 9 2 2 2 2 9 9 2 2 2 2 9 2 2 2 2 9 2 2 2 9 9
left_child=2 13 6 4 10 7 29 14 -5 -8 12 24 15 18 -4 -3 -15 20 -2 -7 -6 -14 23 -16 27 -10 -9 -12 -17 -1
right_child=1 3 5 8 17 19 9 26 25 -11 11 -13 21 16 22 28 -18 -19 -20 -21 -22 -23 -24 -25 -26 -27 -28 -29 -30 -31
leaf_value=-0.24766151906543651 0.76450473569034827 0.0062865648657826519 0.011021269733190044 0.022455997724888911 0.29189151122663831 -0.11251108491119566 -0.182402458768817 -0.038200974907356057 -0.096325011476113262 -0.23897873026680996 0.10432340734235286 0.32701816826265823 -0.079004146857999669 -0.23897873026680996 -0.13170280792854347 0.13827541596406442 0.011021269733190044 0.13910061026744885 0.24854399830126894 -0.26619835715985668 -0.043073618536897486 0.11657260667616197 -0.13170280792854347 -0.031185626550486491 -0.045615424087652116 -0.18609640845785311 0.057184493606607045 -0.16935401888963392 0.24195325107364055 -0.23897873026680996
leaf_weight=6741 3690 2427 1352 4669 12991 1178 2796 7529 2251 4703 3469 666 2405 60 4278 4011 5368 7462 1022 2782 762 1840 4297 5845 8240 3562 3108 841 3524 3628
leaf_count=6741 3690 2427 1352 4669 12991 1178 2796 7529 2251 4703 3469 666 2405 60 4278 4011 5368 7462 1022 2782 762 1840 4297 5845 8240 3562 3108 841 3524 3628
internal_value=-0.00176387 0.0112733 -0.0204811 0.00682902 0.00992639 -0.0117208 -0.0353817 -0.00887387 -0.00753673 -0.0261619 0.00423914 -0.000915557 0.00903428 0.0371527 -0.0138093 0.0133307 0.0444097 0.0172779 0.0287166 -0.0307071 0.0209009 -0.00104829 -0.0155787 -0.0121555 -0.00254183 -0.0156363 -0.00155589 0.00509259 0.0174718 -0.0419838
internal_weight=117497 69260 48237 59120 48638 30369 17868 26409 10482 7499 27423 13216 14207 10140 15772 9962 5428 21215 4712 3960 13753 4245 14420 10123 12550 5813 10637 4310 7535 10369
internal_count=117497 69260 48237 59120 48638 30369 17868 26409 10482 7499 27423 13216 14207 10140 15772 9962 5428 21215 4712 3960 13753 4245 14420 10123 12550 5813 10637 4310 7535 10369
cat_boundaries=0 2 4 6 9 11 13 15 18 20 22
cat_threshold=180695186 3168273736 536870912 2425472 8401026 873463808 1140854020 1107429378 1 0 262656 8210 2147483648 8658960 2688548864 1075989504 33574930 1 270663936 16957444 8400896 603979776
is_linear=0
shrinkage=0.05


Tree=30
num_leaves=31
num_cat=11
split_feature=13 0 13 4 4 2 13 13 13 4 13 10 9 11 5 5 4 10 0 9 6 13 5 13 9 9 7 13 13 13
split_gain=11077.7 3108.46 2740.71 960.191 675.988 673.878 478.147 475.234 302.546 299.329 255.653 217.32 227.601 214.915 212.994 226.787 208.063 200.106 192.349 181.05 173.548 161.431 145.165 144.155 143.277 140.545 133.973 133.272 130.189 129.347
threshold=0 7.5000000000000009 1 17.500000000000004 18.500000000000004 42.500000000000007 2 3 4 10.500000000000002 5 11.500000000000002 18.500000000000004 590.0384416666667 1.0000000180025095e-35 3.5000000000000004 14.500000000000002 10.500000000000002 7.5000000000000009 15.500000000000002 5.5000000000000009 6 5.5000000000000009 7 21.500000000000004 8.5000000000000018 1.0000000180025095e-35 8 9 10
decision_type=9 2 9 2 2 2 9 9 9 2 9 2 2 2 2 2 2 2 2 2 2 9 2 9 2 2 2 9 9 9
left_child=1 7 18 5 6 11 17 28 -5 -9 -6 12 19 22 -8 -16 27 20 -2 23 -3 -18 25 -4 29 -13 -25 -7 -1 -14
right_child=2 4 3 8 10 16 14 9 -10 -11 -12 13 24 -15 15 -17 21 -19 -20 -21 -22 -23 -24 26 -26 -27 -28 -29 -30 -31
leaf_value=-0.23527844311216467 -0.22702979375346946 -0.085615404157351638 0.26492399453848015 -0.1651823534877698 -0.066494091850396411 0.5147764721921203 -0.14772970963364127 -0.17174921727071821 0.033894378444370155 -0.22702979375346946 -0.23675504724869595 -0.093865592453468427 -0.10056116130721807 0.32211977545503906 0.010470206246530545 -0.05595270271764248 0.28662701430883714 -0.12205367158336067 0.38148762701870514 0.41233815881527608 0.050881215796658635 0.096025904791570582 0.15448990690815495 0.1288663065363945 0.14130042019956726 0.016815456354104086 -0.075475313061671309 0.2166188464195159 -0.22702979375346946 0.11037275669442614
leaf_weight=6741 60 6147 2103 4736 1008 5070 2778 3015 4577 4853 4049 3710 1298 753 9127 7736 3523 5311 7626 1015 1567 4176 1960 5967 1887 6532 756 4847 3628 941
leaf_count=6741 60 6147 2103 4736 1008 5070 2778 3015 4577 4853 4049 3710 1298 753 9127 7736 3523 5311 7626 1015 1567 4176 1960 5967 1887 6532 756 4847 3628 941
internal_value=-0.00176728 -0.0178649 0.0128723 0.00888119 -0.00967447 0.0119359 -0.00704096 -0.0348166 -0.00571781 -0.0254252 -0.0266858 0.00696085 0.0112873 0.00229641 -0.00210931 2.96507e-06 0.0195391 -0.0144649 0.0407874 0.0154202 -0.00933368 0.0133719 0.000696607 0.0131203 0.00142996 -0.00168912 0.00949799 0.0243269 -0.0418778 -0.00712372
internal_weight=117497 55960 61537 53851 37723 44538 32666 18237 9313 7868 5057 26922 13967 12955 19641 16863 17616 13025 7686 9841 7714 7699 12202 8826 4126 10242 6723 9917 10369 2239
internal_count=117497 55960 61537 53851 37723 44538 32666 18237 9313 7868 5057 26922 13967 12955 19641 16863 17616 13025 7686 9841 7714 7699 12202 8826 4126 10242 6723 9917 10369 2239
cat_boundaries=0 2 4 6 8 11 13 16 18 20 22 25
cat_threshold=449130898 3168273740 536870912 2424960 46403584 608698432 8401026 873463808 16794176 16830480 2 8397072 4194304 69338116 16908818 2 1604 1107300880 19456 33575426 8400896 603979776 1159725636 16910336 2
is_linear=0
shrinkage=0.05


Tree=31
num_leaves=31
num_cat=10
split_feature=0 0 13 4 0 13 13 13 4 4 3 10 13 13 13 4 13 4 0 13 5 4 4 13 10 7 7 5 9 10
split_gain=10736.6 2819.07 1669.64 904.094 794.434 728.109 547.164 528.777 418.721 399.268 273.446 200.052 184.818 183.737 173.795 172.776 166.671 145.719 141.065 295.913 124.543 121.755 116.894 115.975 119.101 111.559 108.558 108.484 108.203 132.551
threshold=11.500000000000002 42.500000000000007 0 16.500000000000004 72.500000000000014 1 2 3 16.500000000000004 14.500000000000002 22.500000000000004 11.500000000000002 4 5 6 9.5000000000000018 7 10.500000000000002 7.5000000000000009 8 4.5000000000000009 19.500000000000004 18.500000000000004 9 16.500000000000004 1.0000000180025095e-35 1.0000000180025095e-35 1.0000000180025095e-35 18.500000000000004 8.5000000000000018
decision_type=2 2 9 2 2 9 9 9 2 2 2 2 9 9 9 2 9 2 2 9 2 2 2 9 2 2 2 2 2 2
left_child=2 3 14 5 9 10 18 -5 23 13 15 20 -11 -3 -1 -2 -9 -13 -4 -20 25 26 27 24 28 -7 -18 -14 29 -8
right_child=1 4 6 7 -6 11 8 16 -10 12 -12 17 22 -15 -16 -17 21 -19 19 -21 -22 -23 -24 -25 -26 -27 -28 -29 -30 -31
leaf_value=-0.224178331941432 0.069825787359640054 0.454351489561299 -0.21483173215792989 -0.18427155061540279 1.0889279662079543 0.23338073528880976 0.028728853535166812 0.025183232717741078 -0.21567830406579597 -0.16949401505450298 0.020445582324293367 0.18333705540852405 -0.035277671477734175 0.18452845163332121 -0.21567830406579597 -0.089641791560058165 -0.047758077686917491 0.013133075982272225 0.0099466959342040095 -0.12453584122554338 0.065575223457356377 -0.18088750434407466 -0.02992036517901191 0.070588256998186341 -0.21567830406579597 -0.00080846254252087135 -0.31808527129510228 0.18429298616633771 -0.21567830406579597 -0.077647381418673611
leaf_weight=4000 1438 5276 8662 4444 6070 6397 1007 3241 2021 1022 9682 2369 1013 6015 6446 10564 5327 6402 234 5511 2354 1745 1719 2327 1589 698 277 7092 783 1772
leaf_count=4000 1438 5276 8662 4444 6070 6397 1007 3241 2021 1022 9682 2369 1013 6015 6446 10564 5327 6402 234 5511 2354 1745 1719 2327 1589 698 277 7092 783 1772
internal_value=-0.00394265 0.00577245 -0.0274569 -0.000824566 0.0186213 0.00311247 -0.0201413 -0.0112744 -0.010795 0.0142273 -0.00307919 0.0104772 0.00737599 0.0208086 -0.0441373 -0.00812365 -0.00517925 0.00504503 -0.0262919 -0.020235 0.0155307 -0.0093423 0.00947732 -0.00534902 -0.00952335 0.0188372 -0.00576374 0.0119988 -0.00446378 0.000161929
internal_weight=117497 83145 34352 54938 28207 39904 23906 15034 9499 22137 21684 18220 10846 11291 10446 12002 10590 8771 14407 5745 9449 7349 9824 7478 5151 7095 5604 8105 3562 2779
internal_count=117497 83145 34352 54938 28207 39904 23906 15034 9499 22137 21684 18220 10846 11291 10446 12002 10590 8771 14407 5745 9449 7349 9824 7478 5151 7095 5604 8105 3562 2779
cat_boundaries=0 2 4 6 8 10 12 14 16 17 19
cat_threshold=545259650 825229444 407187712 2244611396 104936016 206045264 138678272 2357220424 16777216 153604 19456 8737286 8388608 553648132 77737236 1078069760 8192 19267840 2155875584
is_linear=0
shrinkage=0.05


Tree=32
num_leaves=31
num_cat=10
split_feature=13 13 0 4 1 13 4 13 13 13 4 13 3 0 4 4 11 10 11 10 9 9 13 1 9 0 13 10 13 11
split_gain=9808.63 3079.3 2429.47 925.277 752.616 572.444 503.945 383.041 305.349 302.355 277.181 215.947 197.536 189.052 186.444 174.538 166.484 218.457 161.049 155.302 153.917 159.884 147.868 144.046 134.341 132.925 124.418 122.482 120.907 114.644
threshold=0 1 7.5000000000000009 17.500000000000004 47.500000000000007 2 17.500000000000004 3 4 5 10.500000000000002 6 27.500000000000004 7.5000000000000009 19.500000000000004 10.500000000000002 629.92705833333332 11.500000000000002 470.10655833333334 10.500000000000002 18.500000000000004 21.500000000000004 7 22.500000000000004 6.5000000000000009 72.500000000000014 8 6.5000000000000009 9 590.0384416666667
decision_type=9 9 2 2 2 9 2 9 9 9 2 9 2 2 2 2 2 2 2 2 2 2 9 2 2 2 9 2 9 2
left_child=2 13 5 4 8 -1 7 18 16 14 -7 -8 15 -2 22 28 17 20 -4 27 24 -22 -5 -15 -3 -6 -20 -10 -9 -21
right_child=1 3 6 9 25 10 11 12 19 -11 -12 -13 -14 23 -16 -17 -18 -19 26 29 21 -23 -24 -25 -26 -27 -28 -29 -30 -31
leaf_value=-0.20489438886250622 -0.20489438886250622 -0.011563842151262983 -0.10424776599980144 -0.32866887126475614 0.25996096365791355 -0.15218253991950484 -0.060801236827208706 -0.006613884446588259 0.14217946172479118 0.0097831948507194795 -0.21711474674255432 -0.19851700784157489 0.07156550021959536 0.0021797400988850415 -0.18394188769615277 -0.063491070809497521 0.19722205500758286 -0.037468309635746523 0.070367941210704291 0.071498654658954483 -0.12819559826429483 0.065562913858036614 -0.023075937223055832 1.1337698142510704 0.13712967718756061 0.75537848056923773 -0.056377235869784853 0.32431479267106555 0.19258804609413574 0.44437907506873631
leaf_weight=8439 60 2355 5459 955 10198 3524 1273 1692 5237 5998 5905 4994 2871 2719 1575 11444 1272 8798 788 8640 1715 1572 2565 4907 5859 2133 1064 2299 784 403
leaf_count=8439 60 2355 5459 955 10198 3524 1273 1692 5237 5998 5905 4994 2871 2719 1575 11444 1272 8798 788 8640 1715 1572 2565 4907 5859 2133 1064 2299 784 403
internal_value=-0.00185664 0.0101992 -0.0191649 0.00647084 0.0093451 -0.0337979 -0.0105618 -0.0072774 0.00587418 -0.00660326 -0.0252304 -0.0231929 -0.00310993 0.0400208 -0.0155436 -0.00557471 0.00194847 0.000849796 -0.0168215 0.0109741 0.00538649 -0.00375723 -0.00917614 0.0407684 0.00904553 0.0200835 -0.00410367 0.0162818 0.00646204 0.00656309
internal_weight=117497 69260 48237 61574 50481 17868 30369 24102 38150 11093 9429 6267 16791 7686 5095 13920 21571 20299 7311 16579 11501 3287 3520 7626 8214 12331 1852 7536 2476 9043
