tree
version=v4
num_class=1
num_tree_per_iteration=1
label_index=0
max_feature_idx=14
objective=regression_l1
feature_names=wait_minutes wait_lag_1 wait_lag_2 wait_lag_3 hour_of_day day_of_week month is_holiday is_holiday_weekend days_until_next_holiday days_since_last_holiday minutes_since_last_status_change closure_duration_minutes ride_id_cat status_cat
feature_infos=[0:300] [0:300] [0:300] [0:300] [8:23] [0:6] [5:6] [0:1] [0:1] [0:24] [0:35] [19.970549999999999:3799.9234166666665] [0:670] -1:28:58:55:47:8:27:38:56:54:61:48:33:16:41:65:59:2:63:18:64:12:22:51:40:24:36:14:13:44:50:26:49:6:42:10:46:11:62:43:23:9:17:21:34:57:30:52:39:29:25:1:7:4:53:60:35 none
tree_sizes=2442 2910 2920 2930 2937 2933 2917 2963 2986 2985 2985 2997 2989 2993 3014 2995 3002 2986 2981 3002 2989 2968 2978 2968 2979 2966 2993 2989 2998 2980 2983 2980 2971 3001 2994 3014 2984 3020 3019 3025 3002 3035 3024 3052 3041 3038 3007 3020 3043 3032 3016 3074 3085 3068 3036 3042 3059 3062 3049 3067 3063 3075 3064 3057 3062 3056 3070 3080 3040 3090 3055 3057 3063 3066 3103 3080 3094 3059 3087 3065 3086 3067 3059 3036 3023 3073 3045 3046 3054 3056 3062 3060 3048 3064 3089 3042 3089 3057 3061 3057 3064 3037 3051 3049 3089 3056 3036 3042 3045 3051 3081 3028 3015 3011 3060 3021 2994 2980 2988 2993 3002 3049 3026 3017 2989 3036 3030 3053 3015 3055 3027 3024 3020 3029 3043 3031 3014 3017 3017 3016 3013 3016 2998 3017 3021 3005 3016 3013 3005 3001 3026 3030 3011 3021 2994 2997 3013 3013 3012 3009 3001 3008 3013 3027 3024 3033 3028 2988 3041 3042 3043 3042 3037 3042 3053 3041 3039 3051 3058 3047 3033 3044 3045 3054 3055 3055 3040 3042 3045 3041 3043 3060 3066 3065 3062 3067 3055 3043 3045 3046

Tree=0
num_leaves=31
num_cat=11
split_feature=0 0 0 13 13 13 0 13 4 13 4 4 3 13 4 13 4 3 3 13 0 3 3 3 3 3 13 13 4 13
split_gain=92989.3 7135.07 1424.86 1180.36 573.121 440.671 318.396 247.714 240.122 239.865 229.497 186.078 182.953 137.799 126.709 106.688 102.549 95.7903 94.5415 75.7397 73.0961 66.6772 64.6423 62.0282 61.1529 58.3116 57.2668 52.7722 57.3217 52.408
threshold=17.500000000000004 22.500000000000004 11.500000000000002 0 1 2 32.500000000000007 3 18.500000000000004 4 18.500000000000004 19.500000000000004 17.500000000000004 5 19.500000000000004 6 19.500000000000004 27.500000000000004 17.500000000000004 7 7.5000000000000009 27.500000000000004 17.500000000000004 22.500000000000004 32.500000000000007 27.500000000000004 8 9 18.500000000000004 10
decision_type=2 2 2 9 9 9 2 9 2 9 2 2 2 9 2 9 2 2 2 9 2 2 2 2 2 2 9 9 2 9
left_child=2 5 7 9 12 23 11 14 13 16 17 -5 27 -6 20 -13 22 26 -9 -11 -1 -14 -3 -2 -12 -10 -7 -4 -29 -22
right_child=1 3 4 6 8 10 -8 18 25 19 24 15 21 -15 -16 -17 -18 -19 -20 -21 29 -23 -24 -25 -26 -27 -28 28 -30 -31
leaf_value=19.25 20 20.25 19.75 20.5 19.75 20 21.25 19.25 19.75 20 20 20.25 19.75 20.25 19.5 20.25 20.25 20.25 19.5 20.25 19.5 20 20.5 20 20 19.75 20 19.75 19.75 19.75
leaf_weight=1392 4260 726 3330 12933 1945 1740 47390 41124 1163 719 1712 1196 1830 1118 2323 1196 326 1452 1874 3678 755 371 5194 698 385 359 2169 2949 1178 621
leaf_count=1392 4260 726 3330 12933 1945 1740 47390 41124 1163 719 1712 1196 1830 1118 2323 1196 326 1452 1874 3678 755 371 5194 698 385 359 2169 2949 1178 621
internal_value=20.0039 20.0377 19.9574 20.0436 19.9713 20.0026 20.0462 19.9533 19.986 20.0281 20.0103 20.04 19.9644 19.994 19.9641 20.0272 20.0345 20.0158 19.952 20.019 19.9713 19.977 20.036 19.9911 19.9963 19.9697 20.0117 19.9606 19.9649 19.9794
internal_weight=148106 85774 62332 73358 14243 12416 62715 48089 4585 10643 7458 15325 9658 3063 5091 2392 6246 5361 42998 4397 2768 2201 5920 4958 2097 1522 3909 7457 4127 1376
internal_count=148106 85774 62332 73358 14243 12416 62715 48089 4585 10643 7458 15325 9658 3063 5091 2392 6246 5361 42998 4397 2768 2201 5920 4958 2097 1522 3909 7457 4127 1376
cat_boundaries=0 2 5 7 10 12 14 17 19 21 23 25
cat_threshold=440733952 751306056 180690960 2781349200 2 172240896 2756183360 1428309828 1107462158 1 402718720 679477256 335679744 134234116 1090536000 16832532 2 0 71827712 268501248 142622724 41951232 2751988032 268566784 4
is_linear=0
shrinkage=1


Tree=1
num_leaves=31
num_cat=11
split_feature=0 0 13 0 13 13 13 4 0 13 4 3 4 4 3 4 13 13 3 13 13 13 3 0 6 3 3 13 4 4
split_gain=83885.4 7390.8 1747.97 1617.18 555.672 551.683 408.327 390.248 329.654 319.475 262.591 221.749 186.298 156.601 154.986 138.322 127.5 117.663 115.873 104.098 84.4919 79.5079 76.3644 74.2934 62.6827 62.4422 54.2036 52.0521 49.3838 46.1806
threshold=22.500000000000004 11.500000000000002 0 17.500000000000004 1 2 3 19.500000000000004 32.500000000000007 4 19.500000000000004 22.500000000000004 18.500000000000004 19.500000000000004 22.500000000000004 19.500000000000004 5 6 17.500000000000004 7 8 9 27.500000000000004 7.5000000000000009 5.5000000000000009 27.500000000000004 17.500000000000004 10 18.500000000000004 11.500000000000002
decision_type=2 2 9 2 9 9 9 2 2 9 2 2 2 2 2 2 9 9 2 9 9 9 2 2 2 2 2 9 2 2
left_child=1 6 8 4 -3 10 18 11 13 20 14 17 16 25 -4 21 26 29 -1 -15 -5 -11 -9 -18 -7 -2 -8 -13 -22 -6
right_child=2 3 5 9 7 24 12 22 -10 15 -12 27 -14 19 -16 -17 23 -19 -20 -21 28 -23 -24 -25 -26 -27 -28 -29 -30 -31
leaf_value=-0.71250000000000002 0.47500000000000003 -0.23750000000000002 0.23750000000000002 0 -0.23750000000000002 0.23750000000000002 -0.46250000000000002 -0.23750000000000002 1.4375 0 0.23750000000000002 -0.23750000000000002 -0.47500000000000003 0.23750000000000002 0.47500000000000003 0 -0.46250000000000002 -0.012500000000000001 -0.47500000000000003 0.23750000000000002 0 0.25 -0.23750000000000002 -0.22500000000000001 0.23750000000000002 0.47500000000000003 -0.22500000000000001 0.012500000000000001 0 -0.23750000000000002
leaf_weight=38425 3069 3818 3114 2516 1776 2691 2582 2147 43231 3374 1020 690 3592 862 11235 1392 787 1078 1417 1017 3398 1081 345 874 1739 5380 412 1052 655 3337
leaf_count=38425 3069 3818 3114 2516 1776 2691 2582 2147 43231 3374 1020 690 3592 862 11235 1392 787 1078 1417 1017 3398 1081 345 874 1739 5380 412 1052 655 3337
internal_value=0.00358797 -0.0336899 0.0415722 -0.0125736 -0.0240715 0.0288202 -0.045396 -0.0180355 0.0462721 0.00061614 0.0333149 -0.0126308 -0.0350551 0.0382552 0.0350791 0.00910876 -0.0284962 -0.0170651 -0.0475158 0.0251996 -0.00694634 0.0134231 -0.035313 -0.0170257 0.0131869 0.0411587 -0.0346871 0.00312859 -0.00246124 -0.0202128
internal_weight=148106 74748 73358 26659 14243 19799 48089 10425 53559 12416 15369 7933 8247 10328 14349 5847 4655 6191 39842 1879 6569 4455 2492 1661 4430 8449 2994 1742 4053 5113
internal_count=148106 74748 73358 26659 14243 19799 48089 10425 53559 12416 15369 7933 8247 10328 14349 5847 4655 6191 39842 1879 6569 4455 2492 1661 4430 8449 2994 1742 4053 5113
cat_boundaries=0 3 5 7 9 11 13 16 19 21 23 25
cat_threshold=1151487508 1124553234 3 41951248 2751988032 419496000 679512076 717303954 3166196176 440741888 2764571968 2490624 4195328 476381440 146852864 2 1073758720 16797712 3 262144 2219311424 25297232 151177732 409014336 16797696
is_linear=0
shrinkage=0.05


Tree=2
num_leaves=31
num_cat=10
split_feature=0 0 13 0 13 13 13 4 0 4 13 3 4 4 3 13 13 3 4 13 13 3 0 13 3 3 3 3 6 3
split_gain=84015.4 7190.3 1824.79 1474.62 648.823 556.028 408.327 380.856 329.654 262.591 256.466 222.38 186.298 156.601 154.986 127.5 117.663 115.873 112.486 104.222 104.098 89.0814 74.2934 63.5186 62.4422 61.3895 56.4939 54.2036 53.3106 48.9597
threshold=22.500000000000004 11.500000000000002 0 17.500000000000004 1 2 3 19.500000000000004 32.500000000000007 19.500000000000004 4 22.500000000000004 18.500000000000004 19.500000000000004 22.500000000000004 5 6 17.500000000000004 18.500000000000004 7 8 27.500000000000004 7.5000000000000009 9 27.500000000000004 22.500000000000004 32.500000000000007 17.500000000000004 5.5000000000000009 37.500000000000007
decision_type=2 2 9 2 9 9 9 2 2 2 9 2 2 2 2 9 9 2 2 9 9 2 2 9 2 2 2 2 2 2
left_child=1 6 8 5 9 -3 17 11 13 14 25 16 15 24 -4 27 -7 -1 23 -6 -15 -9 -17 -12 -2 -5 -20 -8 -21 -13
right_child=2 3 4 10 19 7 12 21 -10 -11 18 29 -14 20 -16 22 -18 -19 26 28 -22 -23 -24 -25 -26 -27 -28 -29 -30 -31
leaf_value=-0.67687500000000012 0.45124999999999993 -0.22562499999999996 0.22562499999999996 0 -0.011875000000000037 -0.22562499999999996 -0.43937500000000007 -0.22562499999999996 1.3656250000000001 0.22562499999999996 0 -0.00062499999999996456 -0.45124999999999993 0.22562499999999996 0.45124999999999993 -0.43937500000000007 -0.011875000000000037 -0.45124999999999993 0 0.22562499999999996 0.22562499999999996 -0.22562499999999996 -0.21374999999999994 0.23750000000000002 0.45124999999999993 0 0 -0.21374999999999994 0.22562499999999996 0.27437500000000004
leaf_weight=38425 3069 3818 3114 3520 646 5113 2582 2147 43231 1020 4120 1443 3592 862 11235 787 1078 1417 1825 2344 1017 345 874 2047 5380 513 391 412 1440 299
leaf_count=38425 3069 3818 3114 3520 646 5113 2582 2147 43231 1020 4120 1443 3592 862 11235 787 1078 1417 1825 2344 1017 345 874 2047 5380 513 391 412 1440 299
internal_value=0.00345698 -0.0338497 0.0414706 -0.0130219 0.0284441 -0.0240013 -0.045396 -0.0179636 0.0462721 0.0333149 -0.000426869 -0.0126245 -0.0350551 0.0382552 0.0350791 -0.0284962 -0.0170651 -0.0475158 0.00455737 0.011509 0.0251996 -0.0350321 -0.0170257 0.0080347 0.0411587 -0.0107717 -0.00509928 -0.0346871 0.0146811 0.00315729
internal_weight=148106 74748 73358 26659 19799 14243 48089 10425 53559 15369 12416 7933 8247 10328 14349 4655 6191 39842 8383 4430 1879 2492 1661 6167 8449 4033 2216 2994 3784 1742
internal_count=148106 74748 73358 26659 19799 14243 48089 10425 53559 15369 12416 7933 8247 10328 14349 4655 6191 39842 8383 4430 1879 2492 1661 6167 8449 4033 2216 2994 3784 1742
cat_boundaries=0 3 5 7 9 11 13 16 18 21 23
cat_threshold=1151487508 1124553234 3 419496000 679512076 41951248 2751988032 717303954 3166196176 38019072 2756183360 2490624 4195328 476381440 146852864 2 0 4718848 1073758720 16797712 3 488722688 159383556
is_linear=0
shrinkage=0.05


Tree=3
num_leaves=31
num_cat=10
split_feature=0 0 13 0 13 13 13 4 0 4 13 13 4 4 3 3 13 3 13 13 3 3 3 4 0 3 3 6 4 13
split_gain=84767.7 6777.35 1824.79 1192.77 648.823 567.191 408.327 390.776 329.654 262.591 202.557 202.018 186.298 156.601 154.986 134.133 127.5 115.873 104.222 104.098 101.532 97.0875 89.0814 83.4226 74.2934 62.4422 54.2036 53.3106 43.7659 42.7351
threshold=22.500000000000004 11.500000000000002 0 17.500000000000004 1 2 3 19.500000000000004 32.500000000000007 19.500000000000004 4 5 18.500000000000004 19.500000000000004 22.500000000000004 22.500000000000004 6 17.500000000000004 7 8 37.500000000000007 22.500000000000004 27.500000000000004 17.500000000000004 7.5000000000000009 27.500000000000004 17.500000000000004 5.5000000000000009 18.500000000000004 9
decision_type=2 2 9 2 9 9 9 2 2 2 9 9 2 2 2 2 9 2 9 9 2 2 2 2 2 2 2 2 2 9
left_child=1 6 8 5 9 -3 17 11 13 14 21 15 16 25 -4 -7 26 29 -6 -15 23 -5 -9 -12 -18 -2 -8 -20 -19 -1
right_child=2 3 4 10 18 7 12 22 -10 -11 20 -13 -14 19 -16 -17 24 28 27 -21 -22 -23 -24 -25 -26 -27 -28 -29 -30 -31
leaf_value=-0.64303125000000017 0.42868749999999989 -0.21434374999999994 0.21434374999999994 0 -0.011281250000000043 -0.21434374999999994 -0.4174062500000002 -0.21434374999999994 1.29734375 0.21434374999999994 0 0.010656250000000079 -0.42868749999999989 0.21434374999999994 0.42868749999999989 -0.00059374999999999294 -0.4174062500000002 -0.42868749999999989 0.21434374999999994 0.21434374999999994 0.47562499999999996 0 -0.21434374999999994 0 -0.2030624999999999 0.42868749999999989 -0.2030624999999999 0.21434374999999994 -0.42868749999999989 -0.64303125000000017
leaf_weight=14582 3069 3818 3114 3976 646 4886 2582 2147 43231 1020 4444 1934 3592 862 11235 1113 787 801 2344 1017 672 905 345 2419 874 5380 412 1440 616 23843
leaf_count=14582 3069 3818 3114 3976 646 4886 2582 2147 43231 1020 4444 1934 3592 862 11235 1113 787 801 2344 1017 672 905 345 2419 874 5380 412 1440 616 23843
internal_value=0.00328717 -0.0341862 0.0414706 -0.0139653 0.0284441 -0.0238398 -0.045396 -0.0177432 0.0462721 0.0333149 -0.00263773 -0.0123346 -0.0350551 0.0382552 0.0350791 -0.0168497 -0.0284962 -0.0475158 0.011509 0.0251996 0.00250497 -0.0105602 -0.0350321 0.000692117 -0.0170257 0.0411587 -0.0346871 0.0146811 -0.0334862 -0.0480455
internal_weight=148106 74748 73358 26659 19799 14243 48089 10425 53559 15369 12416 7933 8247 10328 14349 5999 4655 39842 4430 1879 7535 4881 2492 6863 1661 8449 2994 3784 1417 38425
internal_count=148106 74748 73358 26659 19799 14243 48089 10425 53559 15369 12416 7933 8247 10328 14349 5999 4655 39842 4430 1879 7535 4881 2492 6863 1661 8449 2994 3784 1417 38425
cat_boundaries=0 3 5 7 9 11 14 16 18 21 23
cat_threshold=1151487508 1124553234 3 419496000 679512076 41951248 2751988032 717303954 3166196176 4464720 2219330880 407175488 180372480 2 2490624 4195328 0 4718848 1073758720 16797712 3 138481664 143151440
is_linear=0
shrinkage=0.05


Tree=4
num_leaves=31
num_cat=12
split_feature=0 0 3 0 13 13 13 0 4 4 13 4 13 13 4 13 3 13 3 4 13 3 13 3 13 3 13 0 3 3
split_gain=81868.4 6700.73 1566.91 1150.11 567.191 562.98 408.327 403.088 390.776 310.165 202.018 186.298 183.971 171.402 165.456 135.126 134.133 127.5 115.873 99.2243 97.2177 92.545 90.2687 89.0814 83.7318 76.6454 75.7997 74.2934 60.7989 54.2036
threshold=22.500000000000004 11.500000000000002 27.500000000000004 17.500000000000004 0 1 2 42.500000000000007 19.500000000000004 19.500000000000004 3 18.500000000000004 4 5 18.500000000000004 6 22.500000000000004 7 17.500000000000004 19.500000000000004 8 22.500000000000004 9 27.500000000000004 10 17.500000000000004 11 7.5000000000000009 37.500000000000007 17.500000000000004
decision_type=2 2 2 2 9 9 9 2 2 2 9 2 9 9 2 9 2 9 2 2 9 2 9 2 9 2 9 2 2 2
left_child=1 6 5 4 -3 24 18 9 10 13 16 17 21 -4 22 -11 -6 29 -1 28 -16 -5 25 -10 -2 -7 -15 -19 -14 -8
right_child=2 3 7 12 8 14 11 -9 23 15 -12 -13 19 26 20 -17 -18 27 -20 -21 -22 -23 -24 -25 -26 -27 -28 -29 -30 -31
leaf_value=-0.61087968750000021 -0.010717187500000058 -0.20362656249999989 0.73247656250000004 0 -0.20362656249999989 0.20362656249999989 -0.39653593750000021 1.4824765625 -0.20362656249999989 0.48247656249999998 0.010123437500000066 -0.40725312499999994 0 0.23928281249999994 0.20362656249999989 0.20362656249999989 -0.00056406249999998439 -0.39653593750000021 -0.40725312499999994 0 0.20362656249999989 0 0.40725312499999994 -0.20362656249999989 0.20362656249999989 0.19112656249999987 0.40725312499999994 -0.19290937499999983 0.46371874999999996 -0.19290937499999983
leaf_weight=38425 593 3818 13621 4044 4886 1277 2582 31705 2147 1815 1934 3592 5456 680 916 1075 1113 787 1417 1455 1425 954 5447 345 3222 3767 7815 874 507 412
leaf_count=38425 593 3818 13621 4044 4886 1277 2582 31705 2147 1815 1934 3592 5456 680 916 1075 1113 787 1417 1455 1425 954 5447 345 3222 3767 7815 874 507 412
internal_value=0.00257721 -0.0342497 0.040102 -0.0141434 -0.0238398 0.0266144 -0.045396 0.0440611 -0.0177432 0.0393146 -0.0123346 -0.0350551 -0.0030203 0.0413275 0.0316228 0.02391 -0.0168497 -0.0284962 -0.0475158 0.001979 0.0196284 -0.0104233 0.0343294 -0.0350321 0.00966013 0.0292046 0.0355026 -0.0170257 0.00483817 -0.0346871
internal_weight=148106 74748 73358 26659 14243 16647 48089 56711 10425 25006 7933 8247 12416 22116 12832 2890 5999 4655 39842 7418 2341 4998 10491 2492 3815 5044 8495 1661 5963 2994
internal_count=148106 74748 73358 26659 14243 16647 48089 56711 10425 25006 7933 8247 12416 22116 12832 2890 5999 4655 39842 7418 2341 4998 10491 2492 3815 5044 8495 1661 5963 2994
cat_boundaries=0 2 4 6 9 11 14 17 19 21 23 25 27
cat_threshold=41951248 2751988032 4460800 80217408 717303954 3166196176 407175488 180372480 2 38019152 2219334976 1142967812 1107495446 3 67259396 1107427842 1 2490624 4195328 67243092 1073875460 528678932 134219786 0 4718848 4456704 541590784
is_linear=0
shrinkage=0.05


Tree=5
num_leaves=31
num_cat=12
split_feature=0 0 3 0 13 13 13 0 4 4 13 4 13 13 4 13 3 13 3 4 13 3 13 3 13 3 13 0 3 3
split_gain=81812.4 6731.33 1566.91 1135.42 576.495 562.98 408.327 403.088 399.066 310.165 221.541 186.298 183.971 171.402 165.456 135.126 134.91 127.5 115.873 99.2243 97.2177 92.545 90.2687 89.0814 83.7318 76.6454 75.7997 74.2934 60.7989 54.2036
threshold=22.500000000000004 11.500000000000002 27.500000000000004 17.500000000000004 0 1 2 42.500000000000007 19.500000000000004 19.500000000000004 3 18.500000000000004 4 5 18.500000000000004 6 17.500000000000004 7 17.500000000000004 19.500000000000004 8 22.500000000000004 9 27.500000000000004 10 17.500000000000004 11 7.5000000000000009 37.500000000000007 17.500000000000004
decision_type=2 2 2 2 9 9 9 2 2 2 9 2 9 9 2 9 2 9 2 2 9 2 9 2 9 2 9 2 2 2
left_child=1 6 5 4 -3 24 18 9 10 13 16 17 21 -4 22 -11 -6 29 -1 28 -16 -5 25 -10 -2 -7 -15 -19 -14 -8
right_child=2 3 7 12 8 14 11 -9 23 15 -12 -13 19 26 20 -17 -18 27 -20 -21 -22 -23 -24 -25 -26 -27 -28 -29 -30 -31
leaf_value=-0.58033570312500016 -0.0101813281250001 -0.19344523437499994 0.69585273437499995 0 -0.19344523437499994 0.19344523437499994 -0.37670914062500016 1.408352734375 -0.19344523437499994 0.45835273437499996 0.0096172656250001157 -0.38689046874999988 0 0.22731867187499991 0.19344523437499994 0.19344523437499994 -0.19344523437499994 -0.37670914062500016 -0.38689046874999988 0 0.19344523437499994 0 0.38689046874999988 -0.19344523437499994 0.19344523437499994 0.18157023437499992 0.38689046874999988 -0.18326390624999986 0.44053281250000009 -0.18326390624999986
leaf_weight=38425 593 3818 13621 4044 3869 1277 2582 31705 2147 1815 2116 3592 5456 680 916 1075 1948 787 1417 1455 1425 954 5447 345 3222 3767 7815 874 507 412
leaf_count=38425 593 3818 13621 4044 3869 1277 2582 31705 2147 1815 2116 3592 5456 680 916 1075 1948 787 1417 1455 1425 954 5447 345 3222 3767 7815 874 507 412
internal_value=0.00259004 -0.0342243 0.040102 -0.0140722 -0.0237064 0.0266144 -0.045396 0.0440611 -0.0175611 0.0393146 -0.012095 -0.0350551 -0.0030203 0.0413275 0.0316228 0.02391 -0.0171186 -0.0284962 -0.0475158 0.001979 0.0196284 -0.0104233 0.0343294 -0.0350321 0.00966013 0.0292046 0.0355026 -0.0170257 0.00483817 -0.0346871
internal_weight=148106 74748 73358 26659 14243 16647 48089 56711 10425 25006 7933 8247 12416 22116 12832 2890 5817 4655 39842 7418 2341 4998 10491 2492 3815 5044 8495 1661 5963 2994
internal_count=148106 74748 73358 26659 14243 16647 48089 56711 10425 25006 7933 8247 12416 22116 12832 2890 5817 4655 39842 7418 2341 4998 10491 2492 3815 5044 8495 1661 5963 2994
cat_boundaries=0 2 4 6 9 11 14 17 19 21 23 25 27
cat_threshold=41951248 2751988032 4460800 80217408 717303954 3166196176 407175424 146818048 2 38019152 2219334976 1142967812 1107495446 3 67259396 1107427842 1 2490624 4195328 67243092 1073875460 528678932 134219786 0 4718848 4456704 541590784
is_linear=0
shrinkage=0.05


Tree=6
num_leaves=31
num_cat=14
split_feature=0 0 3 3 13 13 13 13 4 4 13 13 4 4 13 4 4 13 3 0 13 13 13 13 13 4 13 3 0 0
split_gain=81503 6799.21 1547.33 1128.88 562.98 474.043 408.327 399.258 356.815 197.937 189.898 186.757 186.298 176.014 208.622 165.456 157.656 127.5 115.873 104.538 97.2177 90.2687 88.0918 83.7318 83.1806 80.4664 80.1894 76.6454 74.2934 73.5796
threshold=22.500000000000004 11.500000000000002 27.500000000000004 17.500000000000004 0 1 2 3 18.500000000000004 19.500000000000004 4 5 18.500000000000004 19.500000000000004 6 18.500000000000004 19.500000000000004 7 17.500000000000004 17.500000000000004 8 9 10 11 12 12.500000000000002 13 17.500000000000004 7.5000000000000009 17.500000000000004
decision_type=2 2 2 2 9 9 9 9 2 2 9 9 2 2 9 2 2 9 2 2 9 9 9 9 9 2 9 2 2 2
left_child=1 6 4 5 23 19 18 13 10 11 -7 -5 17 -4 -15 21 22 -8 -1 -3 -17 27 -9 -2 -13 26 -12 -6 -19 -10
right_child=2 3 7 9 15 8 12 16 29 -11 25 24 -14 14 -16 20 -18 28 -20 -21 -22 -23 -24 -25 -26 -27 -28 -29 -30 -31
leaf_value=-0.5513189179687501 -0.0096722617187500869 -0.18377297265625003 1.0879350976562498 0 0.18377297265625003 -0.18377297265625003 -0.35787368359375016 0.41391938281249985 -0.18377297265625003 0 0 0.48629265234375008 -0.3675459453124999 1.3379350976562501 0.40658509765624978 0.18377297265625003 0.18377297265625003 -0.35787368359375016 -0.3675459453124999 0 0.18377297265625003 0.3675459453124999 0.44276938281249995 0.18377297265625003 0 -0.18377297265625003 0.066227027343749967 0.17249172265625001 -0.17410071093749979 0
leaf_weight=38425 593 3433 38716 6341 1277 3489 2994 1076 1960 2560 1574 434 3592 3713 1883 916 640 787 1417 629 1425 5447 10683 3222 3508 1521 737 3767 874 473
leaf_count=38425 593 3433 38716 6341 1277 3489 2994 1076 1960 2560 1574 434 3592 3713 1883 916 640 787 1417 629 1425 5447 10683 3222 3508 1521 737 3767 874 473
internal_value=0.00257653 -0.0341681 0.0400174 -0.0139146 0.0266144 -0.0238347 -0.045396 0.0439518 -0.017795 -0.00324301 -0.0123002 -0.000145872 -0.0350551 0.0461983 0.0379199 0.0316228 0.035857 -0.0284962 -0.0475158 -0.0381999 0.0196284 0.0343294 0.0372013 0.00966013 0.00838816 -0.00456793 0.00129814 0.0292046 -0.0170257 -0.034402
internal_weight=148106 74748 73358 26659 16647 13816 48089 56711 9754 12843 7321 10283 8247 44312 5596 12832 12399 4655 39842 4062 2341 10491 11759 3815 3942 3832 2311 5044 1661 2433
internal_count=148106 74748 73358 26659 16647 13816 48089 56711 9754 12843 7321 10283 8247 44312 5596 12832 12399 4655 39842 4062 2341 10491 11759 3815 3942 3832 2311 5044 1661 2433
cat_boundaries=0 2 4 6 9 11 13 15 17 19 21 23 25 28 31
cat_threshold=4460800 80217408 41951248 2751988032 717303954 3166196176 1142967812 1107776018 3 458752 12585984 440741968 2756336960 69209092 459264 2490624 4195328 67243092 1073875460 528678932 134219786 4460800 541590792 0 4718848 1073743364 1107296786 1 492831040 1073774594 2
is_linear=0
shrinkage=0.05


Tree=7
num_leaves=31
num_cat=11
split_feature=0 0 13 0 13 3 4 13 4 13 3 4 13 13 4 13 13 4 3 3 3 0 4 3 0 13 13 6 13 3
split_gain=80351 7380.66 1593.77 1436.47 595.825 540.297 416.356 408.327 374.383 365.445 230.894 186.298 182.315 176.747 154.931 141.452 127.5 122.363 119.102 115.873 99.8189 99.2299 110.946 89.0814 74.2934 69.7608 56.5081 56.0339 54.6394 54.2036
threshold=22.500000000000004 11.500000000000002 0 17.500000000000004 1 37.500000000000007 19.500000000000004 2 19.500000000000004 3 22.500000000000004 18.500000000000004 4 5 18.500000000000004 6 7 18.500000000000004 17.500000000000004 17.500000000000004 22.500000000000004 47.500000000000007 19.500000000000004 27.500000000000004 7.5000000000000009 8 9 5.5000000000000009 10 17.500000000000004
decision_type=2 2 9 2 9 2 2 9 2 9 2 2 9 9 2 9 9 2 2 2 2 2 2 2 2 9 9 2 9 2
left_child=1 7 9 4 -3 8 10 19 20 -2 12 16 -6 -5 28 -10 29 18 -11 -1 -4 22 -7 -8 -18 -24 -22 -20 -15 -9
right_child=2 3 5 13 6 21 23 11 15 17 -12 -13 -14 14 -16 -17 24 -19 27 -21 26 -23 25 -25 -26 -27 -28 -29 -30 -31
leaf_value=-0.52375297207031257 0.17458432402343754 -0.17458432402343754 0.37821088652343743 0 -0.17458432402343754 0.78353834277343748 -0.17458432402343754 -0.33997999941406259 0.1634437177734375 0.17458432402343754 0.020386402343750023 -0.34916864804687492 0.0088875509765625089 0 0 0.20343432402343745 -0.33997999941406259 0.1596005191406249 0.34540747617187489 -0.34916864804687492 0.34540747617187489 1.7710383427734375 0.3176058427734374 -0.18377297265625003 -0.16539567539062486 0.61853834277343744 0.53353834277343748 0.42458432402343754 0.0091886486328125027 -0.15620702675781217
leaf_weight=38425 2326 3818 4594 3390 4945 15143 2147 2582 905 1089 1742 3592 1246 4614 2112 2142 787 1183 3959 1417 8148 21302 493 345 874 1407 8581 2086 2300 412
leaf_count=38425 2326 3818 4594 3390 4945 15143 2147 2582 905 1089 1742 3592 1246 4614 2112 2142 787 1183 3959 1417 8148 21302 493 345 874 1407 8581 2086 2300 412
internal_value=0.00278618 -0.0336979 0.0399616 -0.0125961 -0.0234326 0.0429996 -0.0171874 -0.045396 0.0371851 0.0219985 -0.0116034 -0.0350551 -0.0161283 -0.00016511 0.00349159 0.0207909 -0.0284962 0.0269064 0.0294085 -0.0475158 0.0395277 0.0467062 0.0438626 -0.0350321 -0.0170257 0.0324737 0.0413205 0.0321505 0.007116 -0.0346871
internal_weight=148106 74748 73358 26659 14243 62715 10425 48089 24370 10643 7933 8247 6191 12416 9026 3047 4655 8317 7134 39842 21323 38345 17043 2492 1661 1900 16729 6045 6914 2994
internal_count=148106 74748 73358 26659 14243 62715 10425 48089 24370 10643 7933 8247 6191 12416 9026 3047 4655 8317 7134 39842 21323 38345 17043 2492 1661 1900 16729 6045 6914 2994
cat_boundaries=0 2 4 6 8 11 13 16 18 21 23 25
cat_threshold=440733952 751306056 41951248 2751988032 717303954 3166196176 4456448 71828800 491061504 146818048 2 33562704 2756204864 1090519552 16830480 2 2490624 4195328 1073758784 36884 2 25296980 16832516 476450816 151159812
is_linear=0
shrinkage=0.05


Tree=8
num_leaves=31
num_cat=14
split_feature=0 0 13 0 13 13 0 4 4 4 0 13 13 13 3 13 3 13 13 3 4 13 3 4 6 13 4 13 13 13
split_gain=75089.3 5809.64 1430.61 1198.5 597.324 595.309 534.587 458.64 417.701 354.341 326.553 260.012 257.003 248.125 229.81 182.224 169.919 138.417 106.419 92.2321 91.5114 90.577 89.0814 85.169 64.497 60.5735 56.6581 53.7105 53.5989 47.6662
threshold=22.500000000000004 11.500000000000002 0 17.500000000000004 1 2 47.500000000000007 19.500000000000004 19.500000000000004 19.500000000000004 7.5000000000000009 3 4 5 22.500000000000004 6 22.500000000000004 7 8 17.500000000000004 18.500000000000004 9 27.500000000000004 18.500000000000004 5.5000000000000009 10 13.500000000000002 11 12 13
decision_type=2 2 9 2 9 9 2 2 2 2 2 9 9 9 2 9 2 9 9 2 2 9 2 2 2 9 2 9 9 9
left_child=1 5 11 4 -3 -1 7 16 14 10 25 19 -12 -9 15 -6 28 -5 -18 -2 27 26 -10 24 -21 -7 -14 -19 -4 -13
right_child=2 3 6 17 8 9 -8 13 22 -11 12 29 21 -15 -16 -17 18 20 -20 23 -22 -23 -24 -25 -26 -27 -28 -29 -30 -31
leaf_value=-0.49756532346679699 0.16585510782226562 -0.16585510782226562 0.32663154122070304 0 -0.16585510782226562 -0.49756532346679699 1.4449864256347658 0.16441260782226569 -0.16585510782226562 -0.49756532346679699 -0.24756532346679699 0.16585510782226562 -0.24756532346679699 0.35836662657226559 0.01936708222656254 0.0051167671777344386 0.57998642563476577 0.45085093495117196 0.33189827423828117 0.14659676271484373 0 0.080374108378906337 -0.17458432402343754 0.12023086056640615 0.46934397481445295 -0.49756532346679699 -0.24756532346679699 0 0.33025810372070308 -0.017917864833984432
leaf_weight=23965 909 3818 2655 4930 4824 6356 23650 2078 2147 8021 4535 1607 1296 2945 1742 1367 16765 550 15326 2384 1842 507 345 601 1422 2030 1379 5094 2297 719
leaf_count=23965 909 3818 2655 4930 4824 6356 23650 2078 2147 8021 4535 1607 1296 2945 1742 1367 16765 550 15326 2384 1842 507 345 601 1422 2030 1379 5094 2297 719
internal_value=0.00303431 -0.032235 0.0389719 -0.0135133 -0.0234115 -0.0426137 0.0413535 0.0379784 -0.0171586 -0.0369852 -0.0327237 0.0184135 -0.0253013 0.0238005 -0.0115656 -0.0160798 0.0399009 -0.00215851 0.0412312 0.0245212 0.0021278 -0.0142544 -0.0350321 0.0275584 0.0303205 -0.039554 -0.017933 0.0052888 0.0312803 0.00440925
internal_weight=148106 74748 73358 26659 14243 48089 65716 42066 10425 24124 16103 7642 7717 5023 7933 6191 37043 12416 32091 5316 7486 3182 2492 4407 3806 8386 2675 5644 4952 2326
internal_count=148106 74748 73358 26659 14243 48089 65716 42066 10425 24124 16103 7642 7717 5023 7933 6191 37043 12416 32091 5316 7486 3182 2492 4407 3806 8386 2675 5644 4952 2326
cat_boundaries=0 2 4 6 8 10 13 16 18 21 23 25 28 30 32
cat_threshold=172298496 80217408 41951248 2751988032 578822290 3023044736 167842048 8388608 393472 4719936 1358971456 151050260 2 474284288 146818048 2 50405456 2764593472 67128836 1107493394 3 409014272 176209924 6688768 138957120 1073743364 1107296274 3 352452612 671123974 4456448 1088
is_linear=0
shrinkage=0.05


Tree=9
num_leaves=31
num_cat=13
split_feature=0 0 13 0 3 13 13 4 4 4 0 13 3 0 13 13 13 0 4 13 13 4 3 4 13 3 13 13 13 3
split_gain=73475.7 5822.93 1359.49 1198.5 807.807 597.324 588.125 417.701 373.118 348.888 317.121 243.051 229.81 183.696 182.224 164.116 138.417 131.814 108.675 99.6674 99.1304 91.5114 89.0814 80.7221 63.1396 61.0893 60.9939 60.5735 53.7105 47.0918
threshold=22.500000000000004 11.500000000000002 0 17.500000000000004 37.500000000000007 1 2 19.500000000000004 18.500000000000004 19.500000000000004 7.5000000000000009 3 22.500000000000004 52.500000000000007 4 5 6 32.500000000000007 18.500000000000004 7 8 18.500000000000004 27.500000000000004 13.500000000000002 9 11.500000000000002 10 11 12 32.500000000000007
decision_type=2 2 9 2 2 9 9 2 2 2 2 9 2 2 9 9 9 2 2 9 9 2 2 2 9 2 9 9 9 2
left_child=1 6 19 5 8 -3 -1 12 17 10 27 -12 14 18 -7 -10 29 20 -6 -2 -4 28 -9 -13 -17 -22 -20 -8 -18 -5
right_child=2 3 4 16 13 7 9 22 15 -11 11 23 -14 -15 -16 24 21 -19 26 -21 25 -23 -24 -25 -26 -27 -28 -29 -30 -31
leaf_value=-0.47268705729345717 -0.017021971592285291 -0.15756235243115224 0.27983290349511719 0 0.71536210435302738 -0.15756235243115224 -0.47268705729345717 -0.15756235243115224 0.31159829524365218 -0.47268705729345717 -0.23518705729345718 -0.17364459704003893 0.018398728115234419 1.6227371043530274 0.0048609288188476542 0.1142193175380859 0.42830838820361328 0.55098710435302756 0.61555983856372065 0.15756235243115224 0.092968765136230411 0 -0.16585510782226562 -0.23518705729345718 0.15819150774365254 0.22576366685302746 0.33741059430615206 -0.47268705729345717 0 0.22562499999999996
leaf_weight=23965 646 3818 5954 4647 17892 4824 6356 2147 1695 8021 4535 1718 1742 17453 1367 1320 550 12029 2452 3735 385 1842 345 1464 2363 5784 1650 2030 5094 283
leaf_count=23965 646 3818 5954 4647 17892 4824 6356 2147 1695 8021 4535 1718 1742 17453 1367 1320 550 12029 2452 3735 385 1842 345 1464 2363 5784 1650 2030 5094 283
internal_value=0.0026319 -0.0322564 0.0381812 -0.0135133 0.0398952 -0.0234115 -0.042647 -0.0171586 0.0336471 -0.0370515 -0.0328231 -0.0255086 -0.0115656 0.0445826 -0.0160798 0.0217367 -0.00215851 0.0362993 0.0415431 0.0110795 0.0326198 0.0021278 -0.0350321 -0.0147556 0.0156648 0.0279414 0.0342028 -0.039554 0.0052888 -0.00865385
internal_weight=148106 74748 73358 26659 68977 14243 48089 10425 29530 24124 16103 7717 7933 39447 6191 5378 12416 24152 21994 4381 12123 7486 2492 3182 3683 6169 4102 8386 5644 4930
internal_count=148106 74748 73358 26659 68977 14243 48089 10425 29530 24124 16103 7717 7933 39447 6191 5378 12416 24152 21994 4381 12123 7486 2492 3182 3683 6169 4102 8386 5644 4930
cat_boundaries=0 2 4 6 8 11 13 15 17 20 23 26 28 31
cat_threshold=4460800 71828800 41951248 2751988032 578822290 3023044736 393472 4719936 474284288 146818048 2 77726740 1073875456 50405456 2764593472 0 4718848 1082148416 1661098004 1 1208025088 142659584 2 69340676 393730 1 6688768 138957120 1073743364 1107296274 3
is_linear=0
shrinkage=0.05


Tree=10
num_leaves=31
num_cat=13
split_feature=0 0 13 0 13 13 13 0 4 4 0 4 13 3 4 13 13 13 0 3 13 4 13 3 3 13 4 13 3 13
split_gain=72874.3 5793.17 1333.47 1188.53 597.324 595.309 578.829 417.917 417.701 354.341 326.553 306.913 257.003 229.81 205.195 182.224 154.889 144.578 102.248 100.391 99.6674 92.1308 90.577 89.0814 63.0646 60.5735 56.6581 55.1719 53.269 79.0668
threshold=22.500000000000004 11.500000000000002 0 17.500000000000004 1 2 3 47.500000000000007 19.500000000000004 19.500000000000004 7.5000000000000009 18.500000000000004 4 22.500000000000004 19.500000000000004 5 6 7 27.500000000000004 22.500000000000004 8 18.500000000000004 9 27.500000000000004 37.500000000000007 10 13.500000000000002 11 27.500000000000004 12
decision_type=2 2 9 2 9 9 9 2 2 2 2 2 9 2 2 9 9 9 2 2 9 2 9 2 2 9 2 9 2 9
left_child=1 5 7 4 -3 -1 20 11 13 10 25 18 -12 15 19 -6 -13 -5 28 -8 -4 27 26 -10 -18 -7 -14 -19 -2 -30
right_child=2 3 6 17 8 9 14 -9 23 -11 12 16 22 -15 -16 -17 24 21 -20 -21 -22 -23 -24 -25 -26 -27 -28 -29 29 -31
leaf_value=-0.44905270442878431 0.051311715351611303 -0.14968423480959459 -0.016170873012671016 0 -0.14968423480959459 -0.44905270442878431 0.14627416908850091 1.2979164919088135 -0.14968423480959459 -0.44905270442878431 -0.22342770442878435 0.33253871985646966 -0.22650482744145528 0.017478791709472752 0.14828240204396989 0.0046178823779053245 0.14828240204396989 0.40689296879343256 0.52343774913537622 0.30131171535161133 0.14968423480959459 0 0.085037632811962999 -0.15756235243115224 0.37247226552834473 -0.44905270442878431 -0.22342770442878435 0 0.21177202167827167 0.42749556163537616
leaf_weight=23965 1548 3818 646 4633 4824 6356 3457 22678 2147 8021 4535 2885 1296 1742 1094 1367 1813 550 20346 12547 3735 1949 507 345 1596 2030 1379 5284 479 534
leaf_count=23965 1548 3818 646 4633 4824 6356 3457 22678 2147 8021 4535 2885 1296 1742 1094 1367 1813 550 20346 12547 3735 1949 507 345 1596 2030 1379 5284 479 534
internal_value=0.00249551 -0.0322497 0.0378991 -0.0135545 -0.0234115 -0.0426137 0.0273698 0.042245 -0.0171586 -0.0369852 -0.0327237 0.0382983 -0.0253013 -0.0115656 0.031535 -0.0160798 0.0285192 -0.0022471 0.0409853 0.0329855 0.0110795 0.00191839 -0.0142544 -0.0350321 0.0210734 -0.039554 -0.017933 0.00506514 0.0315697 0.0226555
internal_weight=148106 74748 73358 26659 14243 48089 21479 51879 10425 24124 16103 29201 7717 7933 17098 6191 6294 12416 22907 16004 4381 7783 3182 2492 3409 8386 2675 5834 2561 1013
internal_count=148106 74748 73358 26659 14243 48089 21479 51879 10425 24124 16103 29201 7717 7933 17098 6191 6294 12416 22907 16004 4381 7783 3182 2492 3409 8386 2675 5834 2561 1013
cat_boundaries=0 3 5 7 9 11 14 16 18 20 22 24 27 30
cat_threshold=1151356436 1124553234 3 41951248 2751988032 578822290 3023044736 4460800 71828800 393472 4719936 474284288 146818048 2 77597716 1073873408 50405456 2227722560 0 4718848 409014272 176209924 6688768 138957120 1073743364 1107296274 3 69222400 1073893376 2
is_linear=0
shrinkage=0.05


Tree=11
num_leaves=31
num_cat=14
split_feature=0 0 3 0 13 13 13 4 4 4 0 13 3 13 13 13 13 13 10 13 4 13 3 13 13 6 4 13 0 4
split_gain=69713.8 5759.23 1232.21 1188.53 864.083 613.909 597.324 417.701 413.478 333.692 322.739 257.003 229.81 190.074 182.224 181.195 144.578 111.816 95.0047 93.6584 92.1308 90.577 89.0814 84.1809 62.6416 57.4538 56.6581 55.1719 50.2002 49.3468
threshold=22.500000000000004 11.500000000000002 47.500000000000007 17.500000000000004 0 1 2 19.500000000000004 18.500000000000004 19.500000000000004 7.5000000000000009 3 22.500000000000004 4 5 6 7 8 11.500000000000002 9 18.500000000000004 10 27.500000000000004 11 12 5.5000000000000009 13.500000000000002 13 47.500000000000007 19.500000000000004
decision_type=2 2 2 2 9 9 9 2 2 2 2 9 2 9 9 9 9 9 2 9 2 9 2 9 9 2 2 9 2 2
left_child=1 5 4 6 19 -1 -3 12 15 10 24 -12 14 -10 -8 28 -5 -4 25 -2 27 26 -9 -15 -7 -17 -13 -18 -6 -25
right_child=2 3 17 16 8 9 7 22 13 -11 11 21 -14 23 -16 18 20 -19 -20 -21 -22 -23 -24 29 -26 -27 -28 -29 -30 -31
leaf_value=-0.42660006920734511 -0.015362329362037387 -0.14220002306911486 1.4767044245399352 0 0.47654711167860742 -0.42660006920734511 -0.14220002306911486 -0.14220002306911486 0.30824144448864621 -0.42660006920734511 -0.21225631920734511 -0.21517958606938248 0.016604852123999158 0.10384865225192748 0.0043869882590101385 0.28518841954113511 0.38654832035376097 0.72670442453993511 0.2472658616786074 0.14220002306911486 0 0.080785751171364772 -0.14968423480959459 0.27706328782940054 -0.42660006920734511 0.48142724766613515 -0.21225631920734511 0 0.84216692453993547 0.14086828194177131
leaf_weight=23965 646 3818 17338 4633 14008 6356 4824 2147 2447 8021 4535 1296 1742 1727 1367 9271 550 5799 7169 3652 1949 507 345 1721 2030 2811 1379 5284 4489 2280
leaf_count=23965 646 3818 17338 4633 14008 6356 4824 2147 2447 8021 4535 1296 1742 1727 1367 9271 550 5799 7169 3652 1949 507 345 1721 2030 2811 1379 5284 4489 2280
internal_value=0.00178858 -0.0321948 0.0364159 -0.0135545 0.0320175 -0.0425284 -0.0234115 -0.0171586 0.0340224 -0.0368153 -0.0326802 -0.0253013 -0.0115656 0.0238349 -0.0160798 0.0362377 -0.0022471 0.0459632 0.0327268 0.0104921 0.00191839 -0.0142544 -0.0350321 0.0187348 -0.0394705 0.0354494 -0.017933 0.00506514 0.0398525 0.0227499
internal_weight=148106 74748 73358 26659 50221 48089 14243 10425 45923 24124 16103 7717 7933 8175 6191 37748 12416 23137 19251 4298 7783 3182 2492 5728 8386 12082 2675 5834 18497 4001
internal_count=148106 74748 73358 26659 50221 48089 14243 10425 45923 24124 16103 7717 7933 8175 6191 37748 12416 23137 19251 4298 7783 3182 2492 5728 8386 12082 2675 5834 18497 4001
cat_boundaries=0 2 4 6 8 10 13 16 18 21 23 25 28 30 33
cat_threshold=4460800 71828800 578822290 3023044736 41951248 2751988032 393472 4719936 77728788 131584 474284288 146818048 2 1082150404 1124422162 3 50405456 2227722560 67111940 33886736 1 0 4718848 409014272 176209924 1208025088 142659584 2 6688768 138957120 1073743364 1107296274 3
is_linear=0
shrinkage=0.05


Tree=12
num_leaves=31
num_cat=14
split_feature=0 0 0 0 13 13 13 4 4 13 13 4 3 13 13 13 13 3 13 0 13 4 3 0 13 13 0 3 13 4
split_gain=66419.2 5397.23 1339.96 1188.53 831.691 657.688 597.324 417.701 342.595 321.16 309.619 257.639 229.81 188.419 182.224 144.578 137.638 114.173 112.071 105.567 93.1553 92.1308 89.0814 85.7071 78.6815 73.0136 69.8884 67.7026 133.739 60.3061
threshold=22.500000000000004 11.500000000000002 42.500000000000007 17.500000000000004 0 1 2 19.500000000000004 19.500000000000004 3 4 18.500000000000004 22.500000000000004 5 6 7 8 22.500000000000004 9 27.500000000000004 10 18.500000000000004 27.500000000000004 7.5000000000000009 11 12 57.500000000000007 27.500000000000004 13 18.500000000000004
decision_type=2 2 2 2 9 9 9 2 2 9 9 2 2 9 9 9 9 2 9 2 9 2 2 2 9 9 2 2 9 2
left_child=1 4 5 6 -1 20 -3 12 9 17 26 16 14 -13 -8 -5 -7 23 -11 27 -2 -17 -9 -6 -25 -10 -4 -18 -29 -12
right_child=2 3 10 15 8 11 7 22 25 18 29 13 -14 -15 -16 21 19 -19 -20 -21 -22 -23 -24 24 -26 -27 -28 28 -30 -31
leaf_value=-0.40527006574697788 -0.014594212893935499 -0.13509002191565908 0.69823795331293859 0 -0.40527006574697788 0.45271975609467713 -0.13509002191565908 -0.13509002191565908 -0.23941495792471201 -0.23068574172354037 0.65286920331293852 0.26397937226421375 0.015774609517799121 0.13382486784468278 0.0041676388460595961 0 0.061927385527907934 -0.035788395424711884 0.019314258276459651 0.30281175958353651 0.13509002191565908 0 -0.14220002306911486 -0.20164350324697786 -0.20164350324697786 -0.40527006574697788 1.9028692033129386 -0.0035509233109216609 0.22454253335900029 0.6525451042075856
leaf_weight=25067 718 3818 8380 4633 5732 9574 4824 2147 273 3097 10863 3447 1742 3578 1367 5834 3408 389 599 14294 3387 1949 345 1255 4135 7542 12525 594 948 1642
leaf_count=25067 718 3818 8380 4633 5732 9574 4824 2147 273 3097 10863 3447 1742 3578 1367 5834 3408 389 599 14294 3387 1949 345 1255 4135 7542 12525 594 948 1642
internal_value=0.00157117 -0.0315995 0.0353704 -0.0135545 -0.0416031 0.0291904 -0.0234115 -0.0171586 -0.0346692 -0.0303117 0.0427597 0.03136 -0.0115656 0.0227829 -0.0160798 -0.0022471 0.0334617 -0.0344371 -0.0173233 0.0309234 0.0101458 0.00191839 -0.0350321 -0.0353983 -0.030872 -0.0431926 0.0465432 0.0246465 0.0159533 0.0363684
internal_weight=148106 74748 73358 26659 48089 39948 14243 10425 23022 15207 33410 35843 7933 7025 6191 12416 28818 11511 3696 19244 4105 7783 2492 11122 5390 7815 20905 4950 1542 12505
internal_count=148106 74748 73358 26659 48089 39948 14243 10425 23022 15207 33410 35843 7933 7025 6191 12416 28818 11511 3696 19244 4105 7783 2492 11122 5390 7815 20905 4950 1542 12505
cat_boundaries=0 2 4 6 8 11 14 17 19 22 24 26 28 31 33
cat_threshold=578822290 3023061120 4460800 71828800 41951248 2751988032 138809344 138941760 67111936 33903120 1 77745172 1073875458 1 474284288 146818048 2 50405456 2227722560 8408576 1124143642 3 287392000 8421380 0 71827712 138416128 134221824 0 32768 1 270532608 149508
is_linear=0
shrinkage=0.05


Tree=13
num_leaves=31
num_cat=15
split_feature=0 0 0 0 13 13 13 4 4 13 13 0 3 4 13 3 13 13 3 13 13 13 13 4 0 13 3 13 13 4
split_gain=65085.6 5384.43 1506.14 1188.53 840.59 597.324 588.449 417.701 348.214 322.836 315.901 250.239 229.81 187.323 182.224 155.627 166.412 144.578 112.985 112.071 103.442 96.1222 93.1553 92.1308 91.5987 94.0773 89.0814 80.5178 73.0136 60.9197
threshold=22.500000000000004 11.500000000000002 42.500000000000007 17.500000000000004 0 1 2 19.500000000000004 19.500000000000004 3 4 27.500000000000004 22.500000000000004 18.500000000000004 5 27.500000000000004 6 7 22.500000000000004 8 9 10 11 18.500000000000004 7.5000000000000009 12 27.500000000000004 13 14 14.500000000000002
decision_type=2 2 2 2 9 9 9 2 2 9 9 2 2 2 9 2 9 9 2 9 9 9 9 2 2 9 2 9 9 2
left_child=1 4 6 5 -1 -3 22 12 10 -4 18 15 14 20 -7 27 -17 -5 24 -12 -13 -15 -2 -19 -6 29 -9 -8 -10 -26
right_child=2 3 9 17 8 7 11 26 28 -11 19 13 -14 21 -16 16 -18 23 -20 -21 -22 -23 -24 -25 25 -27 -28 -29 -30 -31
leaf_value=-0.38500656245962905 -0.013864502249238698 -0.12833552081987618 1.3077257431472917 0 -0.38500656245962905 -0.12833552081987618 0.060690023478828438 -0.12833552081987618 -0.22744421002847642 0.62913410842903028 -0.21915145463736332 0.43008376828994327 0.014985879041909201 0.28344984232276771 0.0039592569037566255 -0.011410074365603507 0.17104974375245163 0 -0.033998975653476295 0.018348545362636682 0.26694961405419981 0.25351369292629633 0.12833552081987618 0 -0.19433843160356448 -0.191561328084629 -0.13509002191565908 0.058957492152034878 -0.38500656245962905 -0.191561328084629
leaf_weight=25067 718 3818 19551 4633 5732 4824 1840 2147 273 13859 3097 7739 1742 2712 1367 952 1942 5834 389 599 14584 2231 3387 1949 683 4135 345 3843 7542 572
leaf_count=25067 718 3818 19551 4633 5732 4824 1840 2147 273 13859 3097 7739 1742 2712 1367 952 1942 5834 389 599 14584 2231 3387 1949 683 4135 345 3843 7542 572
internal_value=0.00125788 -0.0315781 0.0347161 -0.0135545 -0.0415698 -0.0234115 0.0281641 -0.0171586 -0.0345997 0.0425501 -0.0302065 0.0302164 -0.0115656 0.032568 -0.0160798 0.022776 0.0133379 -0.0022471 -0.0342982 -0.0173233 0.0345182 0.0237609 0.0101458 0.00191839 -0.0352545 -0.0305751 -0.0350321 0.0275823 -0.0431926 -0.0180632
internal_weight=148106 74748 73358 26659 48089 14243 39948 10425 23022 33410 15207 35843 7933 27266 6191 8577 2894 12416 11511 3696 22323 4943 4105 7783 11122 5390 2492 5683 7815 1255
internal_count=148106 74748 73358 26659 48089 14243 39948 10425 23022 33410 15207 35843 7933 27266 6191 8577 2894 12416 11511 3696 22323 4943 4105 7783 11122 5390 2492 5683 7815 1255
cat_boundaries=0 2 4 6 9 11 14 16 18 20 23 26 28 30 33 36
cat_threshold=578822290 3023061120 41951248 2751988032 4460800 71828800 3072 33903120 1 138809344 138941760 474284288 146818048 2 270532608 16930820 50405456 2227722560 287392000 8421380 75517440 1107366418 3 362957844 1073875456 1 0 71827712 138416128 134221824 151126532 142639120 3 0 32768 1
is_linear=0
shrinkage=0.05


Tree=14
num_leaves=31
num_cat=14
split_feature=0 0 3 0 13 13 13 4 4 13 13 4 0 3 0 13 13 13 13 3 13 4 4 0 13 3 13 3 13 13
split_gain=62465.6 5378.84 1727.62 1188.53 837.027 772.981 597.324 417.701 348.214 315.901 276.123 273.087 230.709 229.81 211.295 210.414 182.224 144.578 122.94 112.985 112.071 94.8087 92.1308 91.5987 94.0773 89.0814 85.1913 84.0677 130.714 83.1065
threshold=22.500000000000004 11.500000000000002 42.500000000000007 17.500000000000004 0 1 2 19.500000000000004 19.500000000000004 3 4 18.500000000000004 27.500000000000004 22.500000000000004 27.500000000000004 5 6 7 8 22.500000000000004 9 18.500000000000004 18.500000000000004 7.5000000000000009 10 27.500000000000004 11 27.500000000000004 12 13
decision_type=2 2 2 2 9 9 9 2 2 9 9 2 2 2 2 9 9 9 9 2 9 2 2 2 9 2 9 2 9 9
left_child=1 4 5 6 -1 12 -3 13 9 19 -4 14 15 16 27 -2 -8 -5 -13 23 -11 -12 -19 -6 -25 -9 -16 29 -29 -7
right_child=2 3 10 17 8 11 7 25 -10 20 21 18 -14 -15 26 -17 -18 22 -20 -21 -22 -23 -24 24 -26 -27 -28 28 -30 -31
leaf_value=-0.36575623433664756 -0.00066508841223527075 -0.12191874477888227 1.242339455989927 0 -0.36575623433664756 0.05686661404147593 -0.12191874477888227 -0.12191874477888227 -0.36575623433664756 -0.2081938819054952 0.56549459050757844 0.10813929160078201 0.21532900380346831 0.014236585089813758 0.42929832987544608 0.12191874477888227 0.0037612940585688651 0 0.20796277784453496 -0.032299026870802459 0.017431118094504861 0.41413575386910167 0 -0.1819832616803975 -0.1819832616803975 -0.12833552081987618 0.29439603159443062 -0.0028028734270954207 0.24221438518024546 0.05600961754443308
leaf_weight=25067 1232 3818 19822 4633 5732 1520 4824 2147 7815 3097 10549 1764 3223 1742 12198 1794 1367 5834 4579 389 599 1675 1949 1255 4135 345 11074 779 753 2396
leaf_count=25067 1232 3818 19822 4633 5732 1520 4824 2147 7815 3097 10549 1764 3223 1742 12198 1794 1367 5834 4579 389 599 1675 1949 1255 4135 345 11074 779 753 2396
internal_value=0.000599571 -0.0315687 0.0333774 -0.0135545 -0.0415552 0.0266194 -0.0234115 -0.0171586 -0.0345997 -0.0302065 0.0420895 0.0295056 0.0103611 -0.0115656 0.0315877 0.000462657 -0.0160798 -0.0022471 0.0201245 -0.0342982 -0.0173233 0.0360062 0.00191839 -0.0352545 -0.0305751 -0.0350321 0.0336628 0.0227239 0.0127937 0.0266088
internal_weight=148106 74748 73358 26659 48089 41312 14243 10425 23022 15207 32046 35063 6249 7933 28720 3026 6191 12416 6343 11511 3696 12224 7783 11122 5390 2492 23272 5448 1532 3916
internal_count=148106 74748 73358 26659 48089 41312 14243 10425 23022 15207 32046 35063 6249 7933 28720 3026 6191 12416 6343 11511 3696 12224 7783 11122 5390 2492 23272 5448 1532 3916
cat_boundaries=0 2 4 6 8 10 12 15 17 20 22 24 27 30 33
cat_threshold=578822290 3023061120 4460800 88606016 41951248 2751988032 138809344 138941760 67112452 332304 0 21496064 474284288 146818048 2 50405456 2227722560 1208025600 142659584 2 287392000 8421380 138416128 134221824 1149259264 1107513874 3 471876096 1073891332 2 151143956 1249906704 1
is_linear=0
shrinkage=0.05


Tree=15
num_leaves=31
num_cat=14
split_feature=0 0 0 0 13 3 13 4 13 4 4 13 13 3 13 0 13 0 13 13 3 13 13 13 4 3 13 13 0 4
split_gain=60126.1 5154.34 1865.58 1188.53 1018.9 928.816 597.324 481.688 471.56 417.701 309.587 271.06 240.39 229.81 182.224 159.363 144.578 134.86 134.165 127.819 124.438 208.146 114.067 94.5961 92.1308 89.0814 77.8411 70.0901 68.9635 63.2595
threshold=22.500000000000004 11.500000000000002 27.500000000000004 17.500000000000004 0 47.500000000000007 1 19.500000000000004 2 19.500000000000004 18.500000000000004 3 4 22.500000000000004 5 7.5000000000000009 6 62.500000000000007 7 8 27.500000000000004 9 10 11 18.500000000000004 27.500000000000004 12 13 7.5000000000000009 18.500000000000004
decision_type=2 2 2 2 9 2 9 2 9 2 2 9 9 2 9 2 9 2 9 9 2 9 9 9 2 2 9 9 2 2
left_child=1 4 8 6 23 10 -3 12 29 13 11 -4 15 14 -8 -6 -5 -7 -12 -13 21 -10 -22 28 -18 -11 -14 -9 -1 -2
right_child=2 3 5 16 7 17 9 27 20 25 18 19 26 -15 -16 -17 24 -19 -20 -21 22 -23 -24 -25 -26 -27 -28 -29 -30 -31
leaf_value=-0.3474684226198152 -0.00063183399162358711 -0.11582280753993822 0.43963717916314665 0 -0.3474684226198152 0.61779698470700106 -0.11582280753993822 -0.19778418781022022 0.10824456718788761 -0.11582280753993822 0.29867977044547195 0.27157242673020437 -0.24829977457294003 0.013524755835322999 0.0035732293556403508 -0.17288409859637766 0 1.903684219089042 0.19906608123782857 0.27057852249361541 -0.00076660186261410255 0.055806095839402305 0.16998799126518804 -0.3474684226198152 0 -0.12191874477888227 0.016559562189779609 -0.3474684226198152 -0.09746842261981517 0.054004713551154993
leaf_weight=4858 1051 3818 18615 4633 4819 12398 4824 273 2622 2147 3992 2150 2337 1742 1367 4515 5834 10496 2517 12289 1645 4016 1286 21185 1949 345 456 6417 3229 281
leaf_count=4858 1051 3818 18615 4633 4819 12398 4824 273 2622 2147 3992 2150 2337 1742 1367 4515 5834 10496 2517 12289 1645 4016 1286 21185 1949 345 456 6417 3229 281
internal_value=0.000371356 -0.0311888 0.0325295 -0.0135545 -0.0409647 0.0358607 -0.0234115 -0.0318134 0.0134437 -0.0171586 0.0312224 0.0331851 -0.0258885 -0.0115656 -0.0160798 -0.029741 -0.0022471 0.0438761 0.0212552 0.0279431 0.0173139 0.0211208 0.00875128 -0.0468206 0.00191839 -0.0350321 -0.0128612 -0.0426009 -0.0417994 -0.0143815
internal_weight=148106 74748 73358 26659 48089 62457 14243 18817 10901 10425 39563 33054 12127 7933 6191 9334 12416 22894 6509 14439 9569 6638 2931 29272 7783 2492 2793 6690 8087 1332
internal_count=148106 74748 73358 26659 48089 62457 14243 18817 10901 10425 39563 33054 12127 7933 6191 9334 12416 22894 6509 14439 9569 6638 2931 29272 7783 2492 2793 6690 8087 1332
cat_boundaries=0 2 4 6 9 11 14 16 19 21 24 26 28 30 33
cat_threshold=578826386 3023061184 41951248 2751988032 0 21500160 1149259268 1107776018 3 140706048 147329280 474284288 146818048 2 50405456 2227722560 362957844 1073875474 1 4526336 4719936 4477696 1283458128 3 421986368 142788612 4096 67125312 285491200 33588230 0 32768 1
is_linear=0
shrinkage=0.05


Tree=16
num_leaves=31
num_cat=16
split_feature=0 0 0 0 13 3 13 4 13 4 4 13 13 3 0 13 13 13 13 3 13 13 13 13 4 3 3 13 13 13
split_gain=58753.7 5051.62 1763.92 1188.53 1117.8 947.217 597.324 546.476 470.631 417.701 313.341 266.854 264.498 229.81 216.74 182.224 165.021 144.578 128.544 126.506 208.146 111.424 111.06 94.5961 92.1308 89.0814 77.3502 73.6073 73.2707 70.0901
threshold=22.500000000000004 11.500000000000002 27.500000000000004 17.500000000000004 0 47.500000000000007 1 19.500000000000004 2 19.500000000000004 18.500000000000004 3 4 22.500000000000004 7.5000000000000009 5 6 7 8 27.500000000000004 9 10 11 12 18.500000000000004 27.500000000000004 27.500000000000004 13 14 15
decision_type=2 2 2 2 9 2 9 2 9 2 2 9 9 2 2 9 9 9 9 2 9 9 9 9 2 2 2 9 9 9
left_child=1 4 8 6 23 10 -3 12 -2 13 11 26 14 15 -6 -8 -7 -5 -12 20 -10 -21 -13 -1 -19 -11 -4 -16 -14 -9
right_child=2 3 5 17 7 16 9 29 19 25 18 22 28 -15 27 -17 -18 24 -20 21 -22 -23 -24 -25 -26 -27 -28 -29 -30 -31
leaf_value=-0.33009500148882442 -0.00060024229204245225 -0.11003166716294129 0.25549839316714124 0 -0.33009500148882442 1.5850382722359784 -0.11003166716294129 -0.18789497841970917 0.10283233882849317 -0.11003166716294129 0.283095097513333 0.25799380539369404 -0.23588478584429301 0.012848518043556823 -0.16423989366655878 0.0033945678878582798 0.61247320896511148 0 0.16666376418088494 -0.00072827176948333518 0.053015791047432259 0.16148859170192864 0.25804350060552361 -0.33009500148882442 0 -0.11582280753993822 0.41765532020498936 -0.16009774440383906 0.015731584080290607 -0.33009500148882442
leaf_weight=8087 1332 3818 3016 4633 4592 11650 4824 273 2622 2147 4296 2150 2833 1742 2562 1367 11244 5834 2213 1645 4016 1286 11285 21185 1949 345 16603 1684 456 6417
leaf_count=8087 1332 3818 3016 4633 4592 11650 4824 273 2622 2147 4296 2150 2833 1742 2562 1367 11244 5834 2213 1645 4016 1286 11285 21185 1949 345 16603 1684 456 6417
internal_value=0.000185678 -0.0310122 0.0319747 -0.0135545 -0.0406902 0.0352138 -0.0234115 -0.0311122 0.0134162 -0.0171586 0.0305298 0.0325044 -0.0248 -0.0115656 -0.0293061 -0.0160798 0.0433083 -0.0022471 0.0205024 0.0172826 0.0211208 0.00864893 0.0269729 -0.0468206 0.00191839 -0.0350321 0.0362601 -0.0211964 -0.0125644 -0.0426009
internal_weight=148106 74748 73358 26659 48089 62457 14243 18817 10901 10425 39563 33054 12127 7933 8838 6191 22894 12416 6509 9569 6638 2931 13435 29272 7783 2492 19619 4246 3289 6690
internal_count=148106 74748 73358 26659 48089 62457 14243 18817 10901 10425 39563 33054 12127 7933 8838 6191 22894 12416 6509 9569 6638 2931 13435 29272 7783 2492 19619 4246 3289 6690
cat_boundaries=0 2 4 6 9 11 14 16 18 21 24 26 28 30 32 34 37
cat_threshold=578826386 3023061184 41951248 2751988032 0 21500160 1149259268 1107776022 3 140705792 147329280 474284288 146818048 2 3072 328192 50405456 2227722560 94522964 1073875474 1 4477696 1283458128 3 421986368 142788612 4526336 4719936 4096 67125312 131072 4718848 285491456 33588230 0 32768 1
is_linear=0
shrinkage=0.05


Tree=17
num_leaves=31
num_cat=14
split_feature=0 0 13 4 0 3 0 13 13 4 0 3 3 13 13 13 13 3 13 13 3 13 13 13 4 4 13 13 0 4
split_gain=57334.3 5895.31 2348.84 1046.2 1036.67 654.245 539.362 456.51 400.328 307.324 279.301 278.95 164.364 150.706 145.21 144.578 120.648 118.563 185.906 117.107 111.237 106.23 101.687 94.7186 92.5985 92.1308 88.1816 64.0687 63.7225 63.2595
threshold=17.500000000000004 27.500000000000004 0 19.500000000000004 52.500000000000007 17.500000000000004 22.500000000000004 1 2 18.500000000000004 7.5000000000000009 27.500000000000004 27.500000000000004 3 4 5 6 27.500000000000004 7 8 27.500000000000004 9 10 11 11.500000000000002 18.500000000000004 12 13 7.5000000000000009 18.500000000000004
decision_type=2 2 9 2 2 2 2 9 9 2 2 2 2 9 9 9 9 2 9 9 2 9 9 9 2 2 9 9 2 2
left_child=2 6 22 5 9 8 15 29 10 11 -4 27 26 -11 -13 -2 -6 18 -9 -12 -7 -19 28 -10 -21 -17 -5 -3 -1 -8
right_child=1 4 3 12 16 20 7 17 23 13 19 14 -14 -15 -16 25 -18 21 -20 24 -22 -23 -24 -25 -26 -27 -28 -29 -30 -31
leaf_value=-0.31359025141438313 0 0.084673982982513787 -0.31359025141438313 -0.14773514359211726 1.5057863586241795 -0.11371873243760665 -0.00057023017744040061 0.09769072188706858 -0.11371873243760665 0.28483972743703545 -0.15602789898323088 0.46319848565552779 -0.11003166716294129 0.16438576337180441 0.24243663157483475 0 0.76551431495793665 -0.00069185818100923066 0.050365001495060652 -0.10453008380479414 0.014706092141378947 0.15341416211683223 -0.31359025141438313 0.0065512457434651955 -0.11703008380479414 0 -0.31359025141438313 0.24272347350878418 -0.10453008380479414 0.051334489988199297
leaf_weight=4253 4633 397 5018 1803 12812 3196 1051 2622 4125 5051 2433 15787 640 2516 13014 5834 5985 1645 4016 1814 1344 1286 21666 901 3668 1949 7400 6895 4071 281
leaf_count=4253 4633 397 5018 1803 12812 3196 1051 2622 4125 5051 2433 15787 640 2516 13014 5834 5985 1645 4016 1814 1344 1286 21666 901 3668 1949 7400 6895 4071 281
internal_value=-0.000187703 0.026332 -0.036681 -0.0273028 0.0343412 -0.0213632 0.00487841 0.0129942 -0.0256501 0.0301145 -0.030306 0.0320353 -0.0409072 0.0209528 0.0342471 -0.0022471 0.0441586 0.0168024 0.0205182 -0.0244788 -0.00440529 0.00844422 -0.04677 -0.0135822 -0.020284 0.00191839 -0.0426111 0.0232995 -0.0416727 -0.0143815
internal_weight=148106 85774 62332 32342 62457 22499 23317 10901 17959 43660 12933 36093 9843 7567 28801 12416 18797 9569 6638 7915 4540 2931 29990 5026 5482 7783 9203 7292 8324 1332
internal_count=148106 85774 62332 32342 62457 22499 23317 10901 17959 43660 12933 36093 9843 7567 28801 12416 18797 9569 6638 7915 4540 2931 29990 5026 5482 7783 9203 7292 8324 1332
cat_boundaries=0 2 4 6 9 12 14 16 19 21 23 25 28 31 33
cat_threshold=578822290 3023061184 0 21500160 138743808 147329280 77745748 1074203154 1 1082150404 1107628566 3 50405456 2227722560 67111936 348672 4477696 1283458128 3 0 524544 421986368 142788612 16 67125312 354566400 33796 2 1075971332 1112178696 1 4456448 4719872
is_linear=0
shrinkage=0.05


Tree=18
num_leaves=31
num_cat=13
split_feature=0 0 13 4 0 0 13 3 13 4 3 0 13 3 13 0 0 13 13 13 13 3 4 4 13 13 4 13 13 4
split_gain=55600.2 5464.4 2361.92 1279.93 991.16 518.786 446.813 415.58 341.168 266.809 239.522 236.449 228.661 152.529 149.21 149.191 144.827 144.578 139.779 118.239 116.411 150.029 92.1308 92.0305 84.6055 74.037 92.2426 64.5466 63.6123 63.2595
threshold=17.500000000000004 27.500000000000004 0 19.500000000000004 52.500000000000007 22.500000000000004 1 22.500000000000004 2 18.500000000000004 27.500000000000004 7.5000000000000009 3 27.500000000000004 4 67.500000000000014 7.5000000000000009 5 6 7 8 27.500000000000004 18.500000000000004 12.500000000000002 9 10 16.500000000000004 11 12 18.500000000000004
decision_type=2 2 9 2 2 2 9 2 9 2 2 2 9 2 9 2 2 9 9 9 9 2 2 2 9 9 2 9 9 2
left_child=2 5 8 7 9 17 29 11 16 10 27 18 23 24 -11 -6 -1 -2 -4 -12 -8 -22 -19 -13 -5 26 -18 -3 -23 -7
right_child=1 4 3 13 15 6 20 -9 -10 14 19 12 -14 -15 -16 -17 25 22 -20 -21 21 28 -24 -25 -26 -27 -28 -29 -30 -31
leaf_value=-0.29791073884366404 0 0.2332605738459341 -0.29791073884366404 -0.14034838641251143 0.74479140241207276 -0.00054171866856833617 0.064371026982080082 0.012720787534309963 -0.29791073884366404 0.26777575847017626 0.45114936172404863 -0.099303579614554494 0.00040029994273531604 -0.10453008380479414 0.15616647520321419 1.7505548755924272 -0.12001428824307886 0 -0.20955877207653195 0.32109011413049093 0.047976227811499329 0.00030920550944735226 0 -0.098844147182913747 -0.19803921986688755 -0.14627942320070586 -0.1456544232007059 0.22610284424830401 0.23153752691627183 0.048767765488789298
leaf_weight=5432 4633 2844 2984 892 9687 1051 3866 2210 25884 4978 9443 3475 1798 625 2589 9110 591 5834 1036 19358 3871 1002 1949 5019 7172 4715 499 4448 830 281
leaf_count=5432 4633 2844 2984 892 9687 1051 3866 2210 25884 4978 9443 3475 1798 625 2589 9110 591 5834 1036 19358 3871 1002 1949 5019 7172 4715 499 4448 830 281
internal_value=-0.000719755 0.0253958 -0.0366569 -0.0248107 0.0331068 0.00474118 0.0127007 -0.0166505 -0.0446837 0.0289739 0.0307636 -0.0197666 -0.0157501 -0.0403556 0.0204374 0.0427063 -0.0372322 -0.0022471 -0.0300498 0.0328131 0.0164683 0.021031 0.00191839 -0.0191675 -0.0421999 -0.0317743 -0.0193636 0.0226687 0.00927948 -0.0143815
internal_weight=148106 85774 62332 25211 62457 23317 10901 16522 37121 43660 36093 14312 10292 8689 7567 18797 11237 12416 4020 28801 9569 5703 7783 8494 8064 5805 1090 7292 1832 1332
internal_count=148106 85774 62332 25211 62457 23317 10901 16522 37121 43660 36093 14312 10292 8689 7567 18797 11237 12416 4020 28801 9569 5703 7783 8494 8064 5805 1090 7292 1832 1332
cat_boundaries=0 2 4 6 9 12 14 16 19 22 25 27 30 32
cat_threshold=578826386 3023585728 0 21500160 4096 540992 474284288 146834432 2 94522900 1074203154 1 50405456 2227722560 140967936 146804736 8392192 1074074134 1 21385728 1283589184 2 2229508 163848 1 4096 16384 1369457216 1107317264 3 404815936 51204
is_linear=0
shrinkage=0.05


Tree=19
num_leaves=31
num_cat=15
split_feature=0 0 13 4 3 13 0 13 0 4 13 13 3 13 13 13 3 13 3 3 4 13 13 13 13 4 13 10 13 0
split_gain=54893.2 5260.39 2339.1 1040.02 996.254 627.171 511.173 443.203 431.358 301.773 250.301 174.182 164.364 145.966 145.283 144.578 116.182 187.855 115.407 110.729 103.459 102.952 101.687 100.384 92.2643 92.1308 88.1816 76.9856 64.6181 63.7225
threshold=17.500000000000004 27.500000000000004 0 19.500000000000004 52.500000000000007 1 22.500000000000004 2 7.5000000000000009 18.500000000000004 3 4 27.500000000000004 5 6 7 27.500000000000004 8 32.500000000000007 22.500000000000004 11.500000000000002 9 10 11 12 18.500000000000004 13 10.500000000000002 14 7.5000000000000009
decision_type=2 2 9 2 2 9 2 9 2 2 9 9 2 9 9 9 2 9 2 2 2 9 9 9 9 2 9 2 9 2
left_child=2 6 22 5 9 8 15 -8 -4 10 -3 -10 26 -11 -6 -2 17 -9 24 20 -13 -12 29 -18 -7 -17 -5 -23 -15 -1
right_child=1 4 3 12 14 18 7 16 11 13 21 19 -14 28 -16 25 23 -19 -20 -21 -22 27 -24 -25 -26 -27 -28 -29 -30 -31
leaf_value=-0.28301520190148083 0 0.23207595548724669 -0.28301520190148083 -0.13044642541916707 1.3429692969133491 -0.11842445382688212 -0.00051463273513991943 0.078887793301407966 -0.14091253287403402 0.30076525039312829 0.44647134982018566 -0.094338400633826688 -0.099303579614554494 0.23123059718605604 0.55994083077651813 0 -0.0016023826591514024 0.045447940029732695 0.26083474815759455 -0.00041525184240551741 -0.10290204926663904 0.33922722465716859 -0.28301520190148083 0.13606270555830344 0.015641168459155176 0 -0.28301520190148083 0.21714857495286194 0.12179850893465556 -0.084408042672371231
leaf_weight=4253 4633 5573 5299 1803 11528 4264 1332 2814 2754 1410 10353 2358 640 3790 6672 5834 1480 3824 464 997 5222 11779 21666 1451 1141 1949 7400 9255 2097 4071
leaf_count=4253 4633 5573 5299 1803 11528 4264 1332 2814 2754 1410 10353 2358 640 3790 6672 5834 1480 3824 464 997 5222 11779 21666 1451 1141 1949 7400 9255 2097 4071
internal_value=-0.000993883 0.0249551 -0.0367019 -0.027343 0.0325208 -0.021421 0.00468971 0.0125906 -0.0263762 0.0284712 0.0303057 -0.0208852 -0.0409072 0.0191791 0.0423681 -0.0022471 0.016343 0.0200211 -0.00732267 -0.0172994 -0.0193799 0.0320492 -0.04677 0.00806892 -0.00938945 0.00191839 -0.0426111 0.0299515 0.0156266 -0.0416727
internal_weight=148106 85774 62332 32342 62457 22499 23317 10901 16630 44257 36960 11331 9843 7297 18200 12416 9569 6638 5869 8577 7580 31387 29990 2931 5405 7783 9203 21034 5887 8324
internal_count=148106 85774 62332 32342 62457 22499 23317 10901 16630 44257 36960 11331 9843 7297 18200 12416 9569 6638 5869 8577 7580 31387 29990 2931 5405 7783 9203 21034 5887 8324
cat_boundaries=0 2 4 6 8 10 12 14 16 19 22 24 26 29 32 35
cat_threshold=578822290 3023061184 138743808 147330304 0 21500160 138875136 13110592 0 524544 77727760 393728 3072 332288 50405456 2227722560 4477696 1283589200 3 8392192 1107628560 1 16 67125312 421724224 142755844 287457536 16809988 2 1075971332 1112178696 1 285230660 1073743954 1
is_linear=0
shrinkage=0.05


Tree=20
num_leaves=31
num_cat=15
split_feature=0 0 13 0 4 13 0 13 0 4 3 3 3 13 13 13 13 13 3 13 13 13 13 4 4 13 13 4 5 13
split_gain=53256.5 4812.6 2351.85 1139.31 1048.1 635.703 508.648 442.003 434.447 263.906 218.687 177.38 164.364 154.588 144.578 129.97 127.848 118.532 116.924 188.073 104.508 101.687 98.9047 97.6986 92.1308 88.1816 80.5184 78.5786 68.8299 68.7074
threshold=17.500000000000004 27.500000000000004 0 57.500000000000007 19.500000000000004 1 22.500000000000004 2 7.5000000000000009 18.500000000000004 32.500000000000007 17.500000000000004 27.500000000000004 3 4 5 6 7 27.500000000000004 8 9 10 11 11.500000000000002 18.500000000000004 12 13 8.5000000000000018 4.5000000000000009 14
decision_type=2 2 9 2 2 9 2 9 2 2 2 2 2 9 9 9 9 9 2 9 9 9 9 2 2 9 9 2 2 9
left_child=2 6 21 9 5 8 14 -8 -4 10 16 17 25 29 -2 -5 -3 -10 19 -9 27 -1 -20 -19 -16 -6 -12 -7 -28 -11
right_child=1 3 4 15 12 20 7 18 11 13 26 -13 -14 -15 24 -17 -18 23 22 -21 -22 -23 -24 -25 -26 -27 28 -29 -30 -31
leaf_value=-0.26886444180640678 0 0.17077496766405639 -0.26886444180640678 1.5258208320676816 -0.1239241041482087 -0.29029805469207631 -0.00048890109838293225 0.074943403636337544 -0.13386690623033229 0.32720683930029948 0.45063492994580162 -0.093673198011989284 -0.094338400633826688 0.1419679837134856 0 0.8261090057266991 0.18122775139444658 -0.089621480602135331 -0.0015222635261938678 0.043175543028246111 0.030326821679025253 -0.26886444180640678 0.12925957028038831 -0.088756837360436158 0 -0.26886444180640678 0.38989115675438824 -0.087980717132423975 0.29417817967632337 0.23404476785397377
leaf_weight=8324 4633 3809 5299 9707 1803 600 1332 2814 2433 1308 6727 2589 640 2632 5834 5407 10075 2106 1480 3824 1124 21666 1451 4203 1949 7400 14681 4145 3908 4203
leaf_count=8324 4633 3809 5299 9707 1803 600 1332 2814 2433 1308 6727 2589 640 2632 5834 5407 10075 2106 1480 3824 1124 21666 1451 4203 1949 7400 14681 4145 3908 4203
internal_value=-0.00150298 0.0240562 -0.0366746 0.0312927 -0.0272904 -0.0213454 0.00467256 0.0125539 -0.0263341 0.0274771 0.0291786 -0.0208234 -0.0409072 0.0192865 -0.0022471 0.0432447 0.0241357 -0.0242279 0.0163013 0.019991 -0.00715258 -0.04677 0.00800068 -0.0204858 0.00191839 -0.0426111 0.0319442 -0.0103996 0.0301387 0.0240446
internal_weight=148106 85774 62332 62457 32342 22499 23317 10901 16630 47343 39200 11331 9843 8143 12416 15114 13884 8742 9569 6638 5869 29990 2931 6309 7783 9203 25316 4745 18589 5511
internal_count=148106 85774 62332 62457 32342 22499 23317 10901 16630 47343 39200 11331 9843 8143 12416 15114 13884 8742 9569 6638 5869 29990 2931 6309 7783 9203 25316 4745 18589 5511
cat_boundaries=0 2 4 6 9 11 13 15 17 20 23 25 27 30 33 35
cat_threshold=578822290 3023061184 138743808 147330304 0 21500160 94522900 1074203154 1 50405456 2227722560 2048 332288 138744068 1086852352 0 524544 4477696 1283589200 3 287457536 50364420 2 16 67125312 421724224 142755844 1075971332 1112178696 1 3072 332308 1 77725712 459264
is_linear=0
shrinkage=0.05


Tree=21
num_leaves=31
num_cat=13
split_feature=0 0 13 4 0 3 13 0 13 0 4 13 13 3 13 13 13 3 13 10 13 3 13 4 4 13 3 13 0 4
split_gain=51563.9 4684.59 2394.83 1075.43 979.89 691.63 429.699 421.332 399.598 291.609 252.088 218.936 174.911 164.364 151.889 144.578 118.532 118.264 115.733 114.792 107.613 106.413 101.687 97.6986 92.1308 88.1816 81.8893 70.944 63.7225 63.2595
threshold=17.500000000000004 27.500000000000004 0 19.500000000000004 57.500000000000007 17.500000000000004 1 22.500000000000004 2 7.5000000000000009 18.500000000000004 3 4 27.500000000000004 5 6 7 32.500000000000007 8 11.500000000000002 9 27.500000000000004 10 11.500000000000002 18.500000000000004 11 22.500000000000004 12 7.5000000000000009 18.500000000000004
decision_type=2 2 9 2 2 2 9 2 9 2 2 9 9 2 9 9 9 2 9 2 9 2 9 2 2 9 2 9 2 2
left_child=2 7 22 5 10 6 9 15 29 -4 11 26 -6 25 -12 -2 -11 -7 -10 -13 -21 -20 28 -18 -17 -5 -3 -8 -1 -9
right_child=1 4 3 13 12 17 27 8 18 16 14 19 -14 -15 -16 24 23 -19 21 20 -22 -23 -24 -25 -26 -27 -28 -29 -30 -31
leaf_value=-0.25542121971608645 0 0.22513879396798375 -0.25542121971608645 -0.11772789894079826 1.4981580436278408 -0.088989538111389876 -0.13300428449275953 -0.00046445604346381233 0.053460915786088851 -0.12717356091881565 0.2319145368887445 0.38342784457023671 0.79464286147797347 -0.089621480602135331 0.1756049026552983 0 -0.085140406572028482 0.23969204660633603 0.042912893769960193 0.37439432345220819 0.2218574067899983 0.069765682754926325 -0.25542121971608645 -0.084318995492414395 0 -0.25542121971608645 0.1572973785994293 0.0067581458928184903 -0.066744418448432263 0.046379553906025883
leaf_weight=4253 4633 1670 5067 1803 8202 3902 3249 1051 4577 2433 4308 17488 6912 640 3835 5834 2106 638 3402 5597 7631 1590 21666 4203 1949 7400 6814 901 4071 281
leaf_count=4253 4633 1670 5067 1803 8202 3902 3249 1051 4577 2433 4308 17488 6912 640 3835 5834 2106 638 3402 5597 7631 1590 21666 4203 1949 7400 6814 901 4071 281
internal_value=-0.00197494 0.0231749 -0.0365831 -0.0271142 0.0303145 -0.021092 -0.0254997 0.00405069 0.0112237 -0.029738 0.0267759 0.0284388 0.0413987 -0.0409072 0.0187707 -0.0022471 -0.0242279 -0.00365639 0.0147876 0.0304172 0.0269126 0.020072 -0.04677 -0.0204858 0.00191839 -0.0426111 0.021215 -0.0112981 -0.0416727 -0.0143815
internal_weight=148106 85774 62332 32342 62457 22499 17959 23317 10901 13809 47343 39200 15114 9843 8143 12416 8742 4540 9569 30716 13228 4992 29990 6309 7783 9203 8484 4150 8324 1332
internal_count=148106 85774 62332 32342 62457 22499 17959 23317 10901 13809 47343 39200 15114 9843 8143 12416 8742 4540 9569 30716 13228 4992 29990 6309 7783 9203 8484 4150 8324 1332
cat_boundaries=0 2 4 6 8 10 12 14 16 19 22 24 27 30
cat_threshold=578822290 3023061184 138743808 147330304 0 21500160 138875136 147459400 0 332288 94506004 1074203154 50405456 2227722560 0 524544 1095127552 1283605572 2 1082133504 348690 1 16 67125312 1075971332 1112178696 1 354566400 32772 2
is_linear=0
shrinkage=0.05


Tree=22
num_leaves=31
num_cat=14
split_feature=0 0 13 0 0 0 0 13 13 4 4 13 13 4 0 13 3 0 13 3 0 13 13 13 13 13 13 4 3 13
split_gain=32096.9 8073.15 6550.29 3026.5 1623.09 1350.44 774.917 738.319 472.405 405.958 331.868 318.726 264.798 260.495 251.645 238.143 237.028 211.528 193.946 164.866 150.444 179.453 149.775 147.257 132.82 114.199 101.357 98.2926 116.302 95.9847
threshold=22.500000000000004 7.5000000000000009 0 14.000000000000002 32.500000000000007 17.500000000000004 67.500000000000014 1 2 18.500000000000004 19.500000000000004 3 4 18.500000000000004 17.500000000000004 5 17.500000000000004 14.000000000000002 6 22.500000000000004 27.500000000000004 7 8 9 10 11 12 19.500000000000004 17.500000000000004 13
decision_type=2 2 9 2 2 2 2 9 9 2 2 9 9 2 2 9 2 2 9 2 2 9 9 9 9 9 9 2 2 9
left_child=1 8 3 16 11 7 13 -4 -1 15 26 20 17 18 23 19 -3 25 -6 -9 21 -2 -15 -5 -7 27 -10 -11 -29 -8
right_child=4 2 5 14 6 24 29 9 10 12 -12 -13 -14 22 -16 -17 -18 -19 -20 -21 -22 -23 -24 -25 -26 -27 -28 28 -30 -31
leaf_value=-0.24265015873028206 -0.00044123324129063946 0.0073498412697179383 -0.06931706769443835 -0.03358999112069299 0.27225494088664454 0 1.8746218882829055 -0.080883386243426975 -0.24265015873028206 -0.13164240079100706 -0.2476437346791209 0.082674571705577196 -0.081788626856854937 0.48920442366102534 0 0.017350757718201937 -0.07679505090801611 -0.071520985879153898 0.40008742352954663 0.0048045683199973155 0.10099980226697927 0.079223028807419382 0.22736664752047614 0.0039098887848329159 0 -0.12284388300120463 -0.24265015873028206 0.0023562653208791143 -0.081788626856854937 1.1034187606352621
leaf_weight=15281 1365 7008 7669 1021 6334 4355 6435 8269 6920 132 4636 16113 4007 1226 711 2058 90 996 28541 1376 2781 2383 5505 199 7350 401 1618 558 93 2675
leaf_count=15281 1365 7008 7669 1021 6334 4355 6435 8269 6920 132 4636 16113 4007 1226 711 2058 90 996 28541 1376 2781 2383 5505 199 7350 401 1618 558 93 2675
internal_value=0.00303566 -0.0200233 -0.00714039 0.0310488 0.0265315 -0.0163975 0.0315009 -0.0228432 -0.0409823 -0.0172458 -0.0339199 0.0154006 -0.0276144 0.0286089 -0.0244174 -0.011779 0.046182 -0.013379 0.030347 -0.0150647 0.00604833 -0.000480256 0.0196033 -0.0381967 -0.00233661 0.000844595 -0.0280979 0.0119168 0.0200461 0.0447091
internal_weight=148106 74748 46293 9029 73358 37264 50716 25559 28455 17890 13174 22642 6187 41606 1931 11703 7098 2180 34875 9645 6529 3748 6731 1220 11705 1184 8538 783 651 9110
internal_count=148106 74748 46293 9029 73358 37264 50716 25559 28455 17890 13174 22642 6187 41606 1931 11703 7098 2180 34875 9645 6529 3748 6731 1220 11705 1184 8538 783 651 9110
cat_boundaries=0 2 4 6 9 12 15 17 19 21 23 25 27 29 31
cat_threshold=570434566 2686456448 8388624 84410688 578822290 2972729344 4460544 1170756928 2 1208025600 1216512016 1 407179520 146818052 2 6754576 164236296 0 21516288 69206016 328192 33562624 2684354560 16842832 80218432 134283264 8388624 23531520 214437952 0 332288
is_linear=0
shrinkage=0.05


Tree=23
num_leaves=31
num_cat=13
split_feature=0 0 13 0 3 0 0 13 13 13 4 0 13 4 3 3 4 13 13 10 13 3 13 3 13 13 4 13 13 4
split_gain=30976.8 8164.22 6481.6 3026.5 1690.59 1302.94 792.477 648.908 474.101 368.777 333.273 251.645 248.233 246.449 237.028 224.622 223.566 184.678 147.257 136.985 132.82 131.882 120.383 123.515 119.739 111.652 104.75 104.167 99.8262 94.5047
threshold=22.500000000000004 7.5000000000000009 0 14.000000000000002 52.500000000000007 17.500000000000004 27.500000000000004 1 2 3 19.500000000000004 17.500000000000004 4 19.500000000000004 17.500000000000004 17.500000000000004 12.500000000000002 5 6 10.500000000000002 7 27.500000000000004 8 27.500000000000004 9 10 10.500000000000002 11 12 18.500000000000004
decision_type=2 2 9 2 2 2 2 9 9 9 2 2 9 2 2 2 2 9 9 2 9 2 9 2 9 9 2 9 9 2
left_child=1 8 3 14 6 7 9 15 -1 -2 27 18 -6 17 -3 24 -9 -8 -5 -19 -7 -18 -11 -24 -4 -21 -26 -10 -15 -22
right_child=4 2 5 11 12 20 13 16 10 22 -12 -13 -14 28 -16 -17 21 19 -20 25 29 -23 23 -25 26 -27 -28 -29 -30 -31
leaf_value=-0.23051765079376799 -0.00041917157922615193 0.0069823492062320199 -0.031501511750877675 -0.031910491564658375 1.2808907938687604 0 0.16377146522928607 -0.075870337215680733 -0.23051765079376799 0.046654141411505458 -0.23526154794516485 0 0.54756294197133681 0.20725817628495005 -0.072955298362615301 -0.081050975229185696 -0.075893308837262918 0.30499346776975539 0.0037143943455912876 0.3164857949136366 0 -0.0091856600960024803 0.036724959551377445 0.027424323670971164 -0.076839216931255561 0.19149000871996658 -0.076058876405622311 -0.23051765079376799 0.15211242747687487 0
leaf_weight=15281 1466 7008 3834 1021 7845 4355 2381 3436 6920 5077 4636 711 10476 1081 90 2751 6108 20254 199 4042 5602 1061 2962 1275 1647 13449 6722 1618 3050 1748
leaf_count=15281 1466 7008 3834 1021 7845 4355 2381 3436 6920 5077 4636 711 10476 1081 90 2751 6108 20254 199 4042 5602 1061 2962 1275 1647 13449 6722 1618 3050 1748
internal_value=0.00275816 -0.0198948 -0.00693949 0.0310488 0.0258404 -0.016148 0.021461 -0.0224794 -0.0409717 0.00930427 -0.0338971 -0.0244174 0.0389962 0.0244221 0.046182 -0.0291901 -0.0129769 0.0256193 -0.0381967 0.026472 -0.00233661 -0.0180151 0.0129665 0.0192018 -0.0321192 0.0232377 -0.0286013 -0.0280628 0.0127935 0.0017663
internal_weight=148106 74748 46293 9029 73358 37264 55037 25559 28455 10780 13174 1931 18321 44257 7098 14954 10605 40126 1220 37745 11705 7169 9314 4237 12203 17491 8369 8538 4131 7350
internal_count=148106 74748 46293 9029 73358 37264 55037 25559 28455 10780 13174 1931 18321 44257 7098 14954 10605 40126 1220 37745 11705 7169 9314 4237 12203 17491 8369 8538 4131 7350
cat_boundaries=0 2 5 7 9 11 13 15 17 20 22 24 26 28
cat_threshold=570434566 2686456448 277102672 88606024 2 578822290 2972729344 0 21516544 0 328192 4526336 4719936 33562624 2684354560 16842832 80218432 23351872 1283621956 3 8388624 67108928 8391680 17125904 23531520 214437952 69337108 393728
is_linear=0
shrinkage=0.05


Tree=24
num_leaves=31
num_cat=11
split_feature=0 0 13 0 0 0 0 13 13 4 0 13 0 3 3 4 4 0 13 13 3 13 13 13 13 4 4 4 13 0
split_gain=29261.4 8035.92 6459.98 3039.84 1614.94 1294.35 681.315 657.971 523.385 358.944 294.035 288.278 254.963 237.028 227.73 219.199 193.199 139.893 171.808 137.716 136.624 132.82 126.594 119.739 112.726 104.75 94.5047 93.5859 88.9706 222.279
threshold=22.500000000000004 7.5000000000000009 0 14.000000000000002 52.500000000000007 17.500000000000004 32.500000000000007 1 2 19.500000000000004 72.500000000000014 3 17.500000000000004 17.500000000000004 17.500000000000004 12.500000000000002 18.500000000000004 27.500000000000004 4 5 27.500000000000004 6 7 8 9 10.500000000000002 18.500000000000004 19.500000000000004 10 14.000000000000002
decision_type=2 2 9 2 2 2 2 9 9 2 2 9 2 2 2 2 2 2 9 9 2 9 9 9 9 2 2 2 9 2
left_child=1 8 3 13 6 7 11 14 -1 22 -6 17 19 -3 23 -9 24 18 -2 -5 28 -7 -10 -4 -8 -25 -23 -16 29 -17
right_child=4 2 5 12 10 21 16 15 9 -11 -12 -13 -14 -15 27 20 -18 -19 -20 -21 -22 26 -24 25 -26 -27 -28 -29 -30 -31
leaf_value=-0.21899176825407959 -0.00039821300026492428 0.0066332317459203878 -0.02992643616333375 -0.030314966986425419 0.58087970725203208 0 0.35150393119838275 -0.072076820354896751 -0.21899176825407959 -0.22349847054790661 1.7043462541753223 0.080735915777330733 0 -0.069307533444484551 -0.077021659059639092 -0.073904530072149033 0.22294778906672053 0.077647356631536726 0.05114289596163886 0.0035286746283116344 -0.0087263770912024089 0 -0.21899176825407959 -0.072997256084692805 0.26851220361164574 -0.072255932585341229 0 -0.073646646752552863 -0.073904530072149033 -0.0720986433953998
leaf_weight=15281 1365 7008 3834 1021 11348 4355 8491 3436 6964 4636 7449 14826 711 90 2048 1492 5223 3704 2747 199 1061 5602 1574 1647 18205 6722 1748 703 2833 1783
leaf_count=15281 1365 7008 3834 1021 11348 4355 8491 3436 6964 4636 7449 14826 711 90 2048 1492 5223 3704 2747 199 1061 5602 1574 1647 18205 6722 1748 703 2833 1783
internal_value=0.00225447 -0.0197624 -0.00690925 0.0310156 0.0246885 -0.0161024 0.0203341 -0.0224128 -0.040673 -0.0332524 0.0373278 0.0137002 -0.0245728 0.046182 -0.02917 -0.012845 0.0250399 0.0059034 -0.000437743 -0.0384426 -0.0178337 -0.00233661 -0.0271961 -0.0321192 0.0267606 -0.0286013 0.0017663 -0.0161941 -0.0207105 -0.0149315
internal_weight=148106 74748 46293 9029 73358 37264 54561 25559 28455 13174 18797 22642 1931 7098 14954 10605 31919 7816 4112 1220 7169 11705 8538 12203 26696 8369 7350 2751 6108 3275
internal_count=148106 74748 46293 9029 73358 37264 54561 25559 28455 13174 18797 22642 1931 7098 14954 10605 31919 7816 4112 1220 7169 11705 8538 12203 26696 8369 7350 2751 6108 3275
cat_boundaries=0 2 5 7 10 12 14 16 18 20 22 25
cat_threshold=570434566 2686456448 277102672 88606024 2 578822290 2972729344 4460544 1170888000 2 0 21516288 33562624 2684354560 16842832 80218432 23531520 206049600 8388624 67108928 402656832 1074090512 207814656 1082130448 1
is_linear=0
shrinkage=0.05


Tree=25
num_leaves=31
num_cat=13
split_feature=0 0 13 0 0 0 13 13 13 4 0 13 0 3 3 13 4 4 13 13 3 13 13 13 13 4 10 13 3 4
split_gain=28069.7 8041.06 6456.3 3039.84 1627.92 1291.83 776.419 660.495 523.385 358.944 304.319 341.072 254.963 237.028 228.771 223.971 221.298 186.712 171.291 137.716 136.394 132.82 126.69 126.594 119.739 104.75 104.662 103.911 124.409 94.5047
threshold=22.500000000000004 7.5000000000000009 0 14.000000000000002 37.500000000000007 17.500000000000004 1 2 3 19.500000000000004 27.500000000000004 4 17.500000000000004 17.500000000000004 17.500000000000004 5 12.500000000000002 17.500000000000004 6 7 27.500000000000004 8 9 10 11 10.500000000000002 11.500000000000002 12 27.500000000000004 18.500000000000004
decision_type=2 2 9 2 2 2 9 9 9 2 2 9 2 2 2 9 2 2 9 9 2 9 9 9 9 2 2 9 2 2
left_child=1 8 3 13 10 7 -6 14 -1 23 11 -2 19 -3 24 -12 -9 18 26 -5 -18 -7 -19 -10 -4 -26 -8 -13 -29 -23
right_child=4 2 5 12 6 21 17 16 9 -11 15 27 -14 -15 -16 -17 20 22 -20 -21 -22 29 -24 -25 25 -27 -28 28 -30 -31
leaf_value=-0.2080421798413756 -0.000378302350251758 0.006301570158624337 -0.028430114355167027 -0.028799218637104131 1.1316289414665561 0 0.48846267152583284 -0.068472979337151865 -0.2080421798413756 -0.21232354702051134 0.12523472671331123 0.040581519245968249 0 -0.065842156772260282 -0.073170576106657143 0.10177665688577449 -0.068493711225629819 0.46350576569842766 0.33208149719141428 0.003352240896895964 -0.0082900582366422174 0 0.25314222156215038 -0.2080421798413756 -0.069347393280458122 -0.068643135956074103 0.3329569636382555 0.030866979389661431 0.051505188685972494 0
leaf_weight=15281 1474 7008 3834 1021 8929 4355 9471 3436 6964 4636 10003 5176 711 90 2751 10575 6108 2208 9778 199 1061 5602 5776 1574 1647 6722 5717 2871 1380 1748
leaf_count=15281 1474 7008 3834 1021 8929 4355 9471 3436 6964 4636 10003 5176 711 90 2751 10575 6108 2208 9778 199 1061 5602 5776 1574 1647 6722 5717 2871 1380 1748
internal_value=0.00180816 -0.0197557 -0.00689845 0.0310156 0.0237806 -0.016089 0.0302383 -0.0223933 -0.040673 -0.0332524 0.0151895 0.00843501 -0.0245728 0.046182 -0.0291633 0.0187676 -0.0128073 0.0266626 0.0287992 -0.0384426 -0.0178198 -0.00233661 0.020015 -0.0271961 -0.0321192 -0.0286013 0.0321621 0.0119265 0.0177306 0.0017663
internal_weight=148106 74748 46293 9029 73358 37264 41879 25559 28455 13174 31479 10901 1931 7098 14954 20578 10605 32950 24966 1220 7169 11705 7984 8538 12203 8369 15188 9427 4251 7350
internal_count=148106 74748 46293 9029 73358 37264 41879 25559 28455 13174 31479 10901 1931 7098 14954 20578 10605 32950 24966 1220 7169 11705 7984 8538 12203 8369 15188 9427 4251 7350
cat_boundaries=0 2 4 7 9 11 13 16 18 20 22 24 26 29
cat_threshold=570434566 2686456448 0 328192 277102672 88606024 2 578822290 2972729344 0 21516544 295832660 687966748 268455424 1107316754 1 33562624 2684354560 16842832 80218432 69337088 18 23531520 206049600 8388624 67108928 140792384 1283621956 3
is_linear=0
shrinkage=0.05


Tree=26
num_leaves=31
num_cat=12
split_feature=0 0 13 0 0 0 0 13 13 4 13 0 3 3 13 4 4 13 13 13 13 13 13 3 0 13 4 4 4 10
split_gain=27081.7 8144.25 6382.99 3039.84 1670.43 1241.92 768.611 725.611 523.385 358.944 319.001 254.963 239.31 237.028 209.388 194.784 182.557 168.126 137.716 132.82 126.594 121.654 119.739 119.425 105.796 205.643 278.923 111.852 104.75 102.794
threshold=22.500000000000004 7.5000000000000009 0 14.000000000000002 62.500000000000007 17.500000000000004 32.500000000000007 1 2 19.500000000000004 3 17.500000000000004 17.500000000000004 17.500000000000004 4 12.500000000000002 18.500000000000004 5 6 7 8 9 10 27.500000000000004 14.000000000000002 11 19.500000000000004 18.500000000000004 10.500000000000002 10.500000000000002
decision_type=2 2 9 2 2 2 2 9 9 2 9 2 2 2 9 2 2 9 9 9 9 9 9 2 2 9 2 2 2 2
left_child=1 8 3 13 6 7 10 12 -1 20 -2 18 22 -3 -6 -9 17 29 -5 -7 -10 -18 -4 24 25 26 -17 -26 -24 -8
right_child=4 2 5 11 14 19 16 15 9 -11 -12 -13 -14 -15 -16 23 21 -19 -20 -21 -22 -23 28 -25 27 -27 -28 -29 -30 -31
leaf_value=-0.19764007084930679 0.026835272874322948 0.0059864916506930932 -0.02700860863740866 -0.02735925770524892 1.3250474943932282 0 0.3723061710661581 -0.065049330370294284 -0.19764007084930679 -0.20170736966948574 0.076598288897608141 0 -0.069512047301324209 -0.06255004893364724 0.77378144332117571 -0.11254150470936396 0.35598827994127408 0.23560867187683812 0.0031846288520512192 0 -0.19764007084930679 0.17305332004320473 -0.065880023616435149 -0.0078755553248100792 -0.065069025664348246 -0.09766927400966488 0.013153029561587194 -0.056516977029559004 -0.065210979158270455 0.29946693436719624
leaf_weight=15281 8631 7008 3834 1021 7626 4355 9258 3436 6964 4636 14011 711 2751 90 4049 775 1116 14905 199 7350 1574 5242 1647 1061 1689 1432 782 1430 6722 8520
leaf_count=15281 8631 7008 3834 1021 7626 4355 9258 3436 6964 4636 14011 711 2751 90 4049 775 1116 14905 199 7350 1574 5242 1647 1061 1689 1432 782 1430 6722 8520
internal_value=0.00155902 -0.0196219 -0.00668244 0.0310156 0.0231413 -0.0158207 0.0198588 -0.022002 -0.040673 -0.0332524 0.0125298 -0.0245728 -0.0290965 0.046182 0.0404839 -0.0119595 0.0241093 0.0256173 -0.0384426 -0.00233661 -0.0271961 0.0163573 -0.0321192 -0.016662 -0.0193517 -0.0126296 3.19081e-05 -0.0257935 -0.0286013 0.0289352
internal_weight=148106 74748 46293 9029 73358 37264 61683 25559 28455 13174 22642 1931 14954 7098 11675 10605 39041 32683 1220 11705 8538 6358 12203 7169 6108 2989 1557 3119 8369 17778
internal_count=148106 74748 46293 9029 73358 37264 61683 25559 28455 13174 22642 1931 14954 7098 11675 10605 39041 32683 1220 11705 8538 6358 12203 7169 6108 2989 1557 3119 8369 17778
cat_boundaries=0 2 5 7 10 12 15 17 19 21 23 25 28
cat_threshold=570434566 2686456448 277102672 88606024 2 578822290 2972729344 205783040 1170888000 2 0 348672 402673216 1074123282 1 33562624 2684354560 16842832 80218432 23531520 206049600 69337088 328192 8388624 67108928 134418432 8388624 1
is_linear=0
shrinkage=0.05


Tree=27
num_leaves=31
num_cat=12
split_feature=0 0 13 0 0 0 0 13 13 4 13 0 3 3 4 13 4 13 13 13 13 13 3 13 0 13 4 4 4 4
split_gain=26062.4 8144.25 6382.99 3039.84 1615.03 1241.92 734.777 725.611 523.385 358.944 307.769 254.963 239.31 237.028 194.784 183.96 163.397 155.623 137.716 132.82 126.594 119.739 119.425 111.89 105.796 205.643 278.923 111.852 104.75 98.401
threshold=22.500000000000004 7.5000000000000009 0 14.000000000000002 67.500000000000014 17.500000000000004 32.500000000000007 1 2 19.500000000000004 3 17.500000000000004 17.500000000000004 17.500000000000004 12.500000000000002 4 18.500000000000004 5 6 7 8 9 27.500000000000004 10 14.000000000000002 11 19.500000000000004 18.500000000000004 10.500000000000002 19.500000000000004
decision_type=2 2 9 2 2 2 2 9 9 2 9 2 2 2 2 9 2 9 9 9 9 9 2 9 2 9 2 2 2 2
left_child=1 8 3 13 6 7 10 12 -1 20 -2 18 21 -3 -9 16 -8 -6 -5 -7 -10 -4 24 -18 25 26 -16 -26 -23 -14
right_child=4 2 5 11 17 19 15 14 9 -11 -12 -13 29 -15 22 -17 23 -19 -20 -21 -22 28 -24 -25 27 -27 -28 -29 -30 -31
leaf_value=-0.18775806730684144 0.027392471606262792 0.0056871670681584163 -0.025658178205538198 -0.025991294819986435 1.5087951196735667 0 0.32380076432115018 -0.061796863851779626 -0.18775806730684144 -0.19162200118601147 0.072768374452727796 0 -0.066036444936258043 -0.059422546486964836 -0.10691442947389573 0.20965035462092807 0.37140282678204883 0.89960627939518467 0.0030253974094486937 0 -0.18775806730684144 -0.062586022435613314 -0.0074817775585696474 0.19694562081942735 -0.06181557438113075 -0.092785810309181649 0.012495378083507803 -0.05369112817808102 -0.061950430200356982 -0.062830183244526161
leaf_weight=15281 9022 7008 3834 1021 6542 4355 22164 3436 6964 4636 13620 711 2048 90 775 14562 1226 2568 199 7350 1574 1647 1061 3654 1689 1432 782 1430 6722 703
leaf_count=15281 9022 7008 3834 1021 6542 4355 22164 3436 6964 4636 13620 711 2048 90 775 14562 1226 2568 199 7350 1574 1647 1061 3654 1689 1432 782 1430 6722 703
internal_value=0.0011566 -0.0196219 -0.00668244 0.0310156 0.0223289 -0.0158207 0.0195352 -0.022002 -0.040673 -0.0332524 0.0122869 -0.0245728 -0.0290965 0.046182 -0.0119595 0.0234798 0.025937 0.0420307 -0.0384426 -0.00233661 -0.0271961 -0.0321192 -0.016662 0.0176639 -0.0193517 -0.0126296 3.19081e-05 -0.0257935 -0.0286013 -0.0157943
internal_weight=148106 74748 46293 9029 73358 37264 64248 25559 28455 13174 22642 1931 14954 7098 10605 41606 27044 9110 1220 11705 8538 12203 7169 4880 6108 2989 1557 3119 8369 2751
internal_count=148106 74748 46293 9029 73358 37264 64248 25559 28455 13174 22642 1931 14954 7098 10605 41606 27044 9110 1220 11705 8538 12203 7169 4880 6108 2989 1557 3119 8369 2751
cat_boundaries=0 2 5 7 10 13 15 17 19 21 23 25 28
cat_threshold=570434566 2686456448 277102672 88606024 2 578822290 2972729344 205787136 1170888000 2 471879232 1074123282 1 0 348672 33562624 2684354560 16842832 80218432 23531520 206049600 8388624 67108928 69206016 328192 134418432 8388624 1
is_linear=0
shrinkage=0.05


Tree=28
num_leaves=31
num_cat=11
split_feature=0 0 13 0 0 0 0 13 13 13 4 0 3 3 4 13 13 13 4 13 13 13 3 10 4 0 13 4 4 4
split_gain=24708.9 8158.74 6372.76 3039.84 1635.66 1235.01 807.488 730.011 523.385 379.792 358.944 254.963 238.11 237.028 196.042 177.038 137.716 132.82 127.139 126.594 121.26 121.149 118.351 116.828 109.319 104.278 204.557 278.923 114.658 98.401
threshold=22.500000000000004 7.5000000000000009 0 14.000000000000002 37.500000000000007 17.500000000000004 72.500000000000014 1 2 3 19.500000000000004 17.500000000000004 17.500000000000004 17.500000000000004 12.500000000000002 4 5 6 18.500000000000004 7 8 9 27.500000000000004 10.500000000000002 10.500000000000002 14.000000000000002 10 19.500000000000004 18.500000000000004 19.500000000000004
decision_type=2 2 9 2 2 2 2 9 9 9 2 2 2 2 2 9 9 9 2 9 9 9 2 2 2 2 9 2 2 2
left_child=1 8 3 13 9 7 15 12 -1 -2 19 16 21 -3 -9 18 -5 -7 -6 -10 -20 -4 25 -11 -23 26 27 -16 -27 -14
right_child=4 2 5 11 6 17 -8 14 10 23 -12 -13 29 -15 22 -17 -18 -19 20 -21 -22 24 -24 -25 -26 28 -28 -29 -30 -31
leaf_value=-0.17837016394149938 0.037023826356520573 0.005402808714750496 -0.024375269295261327 -0.024691730078987107 0.33882747411616648 0 1.4208553636898884 -0.058707020659190694 -0.17837016394149938 0.090769281565338575 -0.1820409011267109 0 -0.062734622689445102 -0.056451419162616562 -0.10156870800020093 0.25362058309472463 0.0028741275389762679 0 0.40345735257074083 -0.17837016394149938 0.21101371931401314 -0.059456721313832617 -0.0071076886806411112 0.072160358337025166 -0.058852908690339059 -0.058724795662074142 -0.088146519793722622 0.011870609179332449 -0.051006571769177 -0.0596886740822999
leaf_weight=15281 11074 7008 3834 1021 18946 4355 7449 3436 6964 10550 4636 711 2048 90 775 11409 199 7350 1405 1574 2670 1647 1061 9855 6722 1689 1432 782 1430 703
leaf_count=15281 11074 7008 3834 1021 18946 4355 7449 3436 6964 10550 4636 711 2048 90 775 11409 199 7350 1405 1574 2670 1647 1061 9855 6722 1689 1432 782 1430 703
internal_value=0.000628604 -0.0196032 -0.00665219 0.0310156 0.0212438 -0.0157831 0.0277168 -0.0219473 -0.040673 0.0126322 -0.0332524 -0.0245728 -0.0290631 0.046182 -0.0118747 0.0244874 -0.0384426 -0.00233661 0.027031 -0.0271961 0.0190307 -0.0320782 -0.0165923 0.0166765 -0.0285416 -0.0192698 -0.0125962 3.19081e-05 -0.0256653 -0.0157943
internal_weight=148106 74748 46293 9029 73358 37264 41879 25559 28455 31479 13174 1931 14954 7098 10605 34430 1220 11705 23021 8538 4075 12203 7169 20405 8369 6108 2989 1557 3119 2751
internal_count=148106 74748 46293 9029 73358 37264 41879 25559 28455 31479 13174 1931 14954 7098 10605 34430 1220 11705 23021 8538 4075 12203 7169 20405 8369 6108 2989 1557 3119 2751
cat_boundaries=0 2 5 7 10 13 15 17 19 21 23 26
cat_threshold=570434566 2686456448 277102672 88606024 2 578822290 2972729344 71569408 1170888000 2 337661440 1082479122 1 33562624 2684354560 16842832 80218432 23531520 206049600 69206016 328192 8388624 67108928 134418432 8388624 1
is_linear=0
shrinkage=0.05


Tree=29
num_leaves=31
num_cat=12
split_feature=0 0 13 0 3 0 13 13 13 4 4 0 0 13 13 0 3 3 4 0 13 13 10 4 13 13 3 13 13 3
split_gain=23755.5 8105.22 6343.89 2924.28 1544.17 1207.38 699.627 630.99 561.52 380.725 372.362 341.612 326.316 325.421 292.874 362.058 257.291 239.653 216.659 180.238 178.457 177.981 165.97 143.194 142.945 130.224 110.34 106.137 103.757 107.038
threshold=22.500000000000004 7.5000000000000009 0 14.000000000000002 57.500000000000007 17.500000000000004 1 2 3 19.500000000000004 18.500000000000004 27.500000000000004 77.500000000000014 4 5 14.000000000000002 22.500000000000004 17.500000000000004 17.500000000000004 17.500000000000004 6 7 10.500000000000002 19.500000000000004 8 9 17.500000000000004 10 11 27.500000000000004
decision_type=2 2 9 2 2 2 9 9 9 2 2 2 2 9 9 2 2 2 2 2 9 9 2 2 9 9 2 9 9 2
left_child=1 8 3 17 7 6 -4 -2 -1 20 16 28 -6 -5 15 23 21 -3 22 -15 -10 -8 -13 -12 -20 -7 -25 -24 -9 -30
right_child=4 2 5 13 12 25 10 11 9 -11 14 18 -14 19 -16 -17 -18 -19 24 -21 -22 -23 27 26 -26 -27 -28 -29 29 -31
leaf_value=-0.16945165574442439 0.041138005669120049 0.0051326682790129759 -0.047653676507975633 0 0.44250869906316947 0 -0.056483885248140991 0.011455215038878565 -0.16945165574442439 -0.17293885607037529 -0.098094471135531602 0.26133340515507725 1.6123125955053941 -0.023457143575037788 -0.056704240378184868 -0.04905991956344069 0.029974735406009326 -0.053628848204485727 0.09253282805072667 0 -0.15434242262276288 0.025651368301717173 0.13850062423543008 0.011277078720365808 0.17700689437564626 0 -0.068660568848481512 0.21092278776071627 0.015443679012546419 0.068388502954327995
leaf_weight=15281 9305 7043 7669 714 9405 4355 8126 2906 7150 4636 200 16844 5326 1021 4340 750 1914 107 3214 393 1388 1578 4317 718 7522 7229 136 10034 2925 1560
leaf_count=15281 9305 7043 7669 714 9405 4355 8126 2906 7150 4636 200 16844 5326 1021 4340 750 1914 107 3214 393 1388 1578 4317 718 7522 7229 136 10034 2925 1560
internal_value=0.000393637 -0.019444 -0.00653555 0.0304156 0.0206072 -0.0158015 -0.0219004 0.0169708 -0.0404446 -0.032767 -0.0164191 0.0192228 0.0350791 -0.0210056 -0.0263835 -0.0092613 -0.0111637 0.0457622 0.0209737 -0.0347612 -0.0265285 -0.0144683 0.0230822 0.00958254 0.0148472 -0.00242576 0.0185012 0.0191311 0.00931538 0.0140712
internal_weight=148106 74748 46293 9278 73358 37015 25431 58627 28455 13174 17762 49322 14731 2128 6144 1804 11618 7150 41931 1414 8538 9704 31195 1054 10736 11584 854 14351 7391 4485
internal_count=148106 74748 46293 9278 73358 37015 25431 58627 28455 13174 17762 49322 14731 2128 6144 1804 11618 7150 41931 1414 8538 9704 31195 1054 10736 11584 854 14351 7391 4485
cat_boundaries=0 2 4 6 8 10 13 15 18 21 23 26 28
cat_threshold=570434566 3760198272 8388624 84410688 4460800 88737088 578822290 2972729344 1028 1073746432 134287360 142606352 1 157749248 201855296 474288384 146818048 2 1207959552 713084928 3 16842832 80218432 201523204 1207961604 2 136331840 1216368644
is_linear=0
shrinkage=0.05


Tree=30
num_leaves=31
num_cat=14
split_feature=0 0 13 0 0 0 0 13 13 4 4 13 13 13 13 0 3 0 13 4 13 13 13 10 13 13 3 13 4 3
split_gain=23211.5 7776.26 6475.47 2893.55 1539.18 1262.45 784.599 654.584 592.356 496.577 366.361 352.958 330.384 270.497 254.977 224.925 182.456 180.238 177.443 132.117 130.682 122.688 121.528 115.056 111.73 110.8 104.408 104.014 103.859 111.025
threshold=22.500000000000004 7.5000000000000009 0 14.000000000000002 72.500000000000014 17.500000000000004 37.500000000000007 1 2 18.500000000000004 19.500000000000004 3 4 5 6 14.000000000000002 17.500000000000004 17.500000000000004 7 18.500000000000004 8 9 10 10.500000000000002 11 12 17.500000000000004 13 19.500000000000004 17.500000000000004
decision_type=2 2 9 2 2 2 2 9 9 2 2 9 9 9 9 2 2 2 9 2 9 9 9 2 9 9 2 9 2 2
left_child=1 8 3 26 6 7 11 -4 -1 14 22 24 -5 15 16 25 -9 -14 19 -8 -7 -6 -10 -13 -2 -11 -3 -21 -27 -30
right_child=4 2 5 12 21 20 18 9 10 13 -12 23 17 -15 -16 -17 -18 -19 -20 27 -22 -23 -24 -25 -26 28 -28 -29 29 -31
leaf_value=-0.16097907295720315 -0.0048397000615507226 0.0048760348650623625 -0.045270992682576866 0.11097090433607289 1.2816969657301245 0 0.30933462080684965 -0.053406977087407451 -0.16097907295720315 -0.11166906769173357 -0.16429191326685652 0.077949503928626387 -0.022284286396285859 -0.053869028359275629 0.039764203142160427 -0.046134413210694003 -0.049673495246593105 0 0.22972517564126207 0.48584953244486329 0 0.82948065154732298 -0.14192174463422777 0.070581512237533242 0.060789609002581818 -0.093189747578755006 -0.050947405794261429 0.203084251442397 0.010713224784347553 -0.06522754040605748
leaf_weight=19463 3182 6792 7669 526 5578 4452 19039 6983 4410 278 3244 9300 1021 4269 2098 977 2662 393 11311 620 7229 1871 1338 8848 10149 156 62 3460 598 128
leaf_count=19463 3182 6792 7669 526 5578 4452 19039 6983 4410 278 3244 9300 1021 4269 2098 977 2662 393 11311 620 7229 1871 1338 8848 10149 156 62 3460 598 128
internal_value=-7.56215e-05 -0.0196848 -0.00704102 0.0315538 0.0199051 -0.0160961 0.0174703 -0.0222713 -0.0402548 -0.0170632 -0.0295046 0.011765 -0.0223196 -0.0282704 -0.010964 -0.0135305 -0.0143915 -0.0347612 0.0226866 0.0252129 -0.00246126 0.0414485 -0.0219555 0.0163014 0.00557305 0.0012931 0.0468486 0.0170588 0.00997758 0.0180441
internal_weight=148106 74748 46293 8794 73358 37499 65909 25818 28455 18149 8992 31479 1940 6406 11743 2137 9645 1414 34430 23119 11681 7449 5748 18148 13331 1160 6854 4080 882 726
internal_count=148106 74748 46293 8794 73358 37499 65909 25818 28455 18149 8992 31479 1940 6406 11743 2137 9645 1414 34430 23119 11681 7449 5748 18148 13331 1160 6854 4080 882 726
cat_boundaries=0 2 4 6 9 11 14 17 20 22 24 26 28 30 32
cat_threshold=570434566 3760194176 8388624 84410688 578826898 3039838276 82055424 1170888000 2 1028 1073742336 1208025600 142770192 1 407179520 146818052 2 471879168 1082479122 1 16842832 80222528 0 332288 157499392 134746368 0 71975168 1073742336 163840 69206016 65536
is_linear=0
shrinkage=0.05


Tree=31
num_leaves=31
num_cat=12
split_feature=0 13 0 13 0 0 13 13 0 13 0 4 13 13 3 4 13 0 13 3 13 4 10 6 0 4 13 10 4 13
split_gain=22409.3 8875.13 4728.94 2465.42 937.166 754.279 675.365 591.962 400.988 1046.04 746.526 366.361 328.393 318.78 264.329 232.158 364.151 447.913 206.65 193.931 150.996 150.728 137.724 131.844 130.416 123.344 121.528 111.575 103.323 98.4966
threshold=7.5000000000000009 0 17.500000000000004 1 37.500000000000007 27.500000000000004 2 3 14.000000000000002 4 17.500000000000004 19.500000000000004 5 6 17.500000000000004 18.500000000000004 7 14.000000000000002 8 22.500000000000004 9 18.500000000000004 11.500000000000002 5.5000000000000009 22.500000000000004 18.500000000000004 10 10.500000000000002 17.500000000000004 11
decision_type=2 9 2 9 2 2 9 9 2 9 2 2 9 9 2 2 9 2 9 2 9 2 2 2 2 2 9 2 2 9
left_child=7 3 6 -2 8 18 -3 29 9 14 12 26 -10 -7 -5 19 17 -17 -4 20 23 -14 25 -8 -12 -6 -9 -20 -11 -1
right_child=1 2 5 4 22 13 15 11 10 28 24 -13 21 -15 -16 16 -18 -19 27 -21 -22 -23 -24 -25 -26 -27 -28 -29 -30 -31
leaf_value=-0.15293011930934297 0.33686657336680242 -0.043007443048448037 0 0.0046322331218092037 0.34764415314195674 0.0080610172217166817 0.0046322331218092037 -0.15293011930934297 -0.021170072076471591 0.033311108849547556 0 -0.1560773176035137 0.048254707379239647 0.10823002980197938 -0.053247530325136433 0.0046322331218092037 -0.051175576941311807 -0.021170072076471591 0 0.024416712981306432 -0.050989342131363462 -0.043827692550159281 0.22396505927955668 -0.021170072076471591 0.0926102950233883 0.28555910825925573 -0.13482565740251637 0 -0.0724359867278217 -0.15293011930934297
leaf_weight=7261 9955 7669 4524 2737 15854 4429 591 4410 793 636 2596 3244 1107 12492 90 1093 3348 666 7170 1556 7932 714 10886 399 12114 3515 1338 6155 630 12202
leaf_count=7261 9955 7669 4524 2737 15854 4429 591 4410 793 636 2596 3244 1107 12492 90 1093 3348 666 7170 1556 7932 714 10886 399 12114 3515 1338 6155 630 12202
internal_value=-0.00036933 0.00911526 -0.00491953 0.0223267 0.0179289 0.00675295 -0.0223746 -0.0402513 0.00992903 0.0240044 0.00660356 -0.0295046 -0.0180184 0.0143165 0.0408354 -0.016361 -0.0251126 -0.00652911 -0.00041739 -0.0121111 -0.0149518 -0.00614418 0.0235978 0.0035 0.0109789 0.0261268 -0.0219555 0.00271841 -0.0137931 -0.0451779
internal_weight=148106 119651 58024 61627 51672 34770 23254 28455 21417 4093 17324 8992 2614 16921 2827 15585 5107 1759 17849 10478 8922 1821 30255 990 14710 19369 5748 13325 1266 19463
internal_count=148106 119651 58024 61627 51672 34770 23254 28455 21417 4093 17324 8992 2614 16921 2827 15585 5107 1759 17849 10478 8922 1821 30255 990 14710 19369 5748 13325 1266 19463
cat_boundaries=0 3 5 7 9 11 13 15 17 19 21 23 25
cat_threshold=1713524230 3794129554 1 536870912 2424960 8388624 84410688 578826898 3039838276 33554434 2684358672 33554432 2684354560 12849408 4851008 134295552 142606336 16777216 88604992 16785472 2052 157499392 134746368 33559040 622870596
is_linear=0
shrinkage=0.05


Tree=32
num_leaves=31
num_cat=13
split_feature=0 13 0 0 13 0 0 13 3 4 13 13 13 13 4 3 13 0 4 13 4 13 13 4 0 13 0 13 0 4
split_gain=28341.4 3115.05 2812.66 1777.46 1925.49 1526.1 1161.81 473.548 302.178 289.003 279.297 272.664 271.365 261.943 241.008 194.28 191.525 239.264 319.383 190.292 176.537 167.47 163.847 156.855 142.588 449.721 514.28 133.776 118.225 124.072
threshold=17.500000000000004 0 27.500000000000004 7.5000000000000009 1 14.000000000000002 72.500000000000014 2 22.500000000000004 12.500000000000002 3 4 5 6 17.500000000000004 17.500000000000004 7 14.000000000000002 19.500000000000004 8 19.500000000000004 9 10 21.500000000000004 7.5000000000000009 11 14.000000000000002 12 22.500000000000004 18.500000000000004
decision_type=2 9 2 2 9 2 2 9 2 2 9 9 9 9 2 2 9 2 2 9 2 9 9 2 2 9 2 9 2 2
left_child=1 13 12 11 5 15 7 -4 9 22 -7 -3 -2 24 19 -5 17 18 -11 -9 -10 -16 -6 -13 -1 26 -26 -8 29 -14
right_child=2 3 6 4 8 10 27 14 20 16 -12 23 28 -15 21 -17 -18 -19 -20 -21 -22 -23 -24 -25 25 -27 -28 -29 -30 -31
leaf_value=-0.14528361334387579 0 -0.14528361334387579 0.0076579663606310081 0.0044006214657187574 -0.048696539118460259 -0.020111568472647969 1.450768788775278 0.148163048974671 0.024537344905547001 -0.088446262376845303 0.040789455320157764 -0.14528361334387579 0 -0.14528361334387579 0.26114736424644286 -0.045737658988291588 -0.047866253032476359 -0.047744545655624832 0.0099459518890397738 0.2415177779697345 -0.051968577809419797 0.12245617572199628 -0.053653632843763434 -0.21991834390107226 0.0044006214657187574 -0.044799732608959177 -0.020111568472647969 0.74932435685276677 0.027992077381625971 0
leaf_weight=6490 8621 9891 4428 2767 3051 793 4544 13456 2193 941 487 3864 5761 11653 2748 120 8747 1665 803 23925 852 10451 2476 877 363 4071 228 2905 7104 1831
leaf_count=6490 8621 9891 4428 2767 3051 793 4544 13456 2193 941 487 3864 5761 11653 2748 120 8747 1665 803 23925 852 10451 2476 877 363 4071 228 2905 7104 1831
internal_value=-0.00320716 -0.0288648 0.0154382 -0.0203569 -0.0122334 0.0187575 0.0209704 0.018461 -0.0184637 -0.0209778 -0.0266406 -0.0341922 0.00061972 -0.0435832 0.019832 0.0389505 -0.0252879 -0.0150775 -0.0021789 0.0218868 -0.00392447 0.0140276 -0.0114981 -0.0241318 -0.0379323 -0.0312956 0.00956739 0.0395019 0.00474976 0.00041491
internal_weight=148106 62332 85774 39527 24895 4167 62457 55008 20728 17683 1280 14632 23317 22805 50580 2887 12156 3409 1744 37381 3045 13199 5527 4741 11152 4662 591 7449 14696 7592
internal_count=148106 62332 85774 39527 24895 4167 62457 55008 20728 17683 1280 14632 23317 22805 50580 2887 12156 3409 1744 37381 3045 13199 5527 4741 11152 4662 591 7449 14696 7592
cat_boundaries=0 2 4 6 8 10 12 14 17 20 22 25 26 28
cat_threshold=545267858 338706624 102761476 3758100480 12849408 4851008 33554432 2684354560 188830208 2835353622 18882624 2907199808 8208 67125312 138612736 8388624 1 1159921668 33556484 2 86114320 328192 327680 13108480 2 8192 0 331776
is_linear=0
shrinkage=0.05


Tree=33
num_leaves=31
num_cat=11
split_feature=0 13 0 0 13 0 0 0 13 3 13 4 13 13 13 3 13 0 4 13 4 4 13 3 0 13 0 4 4 4
split_gain=27328.6 3133.46 2673.14 1751.2 1924.49 1526.1 871.207 608.716 461.486 300.416 293.141 287.969 279.297 264.471 261.943 194.28 190.583 239.264 319.383 180.092 175.937 165.64 163.847 161.492 142.588 449.721 514.28 126.292 121.486 111.129
