tree
version=v4
num_class=1
num_tree_per_iteration=1
label_index=0
max_feature_idx=14
objective=regression_l1
feature_names=wait_minutes wait_lag_1 wait_lag_2 wait_lag_3 hour_of_day day_of_week month is_holiday is_holiday_weekend days_until_next_holiday days_since_last_holiday minutes_since_last_status_change closure_duration_minutes ride_id_cat status_cat
feature_infos=[0:300] [0:300] [0:300] [0:300] [8:23] [0:6] [5:6] [0:1] [0:1] [0:24] [0:35] [19.970549999999999:3789.9359666666664] [0:670] -1:28:58:55:47:27:8:56:38:54:48:61:33:16:41:59:65:2:63:18:64:12:51:22:40:24:36:14:13:50:26:44:6:49:42:10:46:11:62:43:9:23:17:21:34:57:30:52:39:29:25:1:7:4:53:60:35 none
tree_sizes=2439 2859 2934 2957 3005 3006 3051 3071 3056 3048 3041 3080 3039 3054 3036 3037 3040 3063 3060 3077 3077 3050 3052 3058 3063 3091 3087 3042 3038 3079 3046 3039 3060 3055 3068 3068 3060 3054 3043 3060 3065 3063 3047 3064 3088 3044 3050 3071 3044 3062 3049 3048 3042 3067 3044 3074 3063 3076 3087 3066 3059 3048 3070 3055 3087 3044 3079 3063 3052 3045 3055 3072 3058 3097 3043 3066 3051 3050 3080 3075 3054 3075 3060 3048 3043 3102 3074 3044 3086 3054 3048 2997 3001 3018 3022 3035 3005 3012 3021 3037 3018 3030 3039 3040 3046 3033 3042 3040 3072 3022 3054 3036 3027 3016 3083 3038 3021 3031 3046 3032 3038 3048 3053 3057 3042 3019 3044 3096 3006 2989 3005 3019 2990 3003 2982 3011 2999 3004 3015 3017 2989 2947 2998 3018 3027 3036 3027 3010 3051 3038 3030 2991 3025 2987 3044 2971 2940 2937 2942 2944 2970 2976 2972 2972 2970 2972 2942 2945 2941 2943 2932 2942 2958 2949 2971 2945 2931 2966 2940 2941 2975 3046 2996 3010 2993 3025 2995 3009 2993 3001 2989 2999 2988 2997 2980 2972 2957 2973 2992 2994

Tree=0
num_leaves=31
num_cat=10
split_feature=0 0 0 13 13 13 13 0 4 4 4 13 4 3 13 4 3 13 0 3 3 3 13 4 13 3 3 13 3 3
split_gain=83001.6 6372.33 1913.7 1823.83 826.247 681.514 526.392 445.544 383.238 358.614 350.358 333.95 274.004 269.98 177.919 177.263 158.374 140.424 131.359 126.017 116.182 97.3765 95.897 94.7025 90.9964 87.1162 86.5985 86.0923 84.709 82.6211
threshold=17.500000000000004 22.500000000000004 11.500000000000002 0 1 2 3 32.500000000000007 18.500000000000004 19.500000000000004 18.500000000000004 4 19.500000000000004 17.500000000000004 5 19.500000000000004 17.500000000000004 6 7.5000000000000009 27.500000000000004 22.500000000000004 17.500000000000004 7 19.500000000000004 8 27.500000000000004 22.500000000000004 9 22.500000000000004 32.500000000000007
decision_type=2 2 2 9 9 9 9 2 2 2 2 9 2 2 9 2 2 9 2 2 2 2 9 2 9 2 2 9 2 2
left_child=2 5 6 11 13 28 12 9 19 -5 17 15 18 -4 -11 20 -8 26 -1 24 -3 -13 23 -9 -7 -15 -6 -20 -2 -10
right_child=1 3 4 7 10 8 16 22 29 14 -12 21 -14 25 -16 -17 -18 -19 27 -21 -22 -23 -24 -25 -26 -27 -28 -29 -30 -31
leaf_value=19.5 20 20.25 19.75 20.5 19.75 20 19.25 20.75 20 20 19.75 20 19.5 19.75 20.25 20 19.5 20.25 19.75 20.5 20.5 20.25 21.5 20.25 20.25 20 20.25 20 20 20
leaf_weight=1638 4212 1478 7295 12740 1442 1772 39304 6710 1592 1140 1409 1288 2401 1801 1083 305 1781 974 750 1442 4372 3144 39648 230 2116 364 623 696 691 365
leaf_count=1638 4212 1478 7295 12740 1442 1772 39304 6710 1592 1140 1409 1288 2401 1801 1083 305 1781 974 750 1442 4372 3144 39648 230 2116 364 623 696 691 365
internal_value=20.0042 20.0363 19.9595 20.0419 19.9758 20.0028 19.9546 20.0452 20.0125 20.0377 19.9936 20.0227 19.9694 19.9674 20.0192 20.0302 19.9527 20.0032 19.9792 20.0195 20.0322 20.0121 20.0476 20.0417 20.0148 19.9829 19.9958 19.9902 19.9884 19.9936
internal_weight=144806 84328 60478 72138 13908 12190 46570 61551 7287 14963 4448 10587 5485 9460 2223 6155 41085 3039 3084 5330 5850 4432 46588 6940 3888 2165 2065 1446 4903 1957
internal_count=144806 84328 60478 72138 13908 12190 46570 61551 7287 14963 4448 10587 5485 9460 2223 6155 41085 3039 3084 5330 5850 4432 46588 6940 3888 2165 2065 1446 4903 1957
cat_boundaries=0 2 5 7 10 12 15 17 19 21 23
cat_threshold=440733952 751306056 180690960 2781349200 2 172240896 2756183360 1428309828 1107466254 1 402718720 142606344 1090536000 16832532 2 337776896 134234116 16908368 16828420 268501248 142753796 268566784 4
is_linear=0
shrinkage=1


Tree=1
num_leaves=31
num_cat=9
split_feature=0 0 13 13 13 13 4 3 0 4 3 13 4 4 13 13 0 3 3 3 4 10 3 13 6 13 3 11 3 4
split_gain=74532.6 7099.45 2614.04 1136.49 764.078 700.684 688.865 526.949 402.757 337.072 314.818 298.052 253.929 249.881 224.14 185.581 183.532 172.334 155.172 127.936 122.938 99.0938 98.1638 97.4274 96.1593 90.422 89.3282 77.4787 73.7823 69.8139
threshold=22.500000000000004 11.500000000000002 0 1 2 3 19.500000000000004 22.500000000000004 32.500000000000007 18.500000000000004 22.500000000000004 4 19.500000000000004 19.500000000000004 5 6 17.500000000000004 14.000000000000002 37.500000000000007 17.500000000000004 12.500000000000002 10.500000000000002 32.500000000000007 7 5.5000000000000009 8 27.500000000000004 719.96881666666684 32.500000000000007 19.500000000000004
decision_type=2 2 9 9 9 9 2 2 2 2 2 9 2 2 9 9 2 2 2 2 2 2 2 9 2 9 2 2 2 2
left_child=1 5 8 16 23 17 7 11 13 14 -6 21 28 26 19 -8 -3 -1 -9 -7 -13 -5 -17 -4 -25 -15 -2 -23 -12 -10
right_child=2 3 4 6 10 9 15 18 29 -11 12 20 -14 25 -16 22 -18 -19 -20 -21 -22 27 -24 24 -26 -27 -28 -29 -30 -31
leaf_value=-0.71250000000000002 0.47500000000000003 -0.23750000000000002 -0.012500000000000001 0 0.23750000000000002 -0.46250000000000002 -0.23750000000000002 0.012500000000000001 1.425 -0.47500000000000003 0.47500000000000003 0.23750000000000002 0 0.23750000000000002 -0.22500000000000001 -0.23750000000000002 0 -0.46250000000000002 0.72500000000000009 -0.22500000000000001 0 -0.23750000000000002 0 0 0.23750000000000002 0.48750000000000004 0.72500000000000009 0.012500000000000001 0.71250000000000002 1.175
leaf_weight=34452 2973 3631 640 3874 3442 3368 1890 3716 37915 3870 6026 2387 726 941 1641 1740 1467 2758 856 481 1907 4125 345 2329 1400 743 5290 160 5178 4535
leaf_count=34452 2973 3631 640 3874 3442 3368 1890 3716 37915 3870 6026 2387 726 941 1641 1740 1467 2758 856 481 1907 4125 345 2329 1400 743 5290 160 5178 4535
internal_value=0.00363693 -0.0321035 0.03964 -0.0112269 0.0240899 -0.0438029 -0.0060733 -0.00170044 0.0454853 -0.0314301 0.0293395 -0.00703043 0.033202 0.0364381 -0.0234973 -0.0248176 -0.0323806 -0.0468941 0.0128171 -0.0300726 0.00363615 -0.0126331 -0.0142959 0.00559488 0.00869216 0.0188836 0.0400157 -0.017888 0.0350589 0.047616
internal_weight=144806 72668 72138 26098 19741 46570 21000 17025 52397 9360 15372 12453 11930 9947 5490 3975 5098 37210 4572 3849 4294 8159 2085 4369 3729 1684 8263 4285 11204 42450
internal_count=144806 72668 72138 26098 19741 46570 21000 17025 52397 9360 15372 12453 11930 9947 5490 3975 5098 37210 4572 3849 4294 8159 2085 4369 3729 1684 8263 4285 11204 42450
cat_boundaries=0 3 5 7 9 11 13 15 17 20
cat_threshold=1151487492 1124553234 3 41951232 2751988032 38015232 71828800 717238418 3166192080 222629904 12585984 2556160 4199424 423956480 197133332 0 4718848 1073758720 16797714 3
is_linear=0
shrinkage=0.05


Tree=2
num_leaves=31
num_cat=10
split_feature=0 0 13 13 13 13 0 4 0 4 4 4 3 3 13 13 0 13 13 13 3 4 3 0 3 3 4 13 6 3
split_gain=73282.6 7533.7 2605.28 1256.46 788.142 756.778 547.397 506.235 444.35 379.24 337.209 334.713 301.79 296.7 266.668 258.754 182.328 159.438 141.975 130.258 128.016 111.345 94.895 93.1201 90.7022 89.3282 80.7554 98.5447 80.1446 74.3313
threshold=22.500000000000004 11.500000000000002 0 1 2 3 17.500000000000004 19.500000000000004 32.500000000000007 19.500000000000004 19.500000000000004 19.500000000000004 17.500000000000004 22.500000000000004 4 5 17.500000000000004 6 7 8 17.500000000000004 18.500000000000004 37.500000000000007 7.5000000000000009 27.500000000000004 27.500000000000004 11.500000000000002 9 5.5000000000000009 32.500000000000007
decision_type=2 2 9 9 9 9 2 2 2 2 2 2 2 2 9 9 2 9 9 9 2 2 2 2 2 2 2 9 2 2
left_child=1 4 8 16 9 28 7 14 11 18 13 25 19 -7 20 -8 -3 -13 -1 -6 -5 -14 -17 -21 -9 -2 27 -25 -4 -15
right_child=2 3 5 6 12 10 15 24 -10 -11 -12 17 21 29 -16 22 -18 -19 -20 23 -22 -23 -24 26 -26 -27 -28 -29 -30 -31
leaf_value=-0.22624999999999995 0.45124999999999993 -0.22562499999999996 0 -0.22562499999999996 -0.67687500000000012 0.22562499999999996 0 -0.22562499999999996 1.35375 -0.45124999999999993 0 -0.011875000000000037 -0.20187500000000008 0.45124999999999993 0.012500000000000001 0.011875000000000037 0 0.22562499999999996 0.011250000000000072 -0.67687500000000012 -0.00062499999999996456 -0.45187500000000008 0.68874999999999997 0.27312499999999995 -0.22562499999999996 0.68874999999999997 -0.42687500000000012 -0.42687500000000012 0.22562499999999996 0.67687500000000012
leaf_weight=2394 2973 3631 2658 3571 23246 3145 6731 2013 42450 2129 1029 652 1038 6033 2606 3453 1467 1032 712 9562 1773 771 539 103 314 5290 5187 1428 1698 5178
leaf_count=2394 2973 3631 2658 3571 23246 3145 6731 2013 42450 2129 1029 652 1038 6033 2606 3453 1467 1032 712 9562 1773 771 539 103 314 5290 5187 1428 1698 5178
internal_value=0.00384307 -0.0315964 0.039543 -0.0100908 -0.0436483 0.024019 -0.00467396 -0.0129221 0.0453785 -0.0251954 0.0292335 0.0358751 -0.0459681 0.0312343 -0.00691824 0.00322671 -0.0323316 0.0155582 -0.0141017 -0.0468932 -0.0132985 -0.0260088 0.0132934 -0.0432167 -0.0334336 0.0400157 -0.0387318 -0.0286414 0.00557719 0.0350415
internal_weight=144806 72668 72138 26098 46570 19741 21000 10277 52397 5235 15385 9947 41335 14356 7950 10723 5098 1684 3106 39526 5344 1809 3992 16280 2327 8263 6718 1531 4356 11211
internal_count=144806 72668 72138 26098 46570 19741 21000 10277 52397 5235 15385 9947 41335 14356 7950 10723 5098 1684 3106 39526 5344 1809 3992 16280 2327 8263 6718 1531 4356 11211
cat_boundaries=0 3 5 8 10 12 14 17 19 21 23
cat_threshold=1151487492 1124553234 3 41951232 2751988032 1428309316 1107463182 1 4460800 71828800 407179280 146818048 423890960 163585028 1073758720 16797712 2 287441152 33796 578822290 3023044736 512 20480
is_linear=0
shrinkage=0.05


Tree=3
num_leaves=31
num_cat=11
split_feature=0 0 13 13 13 13 2 0 4 4 4 4 3 3 3 13 0 13 13 13 13 0 4 0 3 13 6 4 4 13
split_gain=73783.3 7186.92 2641.42 1169.39 800.192 788.328 533.457 444.35 379.24 365.707 337.209 334.713 301.863 296.7 223.356 198.683 182.328 159.438 141.975 141.947 129.964 111.456 111.345 92.7595 89.3282 88.0637 83.9807 80.1645 79.9502 94.8348
threshold=22.500000000000004 11.500000000000002 0 1 2 3 17.500000000000004 32.500000000000007 19.500000000000004 17.500000000000004 19.500000000000004 19.500000000000004 17.500000000000004 22.500000000000004 37.500000000000007 4 17.500000000000004 5 6 7 8 17.500000000000004 18.500000000000004 7.5000000000000009 27.500000000000004 9 5.5000000000000009 18.500000000000004 11.500000000000002 10
decision_type=2 2 9 9 9 9 2 2 2 2 2 2 2 2 2 9 2 9 9 9 9 2 2 2 2 9 2 2 2 9
left_child=1 5 7 16 25 8 9 11 18 15 13 24 20 -6 19 -5 -3 -13 -1 -8 -7 -11 -14 -22 -2 26 -4 -21 29 -25
right_child=2 3 4 6 10 12 14 -9 -10 21 -12 17 22 -15 -16 -17 -18 -19 -20 27 23 -23 -24 28 -26 -27 -28 -29 -30 -31
leaf_value=-0.21493749999999992 0.42868749999999989 -0.21434374999999994 0.23750000000000002 -0.21434374999999994 0.21434374999999994 -0.64303125000000017 0.22378125000000004 1.2860624999999999 -0.42868749999999989 -0.21434374999999994 0 -0.011281250000000043 -0.19178125000000001 0.42868749999999989 0.46374999999999994 0 0 0.21434374999999994 0.010687500000000051 0 -0.64303125000000017 -0.0012187499999999575 -0.42928125000000006 0.25946874999999991 0.65431250000000007 -0.011875000000000037 0.22684374999999993 -0.21434374999999994 -0.40553125000000012 -0.40553125000000012
leaf_weight=2394 2973 3631 1860 3524 3145 23246 1495 42450 2129 2491 1029 652 1038 11211 1042 3106 1467 1032 712 6755 9562 597 771 103 5290 1332 1164 1990 5187 1428
leaf_count=2394 2973 3631 1860 3524 3145 23246 1495 42450 2129 2491 1029 652 1038 11211 1042 3106 1467 1032 712 6755 9562 597 771 103 5290 1332 1164 1990 5187 1428
internal_value=0.00368113 -0.0318792 0.0395028 -0.0108744 0.0238722 -0.0436504 -0.00564731 0.0453785 -0.0251954 -0.0142365 0.0292335 0.0358751 -0.0459705 0.0312343 0.00174614 -0.00761689 -0.0323316 0.0155582 -0.0141017 -0.000498047 -0.0468957 -0.0284488 -0.0260088 -0.0432228 0.0400157 0.00491296 0.00962426 -0.00293547 -0.0387467 -0.0287067
internal_weight=144806 72668 72138 26098 19741 46570 21000 52397 5235 9718 15385 9947 41335 14356 11282 6630 5098 1684 3106 10240 39526 3088 1809 16280 8263 4356 3024 8745 6718 1531
internal_count=144806 72668 72138 26098 19741 46570 21000 52397 5235 9718 15385 9947 41335 14356 11282 6630 5098 1684 3106 10240 39526 3088 1809 16280 8263 4356 3024 8745 6718 1531
cat_boundaries=0 3 5 7 10 12 15 17 20 22 24 26
cat_threshold=1151487492 1124553234 3 41951232 2751988032 4460800 71828800 1428309316 1107463182 1 327952 146803712 1073758720 16797712 2 287441152 33796 1143080452 1107427330 3 578822290 3023044736 266496 1024 512 20480
is_linear=0
shrinkage=0.05


Tree=4
num_leaves=31
num_cat=12
split_feature=0 3 13 13 4 0 3 0 13 4 13 4 0 3 13 13 13 13 3 0 3 3 4 13 3 13 13 13 0 0
split_gain=71203.8 6059.28 2433.12 1254.68 1157.46 830.675 754.51 736.615 530.358 524.291 335.236 305.388 285.129 252.218 186.931 165.996 164.318 151.559 148.453 136.073 119.783 110.836 152.173 106.573 89.2171 79.0992 78.8284 73.9259 72.6646 69.7725
threshold=17.500000000000004 27.500000000000004 0 1 19.500000000000004 37.500000000000007 17.500000000000004 22.500000000000004 2 19.500000000000004 3 18.500000000000004 14.000000000000002 14.000000000000002 4 5 6 7 27.500000000000004 22.500000000000004 32.500000000000007 47.500000000000007 19.500000000000004 8 17.500000000000004 9 10 11 22.500000000000004 14.000000000000002
decision_type=2 2 9 9 2 2 2 2 9 2 9 2 2 2 9 9 9 9 2 2 2 2 2 9 2 9 9 9 2 2
left_child=2 3 13 14 6 9 8 -5 12 10 28 17 -4 29 -2 -11 -13 24 26 -12 -8 22 -7 -10 -9 -21 -6 -24 -3 -1
right_child=1 5 4 7 18 21 20 11 23 15 19 16 -14 -15 -16 -17 -18 -19 -20 25 -22 -23 27 -25 -26 -27 -28 -29 -30 -31
leaf_value=-0.61087968750000021 0 0.47437500000000005 -0.3977546875000002 9.2187499999951683e-05 -0.20362656249999989 0.97175937499999998 -0.013124999999999965 0.19112656249999987 -0.21669062499999986 0.44112656249999987 0.24937500000000004 0.23425937499999991 -0.20362656249999989 -0.20362656249999989 -0.011281250000000043 9.2187499999951683e-05 0.15725312499999991 0.47175937499999993 -0.21612656249999987 0.22562499999999996 0.29580937500000015 1.721759375 0.23425937499999991 0.010153125000000075 0.20362656249999989 0.40725312499999994 -0.45362656249999989 0.73425937499999994 0.50925937499999996 -0.20362656249999989
leaf_weight=30448 6043 701 5643 5078 460 16014 3302 1506 2743 1128 1188 552 3226 4685 2555 1481 1610 4501 540 550 580 20928 342 877 4352 5230 6750 940 9629 1224
leaf_count=30448 6043 701 5643 5078 460 16014 3302 1506 2743 1128 1188 552 3226 4685 2555 1481 1610 4501 540 550 580 20928 342 877 4352 5230 6750 940 9629 1224
internal_value=0.00321154 0.0329037 -0.0381899 0.0129385 -0.0258381 0.0419011 -0.0183129 0.0205804 -0.0242974 0.0336188 0.0367701 0.0271065 -0.0308706 -0.0463648 -0.00272421 0.0127252 0.0100139 0.0306738 -0.0417677 0.0281241 0.000940237 0.0462144 0.0432528 -0.0080854 0.0251875 0.0313322 -0.0436616 0.0266771 0.0425338 -0.0479793
internal_weight=144806 84328 60478 26197 24121 58131 16371 17599 12489 19907 17298 12521 8869 36357 8598 2609 2162 10359 7750 6968 3882 38224 17296 3620 5858 5780 7210 1282 10330 31672
internal_count=144806 84328 60478 26197 24121 58131 16371 17599 12489 19907 17298 12521 8869 36357 8598 2609 2162 10359 7750 6968 3882 38224 17296 3620 5858 5780 7210 1282 10330 31672
cat_boundaries=0 2 4 6 9 11 14 16 18 21 23 26 29
cat_threshold=578826386 3023585744 38023424 2764571968 138870784 146805760 1142967812 1124272662 3 38015232 545260544 67243012 33686018 1 67240980 1073875456 495124560 134252548 354435328 32772 2 4456704 541589760 1028 163848 1 16704 1073778706 2
is_linear=0
shrinkage=0.05


Tree=5
num_leaves=31
num_cat=10
split_feature=0 3 0 13 0 13 13 0 4 4 0 4 3 4 13 13 3 13 13 13 13 0 0 4 4 13 0 3 3 4
split_gain=70466.4 5863.34 2559.37 1026.04 898.96 785.378 717.584 606.891 566.292 531.868 379.068 377.46 301.863 252.254 245.741 207.116 173.662 165.009 142.134 138.849 129.964 126.208 122.493 115.35 111.345 106.472 92.7595 91.9406 89.7052 79.9502
threshold=17.500000000000004 27.500000000000004 11.500000000000002 0 37.500000000000007 1 2 22.500000000000004 19.500000000000004 19.500000000000004 22.500000000000004 19.500000000000004 17.500000000000004 18.500000000000004 3 4 17.500000000000004 5 6 7 8 47.500000000000007 32.500000000000007 19.500000000000004 18.500000000000004 9 7.5000000000000009 37.500000000000007 27.500000000000004 11.500000000000002
decision_type=2 2 2 9 2 9 9 2 2 2 2 2 2 2 9 9 2 9 9 9 9 2 2 2 2 9 2 2 2 2
left_child=2 3 5 22 8 11 -4 -5 10 14 27 19 20 25 16 -12 -8 -10 -15 -1 -7 23 -2 -6 -14 -9 -22 -3 -11 -28
right_child=1 4 6 7 21 12 9 13 17 28 15 -13 24 18 -16 -17 -18 -19 -20 -21 26 -23 -24 -25 -26 -27 29 -29 -30 -31
leaf_value=-0.20353437499999993 0 0.21190625000000002 -0.19344523437499994 0.010087578125000008 0.88567140624999985 -0.58033570312500016 -0.204162421875 0.19817140624999985 0.41907023437499991 -0.18094523437499996 0.48379640624999998 -0.38457179687499998 -0.18153593750000019 0.22254640624999988 0.022084531250000164 0.38689046874999988 6.2499999999943162e-05 0.021993828125000194 0.14939046874999989 0.0096454687500001426 -0.58033570312500016 1.6356714062499997 0.39707179687499999 0.64817140624999992 -0.39763585937500018 0.48567140624999983 -0.35471070312500025 0.61865624999999991 -0.19282023437499982 -0.36257335937500024
leaf_weight=2394 10598 1324 3631 3779 14112 23246 3571 6124 766 2013 9629 2129 1038 552 2606 5780 1773 1843 1314 712 9562 22829 1135 1283 771 2695 1531 565 314 5187
leaf_count=2394 10598 1324 3631 3779 14112 23246 3571 6124 766 2013 9629 2129 1038 552 2606 5780 1773 1843 1314 712 9562 22829 1135 1283 771 2695 1531 565 314 5187
internal_value=0.00315284 0.0326908 -0.0380337 0.0130511 0.0415415 -0.0436547 -0.019212 0.0219566 0.0329256 -0.0124186 0.0362007 -0.0252336 -0.0459705 0.0280627 -0.00627673 0.0387923 -0.0124019 0.0112112 0.0113612 -0.0141661 -0.0468957 0.0460287 0.00205229 0.04253 -0.0260088 0.0315966 -0.0432228 0.0150609 -0.0334551 -0.0387467
internal_weight=144806 84328 60478 26197 58131 46570 13908 14464 19907 10277 17298 5235 41335 10685 7950 15409 5344 2609 1866 3106 39526 38224 11733 15395 1809 8819 16280 1889 2327 6718
internal_count=144806 84328 60478 26197 58131 46570 13908 14464 19907 10277 17298 5235 41335 10685 7950 15409 5344 2609 1866 3106 39526 38224 11733 15395 1809 8819 16280 1889 2327 6718
cat_boundaries=0 2 5 7 9 12 14 16 18 20 22
cat_threshold=449057024 2898789696 1428309316 1107463182 1 41951232 2751988032 407179280 146818048 1142967812 1124272662 3 134148 33686016 67240980 1073875456 287441152 33796 578822290 3023044736 86179924 16812046
is_linear=0
shrinkage=0.05


Tree=6
num_leaves=31
num_cat=12
split_feature=0 3 0 0 0 13 13 13 13 4 4 4 13 4 4 3 3 13 13 13 13 13 13 4 3 0 13 3 6 4
split_gain=70001.1 6034.82 2546.89 1158.3 916.22 785.193 733.772 713.243 568.333 523.613 377.46 317.631 356.947 313.559 307.736 301.79 238.776 196.79 162.153 141.948 138.849 130.258 122.932 111.345 93.7263 93.1201 90.5116 87.1916 80.979 80.7554
threshold=17.500000000000004 27.500000000000004 11.500000000000002 22.500000000000004 22.500000000000004 0 1 2 3 19.500000000000004 19.500000000000004 19.500000000000004 4 18.500000000000004 19.500000000000004 17.500000000000004 22.500000000000004 5 6 7 8 9 10 18.500000000000004 27.500000000000004 7.5000000000000009 11 17.500000000000004 5.5000000000000009 11.500000000000002
decision_type=2 2 2 2 2 9 9 9 9 2 2 2 9 2 2 2 2 9 9 9 9 9 9 2 2 2 9 2 2 2
left_child=2 3 5 26 -3 10 -5 -4 11 16 20 -6 -13 19 22 21 17 -9 -15 -8 -1 -7 -10 -17 -11 -23 -2 -21 -24 -27
right_child=1 4 7 6 8 15 13 9 14 24 -12 12 -14 18 -16 23 -18 -19 -20 27 -22 25 28 -25 -26 29 -28 -29 -30 -31
leaf_value=-0.1933576562499999 0.00056406249999998439 0.20131093750000009 -0.18377297265625003 0.0017828124999999418 1.0538878359374999 -0.5513189179687501 0.46138783593749988 -0.19395430078124998 0.46955219531249992 -0.17189797265625001 -0.36534320703124995 1.3163878359374999 0.31638783593749981 0.21141908593749986 -0.0011043007812501671 -0.17245914062500012 0.032801640625000066 0.0097303046874998248 0.14192094531249994 0.18416166406249987 0.0091631953125000717 -0.5513189179687501 0.18591782031249995 -0.37775406640625014 -0.18317922265624986 -0.33697516796875021 -4.6093750000864027e-06 0.19344523437499994 0.41329438281249992 -0.34444469140625034
leaf_weight=2394 4204 2362 3631 3794 37122 23246 2971 4945 11304 2013 2129 3447 1773 552 618 1038 1727 1278 1627 1822 712 9562 681 771 314 1531 5624 5603 824 5187
leaf_count=2394 4204 2362 3631 3794 37122 23246 2971 4945 11304 2013 2129 3447 1773 552 618 1038 1727 1278 1627 1822 712 9562 681 771 314 1531 5624 5603 824 5187
internal_value=0.00300506 0.0324453 -0.0380452 0.0125205 0.0414245 -0.0436526 0.0206671 -0.0192695 0.0427164 -0.0124964 -0.0252336 0.0455799 0.0340421 0.026472 0.0336273 -0.0459681 -0.00640252 -0.0109674 0.00924736 0.0301077 -0.0141661 -0.0468932 0.035315 -0.0260088 -0.0333691 -0.0432167 -0.00104803 0.0262609 0.0213531 -0.0387318
internal_weight=144806 84328 60478 26197 58131 46570 16369 13908 55769 10277 5235 42342 5220 12575 13427 41335 7950 6223 2179 10396 3106 39526 12809 1809 2327 16280 9828 7425 1505 6718
internal_count=144806 84328 60478 26197 58131 46570 16369 13908 55769 10277 5235 42342 5220 12575 13427 41335 7950 6223 2179 10396 3106 39526 12809 1809 2327 16280 9828 7425 1505 6718
cat_boundaries=0 3 5 7 10 12 14 16 19 21 23 25 28
cat_threshold=1428309316 1107463182 1 4460800 80217408 41951232 2751988032 1142967812 1107759634 3 69209092 459264 474288400 146820096 67240980 1073875456 1073759744 1107513874 3 287441152 33796 578822290 3023044736 427950144 159434756 1076061008 1182833744 1
is_linear=0
shrinkage=0.05


Tree=7
num_leaves=31
num_cat=13
split_feature=0 3 0 0 0 13 13 13 13 4 4 4 13 4 4 3 13 13 13 13 13 3 13 13 4 3 0 3 13 4
split_gain=70325.3 5832.88 2497.57 1034.47 941.791 785.193 734.545 695.472 578.557 507.617 377.46 317.631 356.947 313.559 305.877 301.79 264.149 162.153 157.805 141.948 138.849 134.24 130.258 120.916 111.345 93.7263 93.1201 87.1916 83.4797 81.9455
threshold=17.500000000000004 27.500000000000004 11.500000000000002 22.500000000000004 22.500000000000004 0 1 2 3 19.500000000000004 19.500000000000004 19.500000000000004 4 18.500000000000004 19.500000000000004 17.500000000000004 5 6 7 8 9 17.500000000000004 10 11 18.500000000000004 27.500000000000004 7.5000000000000009 17.500000000000004 12 18.500000000000004
decision_type=2 2 2 2 2 9 9 9 9 2 2 2 9 2 2 2 9 9 9 9 9 2 9 9 2 2 2 2 9 2
left_child=2 3 5 18 29 10 -5 -4 11 16 20 -6 -13 19 23 22 21 -15 -2 -8 -1 -9 -7 -10 -17 -11 -24 -21 -20 -3
right_child=1 4 7 6 8 15 13 9 14 25 -12 12 -14 17 -16 24 -18 -19 28 27 -22 -23 26 -25 -26 -27 -28 -29 -30 -31
leaf_value=-0.18368977343749987 2.3046875003984725e-07 0.36209539062499979 -0.17458432402343754 0.0016936718749999359 1.0011934441406249 -0.52375297207031257 0.43831844414062487 -0.18425658574218745 0.44607458554687496 -0.16330307402343749 -0.34707604667968756 1.2505684441406248 0.30056844414062472 0.20084813164062487 -0.0010490857421876498 -0.16383618359375005 0.030145207226562401 0.13482489804687497 -2.8203125000025864e-05 0.17495358085937485 0.0087050355468750954 -0.0015807070312499505 -0.52375297207031257 0.33946530429687488 -0.35886636308593761 -0.17402026152343739 -0.32012640957031274 0.18377297265625003 2.3046875003984725e-07 -0.011077660156250247
leaf_weight=2394 670 1674 3631 3794 37122 23246 2971 3571 11304 2013 2129 3447 1773 552 618 1038 2606 1627 2015 1822 712 1773 9562 1505 771 314 6718 5603 7143 688
leaf_count=2394 670 1674 3631 3794 37122 23246 2971 3571 11304 2013 2129 3447 1773 552 618 1038 2606 1627 2015 1822 712 1773 9562 1505 771 314 6718 5603 7143 688
internal_value=0.00304545 0.0325538 -0.0380998 0.0129652 0.0413815 -0.0436526 0.0206641 -0.0195068 0.0426913 -0.0128171 -0.0252336 0.0455799 0.0340421 0.026472 0.0335231 -0.0459681 -0.00681761 0.00924736 0.00014245 0.0301077 -0.0141661 -0.0131677 -0.0468932 0.0352057 -0.0260088 -0.0333691 -0.0432167 0.0262609 -0.00158159 0.0104572
internal_weight=144806 84328 60478 26197 58131 46570 16369 13908 55769 10277 5235 42342 5220 12575 13427 41335 7950 2179 9828 10396 3106 5344 39526 12809 1809 2327 16280 7425 9158 2362
internal_count=144806 84328 60478 26197 58131 46570 16369 13908 55769 10277 5235 42342 5220 12575 13427 41335 7950 2179 9828 10396 3106 5344 39526 12809 1809 2327 16280 7425 9158 2362
cat_boundaries=0 3 5 7 10 12 14 16 19 22 24 26 28 31
cat_threshold=1428309316 1107463182 1 4460800 80217408 41951232 2751988032 1142967812 1107759634 3 69209092 459264 407179280 146818048 67240980 1073875456 33693712 570425360 1 1073759744 1107513874 3 287441152 33796 578822290 3023044736 427950144 159434756 276825088 2281833478 2
is_linear=0
shrinkage=0.05


Tree=8
num_leaves=31
num_cat=13
split_feature=0 0 0 13 0 13 13 4 13 13 4 3 4 4 13 3 13 3 13 13 3 4 4 4 13 4 13 13 13 3
split_gain=65642.7 5384.64 2205.05 1161.29 739.792 695.472 664.419 507.617 407.814 383.177 377.46 339.884 360.982 279.762 264.149 254.184 176.578 156.315 153.91 138.849 134.24 128.969 122.123 111.345 110.747 106.389 177.23 105.723 104.172 93.7263
threshold=17.500000000000004 27.500000000000004 11.500000000000002 0 22.500000000000004 1 2 19.500000000000004 3 4 19.500000000000004 37.500000000000007 18.500000000000004 19.500000000000004 5 17.500000000000004 6 22.500000000000004 7 8 17.500000000000004 18.500000000000004 19.500000000000004 18.500000000000004 9 18.500000000000004 10 11 12 27.500000000000004
decision_type=2 2 2 9 2 9 9 2 9 9 2 2 2 2 9 2 9 2 9 9 2 2 2 2 9 2 9 9 9 2
left_child=2 4 6 11 16 -4 10 14 -6 -5 19 12 -3 17 20 18 -2 -11 -8 -1 -7 -10 -20 -17 -23 -13 -27 -18 -14 -9
right_child=1 3 5 9 8 7 15 29 21 13 -12 25 28 -15 -16 23 27 -19 22 -21 -22 24 -24 -25 -26 26 -28 -29 -30 -31
leaf_value=-0.17450528476562488 -4.3904296875396652e-06 0.48863377193359359 -0.16585510782226562 0.18297414843749993 0.1282108865234374 -0.17504375645507811 -0.49756532346679699 -0.15513792032226556 0.15217575371093731 0.38967575371093732 -0.32972224434570307 1.2011337719335937 0.28679002193359349 -0.00099663145507822293 0.028637946865234201 -0.15564437441406245 2.1894531254673666e-07 0.37060649689453112 -0.3265097301074219 0.0082697837695313581 -0.001501671679687533 0.048608356269531507 -0.49756532346679699 -0.34092304493164072 0.1496227289648436 0.45230726021484352 1.2867900219335935 0.0095549845703125427 0.19258990314453117 -0.16531924844726548
leaf_weight=2394 5607 9726 3631 2033 3132 3571 19766 2013 5796 2307 2129 27271 821 660 2606 1038 402 10709 14453 712 1773 863 5307 771 916 1692 4886 6181 1326 314
leaf_count=2394 5607 9726 3631 2033 3132 3571 19766 2013 5796 2307 2129 27271 821 660 2606 1038 402 10709 14453 712 1773 863 5307 771 916 1692 4886 6181 1326 314
internal_value=0.00277475 0.0312838 -0.0369771 0.0389974 0.0105887 -0.0195068 -0.0421945 -0.0128171 0.0201784 0.0271996 -0.0252336 0.0430355 0.035766 0.0302207 -0.00681761 -0.0443258 0.00216571 0.0318531 -0.0451753 -0.0141661 -0.0131677 0.0264403 -0.0418715 -0.0260088 0.0146993 0.0455981 0.0398905 0.00771273 0.0172101 -0.0333691
internal_weight=144806 84328 60478 61431 22897 13908 46570 10277 10707 15709 5235 45722 11873 13676 7950 41335 12190 13016 39526 3106 5344 7575 19760 1809 1779 33849 6578 6583 2147 2327
internal_count=144806 84328 60478 61431 22897 13908 46570 10277 10707 15709 5235 45722 11873 13676 7950 41335 12190 13016 39526 3106 5344 7575 19760 1809 1779 33849 6578 6583 2147 2327
cat_boundaries=0 3 5 8 10 12 14 17 19 21 24 27 29 31
cat_threshold=1151356420 1107776018 3 41951232 2751988032 1428309316 1107463182 1 4460800 214439232 4460800 4719936 407179280 146818048 432014336 2303198468 2 578822274 2955935872 287441152 33796 1493254656 16826384 3 1073758720 1107316752 2 8192 570425856 77597700 131584
is_linear=0
shrinkage=0.05


Tree=9
num_leaves=31
num_cat=12
split_feature=0 0 13 4 3 0 13 13 4 13 3 13 13 13 0 0 4 13 0 3 13 13 13 3 4 3 13 10 6 3
split_gain=63288.6 5319.94 2255.75 1264.19 1113.52 806.608 642.987 577.586 563.297 462.038 425.148 268.912 216.434 198.979 198.293 196.004 183.682 176.723 169.163 148.257 147.82 138.377 114 113.645 113.223 112.605 94.8154 84.6153 78.6665 77.3885
threshold=17.500000000000004 27.500000000000004 0 19.500000000000004 42.500000000000007 22.500000000000004 1 2 19.500000000000004 3 17.500000000000004 4 5 6 14.000000000000002 7.5000000000000009 18.500000000000004 7 52.500000000000007 27.500000000000004 8 9 10 17.500000000000004 18.500000000000004 22.500000000000004 11 16.500000000000004 5.5000000000000009 37.500000000000007
decision_type=2 2 9 2 2 2 9 9 2 9 2 9 9 9 2 2 2 9 2 2 9 9 9 2 2 2 9 2 2 2
left_child=2 5 11 6 7 12 10 28 17 -7 14 23 -2 -10 -4 -8 22 -9 24 -5 -18 27 -11 -1 -6 -19 -14 -17 -3 -28
right_child=1 4 3 19 18 9 15 8 13 16 -12 -13 26 -15 -16 21 20 25 -20 -21 -22 -23 -24 -25 -26 -27 29 -29 -30 -31
leaf_value=-0.40756235243115224 -2.6573447265576536e-05 -0.021228781640624916 -0.31018424360205082 -0.32573613212841795 0.71607708333691389 -0.017301556044921895 -0.38122673927734374 0.50170208333691402 0.29856222005566391 0.2115812342480469 -0.093036435048340138 -0.47268705729345717 2.0799804687499093e-07 -0.040994640282714913 -0.15557438113232414 0.017867131748534961 0.14214159251660147 0.37172211413085937 1.6975570267373048 -0.16955328602490224 0.023732329081054715 0.21996244424853498 0.12060209883789047 -0.15756235243115224 0.54673715892285146 0.34977199136621095 0.0091084853417969566 -0.18938836550732427 0.31334333166015615 0.54782537186523439
leaf_weight=14049 7382 1068 5643 7210 11929 1667 1180 13744 1395 3464 2295 21117 402 1200 3226 1606 836 2506 16315 540 1269 1439 3471 1191 2632 9834 3940 982 808 466
leaf_count=14049 7382 1068 5643 7210 11929 1667 1180 13744 1395 3464 2295 21117 402 1200 3226 1606 836 2506 16315 540 1269 1439 3471 1191 2632 9834 3940 982 808 466
internal_value=0.00240598 0.0303992 -0.0366265 -0.0247337 0.0380663 0.0098288 -0.0168682 0.0312993 0.0330527 0.0198422 -0.0236263 -0.0444978 0.00103363 0.0108478 -0.0286109 -0.00232892 0.0242873 0.0352745 0.0447629 -0.0413806 0.0113777 0.0029178 0.0282408 -0.0392787 0.0408454 0.0307854 0.00927771 -0.00400308 0.0042948 0.00711051
internal_weight=144806 84328 60478 24121 61431 22897 16371 30555 28679 10707 11164 36357 12190 2595 8869 5207 9040 26084 30876 7750 2105 4027 6935 15240 14561 12340 4808 2588 1876 4406
internal_count=144806 84328 60478 24121 61431 22897 16371 30555 28679 10707 11164 36357 12190 2595 8869 5207 9040 26084 30876 7750 2105 4027 6935 15240 14561 12340 4808 2588 1876 4406
cat_boundaries=0 2 4 6 8 10 13 16 19 21 24 27 29
cat_threshold=578826386 3023585744 138870784 146805760 4460800 4719936 4456448 71828800 4112 67649872 465835008 2378831108 2 67243028 1107427840 1 77614596 1107497490 3 67109972 1073875462 335544576 16809988 2 1073759812 1124255766 3 8192 570425856
is_linear=0
shrinkage=0.05


Tree=10
num_leaves=31
num_cat=15
split_feature=0 0 13 3 4 0 3 4 13 13 0 13 13 0 13 4 13 13 13 3 13 4 13 3 13 13 3 3 13 13
split_gain=61001.5 5120.23 2268.15 1309.23 1298.3 908.868 682.113 541.026 462.038 460.421 351.636 290.405 277.031 222.409 193.204 183.682 173.447 166.768 161.122 147.954 147.82 140.804 137.034 133.764 114 101.093 96.2035 93.6042 87.117 75.5429
threshold=17.500000000000004 27.500000000000004 0 42.500000000000007 19.500000000000004 22.500000000000004 22.500000000000004 18.500000000000004 1 2 11.500000000000002 3 4 52.500000000000007 5 18.500000000000004 6 7 8 27.500000000000004 9 18.500000000000004 10 14.000000000000002 11 12 37.500000000000007 22.500000000000004 13 14
decision_type=2 2 9 2 2 2 2 2 9 9 2 9 9 2 9 2 9 9 9 2 9 2 9 2 9 9 2 2 9 9
left_child=2 5 11 7 6 12 10 9 -7 -3 18 23 17 21 -9 24 -12 -2 -4 29 -17 -5 -11 -1 -10 -14 -27 -24 -23 -6
right_child=1 3 4 13 19 8 -8 14 15 22 16 -13 25 -15 -16 20 -18 -19 -20 -21 -22 28 27 -25 -26 26 -28 -29 -30 -31
leaf_value=-0.45230893967189961 -0.00039732564404300065 0.17065827443261716 -0.29467503142194834 0.68027322917006827 -0.14359421769973135 -0.016436478242675891 0.083326622885229726 0.27992791667006839 0.20100217253564454 0.57938572917006848 -0.15851284957570791 -0.44905270442878431 1.9759814460229565e-07 1.6126791754004395 0.093369053820459069 0.13503451289077137 0.013430147680151095 -2.5244774902333236e-05 -0.16722486148977042 -0.16107562172365705 0.02254571262700189 0.15737847675795891 0.35160586031884766 -0.14968423480959459 0.11457199389599602 0.0098108735747070245 0.5204341032719727 0.33228339179790045 0.64573866289077131 -0.3810942176997314
leaf_weight=11819 285 1567 6527 11929 460 1667 2183 2600 3464 8038 4669 21117 402 16315 2155 836 1254 6588 1738 540 1269 353 2783 3421 3471 4403 512 13412 2279 6750
leaf_count=11819 285 1567 6527 11929 460 1667 2183 2600 3464 8038 4669 21117 402 16315 2155 836 1254 6588 1738 540 1269 353 2783 3421 3471 4403 512 13412 2279 6750
internal_value=0.00191083 0.0293936 -0.0364099 0.0369154 -0.0244851 0.009213 -0.016514 0.0295778 0.0198422 0.0324341 -0.0205173 -0.0443025 -0.000123052 0.0441767 0.0140799 0.0242873 -0.011219 -0.00674851 -0.0271809 -0.0413548 0.0113777 0.0396848 0.0341274 -0.0388918 0.0282408 0.00843815 0.0064264 0.0313761 0.0292173 -0.0432455
internal_weight=144806 84328 60478 61431 24121 22897 16371 30555 10707 25800 14188 36357 12190 30876 4755 9040 5923 6873 8265 7750 2105 14561 24233 15240 6935 5317 4915 16195 2632 7210
internal_count=144806 84328 60478 61431 24121 22897 16371 30555 10707 25800 14188 36357 12190 30876 4755 9040 5923 6873 8265 7750 2105 14561 24233 15240 6935 5317 4915 16195 2632 7210
cat_boundaries=0 2 4 6 8 11 14 16 18 20 22 25 28 30 33 36
cat_threshold=578826386 3023585744 4456448 71828800 4460800 4719936 4112 67649872 465835008 2303198532 2 362941524 1107429904 1 476381440 146801664 0 64 138871040 146805760 67109972 1073875462 8408580 1107366416 3 1073759812 1124255766 3 8192 570425856 1073742144 53252 2 1028 163848 1
is_linear=0
shrinkage=0.05


Tree=11
num_leaves=31
num_cat=16
split_feature=0 0 13 3 4 0 13 4 3 13 13 13 13 3 13 4 0 13 0 13 13 13 13 13 13 4 13 13 6 3
split_gain=58404.1 5201.42 2239.52 1334.17 1129.92 838.543 809.003 555.123 509.712 432.413 409.565 337.336 245.864 229.984 217.681 202.496 192.401 185.099 157.093 145.318 127.012 122.329 116.934 113.006 97.7338 91.5089 91.205 88.1756 75.4514 68.6155
threshold=17.500000000000004 27.500000000000004 0 42.500000000000007 18.500000000000004 22.500000000000004 1 18.500000000000004 17.500000000000004 2 3 4 5 22.500000000000004 6 18.500000000000004 7.5000000000000009 7 14.000000000000002 8 9 10 11 12 13 18.500000000000004 14 15 5.5000000000000009 32.500000000000007
decision_type=2 2 9 2 2 2 9 2 2 9 9 9 9 2 9 2 2 9 2 9 9 9 9 9 9 2 9 9 2 2
left_child=2 5 20 7 6 11 8 9 18 28 -7 -2 -5 27 26 23 -8 -9 -4 -11 -1 -20 -17 -12 -18 -14 -13 -6 -3 -16
right_child=1 3 4 12 13 10 16 17 -10 19 15 14 25 -15 29 22 24 -19 21 -21 -22 -23 -24 -25 -26 -27 -28 -29 -30 -31
leaf_value=-0.30851456332302124 -0.00043111638332522518 -0.028669006280224708 -0.27994127985085093 1.2255652732300266 -0.27789461463701048 -0.015614654330542167 -0.34743165074237903 0.26593152083656496 -0.12297474820632193 0.31418227790837411 0.28358103886979968 1.877182373988262e-07 0.64625956771156479 -0.16242809063747413 -2.3982536157163282e-05 0.12828278724623274 -0.039283622780028261 0.088700601129436063 -0.13987001959692247 0.44764769271156502 -0.42660006920734511 -0.15058720709692253 -0.0015710330662672689 0.10884339420119621 0.20829281465210078 0.43081262713881086 0.020037517395971885 -0.42969349268830465 0.34230761073051746 0.31749249537399876
leaf_weight=7102 442 903 9780 21664 2583 1667 1158 2423 2629 11118 2839 402 8092 1359 6958 800 2331 2332 2688 13115 21117 1375 1305 4096 1371 1120 3888 6985 664 500
leaf_count=7102 442 903 9780 21664 2583 1667 1158 2423 2629 11118 2839 402 8092 1359 6958 800 2331 2332 2688 13115 21117 1375 1305 4096 1371 1120 3888 6985 664 500
internal_value=0.00166153 0.0285528 -0.0358345 0.036134 -0.0268044 0.00821287 -0.0201153 0.0287269 -0.0253974 0.0316202 0.0184225 -0.000754717 0.0434642 -0.0398874 0.000875999 0.0226077 -0.00215606 0.0130284 -0.0292458 0.0332611 -0.0461316 -0.020982 0.00904988 0.0267556 0.00340357 0.0363912 0.00983721 -0.0426212 0.00599239 -0.00428495
internal_weight=144806 84328 60478 61431 32259 22897 21332 30555 16472 25800 10707 12190 30876 10927 11748 9040 4860 4755 13843 24233 28219 4063 2105 6935 3702 9212 4290 9568 1567 7458
internal_count=144806 84328 60478 61431 32259 22897 21332 30555 16472 25800 10707 12190 30876 10927 11748 9040 4860 4755 13843 24233 28219 4063 2105 6935 3702 9212 4290 9568 1567 7458
cat_boundaries=0 2 4 6 8 10 13 16 19 21 23 25 27 30 33 35 38
cat_threshold=578822290 3023044816 138874880 147346688 4460800 4719936 4456448 71828800 0 67108928 67112452 33886736 1 1076061012 1644202514 1 94506516 1107429904 1 421724224 696551436 16 67108944 262144 13108480 67109968 1644300806 1073759812 1107478550 3 335544576 16809988 2 8192 570425856 1344406788 1112180744 3
is_linear=0
shrinkage=0.05


Tree=12
num_leaves=31
num_cat=13
split_feature=0 0 13 3 4 3 13 4 13 13 0 13 13 0 4 13 3 13 0 13 13 13 13 3 0 10 6 13 10 10
split_gain=57648.8 4745.26 2261.97 1412.01 1040.2 886.537 819.509 616.232 496.392 487.408 427.451 290.763 243.746 240.348 182.33 175.527 145.342 141.552 139.633 127.012 124.512 117.314 110.909 108.969 100.294 92.2445 93.0263 80.5327 78.381 77.3234
threshold=17.500000000000004 27.500000000000004 0 47.500000000000007 19.500000000000004 22.500000000000004 1 18.500000000000004 2 3 22.500000000000004 4 5 14.000000000000002 18.500000000000004 6 27.500000000000004 7 7.5000000000000009 8 9 10 11 37.500000000000007 22.500000000000004 10.500000000000002 5.5000000000000009 12 1.5000000000000002 10.500000000000002
decision_type=2 2 9 2 2 2 9 2 9 9 2 9 9 2 2 9 2 9 2 9 9 9 9 2 2 2 2 9 2 2
left_child=2 6 19 7 5 8 15 9 13 -3 17 -11 -9 -4 27 24 -6 -8 -10 -1 -5 -15 -16 -19 -2 26 -13 -12 -17 -23
right_child=1 3 4 20 16 -7 10 12 18 11 14 25 -14 21 22 28 -18 23 -20 -21 -22 29 -24 -25 -26 -27 -28 -29 -30 -31
leaf_value=-0.29308883515687018 -0.0004095605641589728 0.58498130405006354 -0.26594421585830841 1.4142870095685254 -0.34814477608289424 0.028424827422768396 1.7833232561770275e-07 0.29946209428069859 -0.33976138898119868 0.15354333858456784 0.095022802284105271 0.28746010831258673 0.11541023647522995 -0.12270652208926869 0.12186864788392118 -0.00047374024528679115 -0.14490043610560052 0.0071293915261730241 -0.0074704083070665566 -0.40527006574697788 0.6915888835573395 -0.14475151861707633 0.021496978648965204 0.44721249717756478 -0.0029589216140148977 0.24092239837118046 0.49994567803887729 0.26940198692630979 -3.8087028695343863e-07 -0.13287651861707631
leaf_weight=7102 442 16477 10959 16366 8392 2540 447 3402 1404 1647 3527 6843 2725 1163 800 620 563 6489 3010 21117 6156 1870 1219 672 185 5625 2190 2863 5633 2358
leaf_count=7102 442 16477 10959 16366 8392 2540 447 3402 1404 1647 3527 6843 2725 1163 800 620 563 6489 3010 21117 6156 1870 1219 672 185 5625 2190 2863 5633 2358
internal_value=0.00146955 0.0281864 -0.0357833 0.0354276 -0.0267083 -0.0211509 0.00875879 0.0296602 -0.0245617 0.0323806 0.0149529 0.0261814 0.0151053 -0.0285758 0.0227316 -0.00567489 -0.0412004 0.00637487 -0.00960669 -0.0461316 0.0453912 -0.0199499 0.00963348 0.00463673 -0.0306907 0.0284292 0.0315787 0.0268701 -0.00312151 -0.0159509
internal_weight=144806 84328 60478 61431 32259 23304 22897 38909 20764 32782 16017 16305 6127 16350 8409 6880 8955 7608 4414 28219 22522 5391 2019 7161 627 14658 9033 6390 6253 4228
internal_count=144806 84328 60478 61431 32259 23304 22897 38909 20764 32782 16017 16305 6127 16350 8409 6880 8955 7608 4414 28219 22522 5391 2019 7161 627 14658 9033 6390 6253 4228
cat_boundaries=0 2 4 6 9 11 14 16 18 20 23 25 27 29
cat_threshold=578822290 3023044816 172232704 2219312448 138874880 147342592 1149259268 1107644946 3 4460800 4719936 94506004 1107429906 1 0 67108928 8396800 570425856 16 67108944 67111940 332304 1 0 524544 67109968 1644300806 354615568 696259080
is_linear=0
shrinkage=0.05


Tree=13
num_leaves=31
num_cat=15
split_feature=0 3 13 0 4 13 3 4 13 13 13 4 0 13 13 13 13 13 0 13 13 13 4 3 4 13 10 13 6 3
split_gain=55588.5 4732.61 2432 1885.46 1033.55 835.939 833.148 590.089 482.281 474.733 330.008 295.73 233.703 188.617 176.566 157.289 156.05 151.8 150.464 132.858 127.012 123.432 122.69 109.11 106.575 98.8935 98.3684 90.3407 82.8427 79.9194
threshold=17.500000000000004 37.500000000000007 0 22.500000000000004 19.500000000000004 1 22.500000000000004 18.500000000000004 2 3 4 18.500000000000004 7.5000000000000009 5 6 7 8 9 7.5000000000000009 10 11 12 11.500000000000002 17.500000000000004 17.500000000000004 13 11.500000000000002 14 5.5000000000000009 27.500000000000004
decision_type=2 2 9 2 2 9 2 2 9 9 9 2 2 9 9 9 9 9 2 9 9 9 2 2 2 9 2 9 2 2
left_child=2 3 20 10 6 25 9 19 -3 12 -2 15 -4 -12 -9 -10 24 -6 -11 -7 -1 -13 -20 -18 -14 -5 28 -15 -21 -19
right_child=1 8 4 5 17 7 -8 14 11 18 13 21 16 27 -16 -17 23 29 22 26 -22 -23 -24 -25 -26 -27 -28 -29 -30 -31
leaf_value=-0.27843439339902665 -0.00038908253595106859 1.381013984676037 -0.41095199757081535 -0.026115152570500833 -0.39080157924974473 0.41596786434062683 0.027003586051630002 0.18698301466941275 0.6279162741234835 -0.3313195072528089 1.6941570937234474e-07 0.44517786560630523 -0.13641402081122253 0.0079619844498642674 -0.0022845627147619397 0.39279233391035717 -0.13751394268622247 -0.23900270119845057 0.0090863859502319684 0.21646616952896577 -0.38500656245962905 0.14510126299888312 -0.14769527081122255 -0.12991595955433546 -0.252647005065393 0.14921245095808144 0.14775191334177507 -0.0004500532330224516 0.36460450509423681 -0.12515541430032046
leaf_weight=7102 442 15521 5457 639 6698 7956 2540 2676 15616 1743 442 2674 1743 4169 2345 4886 6654 1959 2032 7591 21117 1171 1618 1126 391 3378 6517 6414 1891 298
leaf_count=7102 442 15521 5457 639 6698 7956 2540 2676 15616 1743 442 2674 1743 4169 2345 4886 6654 1959 2032 7591 21117 1171 1618 1126 391 3378 6517 6414 1891 298
internal_value=0.00117813 0.0274132 -0.035403 0.0161966 -0.0259955 0.0222668 -0.0204557 0.025226 0.0399217 -0.0237623 -0.00126886 0.0354539 -0.0282394 0.000448573 0.00964947 0.0378548 -0.0236837 -0.0404411 -0.0109291 0.0285014 -0.0461316 0.0227438 -0.00517808 -0.0269705 -0.0115205 0.000856717 0.0257886 -0.000901539 0.0290551 -0.0286943
internal_weight=144806 84328 60478 44460 32259 32993 23304 28976 39868 20764 11467 24347 15371 11025 5021 20502 9914 8955 5393 23955 28219 3845 3650 7780 2134 4017 15999 10583 9482 2257
internal_count=144806 84328 60478 44460 32259 32993 23304 28976 39868 20764 11467 24347 15371 11025 5021 20502 9914 8955 5393 23955 28219 3845 3650 7780 2134 4017 15999 10583 9482 2257
cat_boundaries=0 2 4 6 8 10 12 15 18 20 22 25 27 30 32 35
cat_threshold=578822290 3023044816 4460800 71828800 3072 328208 4657152 147342592 0 67108928 8396800 570425360 77745236 1107429892 1 1140867588 1107349506 3 4329472 134234112 423972928 159929604 1082150400 1107382814 3 16 67108944 86114820 1107429378 1 0 4718848 1277379412 1073780736 1
is_linear=0
shrinkage=0.05


Tree=14
num_leaves=31
num_cat=13
split_feature=0 0 13 4 0 13 4 13 3 13 0 0 13 3 4 13 13 13 0 13 13 13 0 4 13 3 13 4 4 6
split_gain=53004 4868.15 2785.58 1468.59 1435.07 615.435 582.468 524.846 505.827 440.2 299.023 288.927 285.853 201.833 199.381 195.713 143.813 141.246 138.022 137.637 122.999 112.958 100.294 99.8529 102.985 94.4508 86.8845 85.9243 73.7155 70.8755
threshold=17.500000000000004 27.500000000000004 0 19.500000000000004 52.500000000000007 1 18.500000000000004 2 22.500000000000004 3 7.5000000000000009 22.500000000000004 4 37.500000000000007 11.500000000000002 5 6 7 7.5000000000000009 8 9 10 22.500000000000004 18.500000000000004 11 32.500000000000007 12 19.500000000000004 19.500000000000004 5.5000000000000009
decision_type=2 2 9 2 2 9 2 9 2 9 2 2 9 2 2 9 9 9 2 9 9 9 2 2 9 2 9 2 2 2
left_child=2 5 9 8 6 15 7 21 10 18 -4 16 -8 -9 20 22 -7 -5 -1 -6 -12 29 -2 -13 -25 -18 -15 -27 -20 -3
right_child=1 4 3 17 19 11 12 13 -10 -11 14 23 -14 26 -16 -17 25 -19 28 -21 -22 -23 -24 24 -26 27 -28 -29 -30 -31
leaf_value=-0.39040439769227453 -0.00036962840915357733 0.21828047510410276 -0.41381124854622719 -0.38677620365100263 1.5245219598562973 1.6094492387708216e-07 0.30454074185723989 0.29280655545953316 0.078353052206249718 -0.36575623433664756 -0.11935699555191129 0.11048651673940686 0.034739844750902464 0.62221417916730926 -0.13063824555191134 -0.00033292610525688106 0.006406072727371104 -0.21961924809675698 -0.2000325394029524 0.67817878245853525 0.068765941969954988 0.12931613552738144 -0.010271598081218159 -0.013992311783036549 0.11588944362546326 0.42478133477462188 0.49635796041730951 -0.02557893899137902 -0.19147975973498374 0.38087201096266021
leaf_weight=5334 442 2441 3966 5640 15079 436 4715 14342 2183 25228 2613 5840 2440 7841 6039 7541 5509 2110 4950 3408 1570 1284 185 933 945 822 8393 244 845 1488
leaf_count=5334 442 2441 3966 5640 15079 436 4715 14342 2183 25228 2613 5840 2440 7841 6039 7541 5509 2110 4950 3408 1570 1284 185 933 945 822 8393 244 845 1488
internal_value=0.000997196 0.0266151 -0.0347234 -0.021518 0.0339495 0.00693759 0.0289354 0.031539 -0.0130383 -0.0434666 -0.0164858 0.0130368 0.0159119 0.0340417 -0.0119644 -0.0040719 0.00569819 -0.0394581 -0.0350346 0.0455969 -0.00357399 0.0167624 -0.0306907 0.0197201 0.00969116 0.00381929 0.0378711 0.0174484 -0.0297239 0.0209825
internal_weight=144806 84328 60478 24121 61431 22897 42944 35789 16371 36357 14188 14729 7155 30576 10222 8168 7011 7750 11129 18487 4183 5213 627 7718 1878 6575 16234 1066 5795 3929
internal_count=144806 84328 60478 24121 61431 22897 42944 35789 16371 36357 14188 14729 7155 30576 10222 8168 7011 7750 11129 18487 4183 5213 627 7718 1878 6575 16234 1066 5795 3929
cat_boundaries=0 2 4 6 8 11 13 15 17 20 22 24 27 30
cat_threshold=578826386 3023585744 440668160 2219328832 407179520 549981504 4096 541008 77745684 1107692050 1 0 67108928 8396800 570425344 423969344 159388676 67111940 33903120 1 73859392 46140416 402722816 545261568 1090601732 142643216 3 3588 1074074130 1
is_linear=0
shrinkage=0.05


Tree=15
num_leaves=31
num_cat=16
split_feature=0 0 13 0 4 0 13 4 13 13 0 13 13 3 13 13 13 13 13 13 6 3 13 10 13 0 4 13 13 4
split_gain=51437.7 4414.44 2782.9 1371.83 1194.49 741.649 564.833 490.321 470.733 421.017 271.752 257.739 243.799 196.785 179.068 175.548 170.729 165.677 145.648 145.092 126.747 126.515 123.629 101.926 100.59 100.294 86.8606 109.31 87.8301 86.0358
threshold=17.500000000000004 27.500000000000004 0 47.500000000000007 19.500000000000004 7.5000000000000009 1 18.500000000000004 2 3 22.500000000000004 4 5 22.500000000000004 6 7 8 9 10 11 5.5000000000000009 32.500000000000007 12 11.500000000000002 13 22.500000000000004 18.500000000000004 14 15 11.500000000000002
decision_type=2 2 9 2 2 2 9 2 9 9 2 9 9 2 9 9 9 9 9 9 2 2 9 2 9 2 2 9 9 2
left_child=2 6 14 7 5 19 16 9 13 20 18 -9 -5 22 -1 -6 25 -11 -8 -4 -3 24 -7 -19 -10 -2 28 -28 -12 -24
right_child=1 3 4 12 15 8 10 11 21 17 26 -13 -14 -15 -16 -17 -18 23 -20 -21 -22 -23 29 -25 -26 -27 27 -29 -30 -31
leaf_value=-0.32569650650502135 -0.00035114698869591625 0.069693976706065905 -0.37088417780766081 1.4482958618634827 -0.3517412804026438 -0.12410633327431581 1.5289767762993733e-07 0.26093828622985743 -0.12306140749306582 0.4932257161830208 0.13813897008656859 0.019248923183430834 0.66289533720765703 0.011018566638735905 -0.3474684226198152 -0.20863828569191911 -0.00041090426610832512 0.31653264801505226 0.0072435815910024464 -0.29406296946285709 0.30483913727370582 0.3859371913266374 -0.11338914577431575 0.21934835501255601 0.12402007917666076 -0.0097580181771572683 -0.028530574868212002 0.11009497144419012 0.09259458136346535 -0.1619191784736069
leaf_weight=8282 442 1861 4166 13305 6478 3689 436 4069 4085 11011 587 2368 10154 868 21117 2288 5295 10718 8019 2461 1405 482 1593 6540 1314 185 914 1069 5950 3655
leaf_count=8282 442 1861 4166 13305 6478 3689 436 4069 4085 11011 587 2368 10154 868 21117 2288 5295 10718 8019 2461 1405 482 1593 6540 1314 185 914 1069 5950 3655
internal_value=0.000574562 0.0258111 -0.0346142 0.0327953 -0.0241548 -0.0180186 0.00707298 0.0269225 -0.0120936 0.0294895 0.0117074 0.0143467 0.0423015 -0.0187927 -0.0456476 -0.0398015 -0.0062205 0.0314527 0.00536369 -0.0320432 0.0123626 -0.00089119 -0.0210194 0.0283125 -0.0030839 -0.0306907 0.0180164 0.00885023 0.020797 -0.0159757
internal_weight=144806 84328 60478 61431 31079 22313 22897 37972 15686 31535 16975 6437 23459 9805 29399 8766 5922 28269 8455 6627 3266 5881 8937 17258 5399 627 8520 1983 6537 5248
internal_count=144806 84328 60478 61431 31079 22313 22897 37972 15686 31535 16975 6437 23459 9805 29399 8766 5922 28269 8455 6627 3266 5881 8937 17258 5399 627 8520 1983 6537 5248
cat_boundaries=0 2 4 6 8 11 13 15 17 19 22 24 26 28 30 33 35
cat_threshold=578822290 3023061200 306450432 2219327808 134549504 13108480 138744064 549979456 77745684 1107692050 1 3072 348672 16 67125328 423973440 159388932 0 67108928 8408580 1107628562 1 8396800 570425344 4329472 134746368 0 525568 341967104 151027718 1224803076 142644240 2 16 132096
is_linear=0
shrinkage=0.05


Tree=16
num_leaves=31
num_cat=16
split_feature=0 2 13 0 4 3 0 13 13 4 4 13 13 3 13 13 4 3 13 13 13 13 13 11 13 13 13 13 4 0
split_gain=50087.2 4436.41 2769.43 1232.39 1173.41 958.115 713.584 538.495 449.01 423.824 326.069 319.262 315.254 221.82 202.58 196.616 191.676 178.948 175.089 174.743 155.055 138.624 108.251 106.774 93.8694 92.523 91.0007 81.8041 80.4669 77.7267
threshold=17.500000000000004 32.500000000000007 0 22.500000000000004 19.500000000000004 52.500000000000007 7.5000000000000009 1 2 17.500000000000004 18.500000000000004 3 4 27.500000000000004 5 6 12.500000000000002 22.500000000000004 7 8 9 10 11 709.94921666666676 12 13 14 15 19.500000000000004 7.5000000000000009
decision_type=2 2 9 2 2 2 2 9 9 2 2 9 9 2 9 9 2 2 9 9 9 9 9 2 9 9 9 9 2 2
left_child=2 3 18 11 6 9 20 26 23 12 27 -2 -3 16 -13 28 25 22 29 -12 -4 -7 -6 -8 -16 -10 -5 -9 -11 -1
right_child=1 5 4 7 17 21 8 10 13 15 19 14 -14 -15 24 -17 -18 -19 -20 -21 -22 -23 -24 -25 -26 -27 -28 -29 -30 -31
leaf_value=-0.3584393375524626 -0.00033358963926115597 0.52322343439979313 -0.35233996891727781 -0.024772203423407468 -0.071749525529393315 1.6258810687703082 -0.16915915677402574 0.13195715087878776 -0.10472912435063542 0.4068199879428761 0.13955046509652186 1.4525279379284939e-07 0.29143784351480856 0.22055102949889599 -0.00041402702155295405 0.15406898553028203 -0.12568263606938554 -0.11446914863515119 -0.33009500148882442 0.05325146624731758 -0.27935982098971429 0.70280598053072729 -0.33415421638251158 0.055575877572359204 0.00062800422844695454 0.092761862122203637 0.13995395440102332 0.22787310121667961 0.22408058690180654 -0.10967174572024395
leaf_weight=4104 440 15641 4166 628 358 10424 5181 8857 2907 2899 845 647 7283 1186 4307 2876 4678 1038 21117 2989 2464 7478 7526 299 5833 1443 2974 8175 2032 4011
leaf_count=4104 440 15641 4166 628 358 10424 5181 8857 2907 2899 845 647 7283 1186 4307 2876 4678 1038 21117 2989 2464 7478 7526 299 5833 1443 2974 8175 2032 4011
internal_value=0.000127757 0.0250308 -0.0345961 0.0116445 -0.0242193 0.034856 -0.0181016 0.0179377 -0.0122913 0.0294995 0.0210146 -0.0020709 0.0329262 -0.00607394 -0.000347319 0.0194377 -0.00875055 -0.0395539 -0.0456638 0.00785081 -0.0318552 0.0440509 -0.0421233 -0.0238251 -0.00208867 -0.0011954 5.5371e-05 0.0239901 0.0254908 -0.03912
internal_weight=144806 84328 60478 35695 31246 48633 22324 24468 15694 30731 20866 11227 22924 10214 10787 7807 9028 8922 29232 3834 6630 17902 7884 5480 10140 4350 3602 17032 4931 8115
internal_count=144806 84328 60478 35695 31246 48633 22324 24468 15694 30731 20866 11227 22924 10214 10787 7807 9028 8922 29232 3834 6630 17902 7884 5480 10140 4350 3602 17032 4931 8115
cat_boundaries=0 2 4 6 8 11 13 16 18 20 22 24 27 30 33 35 37
cat_threshold=578822290 3023061184 4460800 71828800 0 4719872 0 67108928 1140870660 1107677714 3 8527872 570425344 86134276 461334 1 16 67125312 77725712 1107429888 4329472 134746368 3072 328192 1024 32768 1 503583744 2148140294 2 340201792 41945090 2 0 4718848 520290324 142755840
is_linear=0
shrinkage=0.05


Tree=17
num_leaves=31
num_cat=14
split_feature=0 3 0 13 13 0 3 4 13 13 4 13 13 4 13 13 13 0 13 13 0 13 3 2 13 3 4 10 13 4
split_gain=44702.9 4256.67 4025.51 1407.56 1399.53 1277.8 989.917 608.183 526.914 522.104 450.813 431.477 310.956 303.803 245.812 195.566 187.355 184.877 171.362 152.576 138.551 115.999 114.26 99.2571 91.4575 87.197 80.2402 78.4585 77.3659 68.3183
threshold=17.500000000000004 32.500000000000007 11.500000000000002 0 1 22.500000000000004 52.500000000000007 19.500000000000004 2 3 18.500000000000004 4 5 18.500000000000004 6 7 8 7.5000000000000009 9 10 7.5000000000000009 11 17.500000000000004 17.500000000000004 12 14.000000000000002 11.500000000000002 10.500000000000002 13 21.500000000000004
decision_type=2 2 2 9 9 2 2 2 9 9 2 9 9 2 9 9 9 2 9 9 2 9 2 2 9 2 2 2 9 2
left_child=2 5 3 -1 -4 12 10 11 -7 -6 14 17 -2 23 -3 -14 -15 -5 22 -8 -13 -12 26 -10 -17 -9 -11 -25 -22 -24
right_child=1 6 4 7 9 8 19 25 13 18 21 20 15 16 -16 24 -18 -19 -20 -21 28 -23 29 27 -26 -27 -28 -29 -30 -31
leaf_value=-0.31359025141438313 -0.00031691015729808927 0.4970622626798033 0.0015344534479218908 -0.33472297047141392 -0.06989936213481443 0.00024765674776290326 1.5445870153317927 -0.33196459100687081 0.11278508101349055 -0.10194737289306809 0.25230061603161785 -0.34903136593202277 1.3799015405879799e-07 0.1450729418416957 0.33320387038928134 0.0068500023000300564 0.014606147995093544 -0.18519955560456447 2.6070608110284611e-05 0.66766568150419092 0.071806384444352653 0.10958133488033238 -0.012101186402930609 0.21584918420017341 -0.00039332567047534184 -0.20813125063008658 -0.099492668133103743 0.16199691100745942 -0.21235930492633673 -0.1306668147102677
leaf_weight=23367 440 12260 1415 4817 2493 3702 10448 5519 1911 1343 3173 3478 632 1021 12385 2941 2721 3539 3292 7660 384 2011 2068 8159 6952 1707 3201 7912 3759 96
leaf_count=23367 440 12260 1415 4817 2493 3702 10448 5519 1911 1343 3173 3478 632 1021 12385 2941 2721 3539 3292 7660 384 2011 2068 8159 6952 1707 3201 7912 3759 96
internal_value=0.00100272 0.0245292 -0.0318016 -0.0388512 -0.00819672 0.0116361 0.0343169 -0.0300758 0.0177889 -0.0135368 0.0287187 -0.0246448 -0.0026311 0.0207555 0.0315378 -0.000887518 0.00780331 -0.0325006 -0.00841159 0.0435388 -0.0159678 0.0153164 -0.0129949 0.0234624 -0.00262042 -0.0421257 -0.0175176 0.0247433 -0.00981173 -0.00355823
internal_weight=144806 84328 60478 46570 13908 36391 47937 23203 25426 12493 29829 15977 10965 21724 24645 10525 3742 8356 10000 18108 7621 5184 6708 17982 9893 7226 4544 16071 4143 2164
internal_count=144806 84328 60478 46570 13908 36391 47937 23203 25426 12493 29829 15977 10965 21724 24645 10525 3742 8356 10000 18108 7621 5184 6708 17982 9893 7226 4544 16071 4143 2164
cat_boundaries=0 2 4 6 8 10 12 15 17 19 22 24 27 30 32
cat_threshold=578822290 3023044736 1115710468 1610612736 4460800 71828800 16 67633488 4096 134759744 0 67108928 19972 1107628566 1 8527872 570425344 77728788 1073874944 407175168 180374530 2 3072 328192 354553348 33950210 1 1075921748 1073780752 1 1092633088 6146
is_linear=0
shrinkage=0.05


Tree=18
num_leaves=31
num_cat=15
split_feature=0 0 0 13 13 13 0 4 13 0 4 13 13 13 4 13 13 13 13 13 13 0 3 0 3 13 0 3 13 4
split_gain=42823.5 3922.79 3833.56 1501.15 1367.46 1079.69 990.281 695.582 530.122 428.134 355.2 295.082 274.026 221.267 183.493 178.486 161.144 146.939 145.451 144.075 143.283 140.054 116.687 111.208 105.413 101.799 101.42 95.7019 91.931 91.3335
threshold=17.500000000000004 11.500000000000002 32.500000000000007 0 1 2 57.500000000000007 19.500000000000004 3 22.500000000000004 18.500000000000004 4 5 6 18.500000000000004 7 8 9 10 11 12 7.5000000000000009 17.500000000000004 22.500000000000004 27.500000000000004 13 22.500000000000004 32.500000000000007 14 11.500000000000002
decision_type=2 2 2 9 9 9 2 2 9 2 2 9 9 9 2 9 9 9 9 9 9 2 2 2 2 9 2 2 9 2
left_child=1 3 5 16 -3 13 10 11 -6 20 12 21 24 26 -11 22 -1 -16 -12 -8 -7 -5 29 -15 -4 -25 -2 -22 -23 -10
right_child=2 4 6 7 8 9 19 -9 15 14 18 -13 -14 23 17 -17 -18 -19 -20 -21 27 28 -24 25 -26 -27 -28 -29 -30 -31
leaf_value=-0.31049921130597052 -0.00030106464943315816 0.0014577307755257785 0.26687004802140618 -0.31798682194784322 -0.066404394028073632 1.3109064642691237e-07 1.4673576645652031 -0.31654438907885113 -0.096850004248414667 0.15754181476995283 0.30102683869262159 -0.20612872903814711 0.272060764190592 -0.00030542684386958285 0.12531929474961087 2.4767077704801468e-05 -0.29791073884366404 0.086596427607942783 0.10523439395600889 0.67342743833001961 0.0053496896850285585 -0.14040933711050005 -0.017184385097999133 0.10146318184568824 0.46043384365636442 -0.017932808688525804 -0.02878019782573862 0.34925118224179175 -0.17593957782433628 -0.094518034726448624
leaf_weight=7897 442 1286 2326 3123 2493 436 11783 6000 1354 13178 3626 6303 7651 5351 808 3354 20635 2751 1877 3070 5023 744 2191 3044 19565 2243 216 938 1868 3230
leaf_count=7897 442 1286 2326 3123 2493 436 11783 6000 1354 13178 3626 6303 7651 5351 808 3354 20635 2751 1877 3070 5023 744 2191 3044 19565 2243 216 938 1868 3230
internal_value=0.000457854 -0.0316495 0.0234845 -0.0386085 -0.00834771 0.0106506 0.03234 -0.0272606 -0.013355 0.0168337 0.0277543 -0.0203439 0.0299269 -0.00202547 0.0210462 -0.00825032 -0.0457571 0.0109722 0.0160912 0.0431596 0.00583867 -0.0285553 -0.0129182 -0.000272352 0.0327907 0.00487044 -0.0299401 0.00377659 -0.0200613 -0.0174738
internal_weight=144806 60478 84328 46570 13908 34430 49898 18038 12622 23134 35045 12038 29542 11296 16737 10129 28532 3559 5503 14853 6397 5735 6775 10638 21891 5287 658 5961 2612 4584
internal_count=144806 60478 84328 46570 13908 34430 49898 18038 12622 23134 35045 12038 29542 11296 16737 10129 28532 3559 5503 14853 6397 5735 6775 10638 21891 5287 658 5961 2612 4584
cat_boundaries=0 2 4 6 8 10 13 15 18 20 22 25 27 29 31 33
cat_threshold=578826386 3023061184 41952260 1610612736 440668416 2219332928 16 67633488 4194304 134747392 1157647876 1107677718 3 0 67108928 407191552 180374530 2 4096 67125312 77727760 1073873410 69340740 461394 1 67111936 348688 8396800 570425344 436211968 4096 4194304 134221824
is_linear=0
shrinkage=0.05


Tree=19
num_leaves=31
num_cat=17
split_feature=0 0 2 13 13 0 0 4 13 13 4 13 13 13 4 13 13 0 13 13 13 13 3 13 13 13 13 3 0 4
split_gain=41622.9 4049.23 3700.13 1554.12 1371.47 1075.69 1033.89 729.821 549.568 432.666 396.211 321.162 319.124 301.002 278.822 206.668 202.719 191.727 165.699 163.717 154.126 148.993 121.742 93.7959 93.6853 92.8944 91.881 90.8263 87.229 80.5954
threshold=17.500000000000004 11.500000000000002 32.500000000000007 0 1 22.500000000000004 57.500000000000007 19.500000000000004 2 3 17.500000000000004 4 5 6 18.500000000000004 7 8 7.5000000000000009 9 10 11 12 17.500000000000004 13 14 15 16 14.000000000000002 7.5000000000000009 19.500000000000004
decision_type=2 2 2 9 9 2 2 2 9 9 2 9 9 9 2 9 9 2 9 9 9 9 2 9 9 9 9 2 2 2
left_child=1 3 5 19 -3 12 10 11 -6 -7 13 17 -2 -4 26 29 -14 -5 -16 28 22 -8 -10 -18 -15 -19 -11 -9 -1 -12
right_child=2 4 6 7 8 9 21 27 20 14 15 -13 16 24 18 -17 23 25 -20 -21 -22 -23 -24 -25 -26 -27 -28 -29 -30 -31
leaf_value=-0.30246186138254472 -0.00028601141696142917 0.001384844236749494 0.49240620736299479 -0.30208748085045106 -0.063084174326670003 0.003581703408018555 1.3939897813369428 -0.30071716962490858 -0.090950651616952358 0.11360140996689588 0.361753988433555 -0.098517871541423399 1.2453611404339428e-07 0.1303407769740538 0.12161447336921363 0.13233591366666603 -0.00035838804475805123 -0.1671425989331195 0.042509459375572871 -0.28301520190148083 2.352872381958804e-05 0.65211118328212692 -0.011595634593099292 0.00065520961149196928 0.37167025799996606 -0.18343822617998989 0.19826247026007363 -0.17028814054708646 -0.10105770398623344 0.21055971882841257
leaf_weight=4710 440 1415 12160 4426 2493 3602 11702 4460 4298 9482 3426 3101 647 2312 766 3227 4612 2764 3068 20635 3670 2872 2032 5528 10471 1747 7550 1540 3187 2463
leaf_count=4710 440 1415 12160 4426 2493 3602 11702 4460 4298 9482 3426 3101 647 2312 766 3227 4612 2764 3068 20635 3670 2872 2032 5528 10471 1747 7550 1540 3187 2463
internal_value=0.000257586 -0.0313965 0.0229592 -0.0384668 -0.00772217 0.010734 0.031932 -0.0269227 -0.0130089 0.0166135 0.0271632 -0.0198372 -0.00207981 0.0304234 0.0193715 0.0182427 -0.000356581 -0.0246395 0.00719875 -0.0457396 -0.00775225 0.0430767 -0.0124763 -0.00209852 0.0249785 -0.017413 0.0221231 -0.0411833 -0.0393006 0.0238091
internal_weight=144806 60478 84328 46570 13908 35695 48633 18038 12493 24468 34059 12038 11227 24943 20866 9116 10787 8937 3834 28532 10000 14574 6330 10140 12783 4511 17032 6000 7897 5889
internal_count=144806 60478 84328 46570 13908 35695 48633 18038 12493 24468 34059 12038 11227 24943 20866 9116 10787 8937 3834 28532 10000 14574 6330 10140 12783 4511 17032 6000 7897 5889
cat_boundaries=0 2 4 6 8 10 12 15 18 20 22 24 27 29 32 34 36 38
cat_threshold=578826386 3023061184 1115710468 1610612736 16 67633488 4460800 71828800 138608640 147330304 0 67108928 3588 1107644946 1 86134276 461334 1 8527872 570425344 77725712 1073875456 4096 67125312 138743808 180374530 2 67111936 348688 503583744 2282358022 2 4522240 21103616 0 4719872 520290324 142788608
is_linear=0
shrinkage=0.05


Tree=20
num_leaves=31
num_cat=16
split_feature=0 0 2 13 13 13 0 4 13 4 13 13 13 13 4 0 13 13 13 10 13 13 3 13 0 3 0 13 5 13
split_gain=40033.1 4008.07 3606.79 1631.71 1370.2 1071.15 983.124 777.729 550.833 405.821 379.884 358.875 346.108 316.235 241.497 206.452 205.656 171.202 167.724 164.585 163.717 153.301 118.005 101.887 99.5983 90.8263 87.229 86.7306 83.7392 83.5814
threshold=17.500000000000004 11.500000000000002 32.500000000000007 0 1 2 22.500000000000004 19.500000000000004 3 18.500000000000004 4 5 6 7 18.500000000000004 7.5000000000000009 8 9 10 10.500000000000002 11 12 17.500000000000004 13 67.500000000000014 14.000000000000002 7.5000000000000009 14 4.5000000000000009 15
decision_type=2 2 2 9 9 9 2 2 9 2 9 9 9 9 2 2 9 9 9 2 9 9 2 9 2 2 2 9 2 9
left_child=1 3 6 20 -3 24 13 11 -6 12 -8 15 19 -2 23 -5 -15 -16 -11 -7 26 22 -10 -12 -4 -9 -1 -18 -14 -17
right_child=2 4 5 7 8 9 10 25 21 18 14 -13 28 16 17 29 27 -19 -20 -21 -22 -23 -24 -25 -26 -27 -28 -29 -30 -31
leaf_value=-0.28733876831341743 -0.00027171084611339326 0.0013156020249120105 0.67993581070889419 -0.28698310680792849 -0.059929965610336568 0.56115196979724347 0.0034026182376177164 -0.28568131114366313 -0.087459971455146335 0.32869305363882706 0.11277721183927679 -0.087034975854950333 0.284176018645101 1.1830930830569742e-07 0.11553374970075297 -0.15878546898646351 -0.00034046864252008647 0.04038398640679422 0.08883486341740561 0.36990814296892194 -0.26886444180640678 -0.002660032822839753 -0.01510452908763469 0.17945794131283652 1.9317994116212209 -0.16177373351973215 -0.096004818786921756 0.00059878116216740553 0.12905234777077013 -0.17426631487099042
leaf_weight=4710 440 1415 4724 4377 2493 11599 3602 4460 4065 3278 9082 3493 8890 647 766 2421 4307 3068 2753 8809 20635 4088 1847 7950 6665 1540 3187 5833 1915 1747
leaf_count=4710 440 1415 4724 4377 2493 11599 3602 4460 4065 3278 9082 3493 8890 647 766 2421 4307 3068 2753 8809 20635 4088 1847 7950 6665 1540 3187 5833 1915 1747
internal_value=-0.000210627 -0.0312543 0.0220532 -0.0382886 -0.0077006 0.0309121 0.00998319 -0.0264628 -0.0129849 0.026781 0.0156041 -0.0191477 0.0290824 -0.00226686 0.0181884 -0.0246581 -0.000551079 0.00685968 0.0149146 0.0329317 -0.0457396 -0.00772228 -0.0128673 0.0207492 0.0443592 -0.0411833 -0.0393006 -0.00230542 0.0217614 -0.0167226
internal_weight=144806 60478 84328 46570 13908 48633 35695 18038 12493 37244 24468 12038 31213 11227 20866 8545 10787 3834 6031 20408 28532 10000 5912 17032 11389 6000 7897 10140 10805 4168
internal_count=144806 60478 84328 46570 13908 48633 35695 18038 12493 37244 24468 12038 31213 11227 20866 8545 10787 3834 6031 20408 28532 10000 5912 17032 11389 6000 7897 10140 10805 4168
cat_boundaries=0 2 4 6 8 10 12 15 17 19 21 24 26 29 31 34 36
cat_threshold=578826386 3023061184 1115710468 1610612736 2048 328192 16 67633488 4460800 71828800 138608640 147329280 67126788 1107349526 1 0 67108928 8527872 570425344 77725712 1073875456 337773572 2066 1 4096 67125312 138739712 180372482 2 520290324 1216366596 503583744 2148140294 2 0 4718848
is_linear=0
shrinkage=0.05


Tree=21
num_leaves=31
num_cat=12
split_feature=0 0 13 13 3 4 13 0 4 13 13 13 13 13 3 0 3 4 13 13 3 4 10 13 3 0 4 13 4 0
split_gain=38884.5 6882.07 1687.61 1475.63 1473.22 800.739 786.503 445.776 421.495 383.622 339.813 307.501 306.83 227.486 210.385 203.429 185.759 192.734 168.394 148.539 127.869 118.023 117.273 116.617 111.446 107.868 103.595 99.583 99.2864 91.8893
threshold=14.000000000000002 27.500000000000004 0 1 47.500000000000007 19.500000000000004 2 22.500000000000004 17.500000000000004 3 4 5 6 7 22.500000000000004 7.5000000000000009 32.500000000000007 11.500000000000002 8 9 17.500000000000004 18.500000000000004 11.500000000000002 10 14.000000000000002 17.500000000000004 19.500000000000004 11 19.500000000000004 7.5000000000000009
decision_type=2 2 9 9 2 2 9 2 2 9 9 9 9 9 2 2 2 2 9 9 2 2 2 9 2 2 2 9 2 2
left_child=2 3 18 11 8 9 -5 16 12 15 -6 20 -3 28 -14 -4 17 27 29 -19 -2 -12 -16 -9 -7 -13 -18 -8 -10 -1
right_child=1 4 5 6 10 24 7 23 13 -11 21 25 14 -15 22 -17 26 19 -20 -21 -22 -23 -24 -25 -26 -27 -28 -29 -30 -31
leaf_value=-0.27297182989774654 -0.079823926250583641 0.39270762950204985 -0.27263395146753205 0.0012498219236664278 1.4777003216890348 -0.27139724558648004 0.43330699753453228 0.0060318848415255033 0.21081724326762341 -0.080443541599006185 0.55219291056287823 -0.057573528918365827 0.17892387562869383 0.058142931375693332 0.27138390130707712 -0.15094852879783227 0.31627850479298003 -0.0017119617427116653 -0.25542121971608645 -0.016241019138936875 -0.00023154469856212501 0.34961529668466018 0.16888102339129035 0.060310771827746384 -0.15120080740038608 -0.03583134825890353 -0.0726667169443104 0.0050165563997682135 0.13022557347653177 -0.091204577847575685
leaf_weight=4710 3045 8233 4377 2001 8069 4569 851 3100 3656 3660 12102 2334 3420 3520 11252 4168 1382 5315 20635 4874 2868 2351 6566 5901 1632 1412 346 3008 2262 3187
leaf_count=4710 3045 8233 4377 2001 8069 4569 851 3100 3656 3660 12102 2334 3420 3520 11252 4168 1382 5315 20635 4874 2868 2351 6566 5901 1632 1412 346 3008 2262 3187
internal_value=-0.000671243 0.0172722 -0.0380843 5.62615e-05 0.0274837 -0.0262272 0.00609975 0.00365716 0.0215927 -0.0188079 0.037661 -0.0166874 0.0245377 0.0123967 0.0213197 -0.0245996 -0.0014072 -0.00331008 -0.0457081 -0.00691432 -0.00954753 0.0329634 0.0235099 0.0125375 -0.0408724 -0.027902 0.0140625 0.00620627 0.0183704 -0.0391868
internal_weight=144806 97868 46938 36437 61431 18406 26778 24777 38909 12205 22522 9659 29471 9438 21238 8545 15776 14048 28532 10189 5913 14453 17818 9001 6201 3746 1728 3859 5918 7897
internal_count=144806 97868 46938 36437 61431 18406 26778 24777 38909 12205 22522 9659 29471 9438 21238 8545 15776 14048 28532 10189 5913 14453 17818 9001 6201 3746 1728 3859 5918 7897
cat_boundaries=0 2 4 6 8 10 12 15 17 19 21 23 26
cat_threshold=578826386 3023061184 262144 71828816 41953280 1610678784 138608640 147329280 0 328192 262144 4195344 8408576 33903128 1 94522964 1090652694 4096 67125312 90390848 2164262916 4194368 159535108 1073759748 2181091330 3
is_linear=0
shrinkage=0.05


Tree=22
num_leaves=31
num_cat=11
split_feature=0 13 0 13 4 3 13 13 13 0 13 13 0 4 0 10 4 13 4 3 13 0 3 13 13 4 1 4 6 9
split_gain=27582.3 10795.1 3086.13 2998.73 1656.35 660.03 621.84 559.448 443.934 353.834 317.725 276.572 265.228 235.061 260.766 214.996 209.33 188.218 182.545 182.371 161.742 128.967 125.575 120.633 116.505 108.927 107.669 101.528 91.3056 102.634
threshold=7.5000000000000009 0 17.500000000000004 1 19.500000000000004 32.500000000000007 2 3 4 14.000000000000002 5 6 22.500000000000004 18.500000000000004 14.000000000000002 11.500000000000002 20.500000000000004 7 17.500000000000004 22.500000000000004 8 14.000000000000002 14.000000000000002 9 10 21.500000000000004 27.500000000000004 11.500000000000002 5.5000000000000009 14.500000000000002
decision_type=2 9 2 9 2 2 9 9 9 2 9 9 2 2 2 2 2 9 2 2 9 2 2 9 9 2 2 2 2 2
left_child=8 2 6 17 5 11 -2 24 -1 -9 18 12 -5 19 -15 23 20 -3 28 27 -10 22 -13 -7 25 -6 -23 -8 -4 -30
right_child=1 3 10 4 7 15 13 9 16 -11 -12 21 -14 14 -16 -17 -18 -19 -20 -21 -22 26 -24 -25 -26 -27 -28 -29 29 -31
leaf_value=-0.24265015873028206 -0.069186026127016659 0.7164084856501991 0.051166906767363685 0.0050738537492296849 0.1691728619650272 0.51233822233036752 -0.079631635944859808 -0.098475886134361187 -0.25900225389415549 -0.016200147258164856 -0.0003118679754660292 0.0073498412697179383 0.1413842853000368 -0.10293212115534828 -0.061058372508217933 0.27904030340992636 -0.28220238330715591 0.46640848565019905 0.00060689818141721483 0.026340653663076988 -0.20608649724534223 0.0017493348557178657 -0.025512814980282086 0.33237990773974818 0.0073498412697179383 -0.036444073485434637 0.20362762262839348 -0.091917540931225269 0.035275294658126198 0.3878526992260547
leaf_weight=21239 6749 9738 7593 3961 1443 10727 2693 1217 3152 3704 5913 1807 7773 2184 1791 11052 1813 7331 3625 1289 1264 3292 135 8394 1333 806 4427 5127 1727 1507
leaf_count=21239 6749 9738 7593 3961 1443 10727 2693 1217 3152 3704 5913 1807 7773 2184 1791 11052 1813 7331 3625 1289 1264 3292 135 8394 1333 806 4427 5127 1727 1507
internal_value=0.0035848 0.0141429 -0.00686679 0.0250888 0.0198257 0.0232004 -0.0209071 -0.000617429 -0.0415174 -0.0115494 0.00680334 0.0164828 0.0112909 -0.0145105 -0.0246667 0.0279637 -0.0295801 0.0435886 0.0107938 -0.0100944 -0.0237545 0.0227536 0.0342945 0.0311725 0.0143931 0.00737052 0.0198795 -0.0129668 0.0140528 0.0210884
internal_weight=144806 117338 40198 77140 60071 51568 19833 8503 27468 4921 20365 21395 11734 13084 3975 30173 6229 17069 14452 9109 4416 9661 1942 19121 3582 2249 7719 7820 10827 3234
internal_count=144806 117338 40198 77140 60071 51568 19833 8503 27468 4921 20365 21395 11734 13084 3975 30173 6229 17069 14452 9109 4416 9661 1942 19121 3582 2249 7719 7820 10827 3234
cat_boundaries=0 2 4 6 9 11 13 16 18 20 23 26
cat_threshold=407179536 231212352 578824194 2425472 16 67633472 69338116 3758227456 1 583021202 3174056256 402723088 159383552 84017216 1073793028 2 536870912 2424960 134676480 13111296 67110404 1107300370 1 1028 1073741824 1
is_linear=0
shrinkage=0.05


Tree=23
num_leaves=31
num_cat=15
split_feature=0 13 0 0 13 0 0 4 3 13 13 4 13 13 13 13 13 4 13 13 4 3 3 13 4 10 13 4 13 13
split_gain=32560.2 4185.18 3559.24 2042.56 2365.46 1006.95 667.976 453.095 443.087 395.821 333.491 260.563 241.175 229.957 182.298 180.854 180.615 178.574 174.584 161.367 139.372 132.139 131.905 119.369 113.232 108.233 100.516 88.7678 84.2596 82.8856
threshold=17.500000000000004 0 42.500000000000007 7.5000000000000009 1 27.500000000000004 67.500000000000014 12.500000000000002 14.000000000000002 2 3 17.500000000000004 4 5 6 7 8 21.500000000000004 9 10 17.500000000000004 37.500000000000007 32.500000000000007 11 17.500000000000004 11.500000000000002 12 18.500000000000004 13 14
decision_type=2 9 2 2 9 2 2 2 2 9 9 2 9 9 9 9 9 2 9 9 2 2 2 9 2 2 9 2 9 9
left_child=1 15 5 10 23 9 14 13 27 12 24 18 -2 -6 20 -1 -10 -12 -7 -13 -4 -11 -18 -5 -3 28 -8 -9 -20 -27
right_child=2 3 6 4 7 11 26 8 16 21 17 19 -14 -15 -16 -17 22 -19 25 -21 -22 -23 -24 -25 -26 29 -28 -29 -30 -31
leaf_value=-0.19008503946475033 -0.00014984544512621769 -0.23051765079376799 0.49799990203139793 0.0069823492062320199 -0.079356218905134321 0.055068466992414238 1.867994881322073 -0.13983946779089784 -0.065726724820665799 0.025603928170329485 -0.24605214119944768 -0.08019379826487949 -0.00020437406486077949 0.064072510548511555 0.359120232856451 -0.23051765079376799 -0.074606591741886955 -0.3264036827267589 0.17076029755837921 0.13249139175591651 0.35009079722112202 0.35718992226817631 0.19858612942745835 0.0069823492062320199 -0.24487727061244824 0.19323090431828441 0.92677025187838069 -0.085590007585398642 0.33078563149286533 0.12428059091064335
leaf_weight=8390 445 5659 11804 1567 3650 1368 6444 2792 1347 9232 3910 1248 11783 2617 7914 14093 6897 715 6588 6264 4180 1437 557 1594 3834 3459 2522 2856 4620 5020
leaf_count=8390 445 5659 11804 1567 3650 1368 6444 2792 1347 9232 3910 1248 11783 2617 7914 14093 6897 715 6588 6264 4180 1437 557 1594 3834 3459 2522 2856 4620 5020
internal_value=-0.000325953 -0.0283227 0.0197526 -0.0181884 -0.0092788 0.011544 0.0326071 -0.0154251 -0.0203024 0.00373193 -0.0332696 0.0178055 -0.00241052 -0.00420456 0.0282409 -0.0454208 -0.0132883 -0.022082 0.0206578 0.00981097 0.031343 0.0107641 -0.0101956 0.0309524 -0.0386562 0.0218536 0.0442449 -0.0312323 0.0250892 0.0176023
internal_weight=144806 60478 84328 37995 23877 51464 32864 20716 14449 22897 14118 28567 12228 6267 23898 22483 8801 4625 21055 7512 15984 10669 7454 3161 9493 19687 8966 5648 11208 8479
internal_count=144806 60478 84328 37995 23877 51464 32864 20716 14449 22897 14118 28567 12228 6267 23898 22483 8801 4625 21055 7512 15984 10669 7454 3161 9493 19687 8966 5648 11208 8479
cat_boundaries=0 2 4 6 8 10 12 15 17 19 21 23 25 27 29 32
cat_threshold=578822290 338690256 1075840004 3758096384 449064960 2915587396 138482240 2839564292 8396800 2684354560 459008 13108480 67112452 33903126 1 33554448 67108944 0 34099458 4522240 4719872 1212158208 683693056 0 536870912 0 348672 488771588 58853380 1082150400 50680346 1
is_linear=0
shrinkage=0.05


Tree=24
num_leaves=31
num_cat=15
split_feature=0 13 0 0 13 0 13 4 3 13 13 13 13 4 13 4 13 13 0 13 13 10 4 13 3 4 13 13 10 3
split_gain=30825.6 3852.97 3448.24 1916.29 2339.66 1003.65 742.795 429.564 485.646 404.109 354.022 331.09 244.799 228.662 212.24 178.417 163.66 163.222 154.331 152.082 142.605 124.514 122.457 145.135 113.658 106.291 104.404 97.949 95.3474 94.8256
threshold=17.500000000000004 0 42.500000000000007 7.5000000000000009 1 27.500000000000004 2 12.500000000000002 14.000000000000002 3 4 5 6 17.500000000000004 7 21.500000000000004 8 9 67.500000000000014 10 11 10.500000000000002 19.500000000000004 12 32.500000000000007 18.500000000000004 13 14 11.500000000000002 14.000000000000002
decision_type=2 9 2 2 9 2 9 2 2 9 9 9 9 2 9 2 9 9 2 9 9 2 2 9 2 2 9 9 2 2
left_child=1 9 5 11 27 10 18 14 -9 -1 12 -3 -2 16 -6 -13 -7 -10 -4 -15 21 25 23 -12 -19 -8 -18 -5 -28 -29
right_child=2 3 6 4 7 13 20 8 17 -11 22 15 -14 19 -16 -17 26 24 -20 -21 -22 -23 -24 -25 -26 -27 28 29 -30 -31
leaf_value=-0.2210133988205305 -0.00014235317286992455 -0.21899176825407959 0.63449723420019211 0.0066332317459203878 -0.075388407959877668 0.056894443496234182 0.50936338185641217 -0.10116493266292625 -0.080357930378731277 -0.21899176825407959 0.026851732191110325 -0.2337495341394753 -0.00019415536161773164 -0.076184108351635527 0.058367832742074556 -0.31008349859042089 0.28208749278949058 -0.067506523304398949 1.7745951372559692 0.12586682216812051 0.31819892683004253 0.34002594311351475 -0.00026571602000959873 0.41685686071828382 0.18865682295608543 0.35851928935697935 0.18620680546418136 0.0066332317459203878 0.11877424059203001 0.0013127506526203093
leaf_weight=9570 445 8598 3581 1567 3650 1397 9422 5569 1666 14093 5571 3910 13104 1248 2730 715 5304 6427 6337 6264 4614 7044 2042 1735 553 1866 8621 1040 5733 390
leaf_count=9570 445 8598 3581 1567 3650 1397 9422 5569 1666 14093 5571 3910 13104 1248 2730 715 5304 6427 6337 6264 4614 7044 2042 1735 553 1866 8621 1040 5733 390
internal_value=-0.000567656 -0.0278085 0.0189688 -0.0176741 -0.00913869 0.0108892 0.0316212 -0.0151444 -0.0199894 -0.0435496 0.00308992 -0.0329161 -0.00207611 0.0171404 -0.00437304 -0.0219525 0.0198124 -0.0125723 0.0430902 0.00965122 0.0266336 0.0286392 0.0105685 0.0136053 -0.00917024 0.03191 0.0209833 0.0320752 0.0187204 0.0221528
internal_weight=144806 60478 84328 36815 23592 51464 32864 20595 14215 23663 22897 13223 13549 28567 6380 4625 21055 8646 9918 7512 22946 18332 9348 7306 6980 11288 19658 2997 14354 1430
internal_count=144806 60478 84328 36815 23592 51464 32864 20595 14215 23663 22897 13223 13549 28567 6380 4625 21055 8646 9918 7512 22946 18332 9348 7306 6980 11288 19658 2997 14354 1430
cat_boundaries=0 2 5 7 9 11 13 15 17 19 21 23 26 28 31 33
cat_threshold=578822290 338706640 1028 3758096384 1 0 332288 33554448 67125328 449064960 2915589444 138482240 2839547908 8396800 2684354560 459008 13108480 12910848 4719872 134217728 34083072 1212158208 683693056 69357060 1107312662 1 86196560 163840 1073761808 537219610 1 0 536870912
is_linear=0
shrinkage=0.05


Tree=25
num_leaves=31
num_cat=15
split_feature=0 0 13 0 13 0 13 3 4 4 0 13 13 3 13 0 13 4 13 4 13 13 13 4 13 13 13 10 13 3
split_gain=25994.4 3564.4 4826.42 3248.53 1595.17 884.114 709.75 704.376 460.531 449.766 465.168 370.393 329.635 251.104 239.361 250.804 233.246 199.099 205.317 192.617 167.799 159.276 142.236 141.137 161.922 120.144 99.2078 93.5176 91.5917 85.5541
threshold=17.500000000000004 7.5000000000000009 0 42.500000000000007 1 27.500000000000004 2 67.500000000000014 19.500000000000004 18.500000000000004 14.000000000000002 3 4 22.500000000000004 5 14.000000000000002 6 17.500000000000004 7 11.500000000000002 8 9 10 19.500000000000004 11 12 13 10.500000000000002 14 14.000000000000002
decision_type=2 2 9 2 9 2 9 2 2 2 2 9 9 2 9 2 9 2 9 2 9 9 9 2 9 9 9 2 9 2
left_child=1 6 14 5 11 12 -1 20 21 13 -11 -4 16 19 -3 29 -2 18 -7 26 -5 -8 -19 24 -14 -25 -6 -20 -12 -16
right_child=3 2 4 7 9 17 8 -9 -10 10 28 -13 23 -15 15 -17 -18 22 27 -21 -22 -23 -24 25 -26 -27 -28 -29 -30 -31
leaf_value=-0.2080421798413756 -0.00013523551422647273 0.006301570158624337 -0.0059951120603995989 0.44059190986615104 -0.071618987561883785 0.091316739688380721 -0.22585061212806892 1.3726982578162368 -0.22319857066370796 -0.088156597400930903 0.0021040222765691396 -0.058422492060695858 0.022981145152257378 0.10999570047431817 0.006301570158624337 -0.0015781715407628739 -0.00020811556228679252 -0.077026581404884456 0.23337429416851807 -0.07878218598957272 0.32756822645439387 -0.17816459711273797 0.11917582844550695 0.016523200504622082 0.39601401768236966 -0.030641296344908399 0.055692218913566106 0.15788280791630083 -0.059305051860093987 -0.0082459231390979333
leaf_weight=13959 445 2454 3801 13751 2252 5921 7593 8475 4318 3451 1148 6749 7424 1865 1497 880 11104 1125 7572 5549 10638 1598 6387 694 1735 1495 1666 7562 1513 185
leaf_count=13959 445 2454 3801 13751 2252 5921 7593 8475 4318 3451 1148 6749 7424 1865 1497 880 11104 1125 7572 5549 10638 1598 6387 694 1735 1495 1666 7562 1513 185
internal_value=0.000128448 -0.0248867 -0.013814 0.0180687 -0.021904 0.0102266 -0.0381935 0.0303493 -0.0299319 -0.0126046 -0.0235438 -0.0372538 0.00290649 -0.0067155 0.0313172 0.0204121 -0.00304092 0.0160937 0.018587 -0.010019 0.0260343 -0.0236264 0.00910543 0.00895404 0.011688 -0.00244404 -0.00153139 0.0216786 -0.0078354 0.0318074
internal_weight=144806 60478 33010 84328 27994 51464 27468 32864 13509 17444 6112 10550 22897 11332 5016 2562 11549 28567 21055 9467 24389 9191 7512 11348 9159 2189 3918 15134 2661 1682
internal_count=144806 60478 33010 84328 27994 51464 27468 32864 13509 17444 6112 10550 22897 11332 5016 2562 11549 28567 21055 9467 24389 9191 7512 11348 9159 2189 3918 15134 2661 1682
cat_boundaries=0 3 5 7 9 11 13 15 17 20 22 24 26 28 30 32
cat_threshold=1115825158 3758096384 1 536870928 69730752 578822290 2972712960 536870912 2097280 314847232 2907200836 8396800 536870912 8396800 2684354560 149229824 13241600 67110400 33903126 1 138874880 214454336 1212158208 675304448 220414288 8552448 336 1073873408 73728256 12583940 268517952 20971526
is_linear=0
shrinkage=0.05


Tree=26
num_leaves=31
num_cat=15
split_feature=0 0 13 0 13 0 13 0 4 4 0 13 13 13 13 0 3 4 13 13 4 13 13 13 3 13 13 4 10 13
split_gain=25033 3463.97 4616.94 3062.79 1519.74 824.796 782.42 766.224 505.688 410.523 425.937 385.583 316.4 239.524 231.74 232.514 204.767 194.836 221.113 185.061 175.668 203.231 184.342 170.638 131.103 124.819 113.457 101.235 97.9953 93.6467
threshold=17.500000000000004 7.5000000000000009 0 42.500000000000007 1 27.500000000000004 2 72.500000000000014 19.500000000000004 17.500000000000004 14.000000000000002 3 4 5 6 14.000000000000002 22.500000000000004 17.500000000000004 7 8 18.500000000000004 9 10 11 37.500000000000007 12 13 21.500000000000004 11.500000000000002 14
decision_type=2 2 9 2 9 2 9 2 2 2 2 9 9 9 9 2 2 2 9 9 2 9 9 9 2 9 9 2 2 9
left_child=1 6 14 5 11 12 -1 20 19 16 27 -4 13 -2 -3 29 23 18 -7 -8 22 -22 -5 -6 -14 -19 -12 -11 -20 -16
right_child=3 2 4 7 9 17 8 -9 -10 10 26 -13 24 -15 15 -17 -18 25 28 -21 21 -23 -24 -25 -26 -27 -28 -29 -30 -31
leaf_value=-0.19764007084930679 -0.00012847373851521127 0.0059864916506930932 -0.055501367457661037 0.43295848005579107 -0.069392916380507152 0.090209645069458597 -0.21342272890754926 1.5998539050023586 -0.21203864213052254 -0.096287790031860609 0.0037227151011594017 -0.0056953564573795747 0.021832087894644484 -0.00019770978417241736 0.0059864916506930932 0.00032396848483369213 0.12392273955346411 -0.073175252334640284 0.21902429676288088 -0.21397143233505833 0.4360033954857272 0.073887171239265831 0.31726127216988331 0.0026613493084754582 0.33295247462723143 0.11321703702323163 -0.056983704277386242 -0.079211562854451245 0.15213179383028114 0.0064920218985567331
leaf_weight=14940 445 2515 6520 13668 5748 6725 5381 7326 4084 2624 878 3801 8757 12219 1303 1013 1570 1125 7830 3063 1989 1920 7961 2905 1476 6387 2434 1318 6500 381
leaf_count=14940 445 2515 6520 13668 5748 6725 5381 7326 4084 2624 878 3801 8757 12219 1303 1013 1570 1125 7830 3063 1989 1920 7961 2905 1476 6387 2434 1318 6500 381
internal_value=-0.000145022 -0.0246933 -0.0137776 0.0174604 -0.0218714 0.00984572 -0.0378113 0.0293847 -0.0285053 -0.0128696 -0.0219741 -0.0370874 0.00277547 -0.00250907 0.0293757 0.0190063 -0.00642179 0.0155127 0.0179791 -0.0215419 0.0252956 0.0155411 0.0270586 -0.00943603 0.0093088 0.00859957 -0.00875604 -0.0330797 0.0214923 0.0304632
internal_weight=144806 60478 33010 84328 27798 51464 27468 32864 12528 17477 7254 10321 22897 12664 5212 2697 10223 28567 21055 8444 25538 3909 21629 8653 10233 7512 3312 3942 14330 1684
internal_count=144806 60478 33010 84328 27798 51464 27468 32864 12528 17477 7254 10321 22897 12664 5212 2697 10223 28567 21055 8444 25538 3909 21629 8653 10233 7512 3312 3942 14330 1684
cat_boundaries=0 3 5 7 9 11 13 15 17 19 21 24 26 28 30 32
cat_threshold=1117922310 3758096384 1 536870912 69730752 578822802 2972729344 0 67633472 449064960 2907200836 8396800 2684354560 8396802 536870912 216338688 13241600 134680576 71831616 69337092 328214 19968 1074090518 1 268767504 12583936 1212158208 675304448 16960 20971526 33554432 2147483648
is_linear=0
shrinkage=0.05


Tree=27
num_leaves=31
num_cat=14
split_feature=0 13 0 0 13 0 13 0 13 4 13 13 4 3 13 13 0 13 3 3 4 13 13 0 13 13 10 10 4 13
split_gain=25307 3298.8 2965.6 1396.5 1512.87 858.191 851.011 810.116 554.169 417.856 610.975 370.208 344.387 476.479 342.554 304.882 276.627 276.339 275.963 227.965 197.83 194.748 171.812 164.182 160.663 157.177 152.432 145.235 136.234 125.23
threshold=17.500000000000004 0 42.500000000000007 7.5000000000000009 1 14.000000000000002 2 22.500000000000004 3 19.500000000000004 4 5 12.500000000000002 14.000000000000002 6 7 7.5000000000000009 8 14.000000000000002 14.000000000000002 19.500000000000004 9 10 72.500000000000014 11 12 10.500000000000002 11.500000000000002 18.500000000000004 13
decision_type=2 9 2 2 9 2 9 2 9 2 9 9 2 2 9 9 2 9 2 2 2 9 9 2 9 9 2 2 2 9
left_child=1 8 7 9 5 19 23 15 16 10 -3 -7 21 -14 -9 -2 -1 18 29 22 27 -6 -5 -4 -12 -8 28 -16 -27 -18
right_child=2 3 6 4 12 11 25 14 -10 -11 24 -13 13 -15 20 -17 17 -19 -20 -21 -22 -23 -24 -25 -26 26 -28 -29 -30 -31
leaf_value=-0.20225348742105353 -0.00012205005158953952 -0.18775806730684144 0.57902073832013989 0.0056871670681584163 -0.064568392364764193 -0.00019531805337642539 0.077462030641109 0.050017316561212513 -0.18775806730684144 -0.20073956278760399 -0.20009839038072066 0.0013098232727857706 -0.083330664183206171 -0.058454683024447097 0.19641921036090348 -0.00017599031058885829 0.0058904848491344811 -0.028859914070644789 -0.00027202559310035568 -0.024538957649790395 0.082573561433080311 0.050638751510643766 0.00024269403825076809 1.549737772252241 0.0012829358073979337 0.41523741029175909 0.27978693719431469 0.12643644325808198 0.2655447368585751 -0.002843072107455491
leaf_weight=6297 432 4269 4430 2275 3371 602 1004 14541 11328 4010 4510 1091 5545 8434 11347 11758 373 3497 424 288 3387 2338 306 5488 1231 11631 8197 9999 2114 289
leaf_count=6297 432 4269 4430 2275 3371 602 1004 14541 11328 4010 4510 1091 5545 8434 11347 11758 373 3497 424 288 3387 2338 306 5488 1231 11631 8197 9999 2114 289
internal_value=-0.00094195 -0.0256242 0.0167596 -0.0167137 -0.00945567 0.0164698 0.0284932 0.00926667 -0.0409533 -0.0292796 -0.0238162 -0.0117247 -0.0154635 -0.0196974 0.0127616 -0.00199344 -0.0327824 -0.0234672 -0.00127737 0.0331649 0.016342 -0.00512349 0.0378729 0.0407534 -0.0130847 0.0231661 0.024057 0.0181299 0.0272863 0.0188822
internal_weight=144806 60478 84328 38270 24250 4562 32864 51464 22208 14020 10010 1693 19688 13979 39274 12190 10880 4583 1086 2869 24733 5709 2581 9918 5741 22946 21942 21346 13745 662
internal_count=144806 60478 84328 38270 24250 4562 32864 51464 22208 14020 10010 1693 19688 13979 39274 12190 10880 4583 1086 2869 24733 5709 2581 9918 5741 22946 21942 21346 13745 662
cat_boundaries=0 2 5 7 9 11 13 15 17 19 21 23 25 27 28
cat_threshold=545267858 338706624 1176634372 3758096386 1 0 332288 8208 67125312 33558528 2684354560 33554432 536870912 147132672 97148224 41951232 2684354560 8208 16384 327936 13108480 33554432 2684354560 157761536 134746370 69888 151128064 8192
is_linear=0
shrinkage=0.05


Tree=28
num_leaves=31
num_cat=13
split_feature=0 13 0 13 13 4 4 13 0 10 13 0 13 13 3 0 4 13 13 13 13 3 4 13 13 4 3 4 3 10
split_gain=19927.9 8213.42 2500.61 2457.4 1005.31 919.295 651.372 599.163 409.133 334.042 290.923 602.458 741.94 620.244 326.207 284.392 262.841 257.171 205.313 190.662 184.334 180.805 159.992 152.471 151.058 114.48 112.49 91.6032 91.5899 89.2184
threshold=7.5000000000000009 0 22.500000000000004 1 2 18.500000000000004 19.500000000000004 3 22.500000000000004 11.500000000000002 4 14.000000000000002 5 6 14.000000000000002 14.000000000000002 12.500000000000002 7 8 9 10 14.000000000000002 19.500000000000004 11 12 17.500000000000004 27.500000000000004 21.500000000000004 27.500000000000004 11.500000000000002
decision_type=2 9 2 9 9 2 2 9 2 2 9 2 9 9 2 2 2 9 9 9 9 2 2 9 9 2 2 2 2 2
left_child=4 3 7 20 -1 9 17 15 -7 23 11 13 -13 21 16 -3 -12 -6 -10 25 -2 -9 -15 -5 -11 29 -21 -18 -16 -4
right_child=1 2 19 5 6 8 -8 10 18 24 14 12 -14 22 28 -17 27 -19 -20 26 -22 -23 -24 -25 -26 -27 -28 -29 -30 -31
leaf_value=-0.17837016394149938 0.48081480504886048 -0.097910794544913318 0.15325825222460931 0.20159016167455004 -0.19336368909682974 -0.061194057406717219 -0.19139973188461623 0.005402808714750496 0.60636752433603114 0.13411294498466458 -0.054423536563204422 -0.00018555215070756859 0.010726135261794846 0.059360998070332016 -0.011556186966650284 -0.039919295087100619 -0.10516707659145395 -0.12227614293978838 0.093574489912200687 0.000711297171667269 0.45975088363962868 -0.026958570121210546 -0.063717319351053001 0.39054868553841371 0.20378401979099214 0.056201354404614184 0.06291491048879809 -0.071084451502568327 0.072595893565653574 0.096906959524316966
leaf_weight=14940 3430 4186 6167 6458 6756 2261 4084 1389 786 6889 2750 1017 2937 200 11490 3369 3487 1688 6195 6173 9799 54 386 14628 8312 3093 5911 735 1916 3320
leaf_count=14940 3430 4186 6167 6458 6756 2261 4084 1389 786 6889 2750 1017 2937 200 11490 3369 3487 1688 6195 6173 9799 54 386 14628 8312 3093 5911 735 1916 3320
internal_value=0.00154828 0.0105226 -0.00272743 0.0237289 -0.0367883 0.0182075 -0.0262642 -0.0115373 0.0041333 0.0217971 -0.00796898 0.00172701 -0.00963581 0.0238788 -0.0108152 -0.0239458 -0.0195927 -0.0183562 0.0101203 0.00938615 0.0427034 0.0413283 -0.0194631 0.0258702 0.016147 0.0136934 0.00488672 -0.0274278 -0.00625839 0.0164277
internal_weight=144806 117338 58580 58758 27468 45529 12528 33916 9242 36287 26361 5983 3954 2029 20378 7555 6972 8444 6981 24664 13229 1443 586 21086 15201 12580 12084 4222 13406 9487
internal_count=144806 117338 58580 58758 27468 45529 12528 33916 9242 36287 26361 5983 3954 2029 20378 7555 6972 8444 6981 24664 13229 1443 586 21086 15201 12580 12084 4222 13406 9487
cat_boundaries=0 3 5 7 9 11 13 15 17 18 21 23 25 27
cat_threshold=1721912838 3257258642 1 545259522 2425472 578822802 2972729344 0 67633472 16785472 553650176 8192 536870912 8192 536870912 23531520 201855298 69337088 419430480 679477260 2 8388608 512 1143078912 2147500032 69337092 1107345408
is_linear=0
shrinkage=0.05


Tree=29
num_leaves=31
num_cat=17
split_feature=0 13 2 0 0 13 13 4 13 0 4 3 13 13 13 13 4 13 13 13 0 4 13 13 3 13 13 13 13 4
split_gain=25718.1 3374.21 2533.26 897.966 891.592 869.713 598.527 534.609 468.798 459.606 424.886 397.568 405.984 335.681 330.114 325.961 291.131 291.784 247.208 212.435 211.049 234.764 166.681 154.619 147.95 144.848 132.301 126.534 117.062 110.831
threshold=17.500000000000004 0 47.500000000000007 27.500000000000004 7.5000000000000009 1 2 19.500000000000004 3 11.500000000000002 19.500000000000004 14.000000000000002 4 5 6 7 17.500000000000004 8 9 10 7.5000000000000009 18.500000000000004 11 12 14.000000000000002 13 14 15 16 11.500000000000002
decision_type=2 9 2 2 2 9 9 2 9 2 2 2 9 9 9 9 2 9 9 9 2 2 9 9 2 9 9 9 9 2
left_child=1 19 3 13 7 11 -4 8 -3 10 15 12 -6 26 -13 -7 17 -5 25 20 -1 -22 -10 -8 -23 -11 -2 -18 -15 -17
right_child=2 4 6 16 5 9 23 -9 22 18 -12 14 -14 28 -16 29 27 -19 -20 -21 21 24 -24 -25 -26 -27 -28 -29 -30 -31
leaf_value=-0.16872688473871378 -0.0085685700478643767 -0.18564489541107251 1.4367633394576473 0.22515124044588328 0.0051326682790129759 -0.09301525481766762 0.47946119843909474 -0.18113259805399304 -0.18042528640684319 -0.047807600179200542 -0.067530228927439942 -0.00017627454317219461 -0.0098489487473893082 0.046086394109339859 0.047915060648007927 0.0049498388019646455 0.11769824912297332 0.11145443920592034 0.0033520387582597344 -0.16945165574442439 -0.0047863922747991344 0.0053258201709402543 0.0073325961640175134 0.23722251144880283 -0.00024914670590998612 -0.05338989314242451 -0.00010666994147463528 0.019856801224599964 0.0033559239267979993 -0.14140907803279099
leaf_weight=4792 1618 5137 5627 16167 1233 3490 12983 4647 4510 1324 3337 479 720 4609 1130 1691 5204 12860 3556 11328 1911 205 1231 4523 60 6475 445 4355 15937 3222
leaf_count=4792 1618 5137 5627 16167 1233 3490 12983 4647 4510 1324 3337 479 720 4609 1130 1691 5204 12860 3556 11328 1911 205 1231 4523 60 6475 445 4355 15937 3222
internal_value=-0.0022354 -0.0271173 0.0156093 0.0102811 -0.0193236 -0.0137806 0.0297043 -0.0288535 -0.0227891 -0.0173231 -0.0242675 0.00921053 0.0243984 0.00236853 -0.00916718 -0.0182732 0.0149173 0.0174097 -0.0101585 -0.0450508 -0.0379048 -0.025046 -0.0128934 0.0250913 0.0190566 -0.01513 -0.0168114 0.0073491 0.00430045 -0.0099025
internal_weight=144806 60478 84328 61195 42182 26657 23133 15525 10878 23095 11740 3562 1953 22609 1609 8403 38586 29027 11355 18296 6968 2176 5741 17506 265 7799 2063 9559 20546 4913
internal_count=144806 60478 84328 61195 42182 26657 23133 15525 10878 23095 11740 3562 1953 22609 1609 8403 38586 29027 11355 18296 6968 2176 5741 17506 265 7799 2063 9559 20546 4913
cat_boundaries=0 2 5 7 9 11 13 15 17 20 23 25 27 30 32 34 36 39
cat_threshold=578822274 2419064960 1159857172 1610612738 1 0 327680 4112 603996224 16 536870912 41951232 2701656064 0 536870912 0 67633472 1342197328 1661325850 3 138743808 180880704 2 33562624 2147483648 157761536 134746370 337775620 21010 1 0 524544 33554432 17301504 86458964 1091177030 1073890836 1107428890 1
is_linear=0
shrinkage=0.05


Tree=30
num_leaves=31
num_cat=13
split_feature=0 13 0 0 0 13 2 4 13 2 13 13 3 13 4 13 0 4 4 13 4 13 13 4 13 0 3 13 0 13
split_gain=24649.9 3298.29 2542.35 849.944 823.951 764.568 597.255 542.211 494.467 366.917 291.649 236.858 649.7 229.92 212.746 192.778 211.049 234.764 181.678 179.879 175.062 199.463 172.812 167.189 161.858 148.914 147.95 140.48 134.705 132.613
threshold=17.500000000000004 0 42.500000000000007 7.5000000000000009 72.500000000000014 1 27.500000000000004 19.500000000000004 2 11.500000000000002 3 4 14.000000000000002 5 11.500000000000002 6 7.5000000000000009 18.500000000000004 17.500000000000004 7 18.500000000000004 8 9 18.500000000000004 10 14.000000000000002 14.000000000000002 11 22.500000000000004 12
decision_type=2 9 2 2 2 9 2 2 9 2 9 9 2 9 2 9 2 2 2 9 2 9 9 2 9 2 2 9 2 9
left_child=1 15 6 7 22 9 10 8 -3 14 -2 12 -7 -14 29 16 -1 -18 -13 -10 21 -8 -4 -24 -11 -20 -19 -12 -29 -5
right_child=2 3 4 5 -6 11 20 -9 19 24 27 18 13 -15 -16 -17 17 26 25 -21 -22 -23 23 -25 -26 -27 -28 28 -30 -31
leaf_value=-0.1602905405017781 -0.0001013364444009568 -0.17636265064051884 0.45650893698914213 0.091164414402964328 1.360642359984765 0.0048760348650623625 0.058309489348467913 -0.17207596815129333 -0.17140402208650107 -0.045417220170240483 -0.0022357091856463284 0.0089291108204815114 -0.00016746081601359819 0.38335078306417336 -0.074175350916610053 -0.16097907295720315 -0.004547072661059204 0.0050595291623932509 -0.081988288965120587 0.0069659663558166336 0.057965695139701449 0.17794472546762866 0.28520355562983291 0.11257407149733041 -0.05117286446915497 -0.012020508514944961 -0.00023668937061449569 -0.00040535344033738597 0.060052235411385095 -0.089131101061159346
leaf_weight=4792 491 5137 6332 588 7326 1271 7575 4647 4378 2092 7017 3380 479 178 6981 11328 1911 205 1234 1363 5283 14619 16556 2650 7322 1386 60 6231 10248 1746
leaf_count=4792 491 5137 6332 588 7326 1271 7575 4647 4378 2092 7017 3380 479 178 6981 11328 1911 205 1234 1363 5283 14619 16556 2650 7322 1386 60 6231 10248 1746
internal_value=-0.00264354 -0.0270032 0.0148266 -0.0192975 0.0256907 -0.0138857 0.00788901 -0.0286023 -0.0224949 -0.01939 0.00212407 -0.000856639 0.0143447 -0.0259513 -0.0264359 -0.044734 -0.0379048 -0.025046 -0.00575707 -0.012337 0.0129217 0.0148689 0.0214504 0.0190466 -0.0124389 -0.0156489 0.0190566 0.00292691 0.00544909 -0.0133676
internal_weight=144806 60478 84328 42182 32864 26657 51464 15525 10878 18729 23987 7928 1928 657 9315 18296 6968 2176 6000 5741 27477 22194 25538 19206 9414 2620 265 23496 16479 2334
internal_count=144806 60478 84328 42182 32864 26657 51464 15525 10878 18729 23987 7928 1928 657 9315 18296 6968 2176 6000 5741 27477 22194 25538 19206 9414 2620 265 23496 16479 2334
cat_boundaries=0 2 5 7 9 11 13 15 17 19 21 23 25 27
cat_threshold=578822274 2419064960 402985216 80368968 2 4112 603996224 41951232 2684354560 1073742852 1610612736 0 536870912 33562624 2147483648 157499392 134746370 484770048 558515456 67108864 348676 0 545088 4198400 88608000 402722816 20480
is_linear=0
shrinkage=0.05


Tree=31
num_leaves=31
num_cat=13
split_feature=0 0 13 3 13 4 13 13 13 3 2 13 4 13 0 13 13 13 0 0 3 5 5 13 0 13 0 13 0 4
split_gain=23037.3 3966.76 2244.42 1242.83 1189.61 1070.03 497.897 458.994 408.745 284.065 261.067 757.966 246.808 249.391 205.498 751.341 204.148 193.618 193.098 176.807 174.875 115.929 127.054 115.237 112.724 105.438 101.784 99.8119 107.337 99.5911
threshold=14.000000000000002 32.500000000000007 0 67.500000000000014 1 19.500000000000004 2 3 4 17.500000000000004 7.5000000000000009 5 17.500000000000004 6 7.5000000000000009 7 8 9 7.5000000000000009 82.500000000000014 37.500000000000007 1.5000000000000002 4.5000000000000009 10 17.500000000000004 11 17.500000000000004 12 22.500000000000004 19.500000000000004
decision_type=2 2 9 2 9 2 9 9 9 2 2 9 2 9 2 9 9 9 2 2 2 2 2 9 2 9 2 9 2 2
left_child=2 4 7 12 24 10 9 -1 18 26 17 -12 13 -3 -9 -16 -14 -4 -7 -5 23 -11 -23 -8 -2 -17 29 28 -26 -6
right_child=1 3 5 19 6 8 20 14 -10 21 11 -13 16 -15 15 25 -18 -19 -20 -21 -22 22 -24 -25 27 -27 -28 -29 -30 -31
leaf_value=-0.15293011930934297 -0.026527906150419736 0.3048975769572117 -0.15135127844184482 0.5556138951154086 -0.051363499490934751 -0.15042417166918787 0.0015966739548801457 -0.15300078448239979 -0.16149455851488492 -0.0029895019444174942 0.0046322331218092037 -0.10627508300942257 0.35104139575242038 0.15872911892771777 0.0057924934177331806 -0.014161848353152973 0.095986733266351723 -0.14637612310438408 0.0046322331218092037 1.7795164919855269 0.28055349842522315 0.026792566398750141 -0.0021497933304077677 0.010685129138209249 -9.6269622180855674e-05 -0.058248372544318007 -0.0030798713513567224 -0.12286650521113494 0.060275708998675806 0.010541366787816654
leaf_weight=11028 2100 18454 4344 4598 4029 256 722 10426 5550 4306 938 6071 1870 12793 351 3790 8108 2627 508 4075 3251 7997 3944 15208 337 1049 4135 877 66 998
leaf_count=11028 2100 18454 4344 4598 4029 256 722 10426 5550 4306 938 6071 1870 12793 351 3790 8108 2627 508 4075 3251 7997 3944 15208 337 1049 4135 877 66 998
internal_value=-0.00254202 0.0112693 -0.0313392 0.0211391 0.00100271 -0.0187796 0.00317265 -0.0408832 -0.0358727 -0.00141823 -0.011073 -0.00425881 0.0175197 0.0197059 -0.0352745 -0.0271676 0.0106735 -0.0179243 -0.00129199 0.0383431 0.00925173 0.00255124 0.00508751 0.00709981 -0.0275516 -0.0322644 -0.00845885 -0.0159375 -0.0361985 -0.0132385
internal_weight=144806 97868 46938 49898 47970 20294 44590 26644 6314 25409 13980 7009 41225 31247 15616 5190 9978 6971 764 8673 19181 16247 11941 15930 3380 4839 9162 1280 403 5027
internal_count=144806 97868 46938 49898 47970 20294 44590 26644 6314 25409 13980 7009 41225 31247 15616 5190 9978 6971 764 8673 19181 16247 11941 15930 3380 4839 9162 1280 403 5027
cat_boundaries=0 2 4 6 8 11 13 15 16 18 20 22 24 26
cat_threshold=578826898 2502967504 33554432 2684879104 407179520 163763200 545259650 271581312 0 536903680 1 1075855428 570427392 1476414976 1107677714 8192 69337088 328196 4390912 671613184 8389632 528 33554432 2214592576 0 2684354560
is_linear=0
shrinkage=0.05


Tree=32
num_leaves=31
num_cat=14
split_feature=0 13 13 0 13 4 4 13 13 13 10 13 0 0 3 4 13 3 3 10 13 3 0 13 13 13 0 13 13 9
split_gain=17953.9 7753.89 2895.87 2300.72 1049.56 966.702 657.128 558.635 463.383 445.435 326.392 298.885 294.292 201.736 191.691 160.8 165.711 200.471 169.276 152.662 142.05 134.035 155.313 346.016 125.554 122.106 114.715 216.106 105.603 105.359
threshold=7.5000000000000009 0 1 17.500000000000004 2 19.500000000000004 19.500000000000004 3 4 5 11.500000000000002 6 14.000000000000002 27.500000000000004 22.500000000000004 12.500000000000002 7 14.000000000000002 14.000000000000002 6.5000000000000009 8 72.500000000000014 17.500000000000004 9 10 11 14.000000000000002 12 13 15.500000000000002
decision_type=2 9 9 2 9 2 2 9 9 9 2 9 2 2 2 2 9 2 2 2 9 2 2 9 9 9 2 9 9 2
left_child=4 3 -3 7 -1 9 11 26 20 21 19 -6 -10 25 15 -9 17 -17 -18 -11 -7 22 -4 -24 -15 -5 -2 -28 -19 -21
right_child=1 2 5 13 6 8 -8 14 12 10 -12 -13 -14 24 -16 16 18 28 -20 29 -22 -23 23 -25 -26 -27 27 -29 -30 -31
