tree
version=v4
num_class=1
num_tree_per_iteration=1
label_index=0
max_feature_idx=14
objective=regression_l1
feature_names=wait_minutes wait_lag_1 wait_lag_2 wait_lag_3 hour_of_day day_of_week month is_holiday is_holiday_weekend days_until_next_holiday days_since_last_holiday minutes_since_last_status_change closure_duration_minutes ride_id_cat status_cat
feature_infos=[0:300] [0:300] [0:300] [0:300] [8:22] [0:6] [5:6] [0:1] [0:1] [0:24] [0:35] [19.970549999999999:3759.8767500000004] [0:670] -1:28:58:55:47:8:27:56:54:38:48:33:16:61:59:65:41:2:64:12:51:63:18:22:36:13:14:40:24:50:26:6:44:10:46:42:49:11:62:9:43:34:23:17:21:30:57:52:39:29:1:25:7:4:53:60:35 none
tree_sizes=2439 2881 2986 2997 3028 3032 3019 3042 3080 3058 3043 3066 3046 3050 3073 3057 3049 3042 3058 3065 3042 3063 3064 3052 3046 3010 3023 3052 3014 3016 3010 3074 3047 3056 3055 3044 3066 3020 3051 3041 3026 3060 3068 3069 3099 3038 3057 3081 3068 3068 3083 3076 3074 3103 3078 3095 3055 3078 3068 3069 3064 3066 3087 3071 3078 3098 3078 3054 3054 3057 3061 3092 3081 3039 3030 3101 3064 3051 3069 3071 3024 3090 3036 3046 3094 3036 3081 3077 3083 3049 3027 3015 3018 3023 3014 2996 2986 2982 2988 3002 2990 2995 2995 3000 3009 2998 3019 3030 3084 2997 2991 2986 2988 2984 2989 2971 3002 3000 2997 2993 2989 2994 3005 2996 3053 3079 3035 2997 3039 3020 2994 3031 3078 2983 3036 2980 2978 2990 2949 2984 2958 3054 3049 3038 3024 2979 2982 2991 2972 2978 2988 2983 2989 2987 3000 2948 2999 2942 2952 2969 2982 2975 2969 2994 2946 2942 2973 3011 2990 3018 3026 3050 3004 3022 3029 3056 3047 2946 2990 2971 3008 3007 2986 2972 2945 2976 2978 2970 3005 3017 3062 3015 2994 3059 3049 3075 3040 2981 2982 3016

Tree=0
num_leaves=31
num_cat=10
split_feature=0 13 13 3 4 4 13 4 13 4 13 2 2 3 3 2 0 13 13 0 0 4 4 10 3 3 13 0 13 13
split_gain=69648.3 6304.14 4082.72 1823.89 1467.09 866.502 955.418 726.152 509.771 504.85 530.606 454.906 383.047 263.611 159.197 151.791 146.874 145.454 128.205 127.891 124.128 113.017 109.689 106.302 100.417 97.7375 96.9955 96.3755 94.8367 92.0263
threshold=22.500000000000004 0 1 27.500000000000004 18.500000000000004 19.500000000000004 2 18.500000000000004 3 18.500000000000004 4 17.500000000000004 37.500000000000007 27.500000000000004 27.500000000000004 37.500000000000007 32.500000000000007 5 6 42.500000000000007 14.000000000000002 16.500000000000004 18.500000000000004 11.500000000000002 32.500000000000007 27.500000000000004 7 27.500000000000004 8 9
decision_type=2 9 9 2 2 2 9 2 9 2 9 2 2 2 2 2 2 9 9 2 2 2 2 2 2 2 9 2 9 9
left_child=2 5 11 9 8 12 19 15 13 10 16 18 17 20 -13 28 -3 -2 21 -7 -4 -1 27 -22 -8 -6 -12 -19 -5 -10
right_child=1 3 4 7 25 6 24 -9 29 -11 26 14 -14 -15 -16 -17 -18 22 -20 -21 23 -23 -24 -25 -26 -27 -28 -29 -30 -31
leaf_value=24.5 25.25 25 24.5 25.25 24.25 25.25 24.75 24.75 25 24.5 25 24.5 26.25 25.25 24.75 25.75 25.25 25.25 24.25 26.75 25 24 25.25 24.75 25 24.75 24.75 25.75 25.25 25.25
leaf_weight=4985 1352 3753 1971 4768 3641 868 748 1297 1566 1582 2029 6352 30984 1258 1003 3445 1541 1395 37180 1957 1595 3413 631 2145 1134 990 1715 8545 1389 1239
leaf_count=4985 1352 3753 1971 4768 3641 868 748 1297 1566 1582 2029 6352 30984 1258 1003 3445 1541 1395 37180 1957 1595 3413 631 2145 1134 990 1715 8545 1389 1239
internal_value=24.997 25.0323 24.9608 25.0098 24.9845 25.0424 25.0221 25.0242 24.9954 24.9951 24.9996 24.9544 25.0447 24.9882 24.9659 25.0289 25.0098 25.037 24.9525 25.0404 24.9836 24.9585 25.039 24.989 24.9944 24.9613 24.9852 25.0404 25.0242 25.0134
internal_weight=136471 69133 67338 21519 14405 47614 4707 10899 9774 10620 9038 52933 42907 6969 7355 9602 5294 11923 45578 2825 5711 8398 10571 3740 1882 4631 3744 9940 6157 2805
internal_count=136471 69133 67338 21519 14405 47614 4707 10899 9774 10620 9038 52933 42907 6969 7355 9602 5294 11923 45578 2825 5711 8398 10571 3740 1882 4631 3744 9940 6157 2805
cat_boundaries=0 3 5 7 9 11 13 15 16 18 20
cat_threshold=1143098884 1107776018 3 717566098 3170387392 69340164 459264 354550016 16914436 293601344 696289292 131072 16384 134287360 142622720 134287616 150995024 159418372 16448 32770
is_linear=0
shrinkage=1


Tree=1
num_leaves=31
num_cat=10
split_feature=0 2 13 13 4 13 2 4 13 4 0 13 4 4 13 13 4 0 13 4 13 0 2 3 0 3 1 4 13 4
split_gain=62866.1 6233.48 4055.35 1351.15 1217.87 909.782 888.482 703.437 513.076 398.202 437.602 336.288 285.147 253.037 270.903 245.064 176.528 174.584 161.917 156.583 149.188 141.563 141.162 140.804 133.115 129.335 126.531 120.872 100.655 100.414
threshold=22.500000000000004 32.500000000000007 0 1 18.500000000000004 2 17.500000000000004 18.500000000000004 3 18.500000000000004 47.500000000000007 4 17.500000000000004 18.500000000000004 5 6 18.500000000000004 7.5000000000000009 7 16.500000000000004 8 27.500000000000004 17.500000000000004 27.500000000000004 27.500000000000004 42.500000000000007 27.500000000000004 21.500000000000004 9 19.500000000000004
decision_type=2 2 9 9 2 9 2 2 9 2 2 9 2 2 9 9 2 2 9 2 9 2 2 2 2 2 2 2 9 2
left_child=2 3 4 16 11 9 15 8 24 -3 18 22 25 14 -8 19 26 -13 29 -4 -9 -10 -1 -6 -5 -7 -2 -20 -19 -11
right_child=1 5 6 7 23 12 13 20 21 10 -12 17 -14 -15 -16 -17 -18 28 27 -21 -22 -23 -24 -25 -26 -27 -28 -29 -30 -31
leaf_value=-0.25 -0.012500000000000001 1.1875 -0.47500000000000003 0 -0.71250000000000002 0.46250000000000002 -0.22500000000000001 -0.23750000000000002 0.23750000000000002 0.23750000000000002 1.6875 -0.25 0.025000000000000001 -0.72500000000000009 -0.22500000000000001 -0.96250000000000002 -0.47500000000000003 0 0.5 -0.95000000000000007 0.025000000000000001 0.46250000000000002 -0.012500000000000001 -0.23750000000000002 0.23750000000000002 0.9375 0.012500000000000001 -0.012500000000000001 0.25 -0.23750000000000002
leaf_weight=2812 4177 30506 8122 2375 3521 4675 1782 1732 1245 708 3428 889 1610 1542 4108 32132 1152 1774 1410 5463 786 5173 2631 948 4417 2534 2335 237 1614 633
leaf_count=2812 4177 30506 8122 2375 3521 4675 1782 1732 1245 708 3428 889 1610 1542 4108 32132 1152 1774 1410 5463 786 5173 2631 948 4417 2534 2335 237 1614 633
internal_value=-0.0029259 0.0305664 -0.037311 0.00957165 -0.0135291 0.0413032 -0.0436492 0.0179534 0.0225814 0.0447579 0.0334476 -0.00360597 0.0267584 -0.0276238 -0.0229032 -0.046264 -0.00764269 0.00688127 0.0194612 -0.0404229 -0.00625496 0.0327162 -0.0118375 -0.0351421 0.0129374 0.0310376 -0.004461 0.0299034 0.012072 0.00636566
internal_weight=136471 69133 67338 23392 14189 45741 53149 15728 13210 36922 6416 9720 8819 7432 5890 45717 7664 4277 2988 13585 2518 6418 5443 4469 6792 7209 6512 1647 3388 1341
internal_count=136471 69133 67338 23392 14189 45741 53149 15728 13210 36922 6416 9720 8819 7432 5890 45717 7664 4277 2988 13585 2518 6418 5443 4469 6792 7209 6512 1647 3388 1341
cat_boundaries=0 3 5 8 10 12 14 16 19 22 25
cat_threshold=1428309828 1124243974 3 440733952 751306048 1142967812 1107759634 3 16908368 16828420 352452864 2052 4259856 142622736 138481664 146818072 1073758720 1073745938 2 16794176 16830486 3 64 16941056 2
is_linear=0
shrinkage=0.05


Tree=2
num_leaves=31
num_cat=10
split_feature=0 13 13 4 0 3 2 4 4 13 13 2 4 13 13 4 0 4 13 4 10 10 3 13 13 13 0 10 3 3
split_gain=62769.5 6043.05 4291.88 1324.96 1252.84 999.982 887.279 823.6 405.026 290.5 265.321 263.975 253.704 270.638 245.249 199.574 178.165 172.64 270.567 156.855 154.815 146.18 140.396 127.226 117.465 116.129 111.649 109.593 92.3653 90.7948
threshold=22.500000000000004 0 1 18.500000000000004 37.500000000000007 32.500000000000007 17.500000000000004 18.500000000000004 18.500000000000004 2 3 27.500000000000004 18.500000000000004 4 5 17.500000000000004 11.500000000000002 18.500000000000004 6 16.500000000000004 11.500000000000002 16.500000000000004 27.500000000000004 7 8 9 32.500000000000007 16.500000000000004 27.500000000000004 22.500000000000004
decision_type=2 9 9 2 2 2 2 2 2 9 9 2 2 9 9 2 2 2 9 2 2 2 2 9 9 9 2 2 2 2
left_child=2 4 3 10 7 8 14 11 9 -3 20 23 13 -8 19 -7 -12 28 -19 -4 -1 26 -5 -2 27 -9 -11 -18 -6 -15
right_child=1 5 6 22 17 15 12 25 -10 21 16 -13 -14 29 -16 -17 24 18 -20 -21 -22 -23 -24 -25 -26 -27 -28 -29 -30 -31
leaf_value=-0.011875000000000037 0.18937500000000007 -0.23687500000000006 -0.45124999999999993 -0.67687500000000012 0.68937500000000007 0.46437500000000009 -0.21374999999999994 -0.22562499999999996 -0.45124999999999993 0.00062499999999996456 -0.21250000000000002 0.48625000000000007 -0.68874999999999997 -0.21374999999999994 -0.91437500000000016 0.011250000000000072 0.025000000000000001 1.578125 0.41250000000000003 -0.90250000000000008 -0.46250000000000002 0 -0.22562499999999996 0.47562499999999996 0.47500000000000003 0.23625000000000007 0.23812499999999998 -0.22500000000000001 1.1893750000000001 -0.21374999999999994
leaf_weight=1348 1317 3001 8116 3534 1494 5244 1782 1437 2140 5613 2062 7549 1537 3187 32132 1369 2622 3509 1969 5453 1632 1901 950 1350 766 1079 2206 1298 27955 919
leaf_count=1348 1317 3001 8116 3534 1494 5244 1782 1437 2140 5613 2062 7549 1537 3187 32132 1369 2622 3509 1969 5453 1632 1901 950 1350 766 1079 2206 1298 27955 919
internal_value=-0.00275333 0.0307133 -0.037112 -0.012674 0.0406333 0.0086739 -0.043639 0.0272149 0.00148038 0.00486597 -0.00231805 0.0335258 -0.0276162 -0.022894 -0.0462517 0.0248526 0.00317402 0.0455364 0.0373859 -0.0404043 -0.0147157 0.00905961 -0.0351695 0.0200037 0.00856808 0.00158983 0.0120923 0.00501272 0.0470525 -0.029932
internal_weight=136471 69133 67338 14212 47659 21474 53126 12732 14861 12721 9728 10216 7425 5888 45701 6613 6748 34927 5478 13569 2980 9720 4484 2667 4686 2516 7819 3920 29449 4106
internal_count=136471 69133 67338 14212 47659 21474 53126 12732 14861 12721 9728 10216 7425 5888 45701 6613 6748 34927 5478 13569 2980 9720 4484 2667 4686 2516 7819 3920 29449 4106
cat_boundaries=0 3 6 8 10 12 14 16 18 21 24
cat_threshold=1151487492 1107776018 3 1428309828 1124243982 3 38015232 71828800 268435712 4 4259856 142622736 138481664 146818064 67111940 459264 69337600 147456 86114368 16943106 2 1073758720 20498 3
is_linear=0
shrinkage=0.05


Tree=3
num_leaves=31
num_cat=10
split_feature=0 13 13 4 1 3 2 4 13 2 4 13 3 4 0 4 13 0 4 13 3 13 13 4 13 4 2 4 0 13
split_gain=62254.1 6301.03 4172.89 1271.25 1222.01 1118.85 869.263 832.671 368.907 328.831 256.464 306.324 252.28 251.711 250.041 245.964 263.887 237.85 190.354 162.461 147.876 143.158 137.915 123.791 117.823 116.466 108.797 103.683 92.4892 90.4224
threshold=22.500000000000004 0 1 18.500000000000004 37.500000000000007 27.500000000000004 17.500000000000004 18.500000000000004 2 37.500000000000007 18.500000000000004 3 27.500000000000004 17.500000000000004 14.000000000000002 18.500000000000004 4 14.000000000000002 19.500000000000004 5 27.500000000000004 6 7 19.500000000000004 8 16.500000000000004 27.500000000000004 19.500000000000004 32.500000000000007 9
decision_type=2 9 9 2 2 2 2 2 9 2 2 9 2 2 2 2 9 2 2 9 2 9 9 2 9 2 2 2 2 9
left_child=2 4 6 8 7 13 17 12 14 18 -6 -12 19 21 -4 16 -8 -1 22 -2 -5 -3 28 -13 25 -19 -10 -11 -7 -9
right_child=1 5 3 20 10 9 15 29 26 27 11 23 -14 -15 -16 -17 -18 24 -20 -21 -22 -23 -24 -25 -26 -27 -28 -29 -30 -31
leaf_value=-0.86865625000000013 0.17990625000000016 0.00059374999999999294 -0.45187500000000008 -0.64303125000000017 1.098734375 0.22559375000000001 -0.2030624999999999 0.22443750000000018 0.02312499999999993 0.46068750000000008 1.49921875 0.4549999999999999 0.56865625000000009 -0.22503124999999999 -0.013124999999999965 -0.65431250000000007 -0.2030624999999999 -0.17868749999999986 -0.45306250000000009 0.45184374999999993 -0.21434374999999994 -3.1249999999971581e-05 0.058812500000000156 0.088140625000000042 -0.36865625000000013 -0.60737500000000011 0.45124999999999993 -0.46618749999999987 0.44115625000000008 -0.06309374999999999
leaf_weight=35643 1375 3685 2583 3759 28944 3055 1692 771 2711 3649 3561 1259 7463 2430 4710 1478 4092 1865 374 1883 996 4489 1456 768 6149 1027 633 109 2227 1635
leaf_count=35643 1375 3685 2583 3759 28944 3055 1692 771 2711 3649 3561 1259 7463 2430 4710 1478 4092 1865 374 1883 996 4489 1456 768 6149 1027 633 109 2227 1635
internal_value=-0.00298452 0.0303444 -0.0372019 -0.0143033 0.0404739 0.00784072 -0.0439757 0.0274968 -0.00470527 0.0191168 0.0454187 0.035612 0.0334624 -0.00371086 -0.0110023 -0.02794 -0.0232884 -0.0465916 0.0127953 0.0218539 -0.0358044 0.000489356 0.0147225 0.0197595 -0.0393485 -0.0305307 0.00903399 0.0310804 0.0184618 0.000914381
internal_weight=136471 69133 67338 15392 47659 21474 51946 13127 10637 10870 34532 5588 10721 10604 7293 7262 5784 44684 7112 3258 4755 8174 6738 2027 9041 2892 3344 3758 5282 2406
internal_count=136471 69133 67338 15392 47659 21474 51946 13127 10637 10870 34532 5588 10721 10604 7293 7262 5784 44684 7112 3258 4755 8174 6738 2027 9041 2892 3344 3758 5282 2406
cat_boundaries=0 3 5 7 9 11 13 15 17 19 21
cat_threshold=1151487492 1107776018 3 717566098 3170371024 352452864 16930820 69209092 459264 4259856 142606352 69337088 147456 285282368 679510024 419430480 151029772 138481680 142606352 67243012 131584
is_linear=0
shrinkage=0.05


Tree=4
num_leaves=31
num_cat=10
split_feature=0 13 13 4 1 2 2 4 4 4 3 3 4 13 3 13 13 4 3 13 4 3 13 0 10 13 13 3 0 13
split_gain=61969.1 6273.78 4354.6 1352.05 1174.19 990.263 889.845 772.142 425.856 293.823 306.276 264.184 254.461 269.513 252.28 248.516 245.249 232.998 187.323 162.461 156.855 140.396 124.311 122.911 108.638 104.772 98.6992 93.0237 88.9521 85.592
threshold=22.500000000000004 0 1 18.500000000000004 37.500000000000007 27.500000000000004 17.500000000000004 18.500000000000004 18.500000000000004 18.500000000000004 47.500000000000007 37.500000000000007 18.500000000000004 2 27.500000000000004 3 4 18.500000000000004 17.500000000000004 5 16.500000000000004 27.500000000000004 6 32.500000000000007 10.500000000000002 7 8 22.500000000000004 42.500000000000007 9
decision_type=2 9 9 2 2 2 2 2 2 2 2 2 2 9 2 9 9 2 2 9 2 2 9 2 2 9 9 2 2 9
left_child=2 4 3 15 7 17 16 14 11 -6 25 23 13 -8 19 -1 20 22 24 -2 -4 -5 -3 -7 -17 -11 -20 -15 -24 -9
right_child=1 5 6 21 9 8 12 29 -10 10 -12 -13 -14 27 -16 18 -18 -19 26 -21 -22 -23 28 -25 -26 -27 -28 -29 -30 -31
leaf_value=0.23509375000000007 0.17091093750000008 -0.22502968750000002 -0.41975312499999995 -0.61087968750000021 1.0437976562500002 0.21431406249999993 -0.19290937499999983 -0.21118906249999991 -0.18040937499999998 0.13224999999999998 1.4242578125000001 0.45300312499999995 -0.62159687500000005 -0.19290937499999983 0.54022343750000013 -0.17928125000000003 -0.82522343750000005 -0.41743593749999985 0.24759375000000006 0.42925156250000002 -0.81394218750000003 -0.20362656249999989 1.5624999999630519e-06 0.39312187500000012 -0.23809374999999999 0.44925781249999996 -0.00059374999999999294 -0.19290937499999983 0.26247031250000002 0.21321562500000013
leaf_weight=1479 1375 806 8116 3534 28944 3627 1782 1147 1341 766 3533 3364 1537 3187 7463 1602 32132 1529 595 1883 5453 950 7133 3245 2588 1289 3464 919 429 1259
leaf_count=1479 1375 806 8116 3534 28944 3627 1782 1147 1341 766 3533 3364 1537 3187 7463 1602 32132 1529 595 1883 5453 950 7133 3245 2588 1289 3464 919 429 1259
internal_value=-0.00292187 0.0303307 -0.0370608 -0.0124455 0.0404382 0.00787563 -0.0436352 0.0277177 0.0178069 0.0452855 0.0347888 0.0212778 -0.0275892 -0.0228601 0.0334624 -0.00198396 -0.0462517 -0.00373345 -0.0053699 0.0218539 -0.0404043 -0.0351695 -0.000454111 0.0156577 -0.0127924 0.0194404 0.00227889 -0.0298834 0.00154517 0.0021197
internal_weight=136471 69133 67338 14212 47659 21474 53126 13127 11577 34532 5588 10236 7425 5888 10721 9728 45701 9897 8249 3258 13569 4484 8368 6872 4190 2055 4059 4106 7562 2406
internal_count=136471 69133 67338 14212 47659 21474 53126 13127 11577 34532 5588 10236 7425 5888 10721 9728 45701 9897 8249 3258 13569 4484 8368 6872 4190 2055 4059 4106 7562 2406
cat_boundaries=0 3 6 8 11 13 15 17 20 22 25
cat_threshold=1151487492 1107776018 3 1428309828 1124243982 3 4259856 142622736 1073759748 1107296768 3 138481664 146818064 69337088 147456 4194304 4718912 1073758720 1073762320 2 2228224 4098 1073758720 33574930 2
is_linear=0
shrinkage=0.05


Tree=5
num_leaves=31
num_cat=10
split_feature=0 13 13 4 0 4 2 3 4 13 3 4 13 13 0 13 13 4 4 13 2 4 4 3 13 13 10 4 2 4
split_gain=58666 5365.88 4329.04 1341.18 1286.31 969.328 889.845 817.267 289.767 270.986 268.689 254.461 269.513 245.249 242.303 231.786 215.292 213.191 208.858 190.635 159.699 157.68 156.855 140.396 137.148 136.832 122.46 119.251 117.146 93.767
threshold=22.500000000000004 0 1 18.500000000000004 42.500000000000007 17.500000000000004 17.500000000000004 27.500000000000004 17.500000000000004 2 27.500000000000004 18.500000000000004 3 4 11.500000000000002 5 6 18.500000000000004 18.500000000000004 7 32.500000000000007 19.500000000000004 16.500000000000004 27.500000000000004 8 9 11.500000000000002 21.500000000000004 22.500000000000004 19.500000000000004
decision_type=2 9 9 2 2 2 2 2 2 9 2 2 9 9 2 9 9 2 2 9 2 2 2 2 9 9 2 2 2 2
left_child=2 4 3 14 5 10 13 18 20 17 19 12 -8 22 24 27 26 -6 28 -2 -9 25 -4 -5 -1 -17 -16 -7 -3 -10
right_child=1 7 6 23 9 15 11 8 29 -11 -12 -13 -14 -15 16 21 -18 -19 -20 -21 -22 -23 -24 -25 -26 -27 -28 -29 -30 -31
leaf_value=-0.40487656249999998 0.16236539062500005 -0.036279765625000064 -0.39876546874999996 -0.58033570312500016 0.71152964843750022 0.33641539062500014 -0.18326390624999986 0.20359835937499984 0.053618671875000072 1.4615296484375002 0.53821226562500013 -0.59051703124999999 -0.18326390624999986 -0.78396226562500004 0.0065578125000000046 -0.038470351562499873 0.22515156249999999 0.12563750000000004 -0.39656414062499989 0.40778898437500005 0.37047171875000018 -0.20062960937499988 -0.77324507812499998 -0.19344523437499994 -0.013346875000000136 0.27437039062500013 -0.21306406249999998 -0.04557015625000016 0.00056398437500000404 -0.42138890625000003
leaf_weight=1625 1638 3312 8116 3534 6363 1528 1782 3322 1639 22918 11158 1537 4106 32132 2117 714 2011 608 1421 1970 3889 1554 5453 950 1310 1215 2665 243 5247 394
leaf_count=1625 1638 3312 8116 3534 6363 1528 1782 3322 1639 22918 11158 1537 4106 32132 2117 714 2011 608 1421 1970 3889 1554 5453 950 1310 1215 2665 243 5247 394
internal_value=-0.00386346 0.0284907 -0.0370801 -0.0125369 0.0371332 0.0273327 -0.0436352 0.00603099 0.016746 0.0437101 0.0338954 -0.0275892 -0.0228601 -0.0462517 -0.0021176 0.00888847 0.00306934 0.0348159 -0.00388778 0.0220344 0.0214464 0.00135986 -0.0404043 -0.0351695 -0.0141227 0.0109124 -0.00271285 0.0235542 -0.00094053 7.37826e-05
internal_weight=136471 69133 67338 14212 49909 20020 53126 19224 9244 29889 14766 7425 5888 45701 9728 5254 6793 6971 9980 3608 7211 3483 13569 4484 2935 1929 4782 1771 8559 2033
internal_count=136471 69133 67338 14212 49909 20020 53126 19224 9244 29889 14766 7425 5888 45701 9728 5254 6793 6971 9980 3608 7211 3483 13569 4484 2935 1929 4782 1771 8559 2033
cat_boundaries=0 3 6 9 11 13 15 17 19 21 23
cat_threshold=1151487492 1107808794 3 1428309828 1124243982 3 1075986432 1073922048 2 4259856 142622736 138481664 146818064 69340164 131584 352321856 16943108 69337088 180224 352453376 1073741830 1073741824 33607680
is_linear=0
shrinkage=0.05


Tree=6
num_leaves=31
num_cat=10
split_feature=0 3 13 13 4 4 3 0 4 4 13 1 13 0 4 0 13 13 13 3 3 13 10 6 13 4 13 11 4 10
split_gain=56567.7 5231.81 3916.75 1544.27 1357.41 709.297 650.494 566.877 521.15 484.713 400.239 367.36 254.091 239.936 221.352 200.485 198.613 183.888 164.974 160.444 154.721 149.317 146.085 133.492 106.117 104.133 130.67 99.1902 94.0663 93.9223
threshold=22.500000000000004 37.500000000000007 0 1 18.500000000000004 18.500000000000004 17.500000000000004 47.500000000000007 18.500000000000004 17.500000000000004 2 32.500000000000007 3 14.000000000000002 18.500000000000004 27.500000000000004 4 5 6 27.500000000000004 27.500000000000004 7 11.500000000000002 5.5000000000000009 8 19.500000000000004 9 710.0063416666668 16.500000000000004 10.500000000000002
decision_type=2 2 9 9 2 2 2 2 2 2 9 2 9 2 2 2 9 9 9 2 2 9 2 2 9 2 9 2 2 2
left_child=2 3 6 5 10 15 12 9 11 21 13 18 -1 -4 16 24 -8 -11 -5 -12 -6 -3 23 -20 -2 -19 -27 -24 -17 -15
right_child=1 7 4 8 20 -7 14 -9 -10 17 19 -13 -14 29 -16 28 -18 25 22 -21 -22 -23 27 -25 -26 26 -28 -29 -30 -31
leaf_value=-0.51976415234375006 0.078153371093750049 0.43461903515625022 -0.38463273437500001 -0.21380640234374992 -0.5513189179687501 -0.00056687890624989028 -0.17410071093749979 1.4259531660156251 -0.23190577734374981 -0.001402888671874969 0.0081595312500000183 0.21610141015625006 -0.74476415234375004 0.0015767968749999641 -0.56099117968750001 0.45095316601562507 -0.17410071093749979 0.44781112890625008 0.002377972656250016 0.24937039062499997 -0.18377297265625003 0.68461903515625022 -0.0088381562499999511 0.2117873476562501 0.36948915234375002 0.41198407421875011 -0.042432191406249944 0.22488250390624992 0.22679447460937505 -0.19053585937500017
leaf_weight=18575 841 4231 1757 1352 4023 2282 1263 20250 2471 863 4242 4119 25608 1797 1561 8682 4106 2361 4829 1082 979 8505 3158 1097 821 761 523 367 1620 2345
leaf_count=18575 841 4231 1757 1352 4023 2282 1263 20250 2471 863 4242 4119 25608 1797 1561 8682 4106 2361 4829 1082 979 8505 3158 1097 821 761 523 367 1620 2345
internal_value=-0.003511 0.0282593 -0.0361282 0.0132858 -0.0146936 0.025484 -0.042921 0.0408945 0.00327817 0.0342322 -0.00504767 0.00680204 -0.0451633 -0.0140041 -0.0286869 0.0303745 -0.0238685 0.020142 0.00195779 0.00489314 -0.0363655 0.0392195 0.00429659 0.00909551 0.0142599 0.0250205 0.0136293 -0.00375887 0.0329742 -0.00746016
internal_weight=136471 69133 67338 31639 16225 14246 51113 37494 17393 17244 11223 14922 44183 5899 6930 11964 5369 4508 10803 5324 5002 12736 9451 5926 1662 3645 1284 3525 10302 4142
internal_count=136471 69133 67338 31639 16225 14246 51113 37494 17393 17244 11223 14922 44183 5899 6930 11964 5369 4508 10803 5324 5002 12736 9451 5926 1662 3645 1284 3525 10302 4142
cat_boundaries=0 2 5 7 9 11 13 15 17 19 22
cat_threshold=717500562 3170387408 1151487508 1107513882 3 268632320 2052 138678272 147342416 4194320 142622720 1476399168 142659588 4456448 71827776 404951360 159565828 69337104 147456 67111940 512 1
is_linear=0
shrinkage=0.05


Tree=7
num_leaves=31
num_cat=12
split_feature=0 3 13 13 0 4 4 1 4 13 4 13 3 13 2 0 13 3 4 13 5 10 13 13 0 4 13 4 13 13
split_gain=54069.3 4999.16 3598.78 1381.9 1208.35 1182.62 730.07 619.047 514.505 462.875 456.523 393.796 257.015 187.816 182.973 175.413 156.251 152.929 152.713 224.687 152.621 150.52 137.853 124.074 122.602 119.012 129.47 111.817 108.075 96.0299
threshold=22.500000000000004 37.500000000000007 0 1 14.000000000000002 18.500000000000004 18.500000000000004 47.500000000000007 18.500000000000004 2 17.500000000000004 3 27.500000000000004 4 27.500000000000004 32.500000000000007 5 27.500000000000004 18.500000000000004 6 4.5000000000000009 10.500000000000002 7 8 27.500000000000004 19.500000000000004 9 18.500000000000004 10 11
decision_type=2 2 9 9 2 2 2 2 2 9 2 9 2 9 2 2 9 2 2 9 2 2 9 9 2 2 9 2 9 9
left_child=2 3 4 6 22 9 24 10 11 21 16 15 18 -12 28 -5 -3 -7 19 -6 23 -4 -1 -13 -2 -15 -27 -14 -11 -10
right_child=1 7 5 8 12 17 -8 -9 29 14 13 20 27 25 -16 -17 -18 -19 -20 -21 -22 -23 -24 -25 -26 26 -28 -29 -30 -31
leaf_value=-0.56834055019531238 0.15151351503906227 0.40615459902343753 -0.16539567539062486 0.096410244042968607 -0.16539567539062486 -0.52375297207031257 -0.00053853496093747566 1.3542222142578126 -0.13872417207031235 -0.12790109765624999 -0.026328054785156318 0.0022590740234374354 0.072104324609375145 0.42542057246093762 0.23715420703125006 0.3351602440429689 0.65038808339843779 -0.17458432402343754 -0.47165867910156245 -0.23252594472656263 -0.23770811347656251 -0.24377594472656253 -0.70752594472656272 -0.20311608222656244 0.41207137685546891 -0.20097651933593746 0.33382939199218725 -0.48924889023437501 0.17667350781249988 -0.36514064472656238
leaf_weight=15245 1382 3942 2154 6324 2406 3831 2236 20524 1375 3941 737 3955 731 2344 1153 4170 8714 958 2452 8015 917 2815 21795 930 9208 404 829 165 1677 1142
leaf_count=15245 1382 3942 2154 6324 2406 3831 2236 20524 1375 3941 737 3955 731 2344 1153 4170 8714 958 2452 8015 917 2815 21795 930 9208 404 829 165 1677 1142
internal_value=-0.00317613 0.0278847 -0.0350649 0.0132479 -0.0416567 -0.0147681 0.0258959 0.0402358 0.00460872 -0.00623509 0.0331703 0.00786082 -0.0290181 0.0191238 0.00227843 0.0136329 0.0379583 -0.0357173 -0.0308203 -0.0281787 -0.00259807 -0.0178048 -0.0463661 0.000910952 0.0313975 0.0238221 0.0113139 -0.003125 -0.00144179 -0.0164283
internal_weight=136471 69133 67338 31639 50809 16529 12826 37494 18813 11740 16970 16296 13769 4314 6771 10494 12656 4789 12873 10421 5802 4969 37040 4885 10590 3577 1233 896 5618 2517
internal_count=136471 69133 67338 31639 50809 16529 12826 37494 18813 11740 16970 16296 13769 4314 6771 10494 12656 4789 12873 10421 5802 4969 37040 4885 10590 3577 1233 896 5618 2517
cat_boundaries=0 2 5 7 9 11 13 15 17 19 22 24 26
cat_threshold=717303954 3170387408 1151356436 1107497498 3 268697856 4 285343808 151046148 1476399104 142661636 404951360 159565824 69648 142622736 138481664 147342672 134549760 545260544 16960 1073741842 2 86114368 16914434 268566848 553650180
is_linear=0
shrinkage=0.05


Tree=8
num_leaves=31
num_cat=13
split_feature=0 0 3 13 13 4 13 4 3 3 4 13 4 13 13 3 4 13 4 3 13 13 13 13 3 10 4 13 13 4
split_gain=51463.9 6823.8 2482.83 2045.28 967.604 762.345 716.859 520.401 512.772 478.083 476.348 433.409 255.871 242.975 216.45 201.063 197.029 190.609 218.048 186.534 184.317 182.797 143.282 130.473 123.858 105.613 97.2161 96.5117 90.3594 89.2424
threshold=27.500000000000004 11.500000000000002 37.500000000000007 0 1 17.500000000000004 2 16.500000000000004 52.500000000000007 22.500000000000004 17.500000000000004 3 14.500000000000002 4 5 22.500000000000004 18.500000000000004 6 10.500000000000002 27.500000000000004 7 8 9 10 17.500000000000004 10.500000000000002 19.500000000000004 11 12 17.500000000000004
decision_type=2 2 2 9 9 2 9 2 2 2 2 9 2 9 9 2 2 9 2 2 9 9 9 9 2 2 2 9 9 2
left_child=1 4 5 9 12 6 -2 11 10 17 20 19 22 -7 -9 -8 27 18 -3 25 -4 26 -1 -6 -16 -5 -12 -11 -17 -20
right_child=2 3 8 7 23 13 15 14 -10 16 21 -13 -14 -15 24 28 -18 -19 29 -21 -22 -23 -24 -25 -26 -27 -28 -29 -30 -31
leaf_value=-0.37150604277343757 0.40267574258300809 0.0059569305615233331 0.39641448430664072 0.0060492619140624987 -0.67214964749023454 0.18578934491210949 0.00092737032226555274 0.0062526243212891689 1.4994443970019535 0.00030393282226555131 0.49944439700195353 0.36134940178710945 -0.49756532346679699 -0.096883612490234236 -0.34756532346679703 0.18907108701660144 -0.34688361249023425 -0.22344762967773449 -0.21695174131347664 0.20035403057128889 0.65302492922851596 0.07667858037597669 -0.010860245703125139 -0.52742352268554671 -0.19099776662109369 -0.070986223212890928 0.24965515399414057 -0.15712589162109369 0.18127408907226564 -0.40630413419921863
leaf_weight=1762 9550 890 3335 2221 21795 1520 2363 1034 17122 2134 2019 2731 2143 3303 1205 3534 790 10049 2754 1862 11395 1417 1312 15611 3533 3086 1089 1273 2303 1336
leaf_count=1762 9550 890 3335 2221 21795 1520 2363 1034 17122 2134 2019 2731 2143 3303 1205 3534 790 10049 2754 1862 11395 1417 1312 15611 3533 3086 1089 1273 2303 1336
internal_value=-0.00338497 -0.0301602 0.0318253 -0.0137658 -0.0435833 0.018799 0.0235887 -0.000350721 0.0399085 -0.0246881 0.0343106 0.00660606 -0.0232543 0.00117147 -0.0122834 0.0126918 -0.0097808 -0.0288675 -0.0207014 0.00013233 0.0386694 0.0201215 -0.0140534 -0.0463999 -0.016786 -0.00464481 0.0268762 -0.00456413 0.0176889 -0.0256235
internal_weight=136471 77521 58950 34898 42623 22573 17750 15672 36377 19226 19255 9900 5217 4823 5772 8200 4197 15029 4980 7169 14730 4525 3074 37406 4738 5307 3108 3407 5837 4090
internal_count=136471 77521 58950 34898 42623 22573 17750 15672 36377 19226 19255 9900 5217 4823 5772 8200 4197 15029 4980 7169 14730 4525 3074 37406 4738 5307 3108 3407 5837 4090
cat_boundaries=0 2 5 8 10 12 14 16 18 21 23 25 27 29
cat_threshold=449130496 2764571968 1428309316 1107351562 1 1151356436 1107546642 3 86114640 151128068 77728772 1073875460 1075971092 1073875456 268767232 8388608 404951040 25348096 86117892 1090912786 1 352452864 16386 578822290 3023044736 138481664 545260544 151126080 150994956
is_linear=0
shrinkage=0.05


Tree=9
num_leaves=31
num_cat=13
split_feature=0 2 13 0 13 4 13 4 4 3 13 13 3 4 13 4 13 13 0 0 10 13 13 13 13 10 4 6 13 0
split_gain=49151.2 5112.08 4360.94 1462.47 1188.23 740.589 689.192 617.836 542.348 516.18 502.763 263.391 260.928 254.087 216.298 201.165 181.884 172.479 171.981 167.342 150.283 144.459 125.285 120.416 117.206 126.814 110.603 104.967 96.8714 96.7157
threshold=22.500000000000004 37.500000000000007 0 14.000000000000002 1 19.500000000000004 2 17.500000000000004 18.500000000000004 27.500000000000004 3 4 22.500000000000004 18.500000000000004 5 19.500000000000004 6 7 7.5000000000000009 17.500000000000004 11.500000000000002 8 9 10 11 16.500000000000004 18.500000000000004 5.5000000000000009 12 27.500000000000004
decision_type=2 2 9 2 9 2 9 2 2 2 9 9 2 2 9 2 9 9 2 2 2 9 9 9 9 2 2 2 9 2
left_child=2 4 3 21 8 10 -3 11 16 13 20 -8 19 28 -7 22 29 -9 -12 -5 -4 -1 -11 -21 -20 -26 -14 -27 -6 -2
right_child=1 6 5 12 9 14 7 17 -10 15 18 -13 26 -15 -16 -17 -18 -19 24 23 -22 -23 -24 -25 25 27 -28 -29 -30 -31
leaf_value=-0.51355234655126947 0.097456856508544659 1.424472177151856 -0.14926959704003906 -0.22329593788134761 -0.19116445913134772 -0.2301870572934572 0.33496046664990264 0.3613540540668943 0.0017055261960450708 0.17902547622045883 -0.24781723341796891 0.63690004995459015 -0.14591308357324204 -0.33571123100634748 -0.47268705729345711 -0.36565837102587856 0.47448998768042011 0.071860110912841973 0.37534207737158187 -0.14545654713354478 -0.2249685870251466 -0.63854216511572293 0.083210240675293173 -0.14259699667040984 0.044524518387207127 0.040788254845214846 -0.28342772536035155 -0.20474946989404313 0.00016693930615225839 0.23317288807104505
leaf_weight=15245 982 16342 2618 7256 846 1292 3489 3028 2372 5246 1276 13529 1512 1499 2755 368 5844 1812 754 1265 2762 21795 1460 3340 3299 1031 396 742 7767 4549
leaf_count=15245 982 16342 2618 7256 846 1292 3489 3028 2372 5246 1276 13529 1512 1499 2755 368 5844 1812 754 1265 2762 21795 1460 3340 3299 1031 396 742 7767 4549
internal_value=-0.00346997 0.0261445 -0.0338739 -0.0411293 0.0110351 -0.0115394 0.0383796 0.0325041 0.0219852 0.00226215 -0.00551995 0.037002 -0.0272242 -0.00498418 -0.0301334 0.0126237 0.0265363 0.0167562 0.00321991 -0.0299848 -0.0170315 -0.0463094 0.0145989 -0.0225299 0.00686577 0.00409288 -0.0100629 -0.00668359 -0.0016777 0.0198971
internal_weight=136471 69133 67338 50809 30933 16529 38200 21858 13747 17186 12482 17018 13769 10112 4047 7074 11375 4840 7102 11861 5380 37040 6706 4605 5826 5072 1908 1773 8613 5531
internal_count=136471 69133 67338 50809 30933 16529 38200 21858 13747 17186 12482 17018 13769 10112 4047 7074 11375 4840 7102 11861 5380 37040 6706 4605 5826 5072 1908 1773 8613 5531
cat_boundaries=0 2 5 7 9 11 14 17 20 22 24 26 29 31
cat_threshold=717303954 3170387408 1151487508 1107513882 3 67111936 328208 268697856 4 421728512 25298944 1140851972 1107462144 1 69337104 147456 2 19006212 1107429378 1 138481664 147342672 419430464 151029764 42008592 209731600 1073743364 1107296768 1 4194304 4718912
is_linear=0
shrinkage=0.05


Tree=10
num_leaves=31
num_cat=11
split_feature=0 2 13 13 0 4 13 13 4 13 0 3 4 13 13 4 0 3 13 4 0 0 13 3 4 4 4 13 3 13
split_gain=46300.8 4883.02 4208.06 1078.18 983.75 884.501 809.889 664.345 662.978 302.067 297.336 295.799 292.505 346.037 289.341 272.971 233.037 213.463 208.751 193.849 174.546 152.02 140.996 130.597 134.368 125.576 117.557 109.657 109.428 102.806
threshold=22.500000000000004 37.500000000000007 0 1 14.000000000000002 18.500000000000004 2 3 18.500000000000004 4 17.500000000000004 27.500000000000004 17.500000000000004 5 6 17.500000000000004 14.000000000000002 27.500000000000004 7 18.500000000000004 17.500000000000004 7.5000000000000009 8 22.500000000000004 10.500000000000002 13.500000000000002 19.500000000000004 9 37.500000000000007 10
decision_type=2 2 9 9 2 2 9 9 2 9 2 2 2 9 9 2 2 2 9 2 2 2 9 2 2 2 2 9 2 9
left_child=2 3 4 11 9 7 12 16 14 25 22 19 -3 -14 -5 18 -4 -16 -8 -2 -6 -9 -7 24 -18 -1 -15 -12 -23 -10
right_child=1 6 5 8 20 10 15 21 29 -11 27 -13 13 26 17 -17 23 -19 -20 -21 -22 28 -24 -25 -26 -27 -28 -29 -30 -31
leaf_value=-0.47537472922370605 -0.0053081857397215167 1.1032485682942632 -0.350261442861377 0.45944838868702398 -0.21213114098728028 -0.3794674887842529 0.55337243026936067 -0.23542637174707048 -0.19357824805955826 -0.60661505685993677 0.013631398181811428 0.13200059294166239 1.5197638417317632 0.43322906730556671 0.098236159350842026 0.15564924852613551 0.016933374124706902 0.22151424366749276 0.31764461825397955 -0.31275387031540519 -0.13861742939457997 0.029798292467846821 -0.45361576389216335 0.020234404371764825 -0.20839654600224622 -0.62812879562995616 0.13877396146218254 -0.24005484787800296 0.45066288954426281 0.097921429573742821
leaf_weight=4328 6689 18606 2758 5268 7301 1020 5675 1268 1715 25277 430 4469 3687 2506 3937 2388 909 6321 4245 1119 4707 5030 3229 1231 2769 5543 1093 1065 473 1415
leaf_count=4328 6689 18606 2758 5268 7301 1020 5675 1268 1715 25277 430 4469 3687 2506 3937 2388 909 6321 4245 1119 4707 5030 3229 1231 2769 5543 1093 1065 473 1415
internal_value=-0.00346777 0.0252752 -0.0329769 0.0105082 -0.0411525 -0.0138471 0.037233 -0.0072517 0.0180756 -0.0453824 -0.0304492 -0.00100513 0.042267 0.0337908 0.0223174 0.0265871 -0.017318 0.0173646 0.0302621 -0.00687756 -0.0288058 0.00416605 -0.037197 -0.0108067 -0.0155247 -0.0377442 0.0225409 -0.0112709 0.00776849 -0.00290735
internal_weight=136471 69133 67338 30933 47156 20182 38200 14438 18656 35148 5744 12277 25892 7286 15526 12308 7667 10258 9920 7808 12008 6771 4249 4909 3678 9871 3599 1495 5503 3130
internal_count=136471 69133 67338 30933 47156 20182 38200 14438 18656 35148 5744 12277 25892 7286 15526 12308 7667 10258 9920 7808 12008 6771 4249 4909 3678 9871 3599 1495 5503 3130
cat_boundaries=0 2 4 7 9 11 13 16 19 22 24 27
cat_threshold=717238418 3036169680 440733952 768085312 67112452 33886738 1 268763392 134217732 138416128 13124624 67110912 328192 1082150404 33624594 1 1073758208 1073790976 2 1073743108 1107331080 1 1073743172 1073743872 16794176 53270 2
is_linear=0
shrinkage=0.05


Tree=11
num_leaves=31
num_cat=14
split_feature=1 0 13 2 4 13 0 4 4 13 13 0 0 13 3 13 13 13 4 13 4 13 0 10 10 13 13 13 13 10
split_gain=44273.2 5170.46 4211.17 1517.11 1324.37 798.335 786.564 546.245 535.552 483.097 407.751 381.418 282.048 213.226 205.076 202.219 173.889 166.095 147.831 146.413 143.688 142.799 137.021 136.458 114.995 112.922 108.403 95.021 93.5563 93.2712
threshold=22.500000000000004 32.500000000000007 0 47.500000000000007 17.500000000000004 1 14.000000000000002 17.500000000000004 18.500000000000004 2 3 17.500000000000004 17.500000000000004 4 27.500000000000004 5 6 7 19.500000000000004 8 17.500000000000004 9 17.500000000000004 11.500000000000002 10.500000000000002 10 11 12 13 10.500000000000002
decision_type=2 2 9 2 2 9 2 2 2 9 9 2 2 9 2 9 9 9 2 9 2 9 2 2 2 9 9 9 9 2
left_child=2 8 6 7 5 12 16 10 9 23 27 21 24 -9 -11 -5 -1 -10 -15 -7 -17 -6 -8 -2 -4 -24 -13 -3 -20 -14
right_child=1 3 4 15 11 19 22 13 17 14 -12 26 29 18 -16 20 -18 -19 28 -21 -22 -23 25 -25 -26 -27 -28 -29 -30 -31
leaf_value=-0.45160599276252072 0.37832089807800551 0.70204413271402233 -0.21410599276252074 1.4437756496451748 -0.37582249218732539 0.0020306582756067118 -0.19920591206291613 -0.087566057553742568 -0.30843700043244748 -0.0050427764527354313 0.22968447819033103 -0.23515625964450448 0.01325076970961785 0.27514495850479687 0.14031800295565269 0.69477952652932984 -0.57628430401693986 -0.074712598926099369 -0.13526603891333108 0.24839400723747929 0.43474302108323287 -0.44710584871022602 0.016017393562245987 0.15959054667137382 -0.32876856037651375 -0.19566654470309841 -0.062317103804761943 0.4588313954947843 0.19456932055704235 -0.12853627536716045
leaf_weight=10170 2664 2685 3007 13802 977 4677 5724 1115 1348 6289 7225 1716 1988 2865 5196 5882 21784 2801 514 1415 1741 5214 102 3249 4522 3749 866 10264 1058 1862
leaf_count=10170 2664 2685 3007 13802 977 4677 5724 1115 1348 6289 7225 1716 1988 2865 5196 5882 21784 2801 514 1415 1741 5214 102 3249 4522 3749 866 10264 1058 1862
internal_value=-0.00408475 0.0242016 -0.0327571 0.0334744 -0.0170564 -0.00910366 -0.0426647 0.0252896 0.00391006 0.00775951 0.0291117 -0.0329135 -0.0169154 0.0114013 0.00177033 0.0433022 -0.0464418 -0.0122319 0.0162919 0.00550639 0.0364929 -0.0396463 -0.0301044 0.0193567 -0.0225594 -0.0228123 -0.0167699 0.0344355 0.00400763 -0.00592208
internal_weight=136471 68698 67773 47151 26244 17471 41529 25726 21547 17398 20174 8773 11379 5552 11485 21425 31954 4149 4437 6092 7623 6191 9575 5913 7529 3851 2582 12949 1572 3850
internal_count=136471 68698 67773 47151 26244 17471 41529 25726 21547 17398 20174 8773 11379 5552 11485 21425 31954 4149 4437 6092 7623 6191 9575 5913 7529 3851 2582 12949 1572 3850
cat_boundaries=0 2 4 7 10 12 15 17 19 21 24 25 28 30 33
cat_threshold=583020690 3027764672 403112192 142622724 1151487556 1107399194 3 1140870660 1107677714 3 1208029504 142659648 3076 328208 1 4198400 4719936 423694848 751326288 85999680 16947202 1073743108 1107331072 1 41943056 419774464 159436802 2 3072 332304 268435968 1090650134 2
is_linear=0
shrinkage=0.05


Tree=12
num_leaves=31
num_cat=14
split_feature=1 0 13 4 3 3 0 13 4 4 0 4 0 13 13 13 4 13 13 13 4 13 13 0 13 10 13 13 13 4
split_gain=43361.1 4983.59 4225.47 1316.78 1010.43 893.839 786.263 781.575 441.637 401.433 384.435 374.301 283.3 272.372 248.058 227.585 187.084 173.68 166.819 160.535 189.547 145.21 137.774 137.021 136.915 119.277 112.922 107.84 105.21 103.049
threshold=22.500000000000004 37.500000000000007 0 17.500000000000004 47.500000000000007 32.500000000000007 14.000000000000002 1 11.500000000000002 17.500000000000004 17.500000000000004 17.500000000000004 17.500000000000004 2 3 4 18.500000000000004 5 6 7 17.500000000000004 8 9 17.500000000000004 10 10.500000000000002 11 12 13 19.500000000000004
decision_type=2 2 9 2 2 2 2 9 2 2 2 2 2 9 9 9 2 9 9 9 2 9 9 2 9 2 9 9 9 2
left_child=2 5 6 7 11 8 17 12 15 18 21 13 25 -3 -10 -2 -16 -1 -7 -6 -21 -5 -9 -8 -13 -4 -25 -12 -11 -26
right_child=1 4 3 10 19 9 23 22 14 28 27 24 -14 -15 16 -17 -18 -19 -20 20 -22 -23 -24 26 29 -27 -28 -29 -30 -31
leaf_value=-0.42902569312439476 0.0013744733606238847 0.27002660093176428 -0.20340069312439477 -0.35703136757795911 1.7258973573972913 0.51042468207990843 -0.18924561645977037 0.0011417088351443284 0.066412127116381822 -0.28122325025685324 -0.22339844666227926 0.0086880880211429815 -0.11191564178232874 0.49409636984052807 -0.023356850829919298 0.26333592675217476 -0.23861228942044299 -0.54747008881609283 0.211755628063103 0.76334716355308352 0.42885955812574467 -0.4247505562747147 0.22874790170329895 0.015216523884133616 0.3364676609329017 -0.31233013235768808 -0.18588321746794351 -0.059201248614523833 0.11033307014657218 0.10639606357886661
leaf_weight=10170 2010 3892 3007 977 10205 2390 5724 4451 5177 429 1716 1347 3850 11392 6128 2686 2257 21784 5526 7368 2464 5214 1641 102 1655 4522 3749 866 2850 922
leaf_count=10170 2010 3892 3007 977 10205 2390 5724 4451 5177 429 1716 1347 3850 11392 6128 2686 2257 21784 5526 7368 2464 5214 1641 102 1655 4522 3749 866 2850 922
internal_value=-0.00436247 0.023631 -0.032738 -0.0170107 0.0352975 0.00808576 -0.0426623 -0.00908076 0.0012652 0.0192095 -0.0328223 0.0271033 -0.0168101 0.0306399 -0.00331072 0.0144804 -0.00861823 -0.0464386 0.0253032 0.0431527 0.0383459 -0.0395817 0.00537529 -0.0301044 0.0133282 -0.0224665 -0.0228123 -0.016615 0.00449832 0.0200425
internal_weight=136471 68698 67773 26244 39245 29453 41529 17471 18258 11195 8773 19208 11379 15284 13562 4696 8385 31954 7916 20037 9832 6191 6092 9575 3924 7529 3851 2582 3279 2577
internal_count=136471 68698 67773 26244 39245 29453 41529 17471 18258 11195 8773 19208 11379 15284 13562 4696 8385 31954 7916 20037 9832 6191 6092 9575 3924 7529 3851 2582 3279 2577
cat_boundaries=0 2 4 6 8 10 12 15 18 21 23 26 27 30 32
cat_threshold=583020690 3027764672 403112192 142622724 404951360 159516676 1168245844 33703964 208081168 4852804 4198400 4719936 1207979520 1107366418 1 2048 328192 1 1073743108 1107331072 1 85999680 16947200 1476416320 142659648 2 41943056 419774464 159436802 2 69632 142626832
is_linear=0
shrinkage=0.05


Tree=13
num_leaves=31
num_cat=13
split_feature=0 0 13 3 0 0 13 4 4 13 4 4 13 13 13 4 13 13 0 13 13 13 0 4 13 10 13 2 3 4
split_gain=42333.5 4819.24 4125.46 1196.14 974.55 967.794 630.384 468.769 430.745 402.579 395.995 393.811 314.439 268.281 244.262 225.471 203.518 199.874 171.121 153.744 152.392 151.474 148.396 174.352 147.395 140.107 139.216 124.667 106.47 105.867
threshold=22.500000000000004 42.500000000000007 0 32.500000000000007 11.500000000000002 14.000000000000002 1 18.500000000000004 16.500000000000004 2 14.500000000000002 17.500000000000004 3 4 5 17.500000000000004 6 7 17.500000000000004 8 9 10 57.500000000000007 18.500000000000004 11 10.500000000000002 12 17.500000000000004 17.500000000000004 11.500000000000002
decision_type=2 2 9 2 2 2 9 2 2 9 2 2 9 9 9 2 9 9 2 9 9 9 2 2 9 2 9 2 2 2
left_child=2 3 5 7 10 13 22 9 12 21 16 14 25 29 -5 24 -4 -10 -7 -17 -9 -2 23 -3 -8 -6 -13 -11 -19 -1
right_child=1 6 4 11 8 18 15 20 17 27 -12 26 -14 -15 -16 19 -18 28 -20 -21 -22 -23 -24 -25 -26 -27 -28 -29 -30 -31
leaf_value=-0.407574408468175 0.33824071379840748 0.67666919607039522 -0.36939953522492108 0.43336420475508786 0.010658228714667484 -0.17978333563678178 0.325145185529228 0.093440381685541501 0.034948598362207588 -0.21225773575803633 -0.51751759811554587 -0.11658239080906717 0.1571991263427279 -0.52009658437528816 0.19273144985797774 0.53408024724722591 -0.064015431720304869 -0.20150018992625923 -0.12360303176352493 0.14828693376864877 -0.26679268622154134 0.1410488326704776 1.6396024895274266 0.21696925646322285 0.50550813946495665 -0.15856875919550203 0.14718898523688681 0.0019657798669635794 -0.17603404965913436 -0.42971987721817517
leaf_weight=2725 2057 4569 2719 6717 1870 7190 1250 418 414 1413 3878 608 3734 25277 5263 1335 1832 1608 4633 1861 2872 6647 10790 1133 10658 2393 3783 7759 2873 6192
leaf_count=2725 2057 4569 2719 6717 1870 7190 1250 418 414 1413 3878 608 3734 25277 5263 1335 1832 1608 4633 1861 2872 6647 10790 1133 10658 2393 3783 7759 2873 6192
internal_value=-0.00470686 0.0227771 -0.0329235 0.0106655 -0.014718 -0.0413464 0.0371661 0.00281584 -0.00608129 0.00600806 -0.0279452 0.0208142 0.00106915 -0.0456191 0.0255092 0.0297009 -0.0179411 -0.017763 -0.0290239 0.0179287 -0.0145289 0.0137021 0.0439583 0.0374605 0.0328855 -0.00820267 0.00800501 -0.0013069 -0.0208083 -0.0379131
internal_weight=136471 69133 67338 37537 21321 46017 31596 21166 12892 17876 8429 16371 7997 34194 11980 15104 4551 4895 11823 3196 3290 8704 16492 5702 11908 4263 4391 9172 4481 8917
internal_count=136471 69133 67338 37537 21321 46017 31596 21166 12892 17876 8429 16371 7997 34194 11980 15104 4551 4895 11823 3196 3290 8704 16492 5702 11908 4263 4391 9172 4481 8917
cat_boundaries=0 2 4 7 9 11 14 16 18 21 23 26 28 30
cat_threshold=717238418 3036153296 3076 332304 1159743044 1124127262 3 335872256 133124 138416128 13108240 1275088388 1107661330 3 67567872 134234116 1075971076 1073874944 69337088 2 1 67240976 1073874944 1073759744 33559066 1 402854144 142606336 1208029184 142626880
is_linear=0
shrinkage=0.05


Tree=14
num_leaves=31
num_cat=13
split_feature=0 3 13 0 0 3 0 4 4 4 4 4 3 13 13 13 13 13 2 13 13 4 0 13 13 13 0 4 13 13
split_gain=39500 4589.2 3604.4 1455.66 908.078 746.184 598.724 405.642 399.101 381.016 363.156 321.844 307.677 284.462 268.809 240.913 219.658 182.802 181.186 166.766 155.571 147.464 139.053 135.173 131.348 125.861 122.06 122.553 113.452 113.313
threshold=22.500000000000004 42.500000000000007 0 32.500000000000007 11.500000000000002 14.000000000000002 52.500000000000007 17.500000000000004 11.500000000000002 17.500000000000004 18.500000000000004 17.500000000000004 22.500000000000004 1 2 3 4 5 27.500000000000004 6 7 18.500000000000004 17.500000000000004 8 9 10 7.5000000000000009 10.500000000000002 11 12
decision_type=2 2 9 2 2 2 2 2 2 2 2 2 2 9 9 9 9 9 2 9 9 2 2 9 9 9 2 2 9 9
left_child=2 3 5 10 9 16 11 13 19 15 14 17 20 -5 -2 -4 -1 -3 -16 -6 -10 -14 -7 -9 -12 -8 -18 -28 -13 -20
right_child=1 6 4 7 8 22 25 23 12 -11 24 28 21 -15 18 -17 26 -19 29 -21 -22 -23 -24 -25 -26 -27 27 -29 -30 -31
leaf_value=-0.49409175515652382 0.25852665351828413 0.51491785492565867 -0.34352365531914375 0.17872995367854758 -0.0039574663594695641 -0.24409175515652379 1.5576223650510554 0.1613128425352427 0.017278315975574898 -0.53440156899907376 -0.26774490162872588 -0.091340132014073205 0.067044973170471603 0.36016111017149977 -0.0092264856888846225 -0.076230575770964218 -0.49409175515652382 0.38534461836439959 0.14160954208893559 0.30723850327708374 -0.17803364291419196 -0.13950802409473814 -0.11033352792150969 -0.029475569913042499 -0.057670829571562623 0.67430110173986613 -0.17079416885494272 -0.27090616149812696 0.27444353646989017 -0.0025383294425191496
leaf_weight=15258 2089 7733 3273 4765 2725 8038 10214 1864 488 3177 1450 391 2307 11065 7730 1979 9441 2909 3521 1217 4974 1181 3766 2167 1853 5451 1545 7969 3485 2446
leaf_count=15258 2089 7733 3273 4765 2725 8038 10214 1864 488 3177 1450 391 2307 11065 7730 1979 9441 2909 3521 1217 4974 1181 3766 2167 1853 5451 1545 7969 3485 2446
internal_value=-0.00460721 0.021941 -0.0318631 0.0106008 -0.0148446 -0.0397365 0.0365752 0.020077 -0.00650791 -0.027613 0.000741265 0.0292602 -0.0123464 0.0236829 0.00389586 -0.019345 -0.0434849 0.0337531 0.00133873 0.00674784 -0.0197547 -0.000745413 -0.0289055 0.00591665 -0.0143355 0.0433546 -0.0397443 -0.0357683 0.0169247 0.00788503
internal_weight=136471 69133 67338 38950 21321 46017 30183 19861 12892 8429 19089 14518 8950 15830 15786 5252 34213 10642 13697 3942 5462 3488 11804 4031 3303 15665 18955 9514 3876 5967
internal_count=136471 69133 67338 38950 21321 46017 30183 19861 12892 8429 19089 14518 8950 15830 15786 5252 34213 10642 13697 3942 5462 3488 11804 4031 3303 15665 18955 9514 3876 5967
cat_boundaries=0 2 4 7 9 11 14 17 19 22 24 26 28 30
cat_threshold=717238418 3036153296 409407744 164234240 1073759748 33558554 3 459008 134234116 545267842 2419064960 1073761796 1107759634 3 86442304 34820 2 1143079936 1073743872 86117380 133636 3 423957248 214488128 67111936 328192 1073742080 134238212 86114384 151029764
is_linear=0
shrinkage=0.05


Tree=15
num_leaves=31
num_cat=12
split_feature=0 1 13 0 4 0 13 3 4 3 0 4 13 3 13 13 4 4 13 13 0 13 13 13 10 0 13 13 4 3
split_gain=38250 4406.51 3599.3 1157.01 850.88 780.385 721.591 622.23 388.022 325.262 323.437 323.315 287.473 227.509 221.491 209.408 208.206 180.443 180.293 168.123 160.028 152.185 145.506 142.396 139.884 132.796 126.805 111.433 106.698 111.773
threshold=22.500000000000004 42.500000000000007 0 32.500000000000007 18.500000000000004 14.000000000000002 1 62.500000000000007 17.500000000000004 27.500000000000004 17.500000000000004 16.500000000000004 2 22.500000000000004 3 4 11.500000000000002 19.500000000000004 5 6 7.5000000000000009 7 8 9 10.500000000000002 17.500000000000004 10 11 19.500000000000004 14.000000000000002
decision_type=2 2 9 2 2 2 9 2 2 2 2 2 9 2 9 9 2 2 9 9 2 9 9 9 2 2 9 9 2 2
left_child=2 3 5 9 6 15 13 8 14 16 21 12 -5 24 -3 28 23 18 -11 -10 -8 -6 -13 -2 -4 -7 -22 -12 29 -1
right_child=1 7 4 11 10 25 20 -9 19 17 27 22 -14 -15 -16 -17 -18 -19 -20 -21 26 -23 -24 -25 -26 -27 -28 -29 -30 -31
leaf_value=-0.37499110028693999 0.26658802615800958 0.59611183854303362 -0.11860624532919672 0.14664413901858139 -0.27125546300104503 -0.15858958109711649 -0.21680137114069123 1.4797412467985027 0.39357538441612533 0.00854384855540582 0.024253717180311798 -0.071235181960669539 0.34833689962760916 -0.023840535443811463 0.38974895422922806 -0.46938716739869762 -0.049033629360050318 -0.1440543085558125 0.1463487500581728 0.14285972303770755 0.013412001802309349 -0.37130240434290657 0.15843942526490801 -5.2495305373589932e-05 -0.24565418656586627 -0.11583862530529282 0.29865631075869248 -0.19881363921161449 -0.50650018993537771 -0.23188716739869764
leaf_weight=8620 895 9845 3486 3449 1020 6353 1268 10353 2222 2862 430 981 8795 1726 6217 20929 7360 1018 5722 2559 4176 3703 4445 2410 5098 3884 1327 1128 2669 1521
leaf_count=8620 895 9845 3486 3449 1020 6353 1268 10353 2222 2862 430 981 8795 1726 6217 20929 7360 1018 5722 2559 4176 3703 4445 2410 5098 3884 1327 1128 2669 1521
internal_value=-0.00469147 0.0214333 -0.0315127 0.00998629 -0.0156298 -0.0399377 -0.00985013 0.0353539 0.0303771 0.00183303 -0.0313724 0.0193379 0.0238402 -0.0181686 0.0340991 -0.0436157 -0.00417722 0.00850864 0.0108691 0.0178728 0.00283881 -0.0378891 0.00917803 0.00624811 -0.0215168 -0.0278548 0.0065328 -0.0116175 -0.0383775 -0.0360665
internal_weight=136471 69133 67338 37937 23362 43976 17081 31196 20843 20267 6281 17670 12244 10310 16062 33739 10665 9602 8584 4781 6771 4723 5426 3305 8584 10237 5503 1558 12810 10141
internal_count=136471 69133 67338 37937 23362 43976 17081 31196 20843 20267 6281 17670 12244 10310 16062 33739 10665 9602 8584 4781 6771 4723 5426 3305 8584 10237 5503 1558 12810 10141
cat_boundaries=0 2 4 6 9 11 13 16 19 21 24 26 28
cat_threshold=717238418 3036152272 268763392 134235140 291967232 21626880 3588 1107628562 1 171970576 80216080 415568128 1623348488 69338116 328194 1 1073743108 1107331080 1 4264192 142659648 17412 1216401426 3 86114368 16943106 1073743172 1073743872
is_linear=0
shrinkage=0.05


Tree=16
num_leaves=31
num_cat=13
split_feature=1 3 13 0 4 13 13 0 4 0 4 4 13 10 13 13 13 11 13 13 13 13 4 6 10 13 4 0 13 10
split_gain=36025.9 4070.45 3472.62 1267.99 1215.94 808.51 631.507 543.262 467.177 378.704 362.023 349.694 250.093 249.583 243.977 222.699 222.39 191.744 165.895 158.952 131.287 129.654 127.141 121.46 116.746 111.368 119.586 108.257 107.58 110.18
threshold=22.500000000000004 42.500000000000007 0 32.500000000000007 17.500000000000004 1 2 14.000000000000002 17.500000000000004 17.500000000000004 16.500000000000004 19.500000000000004 3 10.500000000000002 4 5 6 679.95530000000008 7 8 9 10 19.500000000000004 5.5000000000000009 11.500000000000002 11 19.500000000000004 7.5000000000000009 12 16.500000000000004
decision_type=2 2 9 2 2 9 9 2 2 2 2 2 9 2 9 9 9 2 9 9 9 9 2 2 2 9 2 2 9 2
left_child=2 3 7 11 5 13 -3 16 15 21 14 12 24 23 -5 -8 -1 -15 22 27 -13 -6 -10 -4 -2 -12 -27 -7 29 -14
right_child=1 6 4 10 9 19 8 -9 18 -11 25 20 28 17 -16 -17 -18 -19 -20 -21 -22 -23 -24 -25 -26 26 -28 -29 -30 -31
leaf_value=-0.37193493722950532 0.17695366335149335 1.6557541844585775 -0.12939779527259301 0.14384729535349533 -0.30983992236131536 -0.25022739765556601 0.57994915254816459 -0.15066010204226057 0.39616153406094878 -0.17975591309051922 -0.13926167826918318 -0.39078723168353557 0.0085052357925661688 -0.23593282611551825 0.33356705514879459 0.38736881132015832 -0.44591780902876277 0.10962214641156934 0.049172079486664445 0.18222462185464963 -0.049459572665193546 -0.35273728412576127 0.16243343655303663 0.12633422212944351 0.059042565322391563 0.18045918347955237 -0.036252911178975465 0.0056822896025689575 -0.15541253197694946 -0.024939299146889839
leaf_weight=14958 3496 8078 5808 3196 977 916 11838 6809 2731 2773 529 961 5976 7355 10409 4750 15214 362 1643 1963 1209 6030 1303 550 3832 3736 1261 4058 2422 1328
leaf_count=14958 3496 8078 5808 3196 977 916 11838 6809 2731 2773 529 961 5976 7355 10409 4750 15214 362 1643 1963 1209 6030 1303 550 3832 3736 1261 4058 2422 1328
internal_value=-0.00459695 0.0209191 -0.0304612 0.0100939 -0.0180378 -0.011265 0.0346027 -0.0407897 0.030202 -0.0326074 0.019207 0.00102476 0.00343028 -0.0181434 0.0235906 0.0344526 -0.0436796 -0.0241998 0.0178351 0.0027134 -0.0178802 -0.0387969 0.023269 -0.010821 0.0103979 0.00841477 0.010715 -0.00204655 -0.00182827 0.00120317
internal_weight=136471 68698 67773 38355 30792 21012 30343 36981 22265 9780 19131 19224 17054 14075 13605 16588 30172 7717 5677 6937 2170 7007 4034 6358 7328 5526 4997 4974 9726 7304
internal_count=136471 68698 67773 38355 30792 21012 30343 36981 22265 9780 19131 19224 17054 14075 13605 16588 30172 7717 5677 6937 2170 7007 4034 6358 7328 5526 4997 4974 9726 7304
cat_boundaries=0 2 4 6 9 11 14 16 19 21 24 27 29 31
cat_threshold=583020690 3027763392 402981120 142624004 0 328192 1159874132 1241550878 3 275190016 21626880 19972 1107300370 3 37752848 608698432 69340676 1098907666 1 86114368 16947200 419512832 159912020 2 1073743108 1107331072 1 4263936 142626880 411107584 25315328
is_linear=0
shrinkage=0.05


Tree=17
num_leaves=31
num_cat=9
split_feature=0 3 13 13 0 0 4 4 4 3 13 4 0 4 11 13 13 13 10 3 13 0 13 4 3 4 6 10 13 0
split_gain=33962 3978.55 3381.1 1244.34 959.819 757.921 637.684 597.742 387.517 366.982 286.433 275.981 250.53 242.243 222.657 199.844 189.701 181.723 177.507 175.818 165.192 165.159 162.998 135.753 130.559 128.464 114.248 106.859 101.089 92.4566
threshold=22.500000000000004 37.500000000000007 0 1 52.500000000000007 32.500000000000007 19.500000000000004 19.500000000000004 18.500000000000004 22.500000000000004 2 17.500000000000004 17.500000000000004 11.500000000000002 729.86834166666688 3 4 5 10.500000000000002 17.500000000000004 6 17.500000000000004 7 17.500000000000004 32.500000000000007 19.500000000000004 5.5000000000000009 11.500000000000002 8 7.5000000000000009
decision_type=2 2 9 9 2 2 2 2 2 2 9 2 2 2 2 9 9 9 2 2 9 2 9 2 2 2 2 2 9 2
left_child=2 5 12 6 8 13 9 15 10 14 -3 17 22 20 18 24 -6 -7 26 -15 -2 -9 29 -18 27 -21 -4 -5 -10 -1
right_child=1 4 3 7 16 11 -8 21 28 -11 -12 -13 -14 19 -16 -17 23 -19 -20 25 -22 -23 -24 -25 -26 -27 -28 -29 -30 -31
leaf_value=-0.43204086552287535 0.2327670841139689 0.39579291001810657 -0.22204912150745867 0.00058228723206532607 2.0729664752356487 0.35074692539729785 -0.47117226440961296 -0.29398115320576496 0.19378958119303358 -0.079803548444615305 0.24459757341785926 0.020282786695874935 -0.084437022906979034 -0.23686215739518943 0.00056384472968296073 0.15353690638691689 0.79935736393359247 0.15738344608549382 -0.26433781076583751 0.0043552348364338305 0.0074335140492131305 -0.13205342393915095 -0.42362191857732462 0.48418743632443118 0.18552093173451123 -0.2210457898622977 0.034897218293809741 -0.15801481221950608 -0.012736258327081453 -0.19320014520579518
leaf_weight=4865 1771 11872 8845 2858 5256 4199 4777 2331 1670 2391 5841 2818 827 1816 804 1682 8415 7180 11298 9571 2829 893 15834 2818 883 1455 472 3829 1622 4749
leaf_count=4865 1771 11872 8845 2858 5256 4199 4777 2331 1670 2391 5841 2818 827 1816 804 1682 8415 7180 11298 9571 2829 893 15834 2818 883 1455 472 3829 1622 4749
internal_value=-0.00453173 0.0200852 -0.0298049 -0.0208251 0.0311036 0.00702772 -0.026578 -0.00763255 0.0240157 -0.0232423 0.0269435 0.0156054 -0.043814 4.58663e-05 -0.0253163 -0.00117812 0.0401328 0.0190746 -0.0263231 -0.00348077 0.0098913 -0.0261787 -0.0447108 0.0362937 -0.0046438 -0.00110648 -0.0212139 -0.00703604 0.00826245 -0.0392976
internal_weight=136471 69133 67338 41063 37494 31639 28587 12476 21005 23810 17713 14197 26275 17442 21419 9252 16489 11379 20615 12842 4600 3224 25448 11233 7570 11026 9317 6687 3292 9614
internal_count=136471 69133 67338 41063 37494 31639 28587 12476 21005 23810 17713 14197 26275 17442 21419 9252 16489 11379 20615 12842 4600 3224 25448 11233 7570 11026 9317 6687 3292 9614
cat_boundaries=0 2 4 7 9 11 14 17 19 22
cat_threshold=578826386 3023044736 138740224 147346780 69225988 1107628562 3 354550080 16943104 0 327680 1073761796 33640978 1 17924 1258344466 3 33558544 603979776 335547396 168165888 1
is_linear=0
shrinkage=0.05


Tree=18
num_leaves=31
num_cat=11
split_feature=0 2 13 13 0 4 3 4 4 3 4 13 0 4 13 11 10 3 13 13 0 13 13 10 2 13 6 13 0 13
split_gain=32699.8 3863.7 3534.52 1173.48 954.139 690.658 683.523 587.605 355.66 339.458 284.012 272.171 250.178 248.387 215.115 207.169 190.263 186.744 185.454 165.17 159.603 159.568 127.678 126.218 122.206 121.063 106.669 97.8851 94.4524 93.07
threshold=22.500000000000004 42.500000000000007 0 1 32.500000000000007 19.500000000000004 62.500000000000007 19.500000000000004 17.500000000000004 22.500000000000004 16.500000000000004 2 17.500000000000004 11.500000000000002 3 710.0063416666668 10.500000000000002 27.500000000000004 4 5 17.500000000000004 6 7 16.500000000000004 14.000000000000002 8 5.5000000000000009 9 7.5000000000000009 10
decision_type=2 2 9 9 2 2 2 2 2 2 2 9 2 2 9 2 2 2 9 9 2 9 9 2 2 9 2 9 2 9
left_child=2 4 12 5 13 9 8 18 14 15 11 -6 19 21 -3 16 26 27 23 28 -9 -2 -12 24 -5 -10 -4 -15 -1 -8
right_child=1 6 3 7 10 -7 29 20 25 -11 22 -13 -14 17 -16 -17 -18 -19 -20 -21 -22 -23 -24 -25 -26 -27 -28 -29 -30 -31
leaf_value=-0.41043882224673162 0.23250903955167798 0.46699835343805846 -0.21094666543208573 -0.13253156678904432 0.33708893646082533 -0.44761365118913227 1.5329986070389687 -0.27928209554547667 0.30952310998659738 -0.075813371022384501 -0.083871713722415295 0.14661691160609802 -0.080215171761630094 0.0011155894442293147 0.32295533821697692 8.9910051849351199e-05 -0.25342606904195847 0.058739072180279989 0.14586006106757096 -0.40244082264845837 -0.12545075274219339 0.021451706163295725 0.12514859265359998 -0.16968219581788732 0.03305138200520652 0.098107201243419345 0.042114566177254446 -0.14892670140753703 -0.18354013794550542 0.70566538426168324
leaf_weight=4865 1793 11481 8844 1386 7793 4777 7742 2331 2511 2391 1024 5522 827 2453 3816 828 11281 7187 1682 15834 893 3131 4644 2575 3609 2328 466 4923 4749 2785
leaf_count=4865 1793 11481 8844 1386 7793 4777 7742 2331 2511 2391 1024 5522 827 2453 3816 828 11281 7187 1682 15834 893 3131 4644 2575 3609 2328 466 4923 4749 2785
internal_value=-0.00467315 0.019482 -0.0294722 -0.0202919 0.00892904 -0.0258786 0.0327218 -0.00748038 0.0273242 -0.0224066 0.0169072 0.0208975 -0.0437949 0.00115718 0.0310616 -0.0244012 -0.0253873 -0.00212525 -0.00108085 -0.0446911 -0.0258685 0.0108652 0.00753352 -0.00441953 0.00021021 0.0155094 -0.0200967 -0.00771421 -0.0392456 0.0430465
internal_weight=136471 69133 67338 41063 38470 28587 30663 12476 20136 23810 18983 13315 26275 19487 15297 21419 20591 14563 9252 25448 3224 4924 5668 7570 4995 4839 9310 7376 9614 10527
internal_count=136471 69133 67338 41063 38470 28587 30663 12476 20136 23810 18983 13315 26275 19487 15297 21419 20591 14563 9252 25448 3224 4924 5668 7570 4995 4839 9310 7376 9614 10527
cat_boundaries=0 2 4 7 10 12 14 17 19 22 24 26
cat_threshold=578826386 3023044736 138740224 147346780 1140870660 1107678738 3 1073761796 1107628562 3 354550080 16943104 33558544 603979776 17412 1258344466 3 4264192 142659648 69338628 25494018 1 212008976 1644317696 3072 328192
is_linear=0
shrinkage=0.05


Tree=19
num_leaves=31
num_cat=13
split_feature=1 13 2 0 0 4 0 13 4 13 4 0 13 4 13 13 10 13 13 13 4 13 13 11 4 13 4 13 1 9
split_gain=31743.9 3626.47 3522.43 1113 880.533 771.623 738.996 620.264 412.132 404.576 348.44 311.02 262.08 251.958 227.942 218.016 193.155 161.324 159.283 153.603 146.271 135.691 132.428 124.123 113.215 112.124 110.699 109.371 101.653 95.8449
threshold=22.500000000000004 0 42.500000000000007 17.500000000000004 32.500000000000007 18.500000000000004 67.500000000000014 1 17.500000000000004 2 19.500000000000004 17.500000000000004 3 16.500000000000004 4 5 10.500000000000002 6 7 8 16.500000000000004 9 10 679.95530000000008 19.500000000000004 11 10.500000000000002 12 27.500000000000004 18.500000000000004
decision_type=2 9 2 2 2 2 2 9 2 9 2 2 9 2 9 9 2 9 9 9 2 9 9 2 2 9 2 9 2 2
left_child=1 11 4 5 10 7 8 16 14 26 12 18 28 15 -4 -6 29 -7 -1 -10 22 -12 -11 -18 -21 -15 -5 -26 -2 -3
right_child=2 3 6 9 13 17 -8 -9 19 20 21 -13 -14 25 -16 -17 23 -19 -20 24 -22 -23 -24 -25 27 -27 -28 -29 -30 -31
leaf_value=-0.32971800414015234 0.0094542384413173874 -0.14563696584662064 0.49976236540443325 0.0042396347779801507 0.32168589828738736 -0.22116337839549802 1.510138928282541 -0.091856457610807324 -0.11858843668894288 -0.0010993962297980886 -0.35878480635939153 -0.076204413173548605 -0.005995330230480711 -0.068010438022163472 0.31578688818887723 0.14006886639143695 -0.28333046653225658 -0.4180377844974823 -0.38231878151603543 0.2974574124289987 -0.13548080078077085 -0.045659685694740305 0.23367200970808108 0.059979870873086052 -0.21431757624174433 0.12661122397603464 -0.12275711780822558 0.20827875080484048 0.13443314948163199 -0.21568735437771469
leaf_weight=9520 2857 4231 11511 1010 7263 1624 8361 5809 493 1802 982 932 9307 1020 5424 5497 8366 6335 15830 3468 1619 1239 1797 230 418 4417 6379 1242 5199 2289
leaf_count=9520 2857 4231 11511 1010 7263 1624 8361 5809 493 1802 982 932 9307 1020 5424 5497 8366 6335 15830 3468 1619 1239 1797 230 418 4417 6379 1242 5199 2289
internal_value=-0.00488126 -0.0291598 0.0190704 -0.0199381 0.00882851 -0.0253531 0.0315862 -0.020313 0.0268798 -0.00754739 0.00147059 -0.0436939 0.0038559 0.0167473 0.0307735 0.0205878 -0.0256446 -0.0386041 -0.0447535 0.0151486 0.00311783 -0.0171769 0.00873854 -0.030584 0.0176917 0.00773404 -0.0150628 0.00698795 0.0104513 -0.0191718
internal_weight=136471 67773 68698 41491 37781 28884 30917 20925 22556 12607 19584 26282 17363 18197 16935 12760 15116 7959 25350 5621 5218 2221 3599 8596 5128 5437 7389 1660 8056 6520
internal_count=136471 67773 68698 41491 37781 28884 30917 20925 22556 12607 19584 26282 17363 18197 16935 12760 15116 7959 25350 5621 5218 2221 3599 8596 5128 5437 7389 1660 8056 6520
cat_boundaries=0 2 4 6 9 12 15 18 20 22 25 27 29 32
cat_threshold=578826386 3023044736 71630848 147342660 407175424 29885760 1159874132 50368542 3 19972 1107628562 1 67128836 1116067346 3 1073743108 1112049672 1 33558544 603979776 1073741824 134238212 419512832 159912020 2 85983296 133124 138481920 142659648 16448 1073905682 2
is_linear=0
shrinkage=0.05


Tree=20
num_leaves=31
num_cat=12
split_feature=1 13 3 0 0 4 13 13 13 4 13 4 4 0 13 10 4 13 13 13 4 13 13 11 2 4 10 6 13 0
split_gain=30585.1 3744.8 3374.58 1119.59 1076.63 710.164 616.25 454.472 393 372.03 336.143 326.878 317.233 310.603 250.203 188.761 168.146 161.447 154.412 148.187 158.1 139.12 122.714 118.733 115.329 110.782 103.278 98.9937 97.533 95.9625
threshold=22.500000000000004 0 47.500000000000007 32.500000000000007 17.500000000000004 18.500000000000004 1 2 3 16.500000000000004 4 19.500000000000004 18.500000000000004 17.500000000000004 5 10.500000000000002 16.500000000000004 6 7 8 19.500000000000004 9 10 679.95530000000008 27.500000000000004 11.500000000000002 10.500000000000002 5.5000000000000009 11 7.5000000000000009
decision_type=2 9 2 2 2 2 9 9 9 2 9 2 2 2 9 2 2 9 9 9 2 9 9 2 2 2 2 2 9 2
left_child=1 13 3 11 5 6 15 -4 -6 10 26 14 -9 17 -2 27 22 29 -7 -11 -21 -13 -10 -17 -16 -26 -5 -3 -18 -1
right_child=2 4 7 9 8 18 -8 12 16 19 -12 21 -14 -15 24 23 28 -19 -20 20 -22 -23 -24 -25 25 -27 -28 -29 -30 -31
leaf_value=-0.37343098092738736 -0.0056955637189567204 -0.20077424412451547 1.4313605584167985 0.40212378502880175 -0.10372420154374958 -0.2444161015433288 -0.08726363473026702 0.49938817129403468 -0.0002231222295122848 -0.17216016686229524 0.14196975449007798 0.001868100033426856 0.15353054338124608 -0.072394192514871142 0.0089815265192514822 -0.2691639432056438 0.043838758845412329 -0.36320284244023365 -0.39713589527260817 0.17642668314354318 -0.027948045795178358 -0.28310140929013539 0.22198840922267707 0.056980877329431759 0.2777884589119381 0.10848757148908811 0.26376561388151354 0.002430657376138257 -0.16379046209412032 -0.15787723084122254
leaf_weight=4853 8854 5901 7693 5483 6858 2053 5809 12055 2104 619 7089 868 2101 932 3372 8366 532 15830 5906 5549 1730 1473 1797 230 1531 4518 5763 619 1316 4667
leaf_count=4853 8854 5901 7693 5483 6858 2053 5809 12055 2104 619 7089 868 2101 932 3372 8366 532 15830 5906 5549 1730 1473 1797 230 1531 4518 5763 619 1316 4667
internal_value=-0.0050747 -0.0289061 0.0184358 0.0108679 -0.0195357 -0.0248615 -0.0200263 0.0346629 -0.00734909 0.01772 0.021628 0.00214882 0.0292602 -0.0436749 0.00440219 -0.0253405 0.00230075 -0.0447337 -0.0375738 0.00864776 0.0106393 -0.0154421 0.00819021 -0.0302234 0.0100679 0.014209 0.0270078 -0.0189417 -0.010119 -0.0393075
internal_weight=136471 67773 68698 46849 41491 28884 20925 21849 12607 26233 18335 20616 14156 26282 18275 15116 5749 25350 7959 7898 7279 2341 3901 8596 9421 6049 11246 6520 1848 9520
internal_count=136471 67773 68698 46849 41491 28884 20925 21849 12607 26233 18335 20616 14156 26282 18275 15116 5749 25350 7959 7898 7279 2341 3901 8596 9421 6049 11246 6520 1848 9520
cat_boundaries=0 2 4 6 8 11 13 15 18 20 23 25 27
cat_threshold=578826386 3023044736 71630848 147342660 0 328192 407175424 13108544 1073761796 1107678738 3 440733952 1690979648 33558544 603979776 1342178564 1112049672 1 138481664 134238272 1141116180 1111622144 1 85983296 16910340 1075971648 1073874944
is_linear=0
shrinkage=0.05


Tree=21
num_leaves=31
num_cat=13
split_feature=0 3 13 13 13 4 13 4 4 13 13 2 13 0 9 13 13 11 10 10 13 9 13 13 10 4 0 10 6 13
split_gain=29251.8 5125.28 2449.42 1151.76 1023.1 689.536 704.074 508.701 461.856 419.348 320.045 318.717 230.265 182.032 171.106 170.171 154.588 142.855 138.999 135.836 132.833 130.303 107.987 106.725 106.578 103.279 99.3292 93.9765 101.073 93.6818
threshold=17.500000000000004 37.500000000000007 0 1 2 19.500000000000004 3 18.500000000000004 16.500000000000004 4 5 22.500000000000004 6 7.5000000000000009 3.5000000000000004 7 8 640.12919166666677 11.500000000000002 11.500000000000002 9 18.500000000000004 10 11 11.500000000000002 10.500000000000002 7.5000000000000009 16.500000000000004 5.5000000000000009 12
decision_type=2 2 9 9 9 2 9 2 2 9 9 2 9 2 2 9 9 2 2 2 9 2 9 9 2 2 2 2 2 9
left_child=2 3 15 11 -3 6 13 10 9 17 18 -2 -10 -4 -12 26 -7 19 -6 21 -9 -5 -8 24 -16 -15 -1 -11 -29 -14
right_child=1 4 5 8 7 16 22 20 12 27 14 -13 29 25 23 -17 -18 -19 -20 -21 -22 -23 -24 -25 -26 -27 -28 28 -30 -31
leaf_value=-0.35475943188101794 -0.11008335801029556 1.2673193499138229 -0.41765934993232812 0.13948172243924403 0.55695418160278087 -0.24240578980874616 -0.13544893065525657 0.16953812523951939 0.055140002059407681 0.33130504080748413 -0.0016164761600684586 -0.0057794955542585852 -0.27207688459471518 -0.097634741748176171 0.35740608720926414 -0.34504270031822193 -0.37727910050897773 0.25131862185816056 0.29381514805246883 -0.0033234640807041417 -0.028985816704512682 -0.0010332703068325344 0.018769015955741254 0.15808036268232117 0.17799202346218357 -0.17881862961524791 -0.14998336929916142 0.22476460474725377 -0.027828044707410272 -0.057767853289165852
leaf_weight=4865 8391 8247 5348 4335 8081 1342 4503 2645 3485 5138 990 6350 1292 2237 6225 15834 5294 687 4946 5072 1793 1962 2537 2685 2558 9017 4749 1525 691 3647
leaf_count=4865 8391 8247 5348 4335 8081 1342 4503 2645 3485 5138 990 6350 1292 2237 6225 15834 5294 687 4946 5072 1793 1962 2537 2685 2558 9017 4749 1525 691 3647
internal_value=-0.00531725 0.0139136 -0.033182 0.00198591 0.0272177 -0.023544 -0.0195542 0.0228928 0.0079694 0.0122154 0.025621 -0.00931123 -0.00180437 -0.0251686 0.0198268 -0.0446225 -0.0377939 0.00645616 0.031123 0.00512358 0.00727805 0.0100286 -0.0062695 0.0215644 0.0242409 -0.0215746 -0.0391209 0.0216187 0.0130415 -0.00873914
internal_weight=136471 80745 55726 42575 38170 30278 23642 29923 27834 19410 25485 14741 8424 16602 12458 25448 6636 12056 13027 11369 4438 6297 7040 11468 8783 11254 9614 7354 2216 4939
internal_count=136471 80745 55726 42575 38170 30278 23642 29923 27834 19410 25485 14741 8424 16602 12458 25448 6636 12056 13027 11369 4438 6297 7040 11468 8783 11254 9614 7354 2216 4939
cat_boundaries=0 2 4 6 8 10 12 14 16 19 22 24 27 29
cat_threshold=578826386 3023044736 440742144 2764571968 0 328192 71630848 147342656 86114368 1224869900 19968 1107300370 1151470612 1107429892 33558544 603979776 1073743108 1111525392 1 1411386628 167903234 1 402784512 16783364 1159856196 49152 3 0 134270976
is_linear=0
shrinkage=0.05


Tree=22
num_leaves=31
num_cat=15
split_feature=0 3 13 1 1 4 13 4 13 4 13 3 4 0 4 13 13 4 13 13 13 13 13 13 13 13 10 4 9 13
split_gain=27754.1 4746.42 2687.34 1058.86 1037.92 670.358 683.761 508.975 444.574 326.316 308.116 233.996 232.193 217.466 195.928 173.699 165.553 167.418 158.909 150.063 147.893 139.86 131.343 124.804 121.239 116.878 110.217 108.397 103.021 96.2431
threshold=17.500000000000004 37.500000000000007 0 27.500000000000004 67.500000000000014 18.500000000000004 1 16.500000000000004 2 11.500000000000002 3 14.000000000000002 16.500000000000004 7.5000000000000009 19.500000000000004 4 5 19.500000000000004 6 7 8 9 10 11 12 13 10.500000000000002 11.500000000000002 3.5000000000000004 14
decision_type=2 2 9 2 2 2 9 2 9 2 9 2 2 2 2 9 9 2 9 9 9 9 9 9 9 9 2 2 2 9
left_child=2 3 25 8 7 6 13 10 -2 19 -3 -7 15 -4 18 -10 -9 29 -11 -5 -14 -13 -6 -19 -15 -1 -8 -26 -12 -18
right_child=1 4 5 9 22 11 26 16 12 14 28 21 20 24 -16 -17 17 23 -20 -21 -22 -23 -24 -25 27 -27 -28 -29 -30 -31
leaf_value=-0.32779056530231082 -0.11121267296279989 0.45453225959875088 -0.39677638243571167 0.11899284922539906 1.4959077348563619 -0.36591757133179609 0.020489662012513499 -0.10450304442483969 -0.00083203162731351201 0.12906179399030968 0.029121647590686275 -0.27135727325070746 0.052383001956437351 -0.17804064990942808 -0.10732760400512512 0.18153531458718178 0.37015953077802027 0.14858025515890513 0.030896227189367843 0.31638489078211657 -0.13123704558952651 -0.14060475498365879 0.4978850058974903 -0.18911934539886702 -0.046181977403256275 -0.32779056530231082 -0.13860791383875723 -0.15912098997374999 0.26074367281869398 0.18960189782173453
leaf_weight=12630 7082 10122 5802 2158 7053 4979 2676 879 7161 7059 737 1748 340 5143 1729 2411 1986 1564 6979 3266 4390 2231 1299 714 1868 10887 3925 3837 8417 5399
leaf_count=12630 7082 10122 5802 2158 7053 4979 2676 879 7161 7059 737 1748 340 5143 1729 2411 1986 1564 6979 3266 4390 2231 1299 714 1868 10887 3925 3837 8417 5399
internal_value=-0.00539932 0.0133327 -0.0325414 0.00185437 0.0261357 -0.0231339 -0.0186637 0.0217721 -0.00599514 0.00977538 0.026603 -0.0347622 -0.000915316 -0.0240576 0.00613623 0.00356247 0.0129387 0.0148196 0.00809232 0.020354 -0.00997886 -0.0257225 0.0417146 0.00298507 -0.0198931 -0.0453968 -0.00501437 -0.0147769 0.0198712 0.0184902
internal_weight=136471 80745 55726 42575 38170 32209 23251 29818 21384 21191 19276 8958 14302 16650 15767 9572 10542 9663 14038 5424 4730 3979 8352 2278 10848 23517 6601 5705 9154 7385
internal_count=136471 80745 55726 42575 38170 32209 23251 29818 21384 21191 19276 8958 14302 16650 15767 9572 10542 9663 14038 5424 4730 3979 8352 2278 10848 23517 6601 5705 9154 7385
cat_boundaries=0 2 4 6 8 10 12 15 17 19 21 23 26 28 30 32
cat_threshold=578822290 3023044736 71634944 147342656 138686464 2756183360 19968 1107628562 388170560 25298948 134287360 134240260 1159859792 33593878 2 1277628736 4360196 1084359696 1073741824 155193856 143152448 3072 332288 69209860 33620480 1 0 4718912 41943056 2751463424 69207040 328208
is_linear=0
shrinkage=0.05


Tree=23
num_leaves=31
num_cat=12
split_feature=0 1 13 0 13 13 4 4 4 13 13 3 4 13 0 13 13 10 11 4 10 13 13 13 9 9 13 4 0 9
split_gain=26509.5 4454.78 2889.36 1132.88 958.497 632.763 453.987 430.813 362.875 364.618 316.767 293.283 239.172 232.239 212.35 180.558 171.053 161.545 142.108 140.553 137.36 125.988 120.491 120.291 112.899 113.63 100.987 95.0741 90.9566 90.8404
threshold=17.500000000000004 37.500000000000007 0 67.500000000000014 1 2 19.500000000000004 18.500000000000004 16.500000000000004 3 4 22.500000000000004 21.500000000000004 5 7.5000000000000009 6 7 11.500000000000002 639.93530833333341 12.500000000000002 11.500000000000002 8 9 10 18.500000000000004 5.5000000000000009 11 11.500000000000002 7.5000000000000009 22.500000000000004
decision_type=2 2 9 2 9 9 2 2 2 9 9 2 2 9 2 9 9 2 2 2 2 9 9 9 2 2 9 2 2 2
left_child=2 4 23 7 11 6 14 10 9 18 -3 27 26 -10 -4 -5 -16 21 20 -18 24 -12 -9 28 25 -6 -7 -2 -1 -26
right_child=1 3 5 15 8 12 -8 22 13 -11 17 -13 -14 -15 16 -17 19 -19 -20 -21 -22 -23 -24 -25 29 -27 -28 -29 -30 -31
leaf_value=-0.31140103703719535 -0.041323100381036329 0.46529765659113703 -0.37693756331392603 1.4211123481135439 0.0049968146789510122 -0.11712233714484084 -0.34919943104645612 0.18804654595753975 0.056552991919149601 0.26085165102289665 0.13360942117866337 -0.007906571100561522 -0.2488860655744162 -0.096331193777084059 -0.16130134480429367 0.49058084792533241 0.0084280680057140962 0.12694277828815501 0.22442353883775806 -0.17085404678903046 -0.0074994169985869163 0.29589540191959574 -0.024975502191676571 -0.31140103703719535 -0.018535120255594961 0.15761197281867309 0.0063598411932266792 -0.13039561549773104 -0.12137486921349999 0.13938673979375835
leaf_weight=7352 1826 9885 6725 7126 1211 6094 4604 2178 3536 5749 1931 5158 897 5730 7296 1383 1614 5371 829 2726 5616 9251 2144 10887 1462 3573 2253 6087 5278 699
leaf_count=7352 1826 9885 6725 7126 1211 6094 4604 2178 3536 5749 1931 5158 897 5730 7296 1383 1614 5371 829 2726 5616 9251 2144 10887 1462 3573 2253 6087 5278 699
internal_value=-0.00549091 0.0128163 -0.0320174 0.024886 0.00138875 -0.0222648 -0.0267182 0.0204194 0.00654408 0.0104786 0.0228119 -0.00981194 -0.0111844 -0.00157565 -0.0232095 0.041033 -0.0191217 0.0185383 0.0059403 -0.0111724 0.00462145 0.0219728 0.00578436 -0.0453458 0.00932325 0.0136079 -0.00855996 -0.0158663 -0.041788 -0.000161962
internal_weight=136471 80745 55726 39269 41476 32209 22965 30760 28405 19139 26438 13071 9244 9266 18361 8509 11636 16553 13390 4340 12561 11182 4322 23517 6945 4784 8347 7913 12630 2161
internal_count=136471 80745 55726 39269 41476 32209 22965 30760 28405 19139 26438 13071 9244 9266 18361 8509 11636 16553 13390 4340 12561 11182 4322 23517 6945 4784 8347 7913 12630 2161
cat_boundaries=0 2 4 6 8 10 12 14 16 18 21 23 25
cat_threshold=578822290 3023044736 440676608 2764571976 138482176 147346772 94568516 1224869892 3072 1074074130 1151470612 1107429892 3072 332288 4096 4719936 402723072 159514624 337643780 328194 1 41943056 2751463424 352731456 16777224
is_linear=0
shrinkage=0.05


Tree=24
num_leaves=31
num_cat=14
split_feature=0 3 13 3 1 13 4 4 13 4 13 4 13 4 4 13 4 10 13 13 13 13 13 13 0 10 6 13 0 13
split_gain=25275.7 4224.42 2989.45 1075.28 971.841 647.085 459.542 444.851 393.438 289.065 256.301 238.51 221.304 183.315 170.965 156.57 149.394 146.09 142.448 140.255 136.236 134.35 133.031 115.105 114.564 111.477 109.139 103.3 90.9566 90.6397
threshold=17.500000000000004 37.500000000000007 0 67.500000000000014 27.500000000000004 1 16.500000000000004 19.500000000000004 2 11.500000000000002 3 21.500000000000004 4 16.500000000000004 19.500000000000004 5 19.500000000000004 10.500000000000002 6 7 8 9 10 11 14.000000000000002 11.500000000000002 5.5000000000000009 12 7.5000000000000009 13
decision_type=2 2 9 2 2 9 2 2 9 2 9 2 9 2 2 9 2 2 9 9 9 9 9 9 2 2 2 9 2 9
left_child=2 4 27 6 8 7 10 12 -2 21 25 -7 17 20 19 -8 29 26 -15 -11 -10 -6 -5 -18 -9 -3 -4 28 -1 -17
right_child=1 3 5 22 9 11 15 24 13 14 -12 -13 -14 18 -16 16 23 -19 -20 -21 -22 -23 -24 -25 -26 -27 -28 -29 -30 -31
leaf_value=-0.29583098518533557 -0.10207196994328278 0.45817501448728265 -0.16967074044547614 1.7655505114708892 0.31368684531923496 -0.08692164228521336 -0.14914890262722783 -0.3317394594941333 -0.00086068656929434446 0.11930081833943512 0.19451144364430314 -0.23644176229569541 -0.13950482469163622 0.046936202262658003 -0.10478887340082643 0.36135828374735368 0.11723113944545567 -0.28771396761206836 -0.11963743007943216 0.024138888620438781 0.16330575693679814 0.13256509305553266 0.73650473685394968 -0.19436455291890839 -0.22615986182118411 0.28471763979975223 -0.0182458981174781 -0.29583098518533557 -0.11530612575282495 0.16795090828613743
leaf_weight=7352 7110 7452 4979 4213 2261 8347 654 3726 7259 7412 6565 897 6543 340 1729 1564 1592 6264 4390 6626 2285 3163 4122 665 878 5389 575 10887 5278 5954
leaf_count=7352 7110 7452 4979 4213 2261 8347 654 3726 7259 7412 6565 897 6543 340 1729 1564 1592 6264 4390 6626 2285 3163 4122 665 878 5389 575 10887 5278 5954
internal_value=-0.00565798 0.0122181 -0.0315598 0.0242966 0.00138931 -0.021641 0.0198609 -0.0261436 -0.00613075 0.00897787 0.02441 -0.0104387 -0.0226703 -0.00133716 0.00555274 0.0113961 0.0129739 -0.026767 -0.00938689 0.00737997 0.00265088 0.0189344 0.040174 0.0017058 -0.0400521 0.0285309 -0.0208858 -0.0451162 -0.041788 0.016374
internal_weight=136471 80745 55726 38170 42575 32209 29835 22965 21384 21191 19406 9244 18361 14274 15767 10429 9775 11818 4730 14038 9544 5424 8335 2257 4604 12841 5554 23517 12630 7518
internal_count=136471 80745 55726 38170 42575 32209 29835 22965 21384 21191 19406 9244 18361 14274 15767 10429 9775 11818 4730 14038 9544 5424 8335 2257 4604 12841 5554 23517 12630 7518
cat_boundaries=0 2 4 6 9 11 13 15 18 20 23 25 28 30 32
cat_threshold=578822290 3023044736 138482176 147346772 172240896 2756183360 1073761856 1107644946 1 4096 138953024 134287360 22528 1084359696 1073741824 1294077520 33593878 2 354616128 58853380 268455424 159470098 1 0 327680 69209860 33882624 1 41943056 2751463424 69206016 328208
is_linear=0
shrinkage=0.05


Tree=25
num_leaves=31
num_cat=12
split_feature=0 0 13 13 13 13 4 4 0 13 3 13 4 13 4 0 10 0 13 10 13 4 9 4 13 9 13 7 11 13
split_gain=24045.1 3880.15 2869.06 1095.61 845.338 649.134 408.458 373.843 330.27 389.486 312.047 290.939 266.133 247.988 230.963 208.862 183.595 167.19 167.058 160.847 148.804 147.238 147.223 140.75 130.159 124.796 113.991 110.043 106.957 99.348
threshold=17.500000000000004 42.500000000000007 0 1 2 3 19.500000000000004 17.500000000000004 14.000000000000002 4 22.500000000000004 5 21.500000000000004 6 18.500000000000004 7.5000000000000009 10.500000000000002 72.500000000000014 7 11.500000000000002 8 16.500000000000004 18.500000000000004 12.500000000000002 9 5.5000000000000009 10 1.0000000180025095e-35 640.12919166666677 11
decision_type=2 2 9 9 9 9 2 2 2 9 2 9 2 9 2 2 2 2 9 2 9 2 2 2 9 2 9 2 2 9
left_child=2 3 8 10 17 6 15 11 -1 -10 -2 19 24 -9 16 -4 20 21 -17 22 -6 -3 25 -20 -7 -5 -16 -22 -21 -15
right_child=1 4 5 7 14 12 -8 13 9 -11 -12 -13 -14 29 26 18 -18 -19 23 28 27 -23 -24 -25 -26 -27 -28 -29 -30 -31
leaf_value=-0.28103943592606878 -0.091016389647398915 0.66670020543003583 -0.34370498676762629 0.035414283476484343 0.12798804116112203 -0.11198164585080291 -0.31515248651942662 0.079036994334116359 0.010705385711107775 -0.052937574555124205 0.0015414768654512302 0.22081394083859751 -0.22855185430982916 -0.36297515156374127 0.83014874687355378 -0.1486795086634638 0.19685172775376636 1.563231493865169 0.030003962830175368 0.0007648868539899212 0.39106653450766021 0.27236303543923912 0.0065352984376238158 -0.1631620839250422 0.0035351267593341619 0.18607316837447707 0.030325157233040301 0.070779298097473742 0.21586996672130765 -0.051687570434174379
leaf_weight=21795 8762 2917 6636 1523 1289 7458 4262 2681 206 1516 6551 8547 1007 662 391 6209 7106 5232 1492 6929 10291 1307 2631 2560 2585 5119 2478 585 482 5262
leaf_count=21795 8762 2917 6636 1523 1289 7458 4262 2681 206 1516 6551 8547 1007 662 391 6209 7106 5232 1492 6929 10291 1307 2631 2560 2585 5119 2478 585 482 5262
internal_value=-0.00568802 0.0117475 -0.0309514 0.00295937 0.0254178 -0.0212344 -0.0263711 0.00798026 -0.0442322 -0.0231707 -0.00813483 0.0110519 -0.0113834 -0.00101685 0.0200406 -0.0228946 0.0220201 0.0379463 -0.0184241 0.0071942 0.0257501 0.0305871 0.0115874 -0.0104382 -0.00893657 0.0155525 0.00681422 0.0276502 0.00170692 -0.00672396
internal_weight=136471 80745 55726 49149 31596 32209 21159 33836 23517 1722 15313 25231 11050 8605 22140 16897 19271 9456 10261 16684 12165 4224 9273 4052 10043 6642 2869 10876 7411 5924
internal_count=136471 80745 55726 49149 31596 32209 21159 33836 23517 1722 15313 25231 11050 8605 22140 16897 19271 9456 10261 16684 12165 4224 9273 4052 10043 6642 2869 10876 7411 5924
cat_boundaries=0 2 4 6 8 9 11 13 15 17 19 20 22
cat_threshold=578822290 3023044736 440742144 2764571976 0 332288 138482176 147345744 8192 94502980 1224886276 77728788 1073875456 4096 4718912 419500352 159514624 352731456 1036 69206016 0 134238208
is_linear=0
shrinkage=0.05


Tree=26
num_leaves=31
num_cat=11
split_feature=0 1 13 13 13 13 4 4 0 13 3 4 4 13 0 13 13 13 10 13 10 11 10 10 9 9 10 13 11 9
split_gain=23049.5 3655.66 3045.23 1029.58 846.819 641.171 381.192 362.221 331.825 388.792 286.301 286.14 274.175 272.403 237.501 227.964 200.213 198.153 151.626 146.079 145.436 144.487 137.128 135.045 122.243 130.717 115.058 114.46 112.603 111.855
threshold=17.500000000000004 42.500000000000007 0 1 2 3 18.500000000000004 18.500000000000004 14.000000000000002 4 22.500000000000004 18.500000000000004 19.500000000000004 5 14.000000000000002 6 7 8 11.500000000000002 9 10.500000000000002 640.12919166666677 11.500000000000002 10.500000000000002 18.500000000000004 5.5000000000000009 11.500000000000002 10 60.029241666666671 8.5000000000000018
decision_type=2 2 9 9 9 9 2 2 2 9 2 2 2 9 2 9 9 9 2 9 2 2 2 2 2 2 2 9 2 2
left_child=2 3 8 10 -3 6 17 15 -1 -10 -2 13 19 26 27 21 -9 28 -17 -7 -15 22 24 -19 25 -5 -6 -14 -4 -20
right_child=1 4 5 7 11 12 -8 16 9 -11 -12 -13 14 20 -16 18 -18 23 29 -21 -22 -23 -24 -25 -26 -27 -28 -29 -30 -31
leaf_value=-0.26698746412976532 -0.085472926414353986 1.369937174875961 -0.43790272857677137 -0.0010809469007689644 0.70182628156080229 -0.093462347615805186 -0.29939486219345524 0.064746128827359861 0.010170116425552413 -0.050290695827368032 -0.00027468125106100416 0.10639002240083571 -0.2257513236218851 0.28898081191576813 -0.040086178700410625 0.25847480837248904 -0.12783335064071685 -0.15153565057510329 0.010217482545476565 0.00063507601309407144 0.15479784384545267 0.20263584479403862 -0.0074859293988835066 -0.25630795747977592 -0.0011044235248435896 0.15235415138351255 0.3125179126285218 -0.19049982242748761 -0.06098455758885795 0.16038947764660563
leaf_weight=21795 8789 5551 615 1483 4764 5400 5268 1854 206 1516 6549 3799 453 9297 1119 6014 3875 5097 2432 3902 4982 948 6101 5787 2465 4547 2931 1537 3031 4364
leaf_count=21795 8789 5551 615 1483 4764 5400 5268 1854 206 1516 6549 3799 453 9297 1119 6014 3875 5097 2432 3902 4982 948 6101 5787 2465 4547 2931 1537 3031 4364
internal_value=-0.00580746 0.0112632 -0.0305423 0.00279335 0.0246265 -0.0205329 -0.0261258 0.00763353 -0.0442237 -0.0231127 -0.00796195 0.0207831 -0.0115973 0.0229817 -0.0244612 0.00995274 -0.00383138 -0.0219615 0.0148908 -0.00731026 0.0188432 0.00586987 0.00464511 -0.0253442 0.00875221 0.0125871 0.030597 -0.0348241 -0.0117615 0.00978517
internal_weight=136471 80745 55726 49421 31324 32209 19798 34083 23517 1722 15338 25773 12411 21974 3109 28354 5729 14530 12810 9302 14279 15544 14596 10884 8495 6030 7695 1990 3646 6796
internal_count=136471 80745 55726 49421 31324 32209 19798 34083 23517 1722 15338 25773 12411 21974 3109 28354 5729 14530 12810 9302 14279 15544 14596 10884 8495 6030 7695 1990 3646 6796
cat_boundaries=0 2 4 6 8 9 11 13 15 17 19 22
cat_threshold=578822290 3023044736 440742144 2764571976 0 327680 138416640 147345744 8192 3072 4610 27394112 151144452 1149373460 1073875456 138412544 8392720 67567872 1024 260 33589248 1
is_linear=0
shrinkage=0.05


Tree=27
num_leaves=31
num_cat=14
split_feature=0 0 13 2 3 4 13 0 13 0 13 4 4 13 4 13 13 0 13 13 4 13 13 13 13 10 10 13 3 4
split_gain=22149.2 3430.83 3198.14 930.696 895.231 601.063 687.047 439.077 372.996 331.691 388.792 284.421 242.564 230.783 191.242 174.837 172.528 149.383 144.033 143.603 159.826 128.638 126.866 92.5057 91.4774 90.2439 90.1911 88.9507 86.3364 78.4535
threshold=17.500000000000004 42.500000000000007 0 27.500000000000004 72.500000000000014 19.500000000000004 1 14.000000000000002 2 14.000000000000002 3 16.500000000000004 11.500000000000002 4 11.500000000000002 5 6 7.5000000000000009 7 8 19.500000000000004 9 10 11 12 16.500000000000004 11.500000000000002 13 17.500000000000004 18.500000000000004
decision_type=2 2 9 2 2 2 9 2 9 2 9 2 2 9 2 9 9 2 9 9 2 9 9 9 9 2 2 9 2 2
left_child=2 3 9 8 11 6 17 16 -2 23 -11 13 -5 -3 18 -8 -7 -4 -10 -14 26 -16 -13 -1 -6 -17 -21 -9 -23 -24
right_child=1 4 5 12 24 7 15 27 14 10 -12 22 19 -15 21 25 -18 -19 -20 20 -22 28 29 -25 -26 -27 -28 -29 -30 -31
leaf_value=-0.25363809092327705 -0.095632058099704681 0.4656449058608999 -0.31370433955525617 0.19184673309223435 1.3014403161321633 -0.2058366954132434 -0.11729454220351326 -0.19825851422064489 0.24535748132928853 0.0096616106042747962 -0.047776161035999645 0.32996749233114997 0.0028769661598249566 0.21641022129599286 0.037400235991451328 0.056797866294580147 -0.28442511908378248 -0.12875715036097643 0.013738381338887785 0.15998619789949001 -0.04294244670087384 -0.16882628738331873 0.152911807830591 -0.25363809092327705 0.46510183756042328 -0.12044873197736737 0.076200553595621931 -0.019869596136037337 -0.022831325458376031 0.0098186405614802304
leaf_weight=11114 6226 7362 4848 5298 5777 729 8881 846 1392 206 1516 2363 6364 9470 1434 2694 4549 7074 4099 7177 1734 1997 3373 10681 872 1638 5612 950 7816 2379
leaf_count=11114 6226 7362 4848 5298 5777 729 8881 846 1392 206 1516 2363 6364 9470 1434 2694 4549 7074 4099 7177 1734 1997 3373 10681 872 1638 5612 950 7816 2379
internal_value=-0.00595255 0.0107815 -0.0301995 0.00251785 0.0236359 -0.0199432 -0.0163258 -0.0328244 -0.0048293 -0.0442194 -0.0231127 0.0192909 0.00896124 0.0229979 -0.000937425 -0.00845118 -0.0400909 -0.0250251 0.00671098 0.00653756 0.00927888 -0.00467236 0.011602 -0.0459073 0.0399383 -0.000207278 0.0112167 -0.0114699 -0.00671383 0.00754946
internal_weight=136471 80745 55726 49149 31596 32209 25135 7074 22964 23517 1722 24947 26185 16832 16738 13213 5278 11922 5491 20887 14523 11247 8115 21795 6649 4332 12789 1796 9813 5752
internal_count=136471 80745 55726 49149 31596 32209 25135 7074 22964 23517 1722 24947 26185 16832 16738 13213 5278 11922 5491 20887 14523 11247 8115 21795 6649 4332 12789 1796 9813 5752
cat_boundaries=0 2 4 6 7 9 11 14 17 20 22 24 26 28 30
cat_threshold=578822290 3023044736 67112960 138953024 171978752 2756183360 8192 3072 1074090498 138871040 8389632 260 37783554 1 17408 142660114 3 281350400 558519624 1 1151468560 1107427328 69337088 17104914 41943056 2751463424 2048 332288 155456256 8967232
is_linear=0
shrinkage=0.05


Tree=28
num_leaves=31
num_cat=12
split_feature=13 13 0 1 13 0 13 4 13 3 4 10 13 0 13 4 4 9 13 13 4 4 9 4 11 10 13 13 0 13
split_gain=18201.3 4188.46 3075.04 1915.24 1284.81 637.48 475.028 406.838 402.112 395.673 373.366 367.766 338.96 295.439 258.634 249.237 222.238 194.081 164.838 161.267 143.137 141.215 132.039 130.79 123.128 118.734 116.969 109.245 105.828 102.579
threshold=0 1 7.5000000000000009 27.500000000000004 2 14.000000000000002 3 18.500000000000004 4 22.500000000000004 17.500000000000004 11.500000000000002 5 7.5000000000000009 6 11.500000000000002 11.500000000000002 18.500000000000004 7 8 19.500000000000004 19.500000000000004 15.500000000000002 17.500000000000004 670.00492500000007 10.500000000000002 9 10 27.500000000000004 11
decision_type=9 9 2 2 9 2 9 2 9 2 2 2 9 2 9 2 2 2 9 9 2 2 2 2 2 2 9 9 2 9
left_child=2 12 8 5 -4 10 -6 11 -1 15 27 14 20 -14 -5 29 -10 22 -9 -13 -2 -17 -16 25 -21 -7 -12 -3 -15 -8
right_child=1 3 4 7 6 23 9 18 16 -11 26 19 13 28 17 21 -18 -19 -20 24 -22 -23 -24 -25 -26 -27 -28 -29 -30 -31
leaf_value=-0.24095618637711322 0.51335187634761936 -0.20419569533310328 -0.074177373271816019 0.32323880321230442 0.0090438136228867989 0.085232942817330945 -0.038917356510521285 0.62016141264929281 -0.24095618637711322 0.0017269755008101129 -0.20417192267012868 0.15591763322512017 -0.24095618637711322 0.0090438136228867989 0.1381989940660919 -0.11400938461091031 -0.26112369900007631 0.011886697849476846 -0.010231063337109348 0.0020190303278701193 0.074642702162430657 -0.17694640312877841 0.34308138703660629 -0.071303857276566879 0.2178803422416552 -0.011492847750385771 -0.27425237150364118 0.013660155171069555 1.2363683003255552 0.013143274727867383
leaf_weight=11159 4498 2096 11191 11597 561 4986 1295 512 4056 6673 523 7922 88 3517 7162 9704 6594 2453 6021 5634 787 1809 1823 4751 647 6680 1877 1544 5659 2652
leaf_count=11159 4498 2096 11191 11597 561 4986 1295 512 4056 6673 523 7922 88 3517 7162 9704 6594 2453 6021 5634 787 1809 1823 4751 647 6680 1877 1544 5659 2652
internal_value=-0.00300467 0.0121573 -0.0249928 0.00681784 -0.0155718 -0.00505188 -0.00872093 0.0129092 -0.0396419 -0.00987897 -0.0189404 0.0149283 0.0364414 0.0422687 0.01883 -0.0142755 -0.0325516 0.0134521 0.00140058 0.0086003 0.0261662 -0.0179927 0.016867 5.78668e-05 0.00259895 0.00290588 -0.03425 -0.00884615 0.0431888 -0.00343299
internal_weight=136471 80777 55694 66228 33885 22457 22694 43771 21809 22133 6040 37238 14549 9264 23035 15460 10650 11438 6533 14203 5285 11513 8985 16417 6281 11666 2400 3640 9176 3947
internal_count=136471 80777 55694 66228 33885 22457 22694 43771 21809 22133 6040 37238 14549 9264 23035 15460 10650 11438 6533 14203 5285 11513 8985 16417 6281 11666 2400 3640 9176 3947
cat_boundaries=0 2 4 6 7 9 11 14 15 18 21 23 25
cat_threshold=180695186 3168273728 536872960 2425472 33554432 2751988032 8192 41951378 336592896 2048 512 17924 1107333138 1 69337088 1140868608 33574934 1 260 33589248 1 86114560 16793606 8388608 4195328
is_linear=0
shrinkage=0.05


Tree=29
num_leaves=31
num_cat=8
split_feature=13 13 1 1 13 13 4 4 13 13 3 0 4 13 0 13 4 0 4 11 10 10 4 10 6 11 10 6 0 10
split_gain=16444.3 3740.16 3537.23 1346.19 742.644 733.311 556.781 411.627 386.767 365.508 350.598 300.841 294.076 318.737 292.299 255.896 200.567 198.844 177.875 146.337 135.442 150.486 132.749 129.26 148.693 125.799 145.03 171.906 121.615 110.321
threshold=0 1 14.000000000000002 27.500000000000004 2 3 19.500000000000004 19.500000000000004 4 5 42.500000000000007 14.000000000000002 15.500000000000002 6 7.5000000000000009 7 19.500000000000004 7.5000000000000009 16.500000000000004 700.06679166666675 16.500000000000004 29.500000000000004 18.500000000000004 10.500000000000002 5.5000000000000009 739.98776666666674 10.500000000000002 5.5000000000000009 27.500000000000004 10.500000000000002
decision_type=9 9 2 2 9 9 2 2 9 9 2 2 2 9 2 9 2 2 2 2 2 2 2 2 2 2 2 2 2 2
left_child=2 9 5 6 -4 17 20 8 19 22 16 -8 13 -6 -11 -14 23 -1 -12 29 -3 -22 -2 24 -5 26 27 -15 -16 -7
right_child=1 3 4 10 12 7 11 -9 -10 14 18 -13 15 25 28 -17 -18 -19 -20 -21 21 -23 -24 -25 -26 -27 -28 -29 -30 -31
leaf_value=-0.22890837705825753 0.51378447386377457 0.033898353291473705 -0.087839560474286676 0.11492286187640897 0.14548368086673361 -0.22790000142710937 -0.15304095677674212 -0.24806751405007246 -0.12886558041144988 -0.22890837705825753 0.27262149747361558 -0.082458037447715793 0.0087263393929167595 -0.0085336999650758479 0.0085916229417424723 -0.096724713983656771 -0.081525403392716814 0.0083866498864934701 0.15466401221451775 -0.0057748690763326678 -0.15076096981754425 0.016181609513420625 0.12063145294961118 0.064544531108528966 0.2929902326390636 0.15926138687111671 -0.10260219941123197 0.26562110039385411 1.1745498853092777 -0.22890837705825753
leaf_weight=6576 4091 9923 8050 9152 2093 5969 1753 4628 10492 88 11398 2539 288 3667 3517 7932 2050 88 6963 535 2512 2107 1194 10252 1744 763 3061 710 5659 6677
leaf_count=6576 4091 9923 8050 9152 2093 5969 1753 4628 10492 88 11398 2539 288 3667 3517 7932 2050 88 6963 535 2512 2107 1194 10252 1744 763 3061 710 5659 6677
internal_value=-0.00273648 0.0129896 -0.0218894 0.00750377 -0.00813883 -0.0323423 -0.00358394 -0.0287892 -0.0261331 0.0357408 0.0125304 -0.0194082 -0.00261823 0.00301146 0.0417835 -0.00967153 0.00844469 -0.047318 0.0176924 -0.0318513 0.00108651 -0.00598614 0.0250897 0.00989219 0.0136839 -0.00144319 -0.00342834 0.00241033 0.0426983 -0.032959
internal_weight=136471 74942 61529 60393 26564 34965 18834 28301 23673 14549 41559 4292 18514 10294 9264 8220 23198 6664 18361 13181 14542 4619 5285 21148 10896 8201 7438 4377 9176 12646
internal_count=136471 74942 61529 60393 26564 34965 18834 28301 23673 14549 41559 4292 18514 10294 9264 8220 23198 6664 18361 13181 14542 4619 5285 21148 10896 8201 7438 4377 9176 12646
cat_boundaries=0 2 4 6 8 10 12 14 15
cat_threshold=180695442 3168290120 536872960 2425472 37748736 2756182336 8388738 269484032 33566736 2684878912 2048 512 8396800 134234112 8396800
is_linear=0
shrinkage=0.05


Tree=30
num_leaves=31
num_cat=9
split_feature=13 0 13 13 1 13 13 4 3 13 3 0 0 4 4 4 13 4 0 11 10 6 13 4 0 10 6 3 13 10
split_gain=15117.8 3650.38 3571.71 1433.54 1225.98 628.388 572.245 475.709 394.149 369.148 334.022 306.947 286.071 250.375 232.982 230.856 172.455 289.092 156.483 154.669 152.024 153.398 151.312 142.934 142.899 141.458 147.214 138.211 119.397 118.792
threshold=0 7.5000000000000009 1 2 27.500000000000004 3 4 19.500000000000004 22.500000000000004 5 47.500000000000007 11.500000000000002 7.5000000000000009 12.500000000000002 19.500000000000004 19.500000000000004 6 15.500000000000002 27.500000000000004 729.86834166666688 10.500000000000002 5.5000000000000009 7 16.500000000000004 82.500000000000014 10.500000000000002 5.5000000000000009 72.500000000000014 8 10.500000000000002
decision_type=9 2 9 9 2 9 9 2 2 9 2 2 2 2 2 2 9 2 2 2 2 2 9 2 2 2 2 2 9 2
left_child=1 5 9 -3 7 -1 16 29 15 27 14 -9 -11 22 20 19 17 -5 -14 25 21 -6 -7 -12 -20 26 -8 -2 -16 -4
right_child=2 3 4 6 10 13 8 11 -10 12 23 -13 18 -15 28 -17 -18 -19 24 -21 -22 -23 -24 -25 -26 -27 -28 -29 -30 -31
leaf_value=-0.21746295820534467 0.2919161841499886 -0.064025225587652737 0.06670224762455064 0.020328902606527244 0.11970016012216877 -0.17292853191166407 -0.042993492856734684 -0.17768421667023768 0.0062461793699009512 -0.21746295820534467 0.3383435664797233 -0.065632349866414863 0.0081620417946553833 -0.23169599302234137 -0.29411443866686593 -0.16433619148153317 0.019986623013097927 -0.18624402059427736 0.50895851818559523 0.11845899760825188 0.072472547417102365 0.28457220958559726 -0.22202446861597044 0.17837575454547247 1.6158223910438139 -0.12504889911901082 0.18499792966519576 0.77806514911177871 0.01695558433953881 -0.017283283486552569
leaf_weight=8689 3690 10135 5956 1631 11954 2211 6539 1626 8017 88 6941 2666 3517 7543 785 2152 619 1156 2641 680 12987 2613 4469 4496 3018 7270 418 1595 1783 8586
leaf_count=8689 3690 10135 5956 1631 11954 2211 6539 1626 8017 88 6941 2666 3517 7543 785 2152 619 1156 2641 680 12987 2613 4469 4496 3018 7270 418 1595 1783 8586
internal_value=-0.00256648 -0.0209306 0.012512 -0.0115532 0.00715113 -0.0367449 -0.00579812 -0.00342997 -0.00841107 0.0347448 0.0119481 -0.0180568 0.040813 -0.0301869 0.00918598 -0.0127118 0.0134075 0.00802646 0.0417175 -0.0105018 0.0105284 0.0140351 -0.0231587 0.0192227 0.0365701 -0.0116152 -0.00651861 0.024051 -0.00521807 0.000887086
internal_weight=136471 61529 74942 38617 60393 22912 28482 18834 25076 14549 41559 4292 9264 14223 30122 17059 3406 2787 9176 14907 27554 14567 6680 11437 5659 14227 6957 5285 2568 14542
internal_count=136471 61529 74942 38617 60393 22912 28482 18834 25076 14549 41559 4292 9264 14223 30122 17059 3406 2787 9176 14907 27554 14567 6680 11437 5659 14227 6957 5285 2568 14542
cat_boundaries=0 2 4 6 8 10 12 14 16 18
cat_threshold=180695442 3168290120 536872960 2425472 33554432 604504384 8396930 269484032 8194 2147500032 2048 512 0 2147500032 138739968 75498752 285213248 38934
is_linear=0
shrinkage=0.05


Tree=31
num_leaves=31
num_cat=13
split_feature=13 13 0 1 13 0 13 13 2 4 1 0 0 4 4 13 13 4 4 4 13 13 13 13 4 5 10 13 13 11
split_gain=13935.8 4236.1 2585.26 2156.93 1161.28 650.838 593.094 515.684 427.686 358.05 258.635 329.43 282.527 249.726 246.705 228.748 191.012 169.506 158.985 144.469 144.056 131.712 127.924 120.862 117.565 115.355 112.964 108.161 100.564 99.4463
threshold=0 1 7.5000000000000009 27.500000000000004 2 11.500000000000002 3 4 47.500000000000007 17.500000000000004 7.5000000000000009 22.500000000000004 82.500000000000014 16.500000000000004 17.500000000000004 5 6 16.500000000000004 17.500000000000004 12.500000000000002 7 8 9 10 21.500000000000004 4.5000000000000009 16.500000000000004 11 12 669.89670833333355
decision_type=9 9 2 2 9 2 9 9 2 2 2 2 2 2 2 9 9 2 2 2 9 9 9 9 2 2 2 9 9 2
left_child=2 10 7 5 15 9 -6 -1 14 -3 -2 -12 24 -8 16 -4 -5 21 22 28 -11 -10 -7 -16 -13 26 -18 -20 -9 -24
right_child=1 3 4 8 6 18 13 19 17 20 11 12 -14 -15 23 -17 25 -19 27 -21 -22 -23 29 -25 -26 -27 -28 -29 -30 -31
leaf_value=-0.20658981029507739 -0.20658981029507739 -0.11367068606594942 -0.094034365785138796 0.16885748974832515 0.0046541046462538205 0.12493702320382721 -0.014570745288789945 -0.16574763277719695 0.48916189165618962 -0.22407933869645175 0.007753939704922619 0.44300890089224654 1.4896712999471859 -0.12340425688195085 0.070459923848407158 -0.060823964308270112 0.11733878655030061 0.16041970745133549 -0.19757472463171469 -0.2151090535388839 -0.25011848728755687 0.20340496053423537 -0.0082851173042000955 -0.076315544301879437 -0.21035251847399916 -0.017885742796248393 -0.015786943851038161 -0.043897720346017625 -0.21087282640361452 0.19396638941477173
leaf_weight=8689 88 5005 5113 12305 2012 3583 7347 1310 5298 1821 3531 4799 3523 3395 4543 7911 8324 5169 1212 6447 1722 3814 11276 3600 156 3163 1855 5068 3913 479
leaf_count=8689 88 5005 5113 12305 2012 3583 7347 1310 5298 1821 3531 4799 3523 3395 4543 7911 8324 5169 1212 6447 1722 3814 11276 3600 156 3163 1855 5068 3913 479
internal_value=-0.00243092 0.00898787 -0.0247849 0.00472798 -0.0142719 -0.00575151 -0.00353338 -0.0381085 0.0113052 -0.017431 0.0365119 0.037168 0.0318235 -0.00820313 0.00823912 -0.024766 0.0106465 0.0185596 -0.00113331 -0.0311301 -0.0295936 0.0226624 0.00161038 0.000657006 0.0241271 0.00648592 0.00908242 -0.00783439 -0.0249761 -0.000913727
internal_weight=136471 90334 46137 78237 25778 30166 12754 20359 48071 8548 12097 12009 8478 10742 33790 13024 25647 14281 21618 11670 3543 9112 15338 8143 4955 13342 10179 6280 5223 11755
internal_count=136471 90334 46137 78237 25778 30166 12754 20359 48071 8548 12097 12009 8478 10742 33790 13024 25647 14281 21618 11670 3543 9112 15338 8143 4955 13342 10179 6280 5223 11755
cat_boundaries=0 2 4 6 8 10 12 14 17 19 22 25 27 29
cat_threshold=46411922 3159885120 536870912 2425472 33554432 608698688 8396802 2147483648 8396930 269484032 0 4194560 1140870656 1115738134 134283524 41977858 1 1075842048 20498 1075856896 1107349530 3 337775620 1073874950 3 134218240 41963520 4456448 67110144
is_linear=0
shrinkage=0.05


Tree=32
num_leaves=31
num_cat=10
split_feature=13 13 0 2 13 13 0 13 4 13 4 0 1 0 10 13 13 4 3 4 13 6 13 4 10 0 5 10 4 11
split_gain=13427.4 4039.59 2640.03 1966.44 1175.68 721.368 602.873 524.654 398.903 354.363 344.107 302.45 339.632 236.359 229.638 166.9 166.594 163.962 158.198 163.235 152.653 151.083 170.274 138.131 127.894 118.491 114.833 110.145 106.719 103.594
threshold=0 1 7.5000000000000009 27.500000000000004 2 3 11.500000000000002 4 18.500000000000004 5 17.500000000000004 22.500000000000004 7.5000000000000009 87.500000000000014 11.500000000000002 6 7 17.500000000000004 14.000000000000002 10.500000000000002 8 5.5000000000000009 9 12.500000000000002 11.500000000000002 7.5000000000000009 3.5000000000000004 16.500000000000004 19.500000000000004 670.00492500000007
decision_type=9 9 2 2 9 9 2 9 2 9 2 2 2 2 2 9 9 2 2 2 9 2 9 2 2 2 2 2 2 2
left_child=2 11 7 6 -4 -6 10 -1 9 24 -3 12 -2 28 21 -10 25 20 19 -7 -8 22 -11 -9 -5 -12 -23 -22 -13 -16
right_child=1 3 4 8 5 18 17 23 15 14 16 13 -14 -15 29 -17 -18 -19 -20 -21 27 26 -24 -25 -26 -27 -28 -29 -30 -31
leaf_value=-0.19626031978032349 -0.19626031978032349 -0.1158403144293601 -0.057782766092856624 0.45387956580343086 0.0044213994139411742 -0.012903081613495716 0.13785516307012102 -0.20032918508343381 0.075861352685082303 0.026200540095607752 -0.21287537176162916 0.46054770649426335 0.0073662427196764749 1.4605477064942634 0.033388916414630203 -0.12751249830388503 -0.24596062115551762 -0.085087741640089656 -0.044030435612805799 -0.11622479090367098 0.0083020299969650321 0.34236607807085773 0.16089425180776901 -0.20435360086193974 0.17517484093693528 -0.090435819004272402 0.11033187686246287 -0.071583990099844286 0.077853626050018943 0.21535537591191059
