tree
version=v4
num_class=1
num_tree_per_iteration=1
label_index=0
max_feature_idx=14
objective=regression_l1
feature_names=wait_minutes wait_lag_1 wait_lag_2 wait_lag_3 hour_of_day day_of_week month is_holiday is_holiday_weekend days_until_next_holiday days_since_last_holiday minutes_since_last_status_change closure_duration_minutes ride_id_cat status_cat
feature_infos=[0:300] [0:300] [0:300] [0:300] [8:22] [0:6] [5:6] [0:1] [0:1] [0:24] [0:35] [19.970549999999999:3699.9490166666665] [0:500] -1:28:58:47:55:8:27:54:56:38:33:48:16:61:59:65:41:63:12:18:64:51:2:22:36:13:14:40:50:24:6:46:42:44:10:26:62:49:9:11:23:43:34:17:21:57:30:52:39:29:7:1:25:4:60:53:35 none
tree_sizes=2427 2938 2952 2974 2980 3018 3030 3009 3048 3010 2998 3018 3024 3034 3046 3065 3042 3021 3068 3032 3013 3005 3030 3040 3030 3028 3038 3043 3027 3038 3049 3049 3047 3025 3032 3029 3030 3075 3073 3085 3067 3073 3061 3070 3056 3045 3074 3075 3057 3073 3033 3092 3067 3059 3052 3048 3070 3087 3073 3069 3081 3066 3074 3061 3056 3095 3068 3060 3111 3065 3049 3080 3076 3097 3118 3105 3136 3126 3040 3117 3057 3119 3061 3076 3064 3070 3086 3067 3043 3045 3045 3080 3083 3100 3016 3110 3041 3075 3060 3045 3047 3039 3011 2943 2927 2993 3004 2929 2941 2962 2919 2929 2975 2954 2965 3010 2943 3117 3084 3069 3061 3069 3047 3008 3034 3022 3029 2945 2994 3010 2977 2952 2920 3029 2902 3003 2967 3046 3056 2948 3041 3022 3058 3019 3032 2947 3027 2936 2947 3041 3037 3067 3024 3063 3045 3055 3051 3026 3044 3076 3041 3061 2996 3064 3029 3047 3008 3026 3012 3044 3048 3025 3039 3024 3040 2939 2903 2950 2957 2883 2918 2960 2999 2955 2940 2948 2976 2929 2911 2942 2929 2899 2889 2962 2930 2938 2920 2926 2936 3016

Tree=0
num_leaves=31
num_cat=10
split_feature=13 0 0 4 4 13 13 4 13 13 4 3 4 13 10 10 13 6 0 11 1 1 0 13 13 5 0 4 13 0
split_gain=55114 6139 4899.15 2509.04 1987.88 1862.75 892.607 872.445 853.781 726.902 617.014 555.616 439.628 329.198 286.526 257.339 252.63 216.005 200.77 161.77 136.08 126.02 124.697 112.293 100.397 98.5145 96.442 95.1083 92.0044 89.1147
threshold=0 27.500000000000004 22.500000000000004 17.500000000000004 17.500000000000004 1 2 17.500000000000004 3 4 18.500000000000004 27.500000000000004 16.500000000000004 5 10.500000000000002 10.500000000000002 6 5.5000000000000009 42.500000000000007 699.90305833333343 22.500000000000004 17.500000000000004 37.500000000000007 7 8 5.5000000000000009 14.000000000000002 20.500000000000004 9 32.500000000000007
decision_type=9 2 2 2 2 9 9 2 9 9 2 2 2 9 2 2 9 2 2 2 2 2 2 9 9 2 2 2 9 2
left_child=1 3 6 8 9 18 12 11 15 22 13 16 14 -7 17 26 -4 23 27 -16 25 -8 -3 -2 -5 -17 -1 -6 -9 -18
right_child=2 4 7 24 5 10 21 28 -10 -11 -12 -13 -14 -15 19 20 29 -19 -20 -21 -22 -23 -24 -25 -26 -27 -28 -29 -30 -31
leaf_value=25 25 25.25 24.75 25 25.25 24.75 24.25 24.75 25.5 26.25 24.75 25.25 24.25 25.5 24.5 24.75 25 25.5 26.75 25.25 25 24.5 25.75 24.75 24.25 25.25 25.25 25 24.25 25.25
leaf_weight=776 1556 4184 1466 316 946 906 33254 753 2953 31887 2508 3321 4408 1379 4206 2895 2406 233 3519 165 1864 3951 3172 1577 2963 280 2805 198 1311 872
leaf_count=776 1556 4184 1466 316 946 906 33254 753 2953 31887 2508 3321 4408 1379 4206 2895 2406 233 3519 165 1864 3951 3172 1577 2963 280 2805 198 1311 872
internal_value=24.9977 25.0301 24.9631 25.0019 25.0387 25.0181 24.9566 24.9948 25.0129 25.0436 24.9962 25.0022 24.9685 25.0149 24.9756 25.0049 24.9912 24.9866 25.0405 24.9672 24.9976 24.9527 25.0293 24.9831 24.9633 24.9913 25.0151 25.0224 24.9658 24.999
internal_weight=123030 63551 59479 14852 48699 9456 49350 10129 11573 39243 4793 8065 12145 2285 7737 8620 4744 3366 4663 4371 5039 37205 7356 3133 3279 3175 3581 1144 2064 3278
internal_count=123030 63551 59479 14852 48699 9456 49350 10129 11573 39243 4793 8065 12145 2285 7737 8620 4744 3366 4663 4371 5039 37205 7356 3133 3279 3175 3581 1144 2064 3278
cat_boundaries=0 3 6 8 10 12 14 16 18 20 21
cat_threshold=1159876164 1124588054 3 67111940 459264 1 402723072 142606344 86114368 16959492 16777280 16828420 16777280 16830468 38010880 71828800 268435712 142606336 67109892 1073874944 276824336
is_linear=0
shrinkage=1


Tree=1
num_leaves=31
num_cat=13
split_feature=13 0 0 4 13 4 13 0 13 13 4 4 4 13 13 4 2 4 2 13 2 4 10 13 13 13 11 13 2 13
split_gain=50366.4 6325.66 4304.95 2911.27 1105.4 957.067 944.836 814.259 650.831 561.215 363.784 363.211 312.539 285.942 271.418 250.112 245.224 176.734 169.111 160.185 134.535 151.119 129.505 126.796 126.219 125.756 118.337 111.529 111.457 111.021
threshold=0 32.500000000000007 17.500000000000004 17.500000000000004 1 17.500000000000004 2 27.500000000000004 3 4 16.500000000000004 17.500000000000004 16.500000000000004 5 6 18.500000000000004 27.500000000000004 18.500000000000004 42.500000000000007 7 22.500000000000004 10.500000000000002 10.500000000000002 8 9 10 619.9884083333335 11 27.500000000000004 12
decision_type=9 2 2 2 9 2 9 2 9 9 2 2 2 9 9 2 2 2 2 9 2 2 2 9 9 9 2 9 2 9
left_child=1 3 8 4 16 9 18 11 12 -3 25 13 22 -4 -5 19 26 -16 -7 -8 21 -15 -2 -17 -10 -9 -1 -13 29 -6
right_child=2 5 7 14 28 6 15 10 24 -11 -12 27 -14 20 17 23 -18 -19 -20 -21 -22 -23 -24 -25 -26 -27 -28 -29 -30 -31
leaf_value=0 -0.23750000000000002 0.48750000000000004 -0.46250000000000002 0.012500000000000001 0.1875 0.41250000000000003 0.47500000000000003 0.23750000000000002 -0.71250000000000002 1.1875 -0.23750000000000002 -0.46250000000000002 -0.71250000000000002 0 -0.23750000000000002 0.012500000000000001 0.23750000000000002 -0.71250000000000002 1.6625000000000001 0.012500000000000001 0 -0.23750000000000002 -0.47500000000000003 -0.48750000000000004 -0.96250000000000002 0.012500000000000001 0.48750000000000004 -0.71250000000000002 0.48750000000000004 0.47500000000000003
leaf_weight=6512 1884 4814 1786 485 1242 721 1227 1740 10864 28458 1640 550 2660 727 995 1158 3450 3284 3298 753 2617 3340 2760 832 24378 2411 193 2070 3502 2679
leaf_count=6512 1884 4814 1786 485 1242 721 1227 1740 10864 28458 1640 550 2660 727 995 1158 3450 3284 3298 753 2617 3340 2760 832 24378 2411 193 2070 3502 2679
internal_value=-0.00230472 0.0286168 -0.035398 0.00719273 0.0165889 0.0402244 0.0246839 -0.0140395 -0.0438807 0.0439559 0.00115697 -0.0219748 -0.0301272 -0.0169421 -0.0274769 0.00729899 0.00584358 -0.0314526 0.0417349 0.019899 -0.0121303 -0.0178387 -0.0223407 -0.00520101 -0.0467094 0.00903397 0.000275913 -0.0382443 0.0312391 0.0254909
internal_weight=123030 63603 59427 22342 17578 41261 7989 16881 42546 33272 5791 11090 7304 8470 4764 3970 10155 4279 4019 1980 6684 4067 4644 1990 35242 4151 6705 2620 7423 3921
internal_count=123030 63603 59427 22342 17578 41261 7989 16881 42546 33272 5791 11090 7304 8470 4764 3970 10155 4279 4019 1980 6684 4067 4644 1990 35242 4151 6705 2620 7423 3921
cat_boundaries=0 3 5 7 9 11 13 15 18 21 23 25 26 28
cat_threshold=1159876164 1124588062 3 16908352 16828428 67111940 34013696 402718976 142606336 16777280 16828420 8192 2756182336 67111940 1073872896 512 1090519062 3 1073742336 1073741826 3 4460560 4195392 134217744 142607360 268435728 69206016 131072
is_linear=0
shrinkage=0.05


Tree=2
num_leaves=31
num_cat=12
split_feature=13 0 0 4 13 4 13 13 4 13 13 4 10 6 4 0 3 13 10 11 13 2 13 13 2 13 2 13 4 3
split_gain=49517.2 6513.01 4269.2 2845.33 1089.09 1041.53 998.508 759.272 758.675 684.792 561.215 375.891 284.727 323.964 242.668 225.233 223.644 216.002 196.866 194.412 192.324 167.522 129.311 128.782 121.17 120.615 116.052 154.994 111.705 107.258
threshold=0 32.500000000000007 17.500000000000004 17.500000000000004 1 17.500000000000004 2 3 17.500000000000004 4 5 16.500000000000004 10.500000000000002 5.5000000000000009 18.500000000000004 22.500000000000004 27.500000000000004 6 10.500000000000002 710.05907500000012 7 42.500000000000007 8 9 22.500000000000004 10 27.500000000000004 11 18.500000000000004 22.500000000000004
decision_type=9 2 2 2 9 2 9 9 2 9 9 2 2 2 2 2 2 9 2 2 9 2 9 9 2 9 2 9 2 2
left_child=1 3 7 4 16 10 21 11 9 24 -3 18 13 -11 20 -5 -1 -10 -2 29 -8 -7 -9 -17 -4 -16 27 -6 -25 -14
right_child=2 5 8 15 26 6 14 22 17 12 -12 -13 19 -15 25 23 -18 -19 -20 -21 -22 -23 -24 28 -26 -27 -28 -29 -30 -31
leaf_value=0 -0.22562499999999996 0.46312500000000001 -0.23750000000000002 -0.67687500000000012 0.17812500000000001 0.39187499999999997 0.63874999999999993 -0.67687500000000012 -0.22562499999999996 0 1.128125 -0.67687500000000012 -0.23812499999999998 0.47562499999999996 0.011875000000000037 0.23687500000000006 0.22562499999999996 -0.67687500000000012 -0.45124999999999993 0.23687500000000006 0.011875000000000037 1.579375 -0.91437500000000016 -0.013124999999999965 -0.21437500000000009 -0.46312500000000001 0.450625 0.45124999999999993 -0.45187500000000008 -0.012500000000000001
leaf_weight=6621 1884 4814 2967 2339 1242 679 1166 10864 1020 4395 28458 2660 1719 1367 1158 239 3508 2653 2760 498 871 3208 24378 644 936 907 3516 2691 1542 1326
leaf_count=6621 1884 4814 2967 2339 1242 679 1166 10864 1020 4395 28458 2660 1719 1367 1158 239 3508 2653 2760 498 871 3208 24378 644 936 907 3516 2691 1542 1326
internal_value=-0.00237462 0.0282851 -0.0351877 0.00654597 0.0158351 0.0400633 0.0238515 -0.0436351 -0.013918 -0.00832829 0.0439559 -0.0288078 -0.000939345 0.00591808 0.00656615 -0.0277288 0.00513857 -0.0340185 -0.0202627 -0.0120943 0.0188267 0.0419682 -0.0466867 -0.0170515 -0.0258753 -0.00549637 0.0303325 0.0244724 -0.0208106 -0.0168309
internal_weight=123030 63603 59427 22342 17578 41261 7989 42546 16881 13208 33272 7304 9305 5762 4102 4764 10129 3673 4644 3543 2037 3887 35242 2425 3903 2065 7449 3933 2186 3045
internal_count=123030 63603 59427 22342 17578 41261 7989 42546 16881 13208 33272 7304 9305 5762 4102 4764 10129 3673 4644 3543 2037 3887 35242 2425 3903 2065 7449 3933 2186 3045
cat_boundaries=0 3 5 7 9 11 13 14 17 19 21 24 26
cat_threshold=1159876164 1124588062 3 16908352 16828420 67111940 459264 402718976 142606336 33824768 2756183360 16777280 16828420 268435728 512 1107296274 3 4460560 4195392 67110912 1107427328 1073742336 1073741826 3 69206016 131072
is_linear=0
shrinkage=0.05


Tree=3
num_leaves=31
num_cat=13
split_feature=13 0 0 4 13 4 13 4 13 13 13 4 1 13 4 13 4 10 13 4 3 2 13 13 13 13 4 10 6 0
split_gain=49118.4 6646.4 4425.49 2581.78 1037.08 1032.47 988.851 799.914 759.272 737.973 561.215 375.891 369.746 343.417 235.951 216.002 202.379 196.866 192.324 180.673 169.846 167.522 130.404 129.311 126.031 124.282 118.334 106.184 105.796 101.616
threshold=0 32.500000000000007 17.500000000000004 17.500000000000004 1 17.500000000000004 2 17.500000000000004 3 4 5 16.500000000000004 27.500000000000004 6 18.500000000000004 7 15.500000000000002 10.500000000000002 8 18.500000000000004 27.500000000000004 42.500000000000007 9 10 11 12 10.500000000000002 11.500000000000002 5.5000000000000009 37.500000000000007
decision_type=9 2 2 2 9 2 9 2 9 9 9 2 2 9 2 9 2 2 9 2 2 2 9 9 9 9 2 2 2 2
left_child=1 3 8 4 12 10 21 9 11 16 29 17 -1 -5 18 -9 20 -2 -8 -15 26 -7 -14 -10 -11 -16 -4 -28 -22 -3
right_child=2 5 7 13 -6 6 14 15 23 24 -12 -13 22 19 25 -17 -18 -19 -20 -21 28 -23 -24 -25 -26 -27 27 -29 -30 -31
leaf_value=0 -0.21434374999999994 0.18996874999999991 0.21434374999999994 0.033218749999999984 0.42868749999999989 0.37228125000000001 0.60681249999999987 -0.21434374999999994 -0.64303125000000017 -0.21312499999999998 1.0717187500000001 -0.64303125000000017 0.41921874999999997 -0.22496875000000005 0.011281250000000043 -0.64303125000000017 -0.18871874999999996 -0.42868749999999989 0.011281250000000043 -0.64303125000000017 0.22562499999999996 1.5004062500000002 0.21434374999999994 -0.86865625000000013 -0.42750000000000005 -0.43996874999999991 0 -0.21250000000000002 0.45184374999999993 0.66496874999999989
leaf_weight=8006 1884 1642 777 485 5652 679 1166 1020 10864 2585 28458 2660 1071 995 1233 2653 2237 2760 871 3284 1501 3208 2849 24378 1969 832 1887 1220 1032 3172
leaf_count=8006 1884 1642 777 485 5652 679 1166 1020 10864 2585 28458 2660 1071 995 1233 2653 2237 2760 871 3284 1501 3208 2849 24378 1969 832 1887 1220 1032 3172
internal_value=-0.0023539 0.0281821 -0.0350346 0.00622147 0.01507 0.0400802 0.0239392 -0.0133789 -0.0436351 -0.00763931 0.0439559 -0.0288078 0.00668566 -0.0264274 0.00673638 -0.0340185 0.000946445 -0.0202627 0.0188267 -0.0309046 0.00546205 0.0419682 0.019273 -0.0466867 -0.0239045 -0.00515738 -0.00110711 -0.00547152 0.0155349 0.0279436
internal_weight=123030 63603 59427 22342 17578 41261 7989 16881 42546 13208 33272 7304 11926 4764 4102 3673 8654 4644 2037 4279 6417 3887 3920 35242 4554 2065 3884 3107 2533 4814
internal_count=123030 63603 59427 22342 17578 41261 7989 16881 42546 13208 33272 7304 11926 4764 4102 3673 8654 4644 2037 4279 6417 3887 3920 35242 4554 2065 3884 3107 2533 4814
cat_boundaries=0 3 5 7 9 11 13 15 16 19 20 22 24 27
cat_threshold=1159876164 1124588062 3 86114368 16828428 67111940 459264 402718976 142606336 411111696 142606336 16777280 16828420 67111940 1073872896 268435728 512 1107296274 3 69337088 4460560 4195392 4456448 1024 1073742336 1107296258 3
is_linear=0
shrinkage=0.05


Tree=4
num_leaves=31
num_cat=10
split_feature=0 13 13 4 4 0 4 13 13 13 4 13 0 4 13 0 4 0 3 11 10 13 13 6 10 6 9 4 4 13
split_gain=49028.8 7912.16 3952.29 2211.42 1291.75 1228.75 1134.18 1072.19 814.615 366.363 326.747 306.356 239.857 232.174 229.552 218.637 199.405 194.831 188.451 180.573 173.59 150.919 146.602 110.893 110.63 105.551 118.263 102.488 100.896 141.592
threshold=27.500000000000004 0 1 16.500000000000004 18.500000000000004 17.500000000000004 17.500000000000004 2 3 4 17.500000000000004 5 17.500000000000004 18.500000000000004 6 37.500000000000007 16.500000000000004 37.500000000000007 47.500000000000007 549.97541666666677 10.500000000000002 7 8 5.5000000000000009 11.500000000000002 5.5000000000000009 15.500000000000002 16.500000000000004 17.500000000000004 9
decision_type=2 9 9 2 2 2 2 9 9 9 2 9 2 2 9 2 2 2 2 2 2 9 9 2 2 2 2 2 2 9
left_child=1 5 4 7 17 11 9 12 18 15 14 16 24 22 -7 -4 19 27 -6 20 23 -15 -5 -1 -3 -11 -27 -2 -19 -30
right_child=2 3 6 13 8 10 -8 -9 -10 25 -12 -13 -14 21 -16 -17 -18 28 -20 -21 -22 -23 -24 -25 -26 26 -28 -29 29 -31
leaf_value=-0.36087968750000016 0.5181328125000001 0 0.20362656249999989 -0.86087968750000021 0.19116718749999997 -0.40612500000000012 -0.26240781250000006 0.40725312499999994 -0.16797031249999997 -0.0030328125000000485 -0.61087968750000021 -0.61087968750000021 0.012500000000000001 -0.61087968750000021 -0.20121874999999997 0.63172031249999994 -0.86087968750000021 1.0181328125 1.6753859374999998 0.10968359374999999 -0.40725312499999994 -0.36087968750000016 -0.11087968750000013 0.3266203124999999 -0.23750000000000002 0.0082500000000001357 0.38172031249999994 0.2487796874999999 0.22321718750000008 0.92538593749999998
leaf_weight=2677 6286 2274 4453 601 848 1786 2546 3502 2183 2392 1969 28742 6208 2623 4889 3652 3408 24987 1765 290 3941 1273 1638 97 2596 776 841 1032 483 2272
leaf_count=2677 6286 2274 4453 601 848 1786 2546 3502 2183 2392 1969 28742 6208 2623 4889 3652 3408 24987 1765 290 3941 1273 1638 97 2596 776 841 1032 483 2272
internal_value=-0.00235146 -0.0305069 0.0330334 -0.00468275 0.0411955 -0.0416888 0.0108078 0.00591221 0.0168682 0.0171909 -0.0246356 -0.0454642 -0.00172258 -0.0298696 -0.0193558 0.0232964 -0.0379018 0.0445351 0.0356271 -0.0331121 -0.0347803 -0.0372433 -0.0170389 -0.0251983 -0.0100308 0.00477731 0.0146568 0.0372779 0.0464494 0.0373684
internal_weight=123030 68514 54516 20715 39856 47799 14660 14580 4796 12114 8644 39155 11078 6135 6675 8105 10413 35060 2613 7005 6715 3896 2239 2774 4870 4009 1617 7318 27742 2755
internal_count=123030 68514 54516 20715 39856 47799 14660 14580 4796 12114 8644 39155 11078 6135 6675 8105 10413 35060 2613 7005 6715 3896 2239 2774 4870 4009 1617 7318 27742 2755
cat_boundaries=0 2 5 7 9 11 13 15 18 20 23
cat_threshold=717566098 3036153280 1143098884 1107759634 3 354550080 151144452 67111940 459264 16777280 159433732 138743824 8389632 8192 2756182336 285229632 151015446 2 0 134270976 1073758208 4096 2
is_linear=0
shrinkage=0.05


Tree=5
num_leaves=31
num_cat=12
split_feature=13 0 0 4 13 4 13 13 0 4 4 13 1 13 2 13 10 13 4 10 9 6 4 13 13 13 4 9 4 13
split_gain=44712 5575.85 4550.78 2937.3 1330.1 832.049 778.729 771.668 647.162 615.691 386.263 356.272 339.107 230.089 223.353 215.794 212.102 181.649 239.355 157.617 174.529 151.213 141.174 140.286 139.475 130.452 119.618 116.996 114.447 120.643
threshold=0 37.500000000000007 17.500000000000004 18.500000000000004 1 17.500000000000004 2 3 47.500000000000007 16.500000000000004 16.500000000000004 4 27.500000000000004 5 22.500000000000004 6 10.500000000000002 7 16.500000000000004 11.500000000000002 8.5000000000000018 5.5000000000000009 12.500000000000002 8 9 10 12.500000000000002 2.5000000000000004 16.500000000000004 11
decision_type=9 2 2 2 9 2 9 9 2 2 2 9 2 9 2 9 2 9 2 2 2 2 2 9 9 9 2 2 2 9
left_child=2 3 6 4 12 7 10 14 9 -3 16 -5 26 -11 22 -7 -1 -10 -19 -6 24 -16 -4 -9 27 -8 -2 -21 -14 -30
right_child=1 8 5 11 19 15 25 23 17 13 -12 -13 28 -15 21 -17 -18 18 -20 20 -22 -23 -24 -25 -26 -27 -28 -29 29 -31
leaf_value=-0.18558257812499993 0.012500000000000001 0.71722617187500015 0.011843749999999887 -0.0017505468749998698 0.49222617187500006 -0.19050617187499982 -0.58033570312500016 -0.19240781249999994 1.7172261718750002 0.019115703125000039 -0.60533570312500018 -0.58033570312500016 0.20377820312499983 0.38075726562500001 0.0094969140624999518 -0.58033570312500016 -0.38689046874999988 0.96722617187500015 0.34270257812499988 0.24222617187500006 0.38689046874999988 0.21470156250000008 -0.21556406250000004 -0.38581875000000015 0.34325273437500015 -0.7946794531250001 -0.022681328124999924 -0.085487343750000111 -0.95059992187500009 0.049400078124999962
leaf_weight=1884 4254 10389 1405 924 5195 1020 10864 2585 14841 1749 2660 3472 4147 2280 3536 2642 2760 4206 1560 283 3769 1882 1831 1951 1353 24364 3366 738 137 983
leaf_count=1884 4254 10389 1405 924 5195 1020 10864 2585 14841 1749 2660 3472 4147 2280 3536 2642 2760 4206 1560 283 3769 1882 1831 1951 1353 24364 3366 738 137 983
internal_value=-0.00369381 0.0254202 -0.0348958 0.00905279 0.0158762 -0.0129124 -0.0436142 -0.00705838 0.0388023 0.0306769 -0.0286027 -0.0285487 0.00486935 0.0140854 0.00170822 -0.0339978 -0.0199397 0.0444873 0.0365997 0.0283574 0.0229611 0.00791805 -0.00868356 -0.0237352 0.012342 -0.0467053 -0.00187008 -0.00169738 0.0146288 0.000446429
internal_weight=123030 63646 59384 28621 24225 16852 42532 13190 35025 14418 7304 4396 12887 4029 8654 3662 4644 20607 5766 11338 6143 5418 3236 4536 2374 35228 7620 1021 5267 1120
internal_count=123030 63646 59384 28621 24225 16852 42532 13190 35025 14418 7304 4396 12887 4029 8654 3662 4644 20607 5766 11338 6143 5418 3236 4536 2374 35228 7620 1021 5267 1120
cat_boundaries=0 2 4 6 8 11 14 15 18 20 23 25 27
cat_threshold=986001810 3170371008 16908352 16828428 402718976 142606336 411111696 142606336 67111940 1107427328 1 1090535488 33609748 2 268435728 69209092 328210 1 4456448 1024 69222400 131072 2 4460560 4195392 0 16384
is_linear=0
shrinkage=0.05


Tree=6
num_leaves=31
num_cat=13
split_feature=0 13 13 4 4 0 4 13 13 0 4 13 11 10 13 13 13 4 6 3 10 4 0 13 4 13 13 4 13 13
split_gain=44544.2 5535.14 5002.36 1592.2 1444.62 1262.33 1363.71 831.799 766.461 704.303 479.597 316.783 303.886 307.673 274.438 245.434 185.687 187.229 158.143 136.851 130.276 126.683 122.825 120.5 207.337 118.919 116.522 113.803 112.683 110.643
threshold=22.500000000000004 0 1 17.500000000000004 16.500000000000004 47.500000000000007 18.500000000000004 2 3 37.500000000000007 16.500000000000004 4 659.86557500000015 10.500000000000002 5 6 7 18.500000000000004 5.5000000000000009 27.500000000000004 16.500000000000004 16.500000000000004 14.000000000000002 8 16.500000000000004 9 10 16.500000000000004 11 12
decision_type=2 9 9 2 2 2 2 9 9 2 2 9 2 2 9 9 9 2 2 2 2 2 2 9 2 9 9 2 9 9
left_child=2 5 8 9 7 6 15 20 10 11 12 19 13 18 -8 21 17 -5 -1 -3 -4 26 -6 -7 -25 -11 -2 -17 -13 -15
right_child=1 3 4 16 22 23 14 -9 -10 25 -12 28 -14 29 -16 27 -18 -19 -20 -21 -22 -23 -24 24 -26 -27 -28 -29 -30 -31
leaf_value=-0.17630344921874991 0.68136486328125001 0.014505076171874976 -0.0012499999999999291 0.0067024492187501396 -0.78756891796875017 1.6313648632812503 -0.38055501171874995 0.3675459453124999 -0.5513189179687501 0.2245086718749999 -0.5513189179687501 -0.20582632812500012 0.079087578125000141 -0.010714216796875054 0.11957098437499997 0.68136486328125001 -0.5513189179687501 -0.3549925117187499 0.25182155078125013 0.19358929296874977 -0.23577218359375005 0.19818830859375006 -0.34274817578125011 0.91886486328125005 0.45009104296875013 0.55177298828124977 0.21761486328125007 0.44818830859375008 -0.0059436718749999789 -0.3675459453124999
leaf_weight=3910 3513 4116 5076 1041 1526 13769 1249 2407 31226 1247 4792 537 390 224 1700 8990 1463 1506 193 4487 2232 1415 2494 3963 1618 3490 4050 1847 3821 4738
leaf_count=3910 3513 4116 5076 1041 1526 13769 1249 2407 31226 1247 4792 537 390 224 1700 8990 1463 1506 193 4487 2232 1415 2494 3963 1618 3490 4050 1847 3821 4738
internal_value=-0.00380151 0.0251763 -0.0350375 0.00465512 -0.00856675 0.0357445 0.0277719 0.00185795 -0.0430216 0.0111029 -0.0333135 0.00507291 -0.0268059 -0.0286652 -0.00395049 0.0324931 -0.0237905 -0.0154282 -0.0185352 0.0106293 -0.0065455 0.0262461 -0.0337811 0.0451421 0.0384994 0.0276019 0.0288444 0.0376095 -0.00590659 -0.0370415
internal_weight=123030 63822 59208 21708 13735 42114 22764 9715 45473 17698 14247 12961 9455 9065 2949 19815 4010 2547 4103 8603 7308 8978 4020 19350 5581 4737 7563 10837 4358 4962
internal_count=123030 63822 59208 21708 13735 42114 22764 9715 45473 17698 14247 12961 9455 9065 2949 19815 4010 2547 4103 8603 7308 8978 4020 19350 5581 4737 7563 10837 4358 4962
cat_boundaries=0 3 5 7 9 11 14 17 19 22 24 27 29 31
cat_threshold=1143098900 1107759634 3 717566098 3052930496 354550080 134367236 138743808 25166848 16777536 159434764 16896 4114 2 1075986448 135168 2 293601600 16812036 69209092 328208 1 402723072 134217728 1073758208 4096 2 33554432 71827776 0 16777216
is_linear=0
shrinkage=0.05


Tree=7
num_leaves=31
num_cat=11
split_feature=13 0 0 4 13 4 4 13 13 13 2 13 4 4 13 13 10 6 4 13 11 13 3 2 2 13 10 9 2 10
split_gain=42192.2 5482.44 4012.37 2909.62 1165.01 817.13 751.189 769.958 719.601 632.586 540.86 383.509 370.465 353.057 287.231 279.863 221.197 282.233 218.839 215.794 185.791 167.979 163.536 160.821 146.276 136.587 128.124 115.799 112.499 102.655
threshold=0 37.500000000000007 17.500000000000004 17.500000000000004 1 17.500000000000004 16.500000000000004 2 3 4 27.500000000000004 5 10.500000000000002 18.500000000000004 6 7 10.500000000000002 5.5000000000000009 18.500000000000004 8 710.05907500000012 9 22.500000000000004 14.000000000000002 22.500000000000004 10 11.500000000000002 8.5000000000000018 27.500000000000004 11.500000000000002
decision_type=9 2 2 2 9 2 2 9 9 9 2 9 2 2 9 9 2 2 2 9 2 9 2 2 2 9 2 2 2 2
left_child=2 3 9 4 10 8 15 -8 16 12 -2 28 25 14 -9 -3 17 -4 -13 -7 -18 -15 -14 -11 -10 -1 -6 -28 -5 -12
right_child=1 6 5 11 26 19 7 13 24 23 29 18 22 21 -16 -17 20 -19 -20 -21 -22 -23 -24 -25 -26 -27 27 -29 -30 -31
leaf_value=0.29321506640625011 -0.00021618740234377045 1.1472966201171875 0.008860837988281212 -0.1831732669921875 0.59390186289062485 -0.1813159857421873 1.6408111656250002 0.59095061191406251 -0.19370164843750004 -0.72737953457031268 0.20673412011718764 -0.20340504824218755 -0.47737953457031268 0.16746846562500003 0.17758649082031255 0.53668433886718725 -0.16274770273437511 0.39972765234374991 -0.51194047207031268 -0.52375297207031257 0.21637131660156259 -0.21281233144531236 -0.2600029720703127 -0.29312294882812501 -0.15637772597656241 -0.20678493359374991 0.19099529199218762 0.46393988925781254 0.13170747910156244 0.15937482041015621
leaf_weight=250 8124 17489 4100 333 3416 1020 3827 2618 3362 27225 3975 1192 5555 1146 1907 7041 2813 1253 3376 2642 488 997 1082 6051 1174 2369 1776 2682 1004 2743
leaf_count=250 8124 17489 4100 333 3416 1020 3827 2618 3362 27225 3975 1192 5555 1146 1907 7041 2813 1253 3376 2642 488 997 1082 6051 1174 2369 1776 2682 1004 2743
internal_value=-0.00343412 0.0248476 -0.0337441 0.0086178 0.0167459 -0.0131023 0.0381171 0.0269223 -0.00730099 -0.0419308 0.00847697 -0.0226503 -0.0302288 0.0165768 0.0245193 0.0429066 0.00116574 0.00744442 -0.0295107 -0.0339978 -0.00901242 -0.000116659 -0.0365451 -0.0451631 -0.0234052 -0.0143375 0.0322806 0.0267384 0.00100223 0.0189789
internal_weight=123030 63646 59384 28621 22716 16852 35025 10495 13190 42532 14842 5905 9256 6668 4525 24530 8654 5353 4568 3662 3301 2143 6637 33276 4536 2619 7874 4458 1337 6718
internal_count=123030 63646 59384 28621 22716 16852 35025 10495 13190 42532 14842 5905 9256 6668 4525 24530 8654 5353 4568 3662 3301 2143 6637 33276 4536 2619 7874 4458 1337 6718
cat_boundaries=0 2 4 6 8 10 13 16 19 20 23 24
cat_threshold=986001810 3170371008 19005504 16959500 69208064 459264 411111696 142606336 402718976 142606592 67111940 1107429376 1 132676 1073741842 1 67112452 1107628562 1 268435728 1073743364 2 1 268435456
is_linear=0
shrinkage=0.05


Tree=8
num_leaves=31
num_cat=13
split_feature=0 13 13 4 4 4 13 13 0 3 3 4 13 13 13 4 13 13 4 0 4 13 4 13 13 11 3 0 13 0
split_gain=40346.3 5291.73 4460.92 1484.35 1459.23 1358.66 1014.62 820.879 773.684 701.606 626.622 245.299 264.943 209.984 206.52 196.497 207.945 191.575 190.589 177.74 159.712 156.582 163.789 126.332 124.754 123.217 114.845 112.978 108.749 101.615
threshold=22.500000000000004 0 1 16.500000000000004 18.500000000000004 17.500000000000004 2 3 14.000000000000002 42.500000000000007 27.500000000000004 15.500000000000002 4 5 6 17.500000000000004 7 8 18.500000000000004 37.500000000000007 11.500000000000002 9 16.500000000000004 10 11 659.86557500000015 27.500000000000004 32.500000000000007 12 14.000000000000002
decision_type=2 9 9 2 2 2 9 9 2 2 2 2 9 9 9 2 9 9 2 2 2 9 2 9 9 2 2 2 9 2
left_child=2 4 8 7 9 10 -6 25 14 11 13 12 26 -3 -1 16 20 -8 24 28 -10 -11 -23 -5 -7 29 -2 -15 -12 -4
right_child=1 5 3 23 6 18 17 -9 15 21 19 -13 -14 27 -16 -17 -18 -19 -20 -21 -22 22 -24 -25 -26 -27 -28 -29 -30 -31
leaf_value=-0.48738399534179688 0.13021910509765622 -0.18530515585937499 -0.22441762422363284 -0.50858448557617209 1.3421465305859375 0.0024346765332030175 0.13243774234375003 0.32597165358398428 -0.0067539720996093074 1.4924317891113283 0.17357312231445299 0.2177560618359376 0.58993178911132815 0.0059636063427733537 -0.69101055784179699 -0.49659682462890642 -0.22820983692871108 -0.31508961252929668 -0.38799184465820319 0.45067218591796881 -0.22028411943847656 0.74243178911132834 0.41870716627929688 -0.27156253245117201 -0.28873891721679679 0.46424519764648431 0.29742397661132841 0.17743750478027334 0.14008390356445322 -0.012197575102539028
leaf_weight=13440 1134 1428 2867 2603 1719 1106 1811 2407 983 12823 4051 3396 7900 4989 17757 3152 6894 1673 2192 3676 2478 6660 2225 1821 712 187 2773 1871 1683 4619
leaf_count=13440 1134 1428 2867 2603 1719 1106 1811 2407 983 12823 4051 3396 7900 4989 17757 3152 6894 1673 2192 3676 2478 6660 2225 1821 712 187 2773 1871 1683 4619
internal_value=-0.00310737 0.0244712 -0.0328351 -0.00871572 0.0348044 0.00440648 0.0100231 0.001875 -0.0406495 0.038307 0.0103628 0.0300697 0.0334759 0.000337838 -0.0449867 -0.0306619 -0.0273346 -0.00552376 -0.0218703 0.0191923 -0.0171564 0.0440759 0.0386903 -0.0328662 -0.00990099 -0.00612391 0.0226066 0.0039738 0.0136903 -0.00713332
internal_weight=123030 63822 59208 14504 42114 21708 5203 10080 44704 36911 17698 15203 11807 8288 31197 13507 10355 3484 4010 9410 3461 21708 8885 4424 1818 7673 3907 6860 5734 7486
internal_count=123030 63822 59208 14504 42114 21708 5203 10080 44704 36911 17698 15203 11807 8288 31197 13507 10355 3484 4010 9410 3461 21708 8885 4424 1818 7673 3907 6860 5734 7486
cat_boundaries=0 3 5 7 9 11 13 15 17 20 22 25 27 29
cat_threshold=1143098900 1107759634 3 717566098 3036153280 67110928 328192 354550080 151144452 69337104 393216 38014976 608698688 138481664 549979456 138481680 8388608 1028 1107427328 1 67111936 328210 268452352 151015444 3 285475136 21006340 151257152 151030788
is_linear=0
shrinkage=0.05


Tree=9
num_leaves=31
num_cat=11
split_feature=13 0 1 4 13 13 0 4 13 13 4 2 4 13 4 13 13 3 13 4 6 0 4 10 4 10 4 13 13 9
split_gain=37971.6 4829.3 4232.69 2304.94 988.986 904.402 765.026 724.954 751.498 487.453 428.661 407.202 390.844 310.896 248.639 246.276 218.858 216.454 201.881 224.275 146.257 143.151 133.476 122.221 121.806 139.959 109.967 107.212 103.355 102.944
threshold=0 17.500000000000004 37.500000000000007 17.500000000000004 1 2 27.500000000000004 17.500000000000004 3 4 17.500000000000004 27.500000000000004 10.500000000000002 5 16.500000000000004 6 7 22.500000000000004 8 18.500000000000004 5.5000000000000009 17.500000000000004 16.500000000000004 11.500000000000002 18.500000000000004 10.500000000000002 18.500000000000004 9 10 15.500000000000002
decision_type=9 2 2 2 9 9 2 2 9 9 2 2 2 9 2 9 9 2 9 2 2 2 2 2 2 2 2 9 9 2
left_child=2 4 3 5 -2 11 13 9 -9 -4 20 23 16 -3 -15 -5 -6 24 -10 -20 -8 -17 -7 -1 25 -14 -23 -18 -11 -22
right_child=1 6 7 15 12 22 10 8 18 28 -12 -13 17 14 -16 21 27 -19 19 -21 29 26 -24 -25 -26 -27 -28 -29 -30 -31
leaf_value=0.16766717735742206 -0.6564600299497072 -0.23105054716064455 0.48731651262792952 0.089563522979980451 -0.41664135807470704 0.50356925043701162 0.040928013510986364 1.5250392040566407 -0.17281638073095706 1.6431344723803711 -0.26933932498388663 0.18152621528076196 -0.29143710621997077 -0.0016338052243654033 -0.33568933912939464 -0.48526532184423843 0.27916419184106456 -0.23558261865698249 0.35751796881591819 0.063582765753418077 0.14034418764294429 -0.10796897389501972 0.076684625812011742 -0.013985984130615315 -0.70051479557470708 -0.46301479557470704 -0.31308689529638656 -0.1852248057028808 0.70531019965576192 0.32457157849609364
leaf_weight=3671 20205 6239 7621 699 3128 6867 3659 2632 1044 10570 1330 6159 4606 3924 2135 1227 250 1883 1469 1848 1126 923 450 4106 3562 6846 2145 2359 9191 1156
leaf_count=3671 20205 6239 7621 699 3128 6867 3659 2632 1044 10570 1330 6159 4606 3924 2135 1227 250 1883 1469 1848 1126 923 450 4106 3562 6846 2145 2359 9191 1156
internal_value=-0.00280419 -0.0301788 0.0253777 0.0102621 -0.0395843 0.0174446 -0.00960448 0.0369265 0.0225583 0.040596 0.00325265 0.0099455 -0.0323441 -0.017206 -0.00908716 -0.0203044 -0.0210824 -0.0361869 0.00973461 0.015765 0.0089968 -0.0247503 0.0316705 0.00234666 -0.038191 -0.0356794 -0.0190352 -0.010252 0.0447651 0.0189308
internal_weight=123030 62408 60622 26247 42839 21253 19569 34375 6993 27382 7271 13936 22634 12298 6059 4994 5737 16897 4361 3317 5941 4295 7317 7777 15014 11452 3068 2609 19761 2282
internal_count=123030 62408 60622 26247 42839 21253 19569 34375 6993 27382 7271 13936 22634 12298 6059 4994 5737 16897 4361 3317 5941 4295 7317 7777 15014 11452 3068 2609 19761 2282
cat_boundaries=0 3 5 7 9 12 14 16 18 20 21 23
cat_threshold=1159876164 1107810838 3 578822274 3023044736 86114368 182276 67110912 328192 1092763712 182276 2 138682368 2756183360 67110916 1073873408 134287376 4718912 16793664 55300 268435456 3072 328208
is_linear=0
shrinkage=0.05


Tree=10
num_leaves=31
num_cat=11
split_feature=13 1 2 4 13 4 13 13 0 4 13 4 1 4 2 0 13 0 13 4 4 13 13 6 13 10 13 4 4 5
split_gain=36446.8 4654.18 3918.9 2111.64 1140.48 959.341 836.643 778.062 713.768 444.744 432.35 407.406 337.073 279.675 303.006 273.92 251.947 243.278 201.958 183.773 165.7 141.247 138.699 133.689 105.357 105.155 104.393 101.427 98.2343 97.2402
threshold=0 17.500000000000004 37.500000000000007 17.500000000000004 1 17.500000000000004 2 3 27.500000000000004 10.500000000000002 4 17.500000000000004 27.500000000000004 18.500000000000004 22.500000000000004 14.000000000000002 5 17.500000000000004 6 18.500000000000004 14.500000000000002 7 8 5.5000000000000009 9 11.500000000000002 10 18.500000000000004 15.500000000000002 3.5000000000000004
decision_type=9 2 2 2 9 2 9 9 2 2 9 2 2 2 2 2 9 2 9 2 2 9 9 2 9 2 9 2 2 2
left_child=2 4 3 6 -2 10 12 -7 13 16 28 23 -1 14 22 -11 -6 -5 -9 -20 -8 -19 -3 -10 -12 -14 -18 -17 -4 -25
right_child=1 8 5 17 9 7 20 18 11 15 24 -13 25 -15 -16 27 26 21 19 -21 -22 -23 -24 29 -26 -27 -28 -29 -30 -31
leaf_value=0.0041748292573730696 -0.62363702845222191 -0.13214403073951414 0.53459998808686537 -0.46100205575202652 -0.39580929017097177 1.6987872438538087 0.5007946896729738 0.29091100546633303 0.062004404383044512 -0.46048196825513943 1.5856534760367431 -0.25587235873469238 0.21295068699653294 -0.4613812642774171 -0.014680934494396959 -0.23590720184962174 0.26520598224901132 0.11238951848381334 0.19645332189445794 -0.18959637253425277 0.16361099437614737 -0.27659192553156731 -0.19555628461706523 0.23199320985205088 0.67766968967297392 0.11970239357922381 -0.15535676530030518 -0.46118295487731942 0.33520877445063491 -0.010028399093817343
leaf_weight=7597 20213 1633 5184 1217 3207 2218 6489 2138 3489 9632 10471 1266 3836 2012 4515 5757 285 680 1410 1396 1258 2928 4340 1719 8930 2638 2484 1366 2232 490
leaf_count=7597 20213 1633 5184 1217 3207 2218 6489 2138 3489 9632 10471 1266 3836 2012 4515 5757 285 680 1410 1396 1258 2928 4340 1719 8930 2638 2484 1366 2232 490
internal_value=-0.00298301 -0.0298023 0.0246273 0.0102747 -0.0389996 0.0358883 0.0168943 0.0196314 -0.00952528 -0.0312585 0.0402301 0.0033027 0.00960514 -0.016672 -0.0133963 -0.0354491 -0.0195616 -0.019658 0.00851837 -0.000319602 0.0300825 -0.0131375 -0.0207852 0.00900316 0.0441837 0.0179951 -0.0084023 -0.0280149 0.0297872 0.0186283
internal_weight=123030 62408 60622 26643 42944 33979 21818 7162 19464 22731 26817 6964 14071 12500 10488 16755 5976 4825 4944 2806 7747 3608 5973 5698 19401 6474 2769 7123 7416 2209
internal_count=123030 62408 60622 26643 42944 33979 21818 7162 19464 22731 26817 6964 14071 12500 10488 16755 5976 4825 4944 2806 7747 3608 5973 5698 19401 6474 2769 7123 7416 2209
cat_boundaries=0 3 5 7 9 12 14 17 19 21 23 24
cat_threshold=1159876164 1107810838 3 578822274 3023044736 86114368 182276 67108864 328192 1092763712 182276 2 134287376 4718912 3076 2 1 1140850692 1073873408 65808 159383552 3072 328208 268435456
is_linear=0
shrinkage=0.05


Tree=11
num_leaves=31
num_cat=11
split_feature=13 1 0 4 2 0 4 13 13 4 4 13 4 13 13 13 3 10 2 13 4 13 4 4 10 3 9 13 13 6
split_gain=34966 4476.18 4081.16 2295.8 1159.62 946.011 811.381 668.733 585.229 461.884 370.036 301.63 336.479 288.746 274.138 256.298 224.51 209.426 185.85 168.606 164.399 154.907 213.513 151.662 138.625 125.634 118.313 108.268 102.872 100.985
threshold=0 37.500000000000007 14.000000000000002 17.500000000000004 22.500000000000004 52.500000000000007 16.500000000000004 1 2 18.500000000000004 10.500000000000002 3 12.500000000000002 4 5 6 27.500000000000004 11.500000000000002 37.500000000000007 7 18.500000000000004 8 17.500000000000004 18.500000000000004 10.500000000000002 27.500000000000004 8.5000000000000018 9 10 5.5000000000000009
decision_type=9 2 2 2 2 2 2 9 9 2 2 9 2 9 9 9 2 2 2 9 2 9 2 2 2 2 2 9 9 2
left_child=1 3 8 7 11 6 14 16 10 18 28 12 24 -8 -3 23 -1 -9 29 26 -15 -7 -23 -5 -4 -17 -19 -22 -2 -6
right_child=2 5 4 15 9 21 13 17 -10 -11 -12 -13 -14 20 -16 25 -18 19 -20 -21 27 22 -24 -25 -26 -27 -28 -29 -30 -31
leaf_value=0.00031217863657282411 0.022763509537952233 0.32768287930752216 0.18305614137973675 -0.17412848468540895 -0.037026129456713262 1.7563708022349063 -0.17137718650110473 0.42516330301159083 -0.5924551770296107 -0.43821800409849987 -0.44713167113806113 -0.21390514064646615 -0.27933936547521887 0.33981257951245003 0.53986998868252201 -0.25270244459076746 0.14941487655402882 -0.010518710913320285 0.20045698011359933 0.31943287434948148 -0.13518757656379013 0.80795460744420788 0.37878275124340705 -0.4536713202559659 -0.1475837271944819 -0.012370980624050176 0.17808293071813353 0.18507837477318248 -0.21705516233704786 0.055356803825756806
leaf_weight=6714 322 3086 1018 859 4602 9213 974 5726 24069 1202 6128 11208 3718 2739 10199 946 4104 1384 1616 2551 728 5464 1260 2121 905 1766 2619 1098 2623 2068
leaf_count=6714 322 3086 1018 859 4602 9213 974 5726 24069 1202 6128 11208 3718 2739 10199 946 4104 1384 1616 2551 728 5464 1260 2121 905 1766 2619 1098 2623 2068
internal_value=-0.00326831 0.0225177 -0.0308183 0.00794026 -0.0161313 0.0345977 0.0270081 0.0149493 -0.0424989 -0.00215008 -0.0315259 -0.0240044 -0.0144842 0.0109316 0.033711 -0.0205025 0.00586443 0.0229292 0.00205165 0.0168447 0.0161858 0.0435622 0.0374666 -0.030602 0.0024701 -0.0092579 0.0103538 0.00460022 -0.0169949 -0.00163418
internal_weight=123030 63551 59479 28790 26337 34761 18824 23098 33142 9488 9073 16849 5641 5539 13285 5692 10818 12280 8286 6554 4565 15937 6724 2980 1923 2712 4003 1826 2945 6670
internal_count=123030 63551 59479 28790 26337 34761 18824 23098 33142 9488 9073 16849 5641 5539 13285 5692 10818 12280 8286 6554 4565 15937 6724 2980 1923 2712 4003 1826 2945 6670
cat_boundaries=0 3 5 7 9 11 13 15 18 20 23 25
cat_threshold=1159876164 1124588054 3 16908352 16795652 407179520 146801664 268505360 142606336 16777280 16830468 16908352 16959492 16794176 16797716 69222400 1073909760 2 3072 328192 1073758208 1107296274 2 268435456 1024
is_linear=0
shrinkage=0.05


Tree=12
num_leaves=31
num_cat=11
split_feature=0 13 13 4 0 4 4 13 3 3 0 4 4 3 13 13 13 13 13 13 13 4 3 4 3 5 5 4 4 13
split_gain=33690.7 4470.65 4270.46 1330.59 1205.91 1258.97 938.028 682.889 635.39 495.432 440.052 350.79 277.068 231.128 205.527 195.36 182.744 176.523 155.662 154.847 154.166 227.74 150.381 147.712 146.761 140.054 160.522 137.287 133.989 107.564
threshold=22.500000000000004 0 1 11.500000000000002 52.500000000000007 18.500000000000004 17.500000000000004 2 17.500000000000004 27.500000000000004 14.000000000000002 17.500000000000004 15.500000000000002 37.500000000000007 3 4 5 6 7 8 9 17.500000000000004 37.500000000000007 18.500000000000004 37.500000000000007 3.5000000000000004 1.5000000000000002 18.500000000000004 11.500000000000002 10
decision_type=2 9 9 2 2 2 2 9 2 2 2 2 2 2 9 9 9 9 9 9 9 2 2 2 2 2 2 2 2 9
left_child=2 4 10 7 5 12 9 25 23 15 17 19 13 28 -7 -3 27 -1 -13 -10 -6 -22 -14 -5 -11 26 -4 -8 -2 -24
right_child=1 6 3 8 20 14 16 -9 11 24 -12 18 22 -15 -16 -17 -18 -19 -20 -21 21 -23 29 -25 -26 -27 -28 -29 -30 -31
leaf_value=-0.39508817618594261 0.46459427750700721 -0.16426491440353141 -0.1573429690358692 -0.31997913950980783 2.1438765348477706 -0.24716762484863591 0.039576270794983694 0.24288948018181211 -0.11156986092877741 0.13439728816338123 -0.202044975878931 -0.41891498379125008 0.072821950536827634 0.56623461346714599 0.10212537292691587 0.017605981679794169 -0.42163324045705886 -0.56283241817813023 -0.21538729568267759 0.024720711647494478 0.88383383749968303 0.36842392690624665 -0.26380637243844324 -0.62010837382631179 0.34977221507195932 -0.2188811936155588 0.041982977609164966 -0.24007876324219063 0.24009369734456529 0.38633559930102379
leaf_weight=9691 4043 1428 2068 5671 6783 1644 1078 3073 3533 6562 6241 1635 1495 8416 1584 7123 1569 16652 1487 1561 7010 1684 163 2698 4541 3256 1642 1565 2924 4210
leaf_count=9691 4043 1428 2068 5671 6783 1644 1078 3073 3533 6562 6241 1635 1495 8416 1584 7123 1569 16652 1487 1561 7010 1684 163 2698 4541 3256 1642 1565 2924 4210
internal_value=-0.00349102 0.0217104 -0.0306563 -0.0157806 0.0319346 0.0250357 0.00457782 -0.00141946 -0.024483 0.00916862 -0.0427932 -0.0146056 0.0294551 0.0329812 -0.00405824 0.000122793 -0.0168329 -0.0456345 -0.0278027 -0.00651747 0.0428668 0.0382008 0.0202113 -0.0341797 0.0161353 -0.0100774 -0.00345013 -0.00868828 0.0262452 0.0248914
internal_weight=123030 63822 59208 26624 39956 24479 23866 10039 16585 19654 32584 8216 21251 15383 3228 8551 4212 26343 3122 5094 15477 8694 5868 8369 11103 6966 3710 2643 6967 4373
internal_count=123030 63822 59208 26624 39956 24479 23866 10039 16585 19654 32584 8216 21251 15383 3228 8551 4212 26343 3122 5094 15477 8694 5868 8369 11103 6966 3710 2643 6967 4373
cat_boundaries=0 3 5 7 10 12 14 16 18 20 22 24
cat_threshold=1143098900 1107628562 3 713044114 3023569344 73859392 146820100 1073758720 1073745938 2 38014976 608698688 268697920 16943108 134221840 537395520 272712192 159405076 272957696 12737540 0 328192 0 4096
is_linear=0
shrinkage=0.05


Tree=13
num_leaves=31
num_cat=14
split_feature=0 13 13 4 1 13 4 4 3 10 0 4 6 13 4 13 11 13 13 4 10 3 13 4 13 13 13 13 13 13
split_gain=32870.9 4308.91 4213.53 1410.43 1102.27 1027.36 946.614 915.291 581.767 354.651 350.065 283.53 282.305 269.887 262.205 246.778 227.183 222.898 195.646 176.916 176.719 168.073 156.939 149.281 147.415 138.484 130.863 127.362 125.786 110.457
threshold=22.500000000000004 0 1 17.500000000000004 47.500000000000007 2 18.500000000000004 16.500000000000004 27.500000000000004 10.500000000000002 14.000000000000002 16.500000000000004 5.5000000000000009 3 17.500000000000004 4 619.9884083333335 5 6 18.500000000000004 11.500000000000002 37.500000000000007 7 10.500000000000002 8 9 10 11 12 13
decision_type=2 9 9 2 2 9 2 2 2 2 2 2 2 9 2 9 2 9 9 2 2 2 9 2 9 9 9 9 9 9
left_child=2 4 10 5 7 9 8 20 18 12 24 21 -4 -5 -6 -16 27 -13 -3 29 -2 -10 -22 -20 -1 -8 -21 -11 -7 -9
right_child=1 6 3 13 14 28 25 19 11 16 -12 17 -14 -15 15 -17 -18 -19 23 26 22 -23 -24 -25 -26 -27 -28 -29 -30 -31
leaf_value=-0.37604167419017398 0.51073661404378867 -0.15671121791368883 -0.11566886935261565 -0.58910295513499611 1.0948217829421303 0.0028821742764224114 -0.17528164220113834 0.04273956552256522 0.13382434060814852 -0.20242169420245679 -0.19194272708498447 -0.23698257415285512 0.22505120354973673 -0.34998043062327755 1.5764875477536358 0.24356127980273287 0.12477024726197322 0.099112615139480206 0.22574936689782668 -0.4133372415783354 0.19052075364639995 0.36583434646638158 0.42835597508184126 -0.0009089086215213982 -0.53469079726922375 -0.41176722160680745 0.024569748090369006 -0.25204085139018328 0.23840625335428867 0.31287398634348684
leaf_weight=8892 7172 1578 6420 4288 14643 3225 1537 1183 6080 780 5026 762 589 2893 2030 2102 385 2179 1607 841 2431 4802 4309 6385 16652 1198 1516 7652 2406 1467
leaf_count=8892 7172 1578 6420 4288 14643 3225 1537 1183 6080 780 5026 762 589 2893 2030 2102 385 2179 1607 841 2431 4802 4309 6385 16652 1198 1516 7652 2406 1467
internal_value=-0.00384215 0.0210507 -0.0306749 -0.0168738 0.031864 -0.0104605 0.00543653 0.0233548 0.00869277 -0.0169803 -0.043584 0.0152536 -0.00859609 -0.0360604 0.0404554 0.029332 -0.0236645 0.00147909 -0.000783699 0.00502297 0.0299526 0.0189763 0.0241395 0.0023994 -0.0459717 -0.0223949 -0.00494272 -0.0253795 0.00787981 0.0138868
internal_weight=123030 63822 59208 28638 37694 21457 26128 18919 23393 15826 30570 13823 7009 7181 18775 4132 8817 2941 9570 5007 13912 10882 6740 7992 25544 2735 2357 8432 5631 2650
internal_count=123030 63822 59208 28638 37694 21457 26128 18919 23393 15826 30570 13823 7009 7181 18775 4132 8817 2941 9570 5007 13912 10882 6740 7992 25544 2735 2357 8432 5631 2650
cat_boundaries=0 3 5 7 9 11 13 15 17 19 22 24 26 28 31
cat_threshold=1143098884 1107628562 1 578826386 3023569344 407175424 146951172 138756096 159405076 67108864 328192 4526080 679493632 38014976 608698688 69337092 1073741824 4112 537395520 8651088 16941056 2 16896 4114 0 18432 86114880 16777216 1073758208 33558530 1
is_linear=0
shrinkage=0.05


Tree=14
num_leaves=31
num_cat=12
split_feature=0 13 3 4 4 13 0 4 13 0 10 13 13 13 13 6 11 4 4 13 13 2 13 13 4 13 5 5 9 10
split_gain=31639.6 4393.16 4193.19 1469.7 1241.67 986.034 976.324 877.004 805.642 379.415 319.612 312.538 303.653 280.332 250.023 228.928 216.402 212.252 211.389 210.545 197.92 160.723 147.857 131.865 141.835 104.228 103.855 113.679 110.28 102.701
threshold=22.500000000000004 0 37.500000000000007 17.500000000000004 16.500000000000004 1 57.500000000000007 16.500000000000004 2 14.000000000000002 10.500000000000002 3 4 5 6 5.5000000000000009 630.0141000000001 18.500000000000004 11.500000000000002 7 8 27.500000000000004 9 10 18.500000000000004 11 4.5000000000000009 1.5000000000000002 9.5000000000000018 10.500000000000002
decision_type=2 9 2 2 2 9 2 2 9 2 2 9 9 9 9 2 2 2 2 9 9 2 9 9 2 9 2 2 2 2
left_child=1 9 4 5 8 10 7 19 18 22 15 -6 -9 -5 -10 26 -12 25 -2 -4 -7 29 -1 -14 -25 -13 27 -3 -28 -16
right_child=2 3 6 13 11 20 -8 12 14 -11 16 17 23 -15 21 -17 -18 -19 -20 -21 -22 -23 -24 24 -26 -27 28 -29 -30 -31
leaf_value=-0.35723959048066534 0.44019229292214351 -0.14778446807254789 0.52714777337333063 -0.55964780737824626 -0.37996321735386546 -0.0059493258487409058 1.31961948110107 0.25156609927456425 -0.14645971918295828 -0.1823455907307352 -0.24593981707943977 -0.097170656873601588 -0.4542966193332747 -0.33248140909211377 0.070058097938990122 0.19050110624206679 0.10804171086471258 -0.21879973466209357 0.20477913068963077 0.34754262914306261 0.22648594068657424 0.12098620672480465 -0.50795625740576245 0.17785715564850213 -0.16651756009108143 0.085987402726870776 0.037227561798029996 -0.0074558623787610578 -0.28375971070462053 -0.018305748206371496
leaf_weight=8892 4616 1821 10246 4288 1731 5613 12408 4185 828 5026 7033 1657 522 2893 3087 531 366 2608 4701 5125 2406 5761 16652 1415 730 1659 260 2158 1269 2543
leaf_count=8892 4616 1821 10246 4288 1731 5613 12408 4185 828 5026 7033 1657 522 2893 3087 531 366 2608 4701 5125 2406 5761 16652 1415 730 1659 260 2158 1269 2543
internal_value=-0.00397627 -0.0303016 0.0204459 -0.0162106 0.00648659 -0.00966351 0.0322125 0.0259393 0.0126347 -0.0434827 -0.0179358 -0.0108099 0.0110625 -0.0357959 0.0041745 -0.00941381 -0.0249155 -0.00530839 0.0237 0.0325711 0.00421597 0.00610911 -0.0459677 -0.00214793 0.00336427 0.003076 -0.0124365 -0.00818045 -0.0235121 0.000106572
internal_weight=123030 59208 63822 28638 29191 21457 34631 22223 21536 30570 13438 7655 6852 7181 12219 6039 7399 5924 9317 15371 8019 11391 25544 2667 2145 3316 5508 3979 1529 5630
internal_count=123030 59208 63822 28638 29191 21457 34631 22223 21536 30570 13438 7655 6852 7181 12219 6039 7399 5924 9317 15371 8019 11391 25544 2667 2145 3316 5508 3979 1529 5630
cat_boundaries=0 2 4 7 9 12 14 16 19 21 23 25 28
cat_threshold=578826386 3023569344 138739968 146801668 1142967812 1241633298 3 138416640 780685648 471993860 1107755522 1 138756096 159405076 33816576 71827776 67128836 1107628562 3 354550336 16926720 4112 537395520 4096 142626816 1099252032 33800 3
is_linear=0
shrinkage=0.05


Tree=15
num_leaves=31
num_cat=14
split_feature=0 3 13 4 4 0 13 4 13 13 10 13 13 13 6 10 13 11 4 13 13 4 13 10 13 11 13 10 4 13
split_gain=29354 3959.15 3802.64 1442.78 1125.95 945.768 932.428 836.643 795.597 321.454 301.446 300.746 277.811 270.942 225.795 206.925 206.878 206.163 192.473 185.951 182.539 161.223 153.156 144.046 134.314 123.331 123.164 120.118 114.742 188.681
threshold=22.500000000000004 37.500000000000007 0 17.500000000000004 16.500000000000004 57.500000000000007 1 16.500000000000004 2 3 10.500000000000002 4 5 6 5.5000000000000009 11.500000000000002 7 619.9884083333335 18.500000000000004 8 9 18.500000000000004 10 10.500000000000002 11 619.9884083333335 12 16.500000000000004 16.500000000000004 13
decision_type=2 2 9 2 2 2 9 2 9 9 2 9 9 9 2 2 9 2 2 9 9 2 9 2 9 2 9 2 2 9
left_child=2 4 9 6 8 7 10 16 19 23 14 -6 -5 -9 -4 24 -3 -12 -13 -2 -8 -15 -17 -1 -10 27 -23 -21 -7 -30
right_child=1 5 3 12 11 28 20 13 15 -11 17 18 -14 21 -16 22 -18 -19 -20 25 -22 26 -24 -25 -26 -27 -28 -29 29 -31
leaf_value=-0.2930041734566321 -0.13913673322381045 0.26313578389889597 -0.1212836094928222 -0.5316654170093339 -0.36096505648617222 1.4406363721786122 -0.0046495516964785823 -0.1685612712154704 0.22405097383820324 -0.48255844453547436 -0.23364282622546784 0.021547690664398458 -0.31585733863750803 0.28436682126186102 0.18097605092996344 0.11163251935711785 0.49239936195734357 0.10263962532147702 -0.19603876531742515 0.029103319852613121 0.21516164365224563 -0.085518090988105477 0.35429941585645786 -0.48255844453547436 0.56734173726054216 0.20498831388193972 0.17656147106889294 -0.1247301348614359 1.8040159004379797 0.37085313389062585
leaf_weight=9696 828 3441 5508 4288 1882 8271 5797 1126 4338 11990 7031 3256 2893 3400 531 3898 11930 368 2517 6114 2222 1001 2091 8884 2285 824 1325 1158 2356 1781
leaf_count=9696 828 3441 5508 4288 1882 8271 5797 1126 4338 11990 7031 3256 2893 3400 531 3898 11930 368 2517 6114 2222 1001 2091 8884 2285 824 1325 1158 2356 1781
internal_value=-0.00367146 0.0198521 -0.0290282 -0.0159173 0.0062879 0.0312856 -0.00943049 0.0251114 0.0121425 -0.0412917 -0.0174747 -0.0101829 -0.0353224 0.0105809 -0.00919854 0.0202187 0.0315887 -0.0242533 -0.00448729 0.000705171 0.00406651 0.0149756 0.0134997 -0.0370737 0.0263249 0.00302245 0.00485813 0.000948845 0.0423436 0.0355451
internal_weight=123030 63822 59208 28638 29191 34631 21457 22223 21536 30570 13438 7655 7181 6852 6039 12612 15371 7399 5773 8924 8019 5726 5989 18580 6623 8096 2326 7272 12408 4137
internal_count=123030 63822 59208 28638 29191 34631 21457 22223 21536 30570 13438 7655 7181 6852 6039 12612 15371 7399 5773 8924 8019 5726 5989 18580 6623 8096 2326 7272 12408 4137
cat_boundaries=0 2 4 6 8 10 12 14 16 18 20 23 26 29 31
cat_threshold=578826386 3023569344 138739968 146801668 449122576 633998664 41947152 604504384 138433024 747131224 138756096 159405076 1090523200 159404036 421728576 151142404 33816576 71827776 354550336 1090668544 86130756 1207992324 2 1159872576 134234116 2 268452608 1073774610 2 67108864 328192
is_linear=0
shrinkage=0.05


Tree=16
num_leaves=31
num_cat=13
split_feature=0 13 13 4 3 4 4 13 0 3 13 10 13 4 4 0 13 10 13 13 13 13 11 4 13 13 13 0 5 6
split_gain=27722.2 3748.94 3638.47 1419.02 1045.22 836.562 785.904 579.823 562.443 523.67 294.603 267.236 245.411 244.967 230.821 239.145 226.794 202.688 176.804 176.268 166.951 163.122 155.636 126.192 124.988 121.167 121.158 120.889 116.534 142.909
threshold=22.500000000000004 0 1 16.500000000000004 52.500000000000007 17.500000000000004 18.500000000000004 2 14.000000000000002 27.500000000000004 3 11.500000000000002 4 15.500000000000002 16.500000000000004 77.500000000000014 5 11.500000000000002 6 7 8 9 619.9884083333335 10.500000000000002 10 11 12 14.000000000000002 4.5000000000000009 5.5000000000000009
decision_type=2 9 9 2 2 2 2 9 2 2 9 2 9 2 2 2 9 2 9 9 9 9 2 2 9 9 9 2 2 2
left_child=1 8 4 7 5 11 9 17 12 19 -5 26 -1 16 -6 -16 -11 28 -15 -4 -8 -13 -19 -21 -9 -7 -2 -12 29 -3
right_child=2 3 6 10 14 25 20 24 -10 13 27 21 -14 18 15 -17 -18 22 -20 23 -22 -23 -24 -25 -26 -27 -28 -29 -30 -31
leaf_value=-0.36286308753377022 0.38279140146751767 -0.049329713911391695 -0.13459583439766601 -0.33689779028226019 1.1816066884370859 -0.12596881395357817 -0.13963292917290246 0.0062757197831636805 -0.16923110680101028 0.32354771804043758 -0.32441556936188276 0.4185819752642303 -0.45843052230870063 -0.37253394228817527 0.42733826697907951 1.9638151054160806 0.082235169865277596 -0.19488365077125264 0.085598788609228302 0.20950382766335524 -0.39245140379783766 0.19063773600499057 0.1201659938490085 -0.0055298017479826107 0.21257143087009744 0.11525250990877361 0.55476189177433743 -0.15140881590018973 -0.16883482092649854 0.31660213626582867
leaf_weight=15865 3845 3367 1578 4494 9548 1752 1590 3752 7293 5493 828 3020 12053 628 3414 1790 3655 5210 4042 1604 1122 5895 268 6366 2153 2387 6093 2044 1552 329
leaf_count=15865 3845 3367 1578 4494 9548 1752 1590 3752 7293 5493 828 3020 12053 628 3414 1790 3655 5210 4042 1604 1122 5895 268 6366 2153 2387 6093 2044 1552 329
internal_value=-0.00392018 -0.028562 0.0189402 -0.0133024 0.0288605 0.0222034 0.00456915 -0.00521616 -0.0389469 0.00752803 -0.0315775 0.0266721 -0.0421878 0.0137502 0.0392557 0.030784 0.0185068 -0.0121367 0.00443255 -0.00147675 -0.0209071 0.020387 -0.0188755 0.00155388 0.00736264 0.00184827 0.0323103 -0.0188411 -0.00512576 -0.000297619
internal_weight=123030 59208 63822 23997 37744 22992 26078 16631 35211 23366 7366 18853 27918 13818 14752 5204 9148 10726 4670 9548 2712 8915 5478 7970 5905 4139 9938 2872 5248 3696
internal_count=123030 59208 63822 23997 37744 22992 26078 16631 35211 23366 7366 18853 27918 13818 14752 5204 9148 10726 4670 9548 2712 8915 5478 7970 5905 4139 9938 2872 5248 3696
cat_boundaries=0 2 5 7 9 11 14 16 18 21 23 25 27 28
cat_threshold=583020690 3027763648 1143098900 1107628562 1 470089984 142740484 134562304 159405072 46141440 608698688 16781376 142657540 2 4198400 536887296 38014976 608698688 8651072 16943104 2 3072 332306 19006016 1090535424 1073758720 33558546 1143095312
is_linear=0
shrinkage=0.05


Tree=17
num_leaves=31
num_cat=9
split_feature=13 0 2 4 13 4 2 13 4 13 4 4 10 13 13 13 3 3 13 10 4 9 9 4 11 3 13 5 9 5
split_gain=26290.8 3697.09 3511.87 1454.37 993.052 847.845 781.998 632.71 427.966 410.688 335.153 329.121 289.049 269.913 241.857 229.987 208.237 184.073 169.998 166.776 164.442 160.745 193.686 151.534 143.641 140.183 127.235 128.192 119.506 118.655
threshold=0 14.000000000000002 37.500000000000007 18.500000000000004 1 16.500000000000004 22.500000000000004 2 18.500000000000004 3 10.500000000000002 10.500000000000002 11.500000000000002 4 5 6 47.500000000000007 17.500000000000004 7 11.500000000000002 18.500000000000004 18.500000000000004 5.5000000000000009 18.500000000000004 659.86557500000015 17.500000000000004 8 1.0000000180025095e-35 21.500000000000004 5.5000000000000009
decision_type=9 2 2 2 9 2 2 9 2 9 2 2 2 9 9 9 2 2 9 2 2 2 2 2 2 2 9 2 2 2
left_child=2 7 3 9 -4 16 10 -2 26 12 14 18 21 20 -3 -5 -6 -12 -9 -11 -7 22 -1 25 29 -13 -8 -28 -23 -14
right_child=1 6 4 15 5 13 8 11 -10 19 17 23 24 -15 -16 -17 -18 -19 -20 -21 -22 28 -24 -25 -26 -27 27 -29 -30 -31
leaf_value=0.0059332353605633164 -0.43550899619326561 -0.14444011464024875 1.5595242191478276 -0.33651760565703204 0.34545910644345279 0.36639246340958781 -0.14629706871994694 -0.47432419765682882 -0.31706792818414781 0.41965608747356459 -0.20417234376720883 -0.26021081040711203 -0.036760712851657121 -0.01141475959650684 0.074628217198558042 -0.12812695445924291 0.62286256670918516 -0.13406300457231346 -0.17226766086639902 0.19377498992612843 0.08168004642230553 -0.033456548744393542 0.2084364735968654 -0.48693899178217875 0.33733428174950131 -0.1440035900122405 -0.18857381160014361 0.055679004034575645 0.14723803978037894 0.12697645418667011
leaf_weight=1627 17017 1091 7539 2057 10272 3417 861 981 1202 3212 8608 7792 6692 2854 1437 2026 8195 5713 3301 4003 2088 1561 4988 3093 410 958 679 6746 1271 1339
leaf_count=1627 17017 1091 7539 2057 10272 3417 861 981 1202 3212 8608 7792 6692 2854 1437 2026 8195 5713 3301 4003 2088 1561 4988 3093 410 958 679 6746 1271 1339
internal_value=-0.00389011 -0.0277791 0.0184697 0.0057185 0.0293045 0.0247652 -0.0138 -0.0388963 -0.00231872 0.0102199 -0.0202653 -0.0317106 0.00614594 0.0115624 -0.00348101 -0.0219569 0.0307549 -0.0232281 -0.0198505 0.0202837 0.0180145 0.0121573 0.0164248 -0.0360255 -0.000574576 -0.0326629 0.0017258 0.00383995 0.00218927 -0.00204831
internal_weight=123030 59479 63551 29186 34365 26826 26337 33142 9488 25103 16849 16125 17888 8359 2528 4083 18467 14321 4282 7215 5505 9447 6615 11843 8441 8750 8286 7425 2832 8031
internal_count=123030 59479 63551 29186 34365 26826 26337 33142 9488 25103 16849 16125 17888 8359 2528 4083 18467 14321 4282 7215 5505 9447 6615 11843 8441 8750 8286 7425 2832 8031
cat_boundaries=0 3 5 7 10 13 15 17 19 21
cat_threshold=1159876164 1124588054 3 0 328192 545267858 2419065280 86114368 16959492 2 69340676 1073872914 1 8388608 2219312448 16794176 16797716 33554432 541589504 37748736 608698688
is_linear=0
shrinkage=0.05


Tree=18
num_leaves=31
num_cat=15
split_feature=0 13 3 4 4 13 13 13 4 13 13 0 10 13 4 13 11 10 13 13 13 13 13 13 13 4 11 10 0 11
split_gain=25194.2 3392.67 3263.17 1304.16 1253.62 853.22 788.857 728.241 593.166 525.916 387.083 273.202 272.875 255.797 198.502 194.09 179.999 180.699 177.019 166.435 165.111 161.046 150.409 132.221 128.911 118.954 168.542 123.75 118.357 115.521
threshold=22.500000000000004 0 42.500000000000007 16.500000000000004 16.500000000000004 1 2 3 17.500000000000004 4 5 14.000000000000002 11.500000000000002 6 18.500000000000004 7 669.95836666666685 11.500000000000002 8 9 10 11 12 13 14 18.500000000000004 679.93364166666674 10.500000000000002 14.000000000000002 619.9884083333335
decision_type=2 9 2 2 2 9 9 9 2 9 9 2 2 9 2 9 2 2 9 9 9 9 9 9 9 2 2 2 2 2
left_child=1 6 4 9 5 15 11 -4 20 16 -6 25 18 -5 24 -2 17 -3 -7 -14 -9 -11 -16 -10 -12 26 27 -1 -15 -17
right_child=2 3 7 13 10 12 -8 8 23 21 14 -13 19 28 22 29 -18 -19 -20 -21 -22 -23 -24 -25 -26 -27 -28 -29 -30 -31
leaf_value=-0.22079137069041527 -0.11813525140673936 -0.074991100208019648 1.4815480081904362 -0.31079781208159823 -0.35697543719873831 0.24048737936668232 -0.41373354638360232 0.50512366345646853 0.21738533362946566 -1.0216159456266638e-05 -0.045231647775264609 -0.17123542935849514 0.3173638087670792 -0.28880035059172066 -0.028697661440570246 0.007914136977581877 0.13914853381195319 -0.18829176194502698 0.49917683862498241 0.10701428867886716 0.33089198829943511 0.19284785983028582 -0.24778417094391367 -0.0086508723452393358 0.090853910729720697 -0.45945496162166199 -0.011438511957748254 -0.31465326141746708 -0.13617622212748587 0.17384268691867621
leaf_weight=5117 829 4447 7331 4494 1368 5469 14111 11651 2336 5382 2367 6623 3032 828 1669 8035 373 4276 3456 4662 4576 2153 1819 1951 2286 2219 455 6686 2044 985
leaf_count=5117 829 4447 7331 4494 1368 5469 14111 11651 2336 5382 2367 6623 3032 828 1669 8035 373 4276 3456 4662 4576 2153 1819 1951 2286 2219 455 6686 2044 985
internal_value=-0.00391531 -0.0274068 0.0178778 -0.01289 0.00793146 0.0135258 -0.037286 0.030729 0.0258478 -0.005138 -0.00764013 -0.0311132 0.0204312 -0.03041 -0.0034781 0.0018511 -0.0132221 -0.014691 0.0263922 0.013543 0.0302305 0.00463221 -0.0125 0.00931887 0.00327746 -0.0349762 -0.0330478 -0.0341989 -0.0185288 0.00398671
internal_weight=123030 59208 63822 23997 35977 26468 35211 27845 20514 16631 9509 21100 16619 7366 8141 9849 9096 8723 8925 7694 16227 7535 3488 4287 4653 14477 12258 11803 2872 9020
internal_count=123030 59208 63822 23997 35977 26468 35211 27845 20514 16631 9509 21100 16619 7366 8141 9849 9096 8723 8925 7694 16227 7535 3488 4287 4653 14477 12258 11803 2872 9020
cat_boundaries=0 2 4 6 8 10 12 14 16 19 22 25 27 30 33 36
cat_threshold=583020690 3027763648 449122576 633998664 37752848 608698688 0 328192 134545664 142607364 4198400 747131200 134562304 159405072 33816576 71827776 1159872576 134234116 2 1073745408 33903122 1 19972 1107300370 3 354550336 1090668544 1140853844 1107429888 3 335563780 8519682 1 1233470272 33588234 1
is_linear=0
shrinkage=0.05


Tree=19
num_leaves=31
num_cat=9
split_feature=0 13 3 4 13 4 13 13 0 4 13 13 13 3 10 10 4 10 10 13 10 0 4 3 4 7 4 10 9 13
split_gain=23824.8 4971.86 2054.26 1514.21 1073.68 1023.57 670.693 577.332 456.393 381.184 340.915 324.864 306.906 226.247 224.86 216.588 191.651 168.23 157.644 149.205 143.912 129.016 126.162 125.989 113.413 111.675 110.888 106.124 105.355 103.665
threshold=27.500000000000004 0 47.500000000000007 17.500000000000004 1 16.500000000000004 2 3 67.500000000000014 15.500000000000002 4 5 6 17.500000000000004 10.500000000000002 11.500000000000002 10.500000000000002 7.5000000000000009 16.500000000000004 7 29.500000000000004 14.000000000000002 18.500000000000004 27.500000000000004 18.500000000000004 1.0000000180025095e-35 18.500000000000004 11.500000000000002 8.5000000000000018 8
decision_type=2 9 2 2 9 2 9 9 2 2 9 9 9 2 2 2 2 2 2 9 2 2 2 2 2 2 2 2 2 9
left_child=1 6 5 4 13 7 14 15 9 -4 -7 -5 18 16 17 -2 -3 -1 -6 -11 -20 -13 -21 -9 -19 26 -12 -18 -17 -23
right_child=2 3 8 11 12 10 -8 23 -10 19 25 21 -14 -15 -16 28 27 24 20 22 -22 29 -24 -25 -26 -27 -28 -29 -30 -31
leaf_value=-0.27074265087439908 0.39111049772688988 -0.092447301713981397 0.60557634532409088 -0.411062853630005 0.019754241873915748 -0.18320566869002858 -0.39304686906442221 0.023737950107297935 1.5661270425069489 -0.17806917505641204 0.12842741433564084 -0.27436033306213459 0.17444384743830757 -0.060300764831827364 -0.37653881966604569 0.11737744707497484 -0.13569388423536194 -0.093551605492768003 -0.22503413761778346 0.36865283394637061 0.0074174490407502352 -0.186823571708846 0.10167420208008392 0.10704396569112795 -0.37272528423697016 -0.2911333720612827 -0.011823898845674209 -0.2219197216324913 0.3004569093464074 -0.020875489277060667
leaf_weight=6532 7861 3318 6986 4034 7429 2773 14118 3523 7287 461 3490 1090 3947 5252 8091 2016 2673 1952 1560 3761 1529 2565 1345 7377 407 276 2638 3072 4722 945
leaf_count=6532 7861 3318 6986 4034 7429 2773 14118 3523 7287 461 3490 1090 3947 5252 8091 2016 2673 1952 1560 3761 1529 2565 1345 7377 407 276 2638 3072 4722 945
internal_value=-0.00396976 -0.0235966 0.0206967 -0.0113056 -0.00579917 0.0133551 -0.0383671 0.0185086 0.0335282 0.0277503 -0.000964367 -0.0296734 0.00381002 -0.0155009 -0.0316031 0.0250086 -0.0202968 -0.0261332 -0.000655395 0.0179899 -0.0101489 -0.0204338 0.0204261 0.00977085 -0.0146884 0.00537886 0.00678851 -0.0258225 0.0184476 -0.015812
internal_weight=123030 68514 54516 37414 28780 34676 31100 25499 19840 12553 9177 8634 14465 14315 16982 14599 9063 8891 10518 5567 3089 4600 5106 10900 2359 6404 6128 5745 6738 3510
internal_count=123030 68514 54516 37414 28780 34676 31100 25499 19840 12553 9177 8634 14465 14315 16982 14599 9063 8891 10518 5567 3089 4600 5106 10900 2359 6404 6128 5745 6738 3510
cat_boundaries=0 2 4 6 9 11 13 15 17 20
cat_threshold=583020690 3023569088 134545408 146801920 37752848 604504128 1140870660 1241895442 3 1237651712 684249432 134300160 142628116 352453440 1090668548 0 20480 285474880 21004298 1
is_linear=0
shrinkage=0.05


Tree=20
num_leaves=31
num_cat=8
split_feature=13 0 13 4 2 13 13 4 4 13 11 10 4 6 13 10 10 6 11 13 4 13 9 9 0 4 5 9 0 4
split_gain=22601.3 3763.82 2736.81 1499.29 943.298 802.474 673.775 513.325 472.317 361.083 313.172 331.177 296.946 289.907 285.463 283.094 260.021 204.989 201.247 179.136 172.573 153.652 152.122 166.799 141.672 138.482 131.335 189.066 126.392 125.166
threshold=0 42.500000000000007 1 18.500000000000004 22.500000000000004 2 3 18.500000000000004 15.500000000000002 4 679.93364166666674 10.500000000000002 15.500000000000002 5.5000000000000009 5 11.500000000000002 11.500000000000002 5.5000000000000009 640.01633333333336 6 18.500000000000004 7 8.5000000000000018 2.5000000000000004 14.000000000000002 14.500000000000002 4.5000000000000009 9.5000000000000018 17.500000000000004 15.500000000000002
decision_type=9 2 9 2 2 9 9 2 2 9 2 2 2 2 9 2 2 2 2 9 2 9 2 2 2 2 2 2 2 2
left_child=2 3 4 6 7 -3 15 10 19 28 11 13 -6 26 -5 17 -8 -2 -17 -7 21 -10 23 -18 -16 -24 29 -28 -4 -1
right_child=1 5 9 14 12 8 16 -9 20 -11 -12 -13 -14 -15 24 18 22 -19 -20 -21 -22 -23 25 -25 -26 -27 27 -29 -30 -31
leaf_value=-0.077554081993890384 0.053633450433601661 1.329164255655567 -0.27826383052834769 0.024422118654965175 0.052861464920474971 0.49504047161487219 0.3060997589878916 -0.43867474925834665 0.077017984986098756 -0.37339452561120112 0.049085872554765868 -0.24091414412961001 -0.14474524084072779 0.18968994471430528 -0.29361029275217732 -0.059528567543620528 0.29583864673790661 0.24392063294339367 0.29245200771271168 0.2854994533981291 0.036727093786795353 0.31882049226404591 0.26984377120074682 -0.05347788243199654 -0.22842995803040536 0.052720014018689025 0.011661147323921385 -0.28547601089020241 -0.26653623545554556 -0.20633963628474739
leaf_weight=4434 8925 7447 10716 1334 3869 9572 7306 3401 1779 11993 1059 9708 2891 507 999 7905 822 1783 516 2913 1994 5098 3635 2146 3902 1572 415 1751 1049 1589
leaf_count=4434 8925 7447 10716 1334 3869 9572 7306 3401 1779 11993 1059 9708 2891 507 999 7905 822 1783 516 2913 1994 5098 3635 2146 3902 1572 415 1751 1049 1589
internal_value=-0.00401934 0.014742 -0.0284949 0.00498347 -0.0183404 0.0285856 0.00904941 -0.023198 0.023617 -0.0411436 -0.0200663 -0.0215877 -0.00193787 -0.0145009 -0.0175862 0.0027666 0.0168001 0.00816212 -0.00409096 0.0298959 0.0148067 0.0185619 0.010685 0.00165094 -0.0231419 0.0158345 -0.0167725 -0.0273315 -0.0347898 -0.0129753
internal_weight=123030 69648 53382 40845 29624 28803 34610 22864 21356 23758 19463 18404 6760 8696 6235 19129 15481 10708 8421 12485 8871 6877 8175 2968 4901 5207 8189 2166 11765 6023
internal_count=123030 69648 53382 40845 29624 28803 34610 22864 21356 23758 19463 18404 6760 8696 6235 19129 15481 10708 8421 12485 8871 6877 8175 2968 4901 5207 8189 2166 11765 6023
cat_boundaries=0 2 4 6 8 10 13 16 19
cat_threshold=717566098 3170371008 138743824 147326208 0 328192 285344064 16926732 41943040 603979840 67111940 1073875456 1 19972 1107316754 3 1090519296 16961540 2
is_linear=0
shrinkage=0.05


Tree=21
num_leaves=31
num_cat=10
split_feature=13 0 0 4 13 3 13 1 0 4 4 13 4 13 1 13 11 10 13 13 4 13 10 10 13 6 4 9 4 9
split_gain=21301.5 3253.25 3203.91 1224.78 947.604 803.537 605.636 574.506 444.746 439.717 358.859 345.338 293.661 267.431 262.816 257.179 243.558 231.956 216.314 192.748 190.559 190.105 181.717 172.796 172.375 170.043 150.875 146.953 129.838 123.199
threshold=0 14.000000000000002 42.500000000000007 16.500000000000004 1 57.500000000000007 2 27.500000000000004 14.000000000000002 15.500000000000002 18.500000000000004 3 17.500000000000004 4 17.500000000000004 5 679.93364166666674 11.500000000000002 6 7 17.500000000000004 8 10.500000000000002 10.500000000000002 9 5.5000000000000009 18.500000000000004 8.5000000000000018 18.500000000000004 2.5000000000000004
decision_type=9 2 2 2 9 2 9 2 2 2 2 9 2 9 2 9 2 2 9 9 2 9 2 2 9 2 2 2 2 2
left_child=1 4 3 6 -1 9 14 12 -5 -4 11 -6 15 -10 -2 -3 23 -8 -7 -11 -20 -14 -13 25 -15 -17 -9 29 -21 -19
right_child=2 7 5 8 10 18 17 26 13 19 -12 22 21 24 -16 16 -18 27 20 28 -22 -23 -24 -25 -26 -27 -28 -29 -30 -31
leaf_value=-0.35472479933064105 -0.079014641821752649 -0.17722675284714376 0.36848508885897469 -0.37870337955954486 -0.18385887795784212 1.8107335777319316 0.36440995978706248 0.057572316706329299 -0.50683189371891035 -0.21622448420538343 -0.40414842410534946 -0.18230147808575722 0.017430070547837052 0.081869248394326549 0.081755532252736185 -0.061005886144559263 0.057111023173099795 0.30441289379927561 0.76109620166000092 0.21964195700456213 0.31880617387023735 -0.26346547720949104 -0.28351421271617888 -0.13833261854304837 -0.11014013792056083 0.17165911348250174 -0.31588600904095743 0.25038168484382911 0.019792253912465443 -0.034908248242154549
leaf_weight=13441 3630 3044 10393 1114 3531 4453 5516 4407 527 524 3326 5356 160 2226 12064 5406 945 611 5615 4346 1662 4322 6900 4715 6717 502 409 3967 1561 1640
leaf_count=13441 3630 3044 10393 1114 3531 4453 5516 4407 527 524 3326 5356 160 2226 12064 5406 945 611 5615 4346 1662 4322 6900 4715 6717 502 409 3967 1561 1640
internal_value=-0.00383402 -0.026421 0.0153268 0.00582185 -0.0367113 0.0279856 0.0113971 -0.0124216 -0.00862623 0.0209819 -0.0294959 -0.0263666 -0.016314 -0.00511088 0.00496052 -0.0128798 -0.00944895 0.0199847 0.0380307 0.010706 0.0325168 -0.02751 -0.0303359 -0.011621 -0.00304367 -0.00592417 0.0030108 0.0133805 0.0132753 0.00317637
internal_weight=123030 56464 66566 38012 32554 28554 27428 23910 10584 16824 19113 15787 19094 9470 15694 14612 11568 11734 11730 6431 7277 4482 12256 10623 8943 5908 4816 6218 5907 2251
internal_count=123030 56464 66566 38012 32554 28554 27428 23910 10584 16824 19113 15787 19094 9470 15694 14612 11568 11734 11730 6431 7277 4482 12256 10623 8943 5908 4816 6218 5907 2251
cat_boundaries=0 2 4 6 8 10 12 14 16 17 19
cat_threshold=986001554 3170371016 545267842 2419064960 19005760 16926724 402653184 142607616 0 20480 41943040 2215117120 0 327680 16777472 20484 8396816 69340164 1073875456
is_linear=0
shrinkage=0.05


Tree=22
num_leaves=31
num_cat=10
split_feature=13 3 0 4 13 13 4 13 13 4 4 10 13 11 10 10 0 4 3 13 13 6 4 13 7 13 10 4 10 2
split_gain=19973.5 3290.06 3140.01 1230.7 1014.68 925.99 621.154 458.371 457.451 341.131 314.776 293.013 265.096 206.489 197.909 191.335 188.513 177.848 174.038 160.977 149.18 148.782 145.541 127.771 126.512 125.09 121.062 111.974 111.793 103.458
threshold=0 37.500000000000007 14.000000000000002 18.500000000000004 1 2 17.500000000000004 3 4 18.500000000000004 15.500000000000002 11.500000000000002 5 659.86557500000015 11.500000000000002 10.500000000000002 14.000000000000002 18.500000000000004 22.500000000000004 6 7 5.5000000000000009 11.500000000000002 8 1.0000000180025095e-35 9 11.500000000000002 10.500000000000002 16.500000000000004 17.500000000000004
decision_type=9 2 2 2 9 9 2 9 9 2 2 2 9 2 2 2 2 2 2 9 9 2 2 9 2 9 2 2 2 2
left_child=2 3 5 8 -3 -1 14 10 11 12 29 21 26 -13 19 -14 -5 18 -9 24 -8 -2 -10 -18 -6 -12 -7 -28 -24 -4
right_child=1 4 7 16 6 9 20 17 22 -11 25 13 15 -15 -16 -17 23 -19 -20 -21 -22 -23 28 -25 -26 -27 27 -29 -30 -31
leaf_value=-0.33698855936410893 0.061019486190695998 1.2246512327897883 -0.0054731496994146148 -0.25999460913659123 0.4817420498839049 -0.074754288630695595 -0.26207919432181015 -0.1043791696276383 0.2962134568565013 -0.38394100290008198 0.0023243187123604516 -0.050297174506515142 -0.17318640418146938 0.28860841118236674 0.23528554038181931 -0.27532552821729656 -0.030098498246631956 -0.28662684819533224 -0.031021840386346613 0.27857238867630052 0.10054251082447507 0.23484509865545233 0.19376841451374444 -0.21696736571384659 0.082888923969141895 -0.20550793536746303 -0.15684374004830631 -0.25794051755360442 -0.033026793419926648 0.09067559338169727
leaf_weight=13441 9688 7490 1454 985 9060 2007 593 9423 5270 3198 296 9272 4887 498 7569 5987 1194 1818 2343 4276 5132 1756 2101 2871 584 2882 1034 1580 1309 3032
leaf_count=13441 9688 7490 1454 985 9060 2007 593 9423 5270 3198 296 9272 4887 498 7569 5987 1194 1818 2343 4276 5132 1756 2101 2871 584 2882 1034 1580 1309 3032
internal_value=-0.00399902 0.0136381 -0.0270078 0.00281021 0.0245447 -0.0368737 0.0200338 -0.0121 0.00666689 -0.0296129 -0.00230649 0.00270449 -0.0265602 -0.00365404 0.0239402 -0.0308343 -0.0200198 -0.0176107 -0.0153748 0.0274784 0.00540611 0.00813527 0.0163291 -0.0152645 0.0310856 -0.0143486 -0.0164003 -0.0235272 0.00829912 0.00621935
internal_weight=123030 69648 53382 34944 34704 32134 27214 21248 29894 18693 7664 21214 15495 9770 21489 10874 5050 13584 11766 13920 5725 11444 8680 4065 9644 3178 4621 2614 3410 4486
internal_count=123030 69648 53382 34944 34704 32134 27214 21248 29894 18693 7664 21214 15495 9770 21489 10874 5050 13584 11766 13920 5725 11444 8680 4065 9644 3178 4621 2614 3410 4486
cat_boundaries=0 2 4 6 8 11 13 16 18 21 22
cat_threshold=717566098 3170371008 0 328192 545267842 2419064960 8466448 142606336 287441216 16959500 2 138477568 142607616 67128836 1107300370 3 16777216 16797700 1140852996 1073875456 1 8396816
is_linear=0
shrinkage=0.05


Tree=23
num_leaves=31
num_cat=12
split_feature=1 13 2 4 4 0 13 13 0 13 13 13 4 11 10 4 13 13 13 13 4 10 11 13 2 13 3 5 10 9
split_gain=19004.6 3586.92 2491.06 1120.43 1111.93 723.243 723.079 554.192 514.59 486.75 453.492 410.077 335.994 234.281 195.62 193.618 188.861 184.763 182.984 181.052 177.134 137.03 134.885 137.71 133.52 123.097 109.145 106.932 105.261 100.74
threshold=22.500000000000004 0 47.500000000000007 11.500000000000002 16.500000000000004 14.000000000000002 1 2 14.000000000000002 3 4 5 17.500000000000004 609.94678333333343 11.500000000000002 18.500000000000004 6 7 8 9 18.500000000000004 10.500000000000002 619.86120000000017 10 67.500000000000014 11 27.500000000000004 1.0000000180025095e-35 6.5000000000000009 17.500000000000004
decision_type=2 9 2 2 2 2 9 9 2 9 9 9 2 2 2 2 9 9 9 9 2 2 2 9 2 9 2 2 2 2
left_child=1 5 4 9 6 10 26 -4 15 -3 21 -6 24 18 28 -5 -10 -13 -11 29 27 -1 23 -16 -9 -22 -2 -19 -8 -7
right_child=2 3 7 8 11 19 14 12 16 13 -12 17 -14 -15 22 -17 -18 20 -20 -21 25 -23 -24 -25 -26 -27 -28 -29 -30 -31
leaf_value=-0.20097147059545978 -0.026106018636455366 0.18999950330117896 1.6109368023467026 -0.22797638905899797 -0.39917809039231361 0.0010389540685545207 0.22710556057482842 0.39286765174803978 -0.16346488223127695 -0.28352501324789098 -0.3201391313959035 0.15608590221907592 0.16709258100409097 0.17287286962586315 0.2363331399688704 -0.37561737655393962 -0.071866090599538704 -0.16417875455476436 -0.059596081770456701 -0.24267051849516516 -0.072460848134730513 -0.320823066401829 0.37487730901888661 0.06462950705702504 0.91341867115029884 -0.25488510225777267 0.070830335899309912 0.047647477087101292 0.34963628734463903 -0.020194391117403756
leaf_weight=4810 4540 2715 4862 3797 1199 1341 7055 9251 7033 961 13440 1684 3373 626 3600 2578 6009 703 8148 2243 2643 5558 695 5223 2952 1433 4920 4524 4734 380
leaf_count=4810 4540 2715 4862 3797 1199 1341 7055 9251 7033 961 13440 1684 3373 626 3600 2578 6009 703 8148 2243 2643 5558 695 5223 2952 1433 4920 4524 4734 380
internal_value=-0.00410225 -0.0243624 0.0149587 -0.0129012 0.00812167 -0.0374955 0.0131846 0.0293277 -0.0204125 -0.00119679 -0.0408014 -0.00466109 0.0246696 -0.00641868 0.0182882 -0.0320549 -0.0147217 -0.00161408 -0.00845867 -0.0177346 -0.0043756 -0.0328002 0.0129649 0.0112943 0.0285463 -0.0121933 0.00166843 0.00171226 0.0226016 -0.0054015
internal_weight=123030 59639 63391 31867 42953 27772 30767 20438 19417 12450 23808 12186 15576 9735 21307 6375 13042 10987 9109 3964 9303 10368 9518 8823 12203 4076 9460 5227 11789 1721
internal_count=123030 59639 63391 31867 42953 27772 30767 20438 19417 12450 23808 12186 15576 9735 21307 6375 13042 10987 9109 3964 9303 10368 9518 8823 12203 4076 9460 5227 11789 1721
cat_boundaries=0 2 4 6 9 11 13 15 17 19 21 23 26
cat_threshold=578826370 3023569088 449122576 625610056 0 327680 1342194692 50500114 3 33558528 604504128 4198400 671109184 407110144 142628096 69337108 131584 16 4194304 41955328 536870912 1073761792 33886738 1073745216 1124108290 3
is_linear=0
shrinkage=0.05


Tree=24
num_leaves=31
num_cat=12
split_feature=0 3 13 0 13 4 4 4 0 4 13 3 13 13 13 13 10 13 13 0 4 9 9 4 13 13 0 13 7 10
split_gain=18259.3 3501.12 2492.74 1049 907.461 826.879 733.869 588.536 531.889 375.402 369.589 318.653 257.732 253.211 236.08 217.163 199.616 186.999 183.618 169.941 153.913 153.38 146.794 144.284 131.637 125.415 120.282 116.083 101.276 97.5409
threshold=17.500000000000004 37.500000000000007 0 67.500000000000014 1 10.500000000000002 16.500000000000004 15.500000000000002 14.000000000000002 18.500000000000004 2 17.500000000000004 3 4 5 6 10.500000000000002 7 8 32.500000000000007 18.500000000000004 18.500000000000004 21.500000000000004 18.500000000000004 9 10 14.000000000000002 11 1.0000000180025095e-35 11.500000000000002
decision_type=2 2 9 2 9 2 2 2 2 2 9 2 9 9 9 9 2 9 9 2 2 2 2 2 9 9 2 9 2 2
left_child=2 4 8 7 19 10 14 15 13 11 -4 29 -9 -1 -6 -3 21 -8 -12 23 -14 -16 -23 -2 -10 -5 -11 -22 -19 -7
right_child=1 3 5 25 6 9 17 12 24 26 18 -13 20 -15 16 -17 -18 28 -20 -21 27 22 -24 -25 -26 -27 -28 -29 -30 -31
leaf_value=-0.31366708131899768 -0.068184809531304499 0.10780184942081697 -0.21447781129735832 1.7803899622293675 0.28524086723062397 -0.18240523566869815 -0.28316827620271889 -0.27910123439540657 0.0013768797857155236 -0.35855567161746071 -0.028537461252249853 -0.061614578566234715 0.19581808853735866 -0.30413217482610833 0.18522388366883852 0.36957116588519306 0.019135171923804963 -0.0038548249151151739 0.13974000287041904 0.049512572378318076 0.14609499966792824 -0.044525531361977323 0.15730000270655184 -0.23908775409388908 -0.020246338820831513 0.73327867448703155 -0.25005200745054107 -0.070570197731244025 -0.31883780572799392 -0.23253438436042062
leaf_weight=8576 10155 2229 2919 3832 4324 4473 1969 766 170 3005 3908 3324 7771 11582 4952 13772 7609 4139 1648 1913 1299 1244 1088 1593 1591 3824 1766 1751 220 5618
leaf_count=8576 10155 2229 2919 3832 4324 4473 1969 766 170 3005 3908 3324 7771 11582 4952 13772 7609 4139 1648 1913 1299 1244 1088 1593 1591 3824 1766 1751 220 5618
internal_value=-0.00427701 0.0112827 -0.0281227 0.0227188 0.0010024 -0.0178302 0.00656427 0.0181746 -0.0406152 -0.023848 -0.00493805 -0.0195639 0.00959265 -0.0429358 0.01143 0.0243891 0.00842448 -0.00820164 0.00264103 -0.0093958 0.0115733 0.0143465 0.00377358 -0.011653 -0.0142817 0.0390935 -0.0358939 0.00206557 -0.00239185 -0.0239867
internal_weight=123030 74450 48580 35244 39206 26661 25545 27588 21919 18186 8475 13415 11587 20158 19217 16001 14893 6328 5556 13661 10821 7284 2332 11748 1761 7656 4771 3050 4359 10091
internal_count=123030 74450 48580 35244 39206 26661 25545 27588 21919 18186 8475 13415 11587 20158 19217 16001 14893 6328 5556 13661 10821 7284 2332 11748 1761 7656 4771 3050 4359 10091
cat_boundaries=0 2 4 6 8 10 13 15 17 19 20 22 25
cat_threshold=578826370 3023044736 440733952 2227701064 71369232 4737092 0 20480 41947136 603979776 1073745408 33640978 1 421593408 16910340 16896 704696338 153485632 1216349440 8192 0 327680 335546116 196608 1
is_linear=0
shrinkage=0.05


Tree=25
num_leaves=31
num_cat=11
split_feature=0 13 13 3 4 4 3 0 13 13 10 2 4 13 4 7 13 13 13 13 4 9 13 4 4 3 10 11 5 13
split_gain=17408 3213.4 2583.27 1108.97 843.806 684.848 614.583 588.24 366.272 326.146 309.684 309.248 297.264 293.875 215.654 208.26 191.35 176.89 175.721 161.133 157.053 156.209 149.361 142.228 135.36 119.699 118.745 108.553 104.25 102.819
threshold=17.500000000000004 0 1 67.500000000000014 11.500000000000002 18.500000000000004 27.500000000000004 14.000000000000002 2 3 11.500000000000002 14.000000000000002 16.500000000000004 4 12.500000000000002 1.0000000180025095e-35 5 6 7 8 18.500000000000004 18.500000000000004 9 10.500000000000002 18.500000000000004 32.500000000000007 10.500000000000002 220.07986666666667 4.5000000000000009 10
decision_type=2 9 9 2 2 2 2 2 9 9 2 2 2 9 2 2 9 9 9 9 2 2 9 2 2 2 2 2 2 9
left_child=2 3 7 5 9 10 13 8 26 -4 15 20 19 -3 29 21 -11 -7 -9 -8 -6 -2 -14 -12 -13 -25 -1 -18 -21 -15
right_child=1 6 4 -5 11 17 12 18 -10 16 23 24 22 14 -16 -17 27 -19 -20 28 -22 -23 -24 25 -26 -27 -28 -29 -30 -31
leaf_value=-0.14765470864575445 0.40030061786613624 -0.12364546121159421 0.11317304928859216 1.160832348201144 -0.22090766514239962 -0.27726245900438284 0.013664912188060719 0.00093350447898243871 -0.28892556608480291 -0.26023219886473631 0.29286094265715762 -0.090847169614152803 -0.43356008750974823 0.33108185233796689 -0.05941255456640189 0.036589387692948172 -0.072526332216372502 0.041106074568598321 -0.095268995223751152 0.18774991362213866 -0.33757094992587888 0.2280179501639184 -0.003111522203100492 0.0093659584130641356 -0.21558115983327719 0.18867972663616117 -0.28909855901578763 0.20022100843646015 0.047525239233561938 0.036617139299328021
leaf_weight=4024 10132 7846 1704 7424 4530 1241 3194 406 13441 1603 2317 5580 500 828 6614 1146 6075 2541 1876 6824 2118 4058 4531 2262 2288 7941 4599 336 1768 3283
leaf_count=4024 10132 7846 1704 7424 4530 1241 3194 406 13441 1603 2317 5580 500 828 6614 1146 6075 2541 1876 6824 2118 4058 4531 2262 2288 7941 4599 336 1768 3283
internal_value=-0.00439486 0.0107979 -0.0276781 0.0206823 -0.0160988 0.0166066 -0.000118651 -0.0391813 -0.0416969 -0.00470261 0.0193172 -0.0237393 0.00680561 -0.00638899 -0.0010014 0.0240806 -0.00892323 -0.00335801 -0.0150307 0.0111488 -0.0316787 0.0257364 -0.00336911 0.0134824 -0.017031 0.0109429 -0.0334704 -0.00503816 0.0147059 0.00799076
internal_weight=123030 74450 48580 39062 24234 31638 35388 24346 22064 9718 27856 14516 16817 18571 10725 15336 8014 3782 2282 11786 6648 14190 5031 12520 7868 10203 8623 6411 8592 4111
internal_count=123030 74450 48580 39062 24234 31638 35388 24346 22064 9718 27856 14516 16817 18571 10725 15336 8014 3782 2282 11786 6648 14190 5031 12520 7868 10203 8623 6411 8592 4111
cat_boundaries=0 3 5 7 10 12 14 16 17 19 21 24
cat_threshold=1143098900 1107628562 1 578826370 3023044800 33558528 603979840 1342194692 50368514 3 440668160 2219312448 16 4718596 16896 4114 8396800 272957696 4850688 4198400 536887368 0 134266880 2
is_linear=0
shrinkage=0.05


Tree=26
num_leaves=31
num_cat=12
split_feature=0 0 13 0 13 4 0 4 4 13 4 13 13 3 13 13 4 13 13 13 0 10 9 4 13 13 9 10 4 9
split_gain=16793.6 3011.65 2641.3 847.791 811.462 804.215 669.111 665.4 420.731 369.57 322.84 309.406 286.696 248.951 244.276 199.694 198.284 183.709 155.38 153.03 142.775 142.139 153.617 137.146 136.562 135.51 134.016 118.431 116.641 114.599
threshold=17.500000000000004 42.500000000000007 0 72.500000000000014 1 11.500000000000002 14.000000000000002 16.500000000000004 14.500000000000002 2 18.500000000000004 3 4 17.500000000000004 5 6 18.500000000000004 7 8 9 14.000000000000002 10.500000000000002 18.500000000000004 18.500000000000004 10 11 21.500000000000004 10.500000000000002 11.500000000000002 6.5000000000000009
decision_type=2 2 9 2 9 2 2 2 2 9 2 9 9 2 9 9 2 9 9 9 2 2 2 2 9 9 2 2 2 2
left_child=2 4 6 8 16 11 9 12 15 27 13 -4 21 -7 -9 -3 25 -10 -8 -13 -12 22 29 -19 -16 -2 -24 -1 -14 -6
right_child=1 3 5 -5 7 10 18 14 17 -11 20 19 28 -15 24 -17 -18 23 -20 -21 -22 -23 26 -25 -26 -27 -28 -29 -30 -31
leaf_value=-0.14027197321346671 -0.0075123219265092805 0.1627147455028693 -0.19718305003037015 1.2424552050986379 0.031020195084810711 -0.17434217448371803 0.00088682925503329462 -0.4308652637919177 0.025430266660248082 -0.2744792877805628 -0.31760785063720554 0.1252569451329606 0.33296923033109316 -0.055157189884088 0.083035833547927679 0.41961082385201004 -0.23292263066991048 0.24861989498467951 -0.090505545462563577 -0.034538585259838599 -0.19703464636888796 0.011869091402899557 -0.058801658134064107 0.0405479873182224 -0.08881615900272638 -0.095692062653816301 0.1356915548737975 -0.27464363106499823 0.17392167245388396 0.20538791656748884
leaf_weight=4024 6308 2254 2606 6365 1315 7281 406 795 3289 13441 2746 1572 3726 2829 2267 9066 1551 6545 1876 5540 1660 7512 1228 1812 6070 4776 1223 4599 4118 4230
leaf_count=4024 6308 2254 2606 6365 1315 7281 406 795 3289 13441 2746 1572 3726 2829 2267 9066 1551 6545 1876 5540 1660 7512 1228 1812 6070 4776 1223 4599 4118 4230
internal_value=-0.0044924 0.0104298 -0.0273611 0.0229024 0.00232164 -0.0156534 -0.0389924 0.00650274 0.0184272 -0.0416742 -0.0231124 -0.00452768 0.0109798 -0.0181899 -0.00493868 0.0252915 -0.00842626 0.0117551 -0.013234 0.000884583 -0.0344076 0.0070241 0.0116683 0.0156866 -0.00239008 -0.00608986 0.00124439 -0.0334125 0.0187675 0.0162759
internal_weight=123030 74450 48580 29331 45119 24234 24346 32484 22966 22064 14516 9718 23352 10110 9132 11320 12635 11646 2282 7112 4406 15508 7996 8357 8337 11084 2451 8623 7844 5545
internal_count=123030 74450 48580 29331 45119 24234 24346 32484 22966 22064 14516 9718 23352 10110 9132 11320 12635 11646 2282 7112 4406 15508 7996 8357 8337 11084 2451 8623 7844 5545
cat_boundaries=0 2 4 6 8 11 13 16 19 20 23 25 27
cat_threshold=578826370 3023044800 440733696 2227701064 33558528 603979840 71368720 4718596 94511444 151128068 2 0 134238208 1428361536 16908292 2 1090521344 159567876 2 8396800 1342194692 33591296 3 77728788 1073875456 402722816 8388616
is_linear=0
shrinkage=0.05


Tree=27
num_leaves=31
num_cat=11
split_feature=0 13 13 13 2 4 4 4 10 4 13 4 3 4 13 7 13 9 13 13 0 4 13 13 3 9 9 10 9 13
split_gain=16251.7 4086.62 1933.38 1106.2 820.246 768.344 600.216 392.098 372.645 331.216 260.262 251.343 261.055 235.723 229.471 225.78 217.606 202.858 180.328 165.45 159.767 158.722 154.506 142.742 128.819 127.556 136.247 105.049 109.965 94.9518
threshold=11.500000000000002 0 1 2 27.500000000000004 10.500000000000002 18.500000000000004 10.500000000000002 11.500000000000002 18.500000000000004 3 18.500000000000004 17.500000000000004 16.500000000000004 4 1.0000000180025095e-35 5 18.500000000000004 6 7 82.500000000000014 18.500000000000004 8 9 14.000000000000002 8.5000000000000018 2.5000000000000004 14.500000000000002 16.500000000000004 10
decision_type=2 9 9 9 2 2 2 2 2 2 9 2 2 2 9 2 9 2 9 9 2 2 9 9 2 2 2 2 2 9
left_child=2 3 16 20 7 14 8 10 15 24 -3 12 -9 23 -4 17 -1 -5 -13 -8 21 -2 -15 -6 -7 26 -10 -27 -29 -12
right_child=1 4 5 6 13 9 19 11 25 -11 29 18 -14 22 -16 -17 -18 -19 -20 -21 -22 -23 -24 -25 -26 27 -28 28 -30 -31
leaf_value=-0.26981348455977944 0.61234830551524133 -0.081816663330775266 -0.16781785062098661 0.37265132901718057 0.0026083794626359236 -0.20348277592775743 -0.19901239360714096 -0.10450202978480023 0.20955927867793653 -0.3078689480084334 0.037335073030764936 -0.082557543407891745 -0.027967327634010178 -0.38772420908110661 0.026876904589529363 -0.0040322762403743441 -0.26075532339153462 0.17635242224127465 -0.22522889717255756 0.054001192093663698 1.6273062174503594 0.102785228148716 -0.0063295919266776581 0.12087723976049176 -0.13562943056535454 0.054581834643044405 -0.057643757763113437 0.30593373303748844 0.16662276046545302 0.21650695903794351
leaf_weight=7863 4141 1165 3347 11320 3406 5694 1711 7990 1390 3159 1832 1448 11112 533 2810 1059 11582 4044 2727 2144 3175 618 4776 9351 2257 2091 2128 2483 3931 1743
leaf_count=7863 4141 1165 3347 11320 3406 5694 1711 7990 1390 3159 1832 1448 11112 533 2810 1059 11582 4044 2727 2144 3175 618 4776 9351 2257 2091 2128 2483 3931 1743
internal_value=-0.00468829 0.00716305 -0.0325534 0.0188036 -0.00300371 -0.0203363 0.0146839 -0.008361 0.0171975 -0.0281998 0.00474684 -0.0110302 -0.00860119 0.00530278 -0.00617996 0.022094 -0.0433693 0.0236332 -0.0221437 -0.0038262 0.0355363 0.0297857 -0.00355057 0.00898722 -0.0227581 0.010509 0.00250142 0.0138213 0.0169941 0.0114226
internal_weight=123030 86318 36712 40235 46083 17267 32301 28017 28446 11110 4740 23277 19102 18066 6157 16423 19445 15364 4175 3855 7934 4759 5309 12757 7951 12023 3518 8505 6414 3575
internal_count=123030 86318 36712 40235 46083 17267 32301 28017 28446 11110 4740 23277 19102 18066 6157 16423 19445 15364 4175 3855 7934 4759 5309 12757 7951 12023 3518 8505 6414 3575
cat_boundaries=0 3 5 7 9 11 13 15 17 19 21 23
cat_threshold=1143107092 1107628562 1 578822290 3039821956 8192 328192 8388608 4851008 88543808 147324994 41943056 620756996 8388928 541231360 16896 1073745938 4198400 536887368 281084160 4849920 134545728 67110916
is_linear=0
shrinkage=0.05


Tree=28
num_leaves=31
num_cat=8
split_feature=13 0 13 4 4 13 13 13 10 13 4 10 13 3 10 13 0 11 4 10 7 9 7 4 9 5 0 9 9 5
split_gain=13366.8 3368.79 3117.94 1109.54 703.203 687.411 605.964 486.643 363.36 361.268 296.182 252.276 239.433 238.71 233.284 223.708 244.61 173.004 168.943 176.794 168.007 202.699 147.34 146.018 125.482 117.531 113.583 109.286 106.561 111.581
threshold=0 7.5000000000000009 1 18.500000000000004 18.500000000000004 2 3 4 11.500000000000002 5 10.500000000000002 10.500000000000002 6 14.000000000000002 6.5000000000000009 7 7.5000000000000009 659.86557500000015 10.500000000000002 11.500000000000002 1.0000000180025095e-35 18.500000000000004 1.0000000180025095e-35 17.500000000000004 8.5000000000000018 4.5000000000000009 14.000000000000002 2.5000000000000004 1.5000000000000002 3.5000000000000004
decision_type=9 2 9 2 2 9 9 9 2 9 2 2 9 2 2 9 2 2 2 2 2 2 2 2 2 2 2 2 2 2
left_child=1 7 15 5 6 11 18 -1 20 26 -9 14 -6 -8 -4 23 -17 -13 -3 22 21 -7 25 -2 27 -20 -5 -10 -15 -30
right_child=2 4 3 9 12 8 13 10 24 -11 -12 17 -14 28 -16 16 -18 -19 19 -21 -22 -23 -24 -25 -26 -27 -28 -29 29 -31
leaf_value=-0.24771755722195785 0.79620668672261419 0.079769903888615989 0.048010763326211861 -0.32465080463582585 -0.076306878867029138 0.37625752638318971 -0.096991870241941322 -0.17747365750300254 0.20471431051587727 -0.009062742791809875 -0.24771755722195785 -0.009721542695206864 -0.2474207752837593 -0.24077565674841683 0.21888426884532741 -0.24771755722195785 0.002282442778042171 0.24404573210098662 0.0091784521895565529 -0.10629668955569933 0.022484825281127031 0.16940272563022171 -0.22676909063816969 0.3466888021745973 0.17978226292233579 -0.072228681903812139 -0.19925048307477847 -0.053605693099721741 -0.018830396286140784 -0.098584147618015816
leaf_weight=10920 3709 2046 7813 537 1150 10064 7293 3078 1242 4178 5286 10192 4452 483 4428 69 5747 674 5652 4779 945 3669 538 1245 7730 1513 2276 2107 5958 3257
leaf_count=10920 3709 2046 7813 537 1150 10064 7293 3078 1242 4178 5286 10192 4452 483 4428 69 5747 674 5652 4779 945 3669 538 1245 7730 1513 2276 2107 5958 3257
internal_value=-0.00161424 -0.0195241 0.0135492 0.00879531 -0.0107203 0.0114624 -0.00781909 -0.036481 0.017078 -0.00983407 -0.0272749 0.00519315 -0.0270439 -0.0142256 0.0101176 0.0381725 0.0449537 -0.000349715 -0.000316412 -0.0024996 0.0222442 0.0236474 0.00218746 0.030137 0.0102491 0.00408234 -0.0236451 0.00216483 -0.00909466 -0.00789474
internal_weight=123030 56405 66625 55855 37121 48864 31519 19284 25757 6991 8364 23107 5602 16991 12241 10770 5816 10866 14528 12482 14678 13733 7703 4954 11079 7165 2813 3349 9698 9215
internal_count=123030 56405 66625 55855 37121 48864 31519 19284 25757 6991 8364 23107 5602 16991 12241 10770 5816 10866 14528 12482 14678 13733 7703 4954 11079 7165 2813 3349 9698 9215
cat_boundaries=0 2 4 7 9 11 13 15 17
cat_threshold=449130898 3168273736 536870912 2425472 19005504 16959492 2 411115794 2290089992 8401026 873463808 16794176 16797716 8397072 4194304 0 262656
is_linear=0
shrinkage=0.05


Tree=29
num_leaves=31
num_cat=10
split_feature=13 0 13 4 3 4 13 13 13 4 10 9 3 13 11 0 7 13 0 9 13 9 10 4 13 7 11 5 5 13
split_gain=12906.7 3373.35 3091.38 1112.64 801.343 672.123 515.108 504.924 455.299 357.115 335.296 259.508 245.946 238.851 237.86 228.007 204.157 187.635 163.961 158.502 153.486 147.359 143.526 139.387 132.478 132.339 117.312 117.096 112.352 110.234
threshold=0 7.5000000000000009 1 17.500000000000004 47.500000000000007 18.500000000000004 2 3 4 10.500000000000002 10.500000000000002 18.500000000000004 14.000000000000002 5 589.97355833333347 7.5000000000000009 1.0000000180025095e-35 6 14.000000000000002 21.500000000000004 7 3.5000000000000004 11.500000000000002 20.500000000000004 8 1.0000000180025095e-35 619.9884083333335 4.5000000000000009 1.0000000180025095e-35 9
decision_type=9 2 9 2 2 2 9 9 9 2 2 2 2 9 2 2 2 9 2 2 9 2 2 2 9 2 2 2 2 9
left_child=1 7 15 4 10 6 22 -1 18 24 11 16 -8 -7 17 -2 20 -12 -5 -13 -4 -6 25 -10 -9 27 -26 28 -3 -23
right_child=2 5 3 8 21 13 12 9 23 -11 14 19 -14 -15 -16 -17 -18 -19 -20 -21 -22 29 -24 -25 26 -27 -28 -29 -30 -31
leaf_value=-0.23533167936085997 -0.23533167936085997 -0.10974059747781731 0.16426698944284868 -0.30841826440403453 0.062043556471677877 -0.072491534923677658 -0.092142276729844236 0.011236628308028429 0.075527743590021859 -0.26507387580522224 -0.013413876116643842 -0.033070014031535422 -0.048321627651550264 -0.23504973651957137 0.28232253005280006 0.37031132461298832 0.00025615922682318274 0.086158276016087498 -0.15401125302656685 0.15889410877474291 0.32175582756701826 0.62542039498245039 -0.073374217191346167 -0.1144441842272034 -0.23884387434680773 -0.19130567486762917 0.098009386468002641 -0.051117770697280657 0.035436934345650609 0.27380941726208691
leaf_weight=9885 69 717 5931 717 933 1150 7293 749 5769 5982 8275 2773 9698 4452 974 8124 1388 8983 4181 2464 4382 5085 5654 959 2512 581 156 1742 5834 5618
leaf_count=9885 69 717 5931 717 933 1150 7293 749 5769 5982 8275 2773 9698 4452 974 8124 1388 8983 4181 2464 4382 5085 5654 959 2512 581 156 1742 5834 5618
internal_value=-0.00174266 -0.0193415 0.0131575 0.00912015 0.0125604 -0.0105318 -0.00769536 -0.0363099 -0.00472217 -0.0278935 0.00879727 0.0138623 -0.0136021 -0.0264905 0.00409171 0.0419054 0.0180027 0.00273496 -0.0162999 0.00461142 0.0204257 0.0239343 -0.000777273 0.00372514 -0.0150278 0.00318909 -0.0202016 0.00480526 0.00786903 0.0255956
internal_weight=123030 56405 66625 58432 46806 37121 31519 19284 11626 9399 35170 16938 16991 5602 18232 8193 11701 17258 4898 5237 10313 11636 14528 6728 3417 8874 2668 8293 6551 10703
internal_count=123030 56405 66625 58432 46806 37121 31519 19284 11626 9399 35170 16938 16991 5602 18232 8193 11701 17258 4898 5237 10313 11636 14528 6728 3417 8874 2668 8293 6551 10703
cat_boundaries=0 2 4 6 8 10 12 15 17 19 21
cat_threshold=449130898 3168273736 536870912 2424960 411115794 2290089992 8396930 873463808 16794176 16830468 8397072 4194304 16908356 16926724 2 19005504 16959492 402653440 1280 3072 1073762816
is_linear=0
shrinkage=0.05


Tree=30
num_leaves=31
num_cat=9
split_feature=0 2 13 4 4 13 13 3 0 13 13 4 11 10 13 13 10 7 10 13 0 13 10 11 0 9 9 4 11 10
split_gain=13071.3 2357.13 2319.57 779.82 732.484 839.257 698.557 575.352 480.044 460.161 400.128 297.55 261.609 244.572 235.512 218.262 207.887 184.976 181.258 179.833 176.512 140.77 140.681 124.08 120.958 120.553 161.439 119.694 116.342 122.103
threshold=17.500000000000004 47.500000000000007 0 18.500000000000004 16.500000000000004 1 2 72.500000000000014 7.5000000000000009 3 4 15.500000000000002 660.02899166666668 11.500000000000002 5 6 10.500000000000002 1.0000000180025095e-35 33.500000000000007 7 11.500000000000002 8 6.5000000000000009 569.98266666666677 14.000000000000002 18.500000000000004 5.5000000000000009 18.500000000000004 630.0141000000001 9.5000000000000018
decision_type=2 2 9 2 2 9 9 2 2 9 9 2 2 2 9 9 2 2 2 9 2 9 2 2 2 2 2 2 2 2
left_child=2 4 6 9 5 15 8 11 -1 12 -6 -3 13 21 -10 -2 22 19 -15 -12 -5 -4 -7 -18 -16 26 -23 -21 29 -17
right_child=1 7 3 20 10 16 -8 -9 14 -11 17 -13 -14 18 24 28 23 -19 -20 27 -22 25 -24 -25 -26 -27 -28 -29 -30 -31
leaf_value=-0.23217034850264959 -0.10523833927270126 0.38174755477443689 -0.15987581803046125 -0.25563905151149252 -0.26347585535822143 0.15933919366675495 -0.22356509539281699 1.1300472594516193 5.1673451281786244e-05 0.019800483874043807 0.14059803561840598 0.15171296528136954 0.063326951087223457 -0.19403328777133724 -0.067414610982316867 0.038600851074145841 0.074943400951820047 -0.27663364818677499 0.016569632015061498 0.013228661360585559 -0.14869048237692226 -0.12912784980632869 0.29909187359515255 0.29917729013656075 -0.056390691628151579 -0.15639031605937062 0.0084497654080967887 -0.11882758295472123 0.13901044544582941 -0.033034534225557709
leaf_weight=8514 3283 8297 1729 2881 2562 7642 7026 6105 678 4890 2058 6034 795 7636 3923 6003 11021 512 639 5546 1721 1327 3904 758 1712 2018 3091 4564 1093 5068
leaf_count=8514 3283 8297 1729 2881 2562 7642 7026 6105 678 4890 2058 6034 795 7636 3923 6003 11021 512 639 5546 1721 1327 3904 758 1712 2018 3091 4564 1093 5068
internal_value=-0.00425831 0.00890665 -0.0244339 -0.014536 0.00343429 0.00708501 -0.036516 0.0233705 -0.0302993 -0.0106463 -0.00585225 0.0178948 -0.0144825 -0.0158455 -0.0198717 -0.00195704 0.0130684 -0.00219858 -0.0219033 -0.000961538 -0.0332681 -0.00970606 0.0178417 0.00840054 -0.0231975 -0.00626745 -0.00165233 -0.00370553 0.00113356 -0.000401951
internal_weight=123030 74450 48580 26727 54014 38772 21853 20436 14827 22125 15242 14331 17235 16440 6313 15447 23325 12680 8275 12168 4602 8165 11546 11779 5635 6436 4418 10110 12164 11071
internal_count=123030 74450 48580 26727 54014 38772 21853 20436 14827 22125 15242 14331 17235 16440 6313 15447 23325 12680 8275 12168 4602 8165 11546 11779 5635 6436 4418 10110 12164 11071
cat_boundaries=0 2 4 6 8 10 11 13 15 17
cat_threshold=578826370 875561152 440733968 2236222796 41955328 603979840 71631632 2311605508 138416128 2886226248 8396800 33816576 2219312448 77725716 1073872896 16 134742016
is_linear=0
shrinkage=0.05


Tree=31
num_leaves=31
num_cat=13
split_feature=0 13 13 0 4 2 4 13 0 4 13 4 3 10 13 13 13 13 5 5 3 13 13 4 4 13 9 13 10 13
split_gain=12281 3117.76 1799.71 1043.74 726.997 642.056 512.287 368.078 355.668 315.705 312.256 264.939 229.004 217.771 210.865 191.264 151.175 143.366 142.094 162.781 132.786 124.426 122.925 121.71 115.263 114.739 113.317 131.038 99.4987 116.389
threshold=11.500000000000002 0 1 62.500000000000007 10.500000000000002 22.500000000000004 17.500000000000004 2 7.5000000000000009 10.500000000000002 3 17.500000000000004 82.500000000000014 11.500000000000002 4 5 6 7 4.5000000000000009 1.0000000180025095e-35 17.500000000000004 8 9 15.500000000000002 18.500000000000004 10 8.5000000000000018 11 16.500000000000004 12
decision_type=2 9 9 2 2 2 2 9 2 2 9 2 2 2 9 9 9 9 2 2 2 9 9 2 2 9 2 9 2 9
left_child=2 3 22 6 7 9 13 -4 24 15 -10 18 23 25 -12 -3 -9 -13 19 -7 -11 -8 -1 -5 -6 -2 27 -15 29 -21
right_child=1 5 4 12 8 11 21 16 10 20 14 17 -14 26 -16 -17 -18 -19 -20 28 -22 -23 -24 -25 -26 -27 -28 -29 -30 -31
leaf_value=-0.22056183107751715 0.31107730458421001 -0.033425271718557428 -0.21195657796768455 0.61213309032746155 -0.21195657796768455 -0.047306448268289183 -0.17480534307423384 -0.14427720562280477 0.0084471817355327161 -0.12664049355468965 -0.084730456471898571 -0.33323675403735831 1.4147087242382606 0.27307472382036524 -0.11167722215328993 0.19537719408457566 0.0096847726989247821 -0.053198123688152868 -0.011855534400890733 0.17500611695399898 -0.061425341387195867 0.029474032827749144 -0.21238684062317612 0.29025616775638863 -0.25405397638107818 0.17286025631701118 0.16248445403864215 -0.017347375424285973 -0.0067169484744990628 0.038666918522428963
leaf_weight=4202 4986 2436 1735 3708 6678 2344 1949 3539 252 8815 3414 772 3533 523 5260 1395 2679 4156 4419 7243 7586 4299 7026 2492 1927 8672 7880 3052 1936 4122
leaf_count=4202 4986 2436 1735 3708 6678 2344 1949 3539 252 8815 3414 772 3533 523 5260 1395 2679 4156 4419 7243 7586 4299 7026 2492 1927 8672 7880 3052 1936 4122
internal_value=-0.00419003 0.00611228 -0.0284131 0.0160787 -0.0210363 -0.0029469 0.0116434 -0.00850622 -0.0267326 -0.009569 -0.0197401 0.00241277 0.0303863 0.014831 -0.0213266 0.00335422 -0.00279383 -0.00797484 0.00496411 0.00720038 -0.0125876 -0.00116837 -0.045097 0.0245968 -0.0339861 0.019095 0.00974684 0.00236364 0.0093414 0.0111263
internal_weight=123030 86318 36712 41094 25484 45224 31361 7953 17531 20232 8926 24992 9733 25113 8674 3831 6218 4928 20064 15645 16401 6248 11228 6200 8605 13658 11455 3575 13301 11365
internal_count=123030 86318 36712 41094 25484 45224 31361 7953 17531 20232 8926 24992 9733 25113 8674 3831 6218 4928 20064 15645 16401 6248 11228 6200 8605 13658 11455 3575 13301 11365
cat_boundaries=0 3 5 7 8 10 12 14 16 18 20 22 24 27
cat_threshold=1151487508 1644499474 1 612368514 825229444 33824784 524352 8192 167789120 209719360 134545728 4721988 23269952 2294302722 20975616 201867328 16896 536875024 75497472 553648132 3584 1610945040 8388608 69648 150995264 159434752 2
is_linear=0
shrinkage=0.05


Tree=32
num_leaves=31
num_cat=12
split_feature=13 0 13 4 13 13 2 4 10 13 4 4 10 0 11 13 13 4 10 5 0 13 13 0 13 4 5 8 13 13
split_gain=10960.8 3261.47 3009.36 874.492 689.48 609.961 527.352 431.441 373.256 355.578 301.862 265.888 255.334 221.717 208.229 207.083 204.455 188.608 173.814 154.356 152.599 149.311 140.249 136.812 132.788 119.696 119.49 124.814 115.742 111.289
threshold=0 7.5000000000000009 1 17.500000000000004 2 3 17.500000000000004 10.500000000000002 10.500000000000002 4 10.500000000000002 18.500000000000004 6.5000000000000009 7.5000000000000009 589.97355833333347 5 6 18.500000000000004 11.500000000000002 1.0000000180025095e-35 14.000000000000002 7 8 32.500000000000007 9 20.500000000000004 3.5000000000000004 1.0000000180025095e-35 10 11
decision_type=9 2 9 2 9 9 2 2 2 9 2 2 2 2 2 9 9 2 2 2 2 9 9 2 9 2 2 2 9 9
left_child=1 4 13 5 -1 18 10 22 12 20 15 19 24 -2 -10 -3 17 -12 -4 -8 -5 -13 -6 -15 -7 -11 27 -21 -18 -28
right_child=2 6 3 9 7 8 11 -9 14 25 16 21 -14 23 -16 -17 28 -19 -20 26 -22 -23 -24 -25 -26 -27 29 -29 -30 -31
leaf_value=-0.20176749859201726 -0.20176749859201726 0.12932118773799212 0.55547126510573541 -0.26751269978920428 -0.0013297059333480911 0.15750991135927814 -0.13822421027719206 -0.22875868987194431 0.017568478940381028 0.065599599712329856 -0.10034596964060559 0.018516222676656379 0.24565958859918613 0.0054503512092902717 0.24298251188745734 -0.049129649147325427 0.0024691870045851164 -0.25024087351580304 0.20137173009641104 0.046050270722377822 -0.133117201823789 -0.19422637075682264 -0.20998615595976028 1.1200876819500658 0.032973075295058329 -0.10703403094025746 -0.0035057371424192852 -0.079283704346403555 -0.046514328118780139 -0.15328362140086194
leaf_weight=8865 69 1092 5124 626 1505 5507 1685 6675 16168 5769 6205 615 6976 2987 1124 2499 971 1708 3829 7924 3812 1850 2316 5137 6454 959 3920 792 8655 1212
leaf_count=8865 69 1092 5124 626 1505 5507 1685 6675 16168 5769 6205 615 6976 2987 1124 2499 971 1708 3829 7924 3812 1850 2316 5137 6454 959 3920 792 8655 1212
